tree
version=v4
num_class=1
num_tree_per_iteration=1
label_index=0
max_feature_idx=63
objective=binary sigmoid:1
feature_names=bb_pos btc_cvd_chg btc_funding btc_liq_ratio btc_mom_1h btc_mom_4h btc_ob_imbal btc_oi_chg coin_vs_btc cvd_f_accel cvd_f_chg_1h cvd_f_chg_4h cvd_f_ratio cvd_f_vs_spot cvd_spot_sign div_cvd_price div_ob_price div_oi_price div_taker_price funding funding_ext funding_vel funding_x_ls glob_ls glob_ls_chg_1h glob_ls_chg_4h glob_ls_extreme liq_cascade liq_norm liq_ratio liq_ratio_chg liq_x_mom mom_1h mom_2h mom_4h mom_8h mom_accel ob_chg_1h ob_chg_4h ob_imbal ob_ratio ob_std_4h ob_x_taker oi_accel oi_chg_1h oi_chg_4h oi_chg_8h oi_range oi_std_4h oi_x_cvd rsi smart_vs_retail taker_accel taker_chg_1h taker_chg_4h taker_dom taker_ratio taker_std_4h top_ls top_ls_chg_1h top_ls_chg_4h top_ls_extreme vol_ratio volatility_8h
feature_infos=[-3.8909078871927547:4.0959001094590528] [-1150512050.4166012:26224748304.677299] [-0.0090310000000000008:0.010496] [-1:1] [-3.6209524381611291:2.654415853542802] [-22.06569091082833:5.7426488779570795] [-0.39169999999999999:0.34189999999999998] [-3.8402105387657648:3.3570688136860261] [-6.0480066269226311:18.115610367740445] [-14119873.733600002:34302343.260499999] [-13505929.077700004:10627376.317099996] [-34560703.758599997:140838244.39750001] [0.33682239485107407:0.6726910473684935] none none [-1:1] [-1:1] none [-1:1] [-0.029690999999999999:0.010534999999999999] [-1:1] [-0.023831999999999999:0.030778999999999997] [-0.038496059999999999:0.014698340000000001] [0.89000000000000001:1.8300000000000001] [-0.14999999999999991:0.15999999999999992] [-0.21999999999999997:0.29999999999999982] [0:1] [0:1] [0:446.19170035326778] [-1:1] [-2:2] [-5.7177249473367446:1.380609878239162] [-5.7177249473367446:16.833726415094354] [-40.851063829787236:21.788567916410571] [-41.288278775079199:22.617574257425744] [-41.535226077812837:22.126348228043135] [-20.391637088826378:40.3748945496475] [-0.36449999999999999:0.33360000000000001] [-0.38669999999999999:0.55289999999999995] [-0.2611:0.34620000000000001] [0.58593792510003351:2.0590893281683602] [0.0028504385627478443:0.2241169895389459] [-0.39440555999999999:0.42271020000000004] [-66.798256078226999:59.213546445042724] [-12.617076836910023:65.918313343705719] [-46.308633301503853:77.263856280241157] [-46.539195562727429:75.586224298666153] [0:69.556952818405634] [0:42.801408507441749] [-65.918313343705719:12.617076836910023] [3.7113440597702549:94.357644697223108] [0.54000000000000026:3.1299999999999999] [-2.4171:1.8493999999999999] [-1.1625000000000001:1.2672000000000001] [-1.0106999999999999:1.3683000000000001] [0.33682239485107407:0.6726910473684935] [0.50790000000000002:2.0552000000000001] [0.0068774995456197894:0.57544168688060826] [1.96:4.25] [-0.27000000000000002:1.54] [-1.52:1.5800000000000001] none [0.13077636464354409:91.8157272423324] [0.15777745408328381:12.817597372067844]
tree_sizes=2256 2275 989 2438 2245 2378 2663 2662 2567 2657 2050 1937 1494 2041 1901 2564 2578 2361 1621 1989 2473 2459 2452

Tree=0
num_leaves=20
num_cat=0
split_feature=63 51 36 3 35 41 42 53 4 30 41 3 49 2 46 28 5 28 42
split_gain=9.61011 8.6967 7.42435 7.4793 10.3806 6.69805 6.93846 6.99628 6.18067 8.25191 5.76343 7.23719 6.7008 5.38792 4.98899 4.78671 4.74512 3.13855 2.85841
threshold=0.29459493575167017 1.5150000000000003 0.19544420931193465 0.83172204374763081 1.7204654493150342 0.035253847608840261 0.07582591000000001 0.078100000000000072 0.091807954694778107 0.044568136879027949 0.02919425313209251 0.017249076877582079 -1.2782397529348064 0.0020335000000000002 -2.2638350731985555 0.016678118658807615 -0.29324564002571324 0.45382292526452322 0.10186992000000002
decision_type=2 2 2 2 2 2 2 2 2 2 2 2 2 2 2 2 2 2 2
left_child=-1 5 3 4 14 6 7 15 9 -7 11 -4 -12 -5 -3 -2 -14 -10 -8
right_child=1 2 10 13 -6 8 18 -9 17 -11 12 -13 16 -15 -16 -17 -18 -19 -20
leaf_value=-0.091654583036791415 -0.072947640483678383 -0.074628846775504382 -0.060661829698047801 -0.068584716712188909 -0.086184736812501397 -0.052125203763035005 -0.038775783818238117 -0.082343040840564236 -0.095616578074513597 -0.080430130141310258 -0.067658221780042202 -0.086722800798984923 -0.077687030555373501 -0.090086167470444983 -0.053879381706604848 -0.049283748712683872 -0.099716863448970572 -0.072712656344632337 -0.058763269396180297
leaf_weight=9.2381362020969373 4.9935871362686175 5.2432664930820456 9.4878155589103716 7.9897394180297878 6.2419839203357688 8.7387774884700793 6.4916632771491996 7.4903807044029227 4.9935871362686139 6.9910219907760611 4.9935871362686184 7.2407013475894919 6.9910219907760682 9.4878155589103681 20.723386615514759 7.9897394180297852 12.733647197484965 5.4929458498954773 8.7387774884700757
leaf_count=37 20 21 38 32 25 35 26 30 20 28 20 29 28 38 83 32 51 22 35
internal_value=-0.0721555 -0.0709809 -0.0748636 -0.0697501 -0.0639596 -0.065182 -0.0595682 -0.0676429 -0.0726515 -0.0650082 -0.081107 -0.0716563 -0.0871865 -0.0800335 -0.0582837 -0.0586606 -0.0924158 -0.0845386 -0.0493871
internal_weight=162.292 153.053 91.133 49.6862 32.2086 61.9205 35.7041 20.4737 26.2163 15.7298 41.4468 16.7285 24.7183 17.4776 25.9667 12.9833 19.7247 10.4865 15.2304
internal_count=650 613 365 199 129 248 143 82 105 63 166 67 99 70 104 52 79 42 61
is_linear=0
shrinkage=1


Tree=1
num_leaves=20
num_cat=0
split_feature=59 51 3 8 44 44 22 2 22 21 22 38 37 2 2 3 35 42 49
split_gain=9.90807 8.53814 7.73013 7.59073 9.48646 7.33827 6.89352 6.37336 8.22091 5.91048 7.90626 5.74318 6.51131 5.64706 13.7393 5.17547 4.02257 3.28827 2.88934
threshold=-0.050000000000000037 1.6450000000000002 0.60910379804500092 0.61556521685666177 0.1543421224877162 0.32868709773916654 -0.0046725549999999992 0.0034890000000000003 0.0057492200000000002 -0.0028569999999999989 -0.00093061000000000001 0.046900000000000004 -0.021899999999999996 0.0019900000000000004 0.00016100000000000004 0.96863843667193461 -0.83243531371459667 0.077326165000000016 -1.2197274353723917
decision_type=2 2 2 2 2 2 2 2 2 2 2 2 2 2 2 2 2 2 2
left_child=-1 3 5 4 6 7 16 8 -3 -6 -11 12 -7 14 -4 -8 -2 -15 -5
right_child=1 2 13 18 9 11 15 -9 -10 10 -12 -13 -14 17 -16 -17 -18 -19 -20
leaf_value=-0.024161382817367762 0.0066100419060998042 0.010500548812502 -0.016844306902387602 0.0076684878379313648 -0.025099243559890252 0.00053080613767616342 0.0090215255057339312 0.020652550106745566 -0.014756757161339829 0.013393300435797322 -0.01369685031887762 0.0093777903810161895 -0.023541072189083384 -0.0095178287233439272 0.022858021575975357 0.031153313483355569 -0.01591109630279984 -0.030679735442485756 0.031168281150079573
leaf_weight=6.4900230914354315 5.9936785101890564 13.233584463596349 9.735377639532091 4.9942597001791 5.4912569373846081 6.9907926768064543 23.719880566000942 9.2380032986402494 7.9887456744909278 7.4905355125665709 9.2371709495782817 5.2420598566532126 10.233704075217247 7.2367317974567396 4.9937488138675681 5.4947620481252661 5.7429696172475797 7.2357155382633209 5.4946293383836728
leaf_count=26 24 53 39 20 22 28 95 37 32 30 37 21 41 29 20 22 23 29 22
internal_value=-0.000492901 0.000499218 -0.00388597 0.00546567 0.00269463 0.000575775 0.00845242 0.00704736 0.000640965 -0.00762222 -0.00119148 -0.00791215 -0.013587 -0.0120997 -0.00279686 0.0136618 -0.00403341 -0.0209124 0.0210594
internal_weight=162.278 155.788 82.1285 73.6591 63.1703 52.9269 40.9513 30.4603 21.2223 22.219 16.7277 22.4666 17.2245 29.2016 14.7291 29.2146 11.7366 14.4724 10.4889
internal_count=650 624 329 295 253 212 164 122 85 89 67 90 69 117 59 117 47 58 42
is_linear=0
shrinkage=0.02


Tree=2
num_leaves=8
num_cat=0
split_feature=63 38 38 5 22 44 22
split_gain=9.2724 6.91236 5.81594 5.33239 5.34776 6.42462 5.91116
threshold=0.29459493575167017 0.12150000000000001 0.093200000000000005 1.8853988910324417 -0.0057468999999999992 0.32868709773916654 -0.01266638
decision_type=2 2 2 2 2 2 2
left_child=-1 2 3 4 6 -6 -2
right_child=1 -3 -4 -5 5 -7 -8
leaf_value=-0.019643538892679332 0.0086703708318016659 -0.017032492393126156 0.020189034057269767 -0.016078147639499094 0.0071176630818581207 -0.0027539329975106975 -0.014439095642200479
leaf_weight=9.2304601371288282 5.7414633184671429 7.9858137965202323 6.2420008182525626 6.7381530106067649 71.404249712824821 40.431951895356178 14.480003505945204
leaf_count=37 23 32 25 27 286 162 58
internal_value=-0.00048143 0.000671479 0.00172069 0.000805236 0.00174652 0.00349748 -0.00755444
internal_weight=162.254 153.024 145.038 138.796 132.058 111.836 20.2215
internal_count=650 613 581 556 529 448 81
is_linear=0
shrinkage=0.02


Tree=3
num_leaves=22
num_cat=0
split_feature=59 51 3 36 53 32 6 1 39 48 25 1 25 4 10 3 55 25 48 4 54
split_gain=9.55888 8.26218 7.52895 8.96638 12.843 8.76717 7.98733 7.34096 6.68118 6.94044 6.91098 7.03093 6.28143 5.62344 5.14051 4.54504 4.45547 3.7765 3.50814 3.28856 2.52857
threshold=-0.050000000000000037 1.6450000000000002 0.60910379804500092 0.19544420931193465 -0.041750000000000002 -0.11735398019701025 -0.04979999999999999 -128300866.86030005 0.080750000000000002 0.77677444847093013 0.039999999999999931 20869200.59165049 0.0099999999999999551 0.10541599796425329 -530391.06844999979 0.26080052060311115 0.5176193748712371 -0.0099999999999998406 0.51328176195779796 0.20024709913455399 -0.0453
decision_type=2 2 2 2 2 2 2 2 2 2 2 2 2 2 2 2 2 2 2 2 2
left_child=-1 8 3 4 5 -3 -5 -4 10 15 11 12 -2 -8 -9 19 -13 -16 -6 -10 -11
right_child=1 2 7 6 18 -7 13 14 9 20 -12 16 -14 -15 17 -17 -18 -19 -20 -21 -22
leaf_value=-0.023734288192567503 0.011033834769585272 0.013086327523876626 0.0047601507141289837 0.01059775804963185 0.037803149275263535 -0.015953558720102474 0.00059323732153254976 -0.035099176892026865 -0.00098080691643164376 -0.0094546697853676396 0.017537469306163841 -0.0012177001907511592 -0.01006707584977358 -0.021102803829065188 0 0.029148221644797447 -0.026758790370948585 -0.018980228692147182 0.011290682026324928 0.019869046563950811 0.0092197977908967856
leaf_weight=6.4832103550434104 14.235380321741106 7.4936862587928763 7.2363193482160595 6.7382050007581737 5.2456244677305204 8.4839896112680453 6.4891069978475597 5.2381295561790493 5.4906983226537758 5.7434839159250259 7.2428404241800299 5.4935643970966321 8.7360016554594022 13.47232949733734 6.7353377193212571 9.7430790960788709 6.4841592460870743 9.9757494926452583 4.9950157105922699 5.2439271956682205 5.2431831508874875
leaf_count=26 57 30 29 27 21 34 26 21 22 23 29 22 35 54 27 39 26 40 20 21 21
internal_value=-0.000473867 0.000499622 -0.00381433 0.000587456 0.00894782 -0.0019748 -0.00740817 -0.0119237 0.00538541 0.012315 2.60398e-05 -0.00355118 0.00272502 -0.0138493 -0.0176838 0.0191172 -0.0158491 -0.0113495 0.02613 0.008924 -2.84557e-06
internal_weight=162.243 155.76 82.1035 52.918 26.2183 15.9777 26.6996 29.1855 73.6563 31.4644 42.1919 34.9491 22.9714 19.9614 21.9492 20.4777 11.9777 16.7111 10.2406 10.7346 10.9867
internal_count=650 624 329 212 105 64 107 117 295 126 169 140 92 80 88 82 48 67 41 43 44
is_linear=0
shrinkage=0.02


Tree=4
num_leaves=20
num_cat=0
split_feature=59 51 3 36 35 1 1 39 48 25 7 39 23 28 1 51 44 57 4
split_gain=9.21015 7.93218 7.25856 8.62209 7.47441 7.29199 7.07976 6.4287 6.67176 6.64931 7.00825 6.23614 5.11044 4.74359 4.50714 4.25372 2.51378 2.45152 2.23687
threshold=-0.050000000000000037 1.6450000000000002 0.60910379804500092 0.19544420931193465 1.813129923354351 -13049373.710100172 -128300866.86030005 0.080750000000000002 0.77677444847093013 0.039999999999999931 -0.36495914845281469 0.047300000000000002 1.3250000000000004 0.36105732715673539 20869200.59165049 1.9750000000000003 -0.31569256352212965 0.17946078613775149 0.091807954694778107
decision_type=2 2 2 2 2 2 2 2 2 2 2 2 2 2 2 2 2 2 2
left_child=-1 7 3 4 11 -5 -4 9 12 10 -2 -3 18 -7 -12 16 -8 -10 -9
right_child=1 2 6 5 -6 13 15 8 17 -11 14 -13 -14 -15 -16 -17 -18 -19 -20
leaf_value=-0.023310440338908524 0.012358707103225187 -0.0027478210360740974 0.0046678793692605212 0.012827954766911056 -0.012102685289047193 -0.0043727258420133679 -0.032795471582532244 0.034970949986607512 -0.0093095098060521249 0.017193594709202634 -0.001359722062071548 0.020613854968092499 0.003993568880430046 -0.024369357635908293 -0.01841739173937032 -0.0045182452767207259 -0.012784153052324321 0.0090784909412159279 0.014862776062274471
leaf_weight=6.4746103435754767 7.9921663105487815 5.7415980249643388 7.2376884073019054 5.2427024096250561 4.9867806434631339 13.217424288392069 7.2232085913419759 6.7479797750711494 5.7420173585414869 7.2459112256765357 16.227544590830806 15.49110187590122 7.2442099004983893 8.2284879088401777 10.720302045345305 7.9761959165334693 6.7299329042434675 5.2444270551204681 6.4921378046274185
leaf_count=26 32 23 29 21 20 53 29 27 23 29 65 62 29 33 43 32 27 21 26
internal_value=-0.000462835 0.000491601 -0.00373557 0.000584306 0.00878335 -0.0072564 -0.0117015 0.00527908 0.0120752 1.84463e-05 -0.00348915 0.0140676 0.0187426 -0.0125514 -0.00849381 -0.0173641 -0.0240367 0 0.026102
internal_weight=162.206 155.732 82.0751 52.9081 26.2195 26.6886 29.167 73.6567 31.4708 42.1859 34.94 21.2327 20.4843 21.4459 26.9478 21.9293 13.9531 10.9864 13.2401
internal_count=650 624 329 212 105 107 117 295 126 169 140 85 82 86 108 88 56 44 53
is_linear=0
shrinkage=0.02


Tree=5
num_leaves=21
num_cat=0
split_feature=36 41 41 29 49 29 57 41 6 63 52 19 58 55 6 38 46 55 19 49
split_gain=12.9078 13.4336 8.93572 7.29726 6.719 8.44905 8.23914 7.25393 6.9751 5.84115 5.06988 4.84281 6.29418 6.38385 6.4896 4.75861 4.49476 2.376 1.57636 0.482352
threshold=0.11976880012410375 0.045391781454395888 0.041379665372775661 0.99993165439655696 -0.51356506470655583 0.30697214682404578 0.22711180411576162 0.031681476556687627 0.0050500000000000015 0.88148533845307064 0.33734999999999998 -0.0040224999999999992 2.5450000000000004 0.43031100901543462 -0.063499999999999987 0.020950000000000003 -1.0000000180025095e-35 0.45512980299608735 0.0034800000000000005 -0.33395071369806123
decision_type=2 2 2 2 2 2 2 2 2 2 2 2 2 2 2 2 2 2 2 2
left_child=2 4 11 16 6 15 7 -2 -7 19 -10 -1 17 -14 -15 18 -4 -13 -6 -3
right_child=1 9 3 -5 5 8 -8 -9 10 -11 -12 12 13 14 -16 -17 -18 -19 -20 -21
leaf_value=-0.012917538481781411 0.02811836202289595 -0.019439207926454666 -0.0049389735542018642 0.029338548147187234 -0.031981859163969478 0.022824545739880301 -0.0074551992167142958 -0.00077181051871297052 0.0093138922972958692 -0.0025228256751634696 -0.015954511584174963 0.026595671622188625 -0.014039646265140895 -0.0083752258881409445 0.0098496058598689529 -0.0007395093532188003 0.015852897506205534 0.0071014988822791208 -0.012436987591243304 -0.034975525150817886
leaf_weight=7.4805442541837683 8.7383307218551654 5.9814386069774637 6.7377121299505243 9.7364988029003143 5.7329921573400515 4.9915424585342434 7.983877331018447 4.9851944595575324 5.2403360456228238 5.7381998449563971 6.7334735244512558 5.2459674179553968 9.4752148389816266 10.733404904603953 24.951211124658588 5.9869824647903434 8.9826330542564374 7.2399880290031433 4.9877203851938248 5.9759365320205697
leaf_count=30 35 24 27 39 23 20 32 20 21 23 27 21 38 43 100 24 36 29 20 24
internal_value=0.000724118 -0.00547499 0.0057927 0.015796 -0.000482925 -0.00615769 0.00801121 0.0174039 0.00348464 -0.0204964 -0.0044496 0.00173638 0.00379856 0.000155448 0.00417699 -0.0161903 0.0066414 0.0161931 -0.0240193 -0.0283593
internal_weight=163.659 73.076 90.5832 25.4568 55.3804 33.673 21.7074 13.7235 16.9654 17.6956 11.9738 65.1263 57.6458 45.1598 35.6846 16.7077 15.7203 12.486 10.7207 11.9574
internal_count=656 293 363 102 222 135 87 55 68 71 48 261 231 181 143 67 63 50 43 48
is_linear=0
shrinkage=0.02


Tree=6
num_leaves=24
num_cat=0
split_feature=51 30 19 43 6 5 41 30 19 10 0 35 53 53 53 38 38 6 0 0 51 3 8
split_gain=11.5819 10.6226 9.60187 6.63832 9.79146 9.36489 9.44017 6.18053 5.75411 6.38042 6.90148 5.42216 4.58777 15.808 7.94729 4.56613 5.71272 4.34455 3.60985 3.5051 3.4778 3.29231 1.75679
threshold=1.5050000000000006 -0.88816779478484242 -0.0041834999999999989 0.020419749909766919 0.10265000000000001 -0.26389942975140185 0.024329751233464383 0.98049397806558425 0.0069180000000000014 109374.01290000296 -0.26282857427251133 1.3760168093634897 0.05995000000000001 0.18100000000000008 -0.30704999999999999 0.023649999999999994 -0.051849999999999986 0.04370000000000001 1.3234825226184734 -1.5175988981311295 1.8750000000000002 0.21917252349298735 0.13591885399138473
decision_type=2 2 2 2 2 2 2 2 2 2 2 2 2 2 2 2 2 2 2 2 2 2 2
left_child=1 11 17 4 5 19 21 -8 9 15 -11 22 14 -14 -4 16 -5 -3 -12 -2 -17 -7 -1
right_child=3 2 12 8 -6 6 7 -9 -10 10 18 -13 13 -15 -16 20 -18 -19 -20 -21 -22 -23 -24
leaf_value=-0.0048539478423067148 -0.0022468355536728575 -0.012361996556365461 0.001625643495485785 -0.013425048929345649 0.020999099143525976 0.00022547354520523793 0.024570438417796318 0 0.0081617574974591125 -0.035449349030397592 0.00077622153048321867 0.0088452379211619841 -0.017700115413666499 0.028382554081045935 0.030079647134202393 -0.024713701711701074 0.011504864221688667 0.010506784144268424 -0.0192678544837987 -0.024017995471794031 -0.00055813321159533939 -0.020607804229498462 -0.023771070004296038
leaf_weight=4.9883750975131971 5.7328168302774429 7.2360122948884946 5.7421981096267656 5.2349326461553565 8.4862576425075513 5.4908685684204119 9.2349848151206988 7.2324834465980521 6.7295921146869651 6.9714009612798717 5.981967478990553 5.2433029711246482 5.2398203462362272 5.9933149665594101 16.738611981272705 5.4819260388612729 10.224231928586962 5.4913247227668762 6.9790768772363663 7.9773554205894452 4.9820097088813782 5.2325702458620071 4.9882235378026962
leaf_count=20 23 29 23 21 34 22 37 29 27 28 24 21 21 24 67 22 41 22 28 32 20 21 20
internal_value=0.000704597 0.00755709 0.0123358 -0.00339035 0.00177303 -0.00219427 0.00443615 0.0139951 -0.00833573 -0.0109242 -0.0194313 -0.0065944 0.0179016 0.00646528 0.0231922 -0.00400669 0.00258726 -0.00201975 -0.00975609 -0.0155858 -0.0141064 -0.00968014 -0.015314
internal_weight=163.634 61.6612 46.4413 101.972 49.3873 40.9011 27.1909 16.4675 52.5851 45.8555 19.9324 15.2199 33.7139 11.2331 22.4808 25.9231 15.4592 12.7273 12.961 13.7102 10.4639 10.7234 9.9766
internal_count=656 247 186 409 198 164 109 66 211 184 80 61 135 45 90 104 62 51 52 55 42 43 40
is_linear=0
shrinkage=0.02


Tree=7
num_leaves=24
num_cat=0
split_feature=36 54 41 49 62 51 41 37 34 19 47 7 11 11 7 34 11 29 49 47 51 42 33
split_gain=12.2505 8.68377 9.69586 11.4458 8.11365 7.95461 7.69558 10.3245 7.58191 7.171 5.95059 5.02092 5.23976 6.49564 5.89948 5.01512 4.85088 3.74817 4.25369 3.60092 3.54903 2.24574 0.528775
threshold=-0.13738936894706064 0.29565000000000002 0.035742876583746273 -0.51356506470655583 0.46596101856296618 1.5650000000000002 0.040911237373061259 0.018400000000000007 -0.45010367228182629 0.0046565000000000009 1.090990740172604 0.14719564921061859 -254660.88520000034 1161068.9421999974 -0.42166021481721544 0.27471978082410647 13908.365199998023 0.99993165439655696 0.26482590325425664 1.5027449675313889 1.3150000000000006 0.10535263500000001 0.11646700591579907
decision_type=2 2 2 2 2 2 2 2 2 2 2 2 2 2 2 2 2 2 2 2 2 2 2
left_child=6 2 3 19 -4 -6 7 11 10 20 -5 12 14 -14 -1 -10 -9 18 -8 -2 -3 -7 -22
right_child=1 9 4 8 5 21 17 16 15 -11 -12 -13 13 -15 -16 -17 -18 -19 -20 -21 22 -23 -24
leaf_value=0.010426701066597615 0.033948512269573121 -0.0049122488263134414 0.010836870763025738 0.022369797678537192 0 -0.032647657891945847 0.019962895978076357 -7.0670850401645451e-05 -0.019731134252977778 0.0041205501824149336 -0.0042625635760102356 0.022422275213115513 0.025366716498010186 -0.0025757529514129278 -0.015958756917912102 0.00075630610846897544 -0.022438493593490035 0.027324266083082388 -0.0027401103566620168 0.010279971639397376 -0.034505861671765142 -0.012806785905691204 -0.019195484080351783
leaf_weight=5.4901962578296644 5.244955435395239 4.9861760884523454 5.4860537052154568 6.9871906489133853 8.2326422929763812 7.4595866650342924 6.2384701669216156 9.4762957394123095 9.2217453271150607 5.4857672899961463 5.4854781478643417 8.2380405217409116 7.2393895536661148 5.2310793995857239 7.4838409572839755 8.4784349799156171 6.9834797233343116 8.7424957454204559 5.7398317903280258 7.4881481379270554 5.225827753543852 5.975096270442009 6.9731124490499496
leaf_count=22 21 20 22 28 33 30 25 38 37 22 22 33 29 21 30 34 28 35 23 30 21 24 28
internal_value=0.000687183 -0.00405146 -0.000461874 0.00535624 -0.00983188 -0.0154148 0.00696334 0.00254699 -0.00121038 -0.0147322 0.0103621 0.00896335 0.00416225 0.0133905 -0.00435796 -0.00973522 -0.0101506 0.0171762 0.00879413 0.0210468 -0.0210608 -0.0247327 -0.026905
internal_weight=163.593 92.7302 70.0593 42.906 27.1534 21.6673 70.8631 50.1423 30.1728 22.6709 12.4727 33.6825 25.4445 12.4705 12.974 17.7002 16.4598 20.7208 11.9783 12.7331 17.1851 13.4347 12.1989
internal_count=656 372 281 172 109 87 284 201 121 91 50 135 102 50 52 71 66 83 48 51 69 54 49
is_linear=0
shrinkage=0.02


Tree=8
num_leaves=23
num_cat=0
split_feature=36 37 23 44 54 28 62 30 62 51 28 52 45 62 36 37 30 0 44 6 51 52
split_gain=11.8397 11.0952 10.5366 7.59358 8.1094 6.41098 8.68975 6.17998 6.01516 5.49175 4.5147 4.47647 4.40739 3.91244 4.90059 4.85542 3.84746 3.40705 2.54013 2.2879 2.0815 2.50033
threshold=0.11976880012410375 0.060500000000000005 1.0750000000000004 0.50950679235813878 0.23005 0.045919596269488529 1.0582108130733003 -0.88816779478484242 0.4323688749934651 1.7950000000000004 3.8880148156549263 -0.20379999999999995 -0.45356683353048871 0.41625881380760171 -0.13738936894706064 0.0045000000000000023 -0.99918028312032148 0.24545440666220728 0.96800569777152357 0.033400000000000006 1.4850000000000003 -0.043049999999999915
decision_type=2 2 2 2 2 2 2 2 2 2 2 2 2 2 2 2 2 2 2 2 2 2
left_child=5 2 17 7 18 13 8 -4 -7 10 -8 -11 -9 -1 15 -15 -6 -2 -5 -3 -10 -22
right_child=1 19 3 4 16 6 9 12 20 11 -12 -13 -14 14 -16 -17 -18 -19 -20 -21 21 -23
leaf_value=0.010356872792378043 -0.027048577367135351 -0.034137814414527873 -0.019733183099715147 0.033834634956198033 -0.011856466254339299 -0.0012622961215847941 -0.0018210386341238789 0.0080608122326736639 0.029602207308904883 0.0037134464876219801 0.017757178729626271 -0.020429425698879431 -0.010183115424999523 0.011669818704463583 -0.018603344703965224 -0.010125362174782071 0.01145588195303068 -0.0044571924261958733 0.01066063631928949 -0.011603072822902492 0.0074695243305143979 0.024664230221098708
leaf_weight=7.4877139776945141 7.2065427452325803 5.2189455032348615 7.4548788815736762 5.2442836016416567 5.7266694754362106 5.4900933504104641 8.2341646403074318 13.472554162144661 8.7430388331413287 4.9915633648633957 9.2345127612352353 6.2300667464733106 8.2177704125642812 7.7339491844177282 7.7271942943334553 7.9812520295381546 4.9876987785100919 5.4875345081090927 4.9904578626155853 4.9713894426822662 9.7287919372320228 6.987538635730739
leaf_count=30 29 21 30 21 23 22 33 54 35 20 37 25 33 31 31 32 20 22 20 20 39 28
internal_value=0.000672745 -0.00526818 -0.00197305 0.00207088 0.0112526 0.0055274 0.00936017 -0.00437246 0.0166735 0.00117313 0.00831604 -0.00935246 0.000831299 -0.00168979 -0.00587256 0.000243772 -0.000443035 -0.0180727 0.0237299 -0.0243623 0.0207437 0.0153177
internal_weight=163.549 72.9787 62.7884 50.0943 20.9491 90.5699 59.6398 29.1452 30.9495 28.6903 17.4687 11.2216 21.6903 30.9301 23.4424 15.7152 10.7144 12.6941 10.2347 10.1903 25.4594 16.7163
internal_count=656 293 252 201 84 363 239 117 124 115 70 45 87 124 94 63 43 51 41 41 102 67
is_linear=0
shrinkage=0.02


Tree=9
num_leaves=24
num_cat=0
split_feature=36 41 25 41 37 3 29 30 51 23 23 51 53 63 39 0 28 19 0 63 51 53 44
split_gain=11.402 12.3411 9.83991 8.23701 8.90308 8.09521 6.71689 7.2314 6.50807 6.01945 7.66324 6.4328 6.02707 5.40759 5.14374 4.9963 5.2883 5.56357 4.58759 3.78921 3.44518 3.41804 0.172389
threshold=0.11976880012410375 0.045391781454395888 -0.0099999999999998406 0.041379665372775661 0.0014499999999999932 0.21917252349298735 0.99993165439655696 0.25861327680835183 1.6650000000000003 1.0850000000000002 1.3050000000000004 1.8050000000000004 0.064649999999999999 0.88148533845307064 0.11045000000000001 0.87379906193123025 0.27342248579276912 -0.00078349999999999991 -0.923425157242873 0.340680069629061 1.5050000000000006 0.053100000000000043 0.33711723879854555
decision_type=2 2 2 2 2 2 2 2 2 2 2 2 2 2 2 2 2 2 2 2 2 2 2
left_child=3 2 5 4 14 20 7 8 -5 -4 11 -11 -12 22 19 16 17 -6 -18 -1 -2 -21 -3
right_child=1 13 9 6 15 -7 -8 -9 -10 10 12 -13 -14 -15 -16 -17 18 -19 -20 21 -22 -23 -24
leaf_value=-0.0083177951200049793 0.029360813739156787 -0.033583153619545482 -0.023677243811533712 0.030204990077071822 0.0021618948974940618 -0.0068756962798035897 0.028014483146464125 -0.012534793822622566 0 0.0201574997631907 0.0039740416167113575 -0.0066442152895092726 -0.021962533812702602 -0.0022792784053144509 0.026366930746504924 -0.019632734224348598 -0.0027767986073992464 -0.024701640084719305 0.022158078487258526 0.013819164947453446 0.007716693897195758 -0.0016471140825526931 -0.019663391351207045
leaf_weight=6.2316777259111431 6.744673043489458 5.4464333504438418 6.7114780694246283 5.4935887753963453 5.733076065778735 6.7174028158187857 9.7406640648841858 4.9888218343257913 5.2396059185266495 7.486243277788164 4.9840976148843756 5.9742133319377899 9.4641716778278333 5.7307478785514823 5.2429701536893836 7.98202359676361 5.7369739562273026 5.4810907691717174 4.9913345426321012 15.97531543672085 7.225974440574646 7.7272839397191992 6.4459147155284882
leaf_count=25 27 22 27 22 23 27 39 20 21 30 20 24 38 23 21 32 23 22 20 64 29 31 26
internal_value=0.000657851 -0.00517413 -0.000387205 0.00542194 0.00152344 0.0103232 0.0150227 0.00622533 0.0155926 -0.00699295 -0.00255888 0.00794043 -0.0127097 -0.0196047 0.00838598 -0.00634836 -0.00104652 -0.0107485 0.00856726 0.0048078 0.0189839 0.00856946 -0.0271999
internal_weight=163.496 72.9314 55.3083 90.5644 65.1017 20.6881 25.4627 15.722 10.7332 34.6202 27.9087 13.4605 14.4483 17.6231 35.1772 29.9245 21.9425 11.2142 10.7283 29.9343 13.9706 23.7026 11.8923
internal_count=656 293 222 363 261 83 102 63 43 139 112 54 58 71 141 120 88 45 43 120 56 95 48
is_linear=0
shrinkage=0.02


Tree=10
num_leaves=18
num_cat=0
split_feature=19 19 9 22 9 9 21 25 2 32 19 25 31 25 25 50 36
split_gain=8.36346 13.7822 6.86338 9.09721 8.77472 12.2818 8.76719 9.73646 7.16307 6.5889 7.58994 5.49587 5.1061 4.88253 4.67371 3.97523 3.74119
threshold=-0.0040224999999999992 -0.0031724999999999995 438386.89185000613 0.0026573700000000005 7209.7342000007638 -184183.93699999896 -0.0024764999999999995 0.0099999999999999551 0.0036295000000000003 -0.02889925288688255 -0.0010319999999999997 -0.029999999999999912 -0.77919540773579798 -0.029999999999999912 -1.0000000180025095e-35 28.394860820580529 0.53214165741781183
decision_type=2 2 2 2 2 2 2 2 2 2 2 2 2 2 2 2 2
left_child=11 -2 3 9 5 -5 -4 12 -9 13 -11 -1 -8 -3 -6 -13 -17
right_child=1 2 6 4 14 -7 7 8 -10 10 -12 15 -14 -15 -16 16 -18
leaf_value=0.0046038813546814706 0.031240764399370353 0.0028707511738259527 -0.023542913009185512 -0.00020601320977194827 0.021589655877227189 -0.02869751203498843 0.0057058967699916141 0.024533796774008253 -0.0049128109546583126 0.020325178754325237 -0.0053768735785207833 0 -0.016661831627808047 0.025671843564551509 3.7026013250128148e-05 -0.029247676668162789 -0.005652893055820357
leaf_weight=7.2227205783128765 6.237762212753295 5.9860500395298031 8.1953533142805082 26.433779552578926 7.732412368059161 7.7237481325864783 5.2366762161254909 7.7211121618747693 4.9801250845193863 6.4899080544710186 13.451230302453039 5.234838172793391 12.92372350394726 14.477469757199286 9.2074638456106168 8.2236857265233976 5.2249314188957205
leaf_count=29 25 24 33 106 31 31 21 31 20 26 54 21 52 58 37 33 21
internal_value=0.000846985 0.00285802 0.00138761 0.00441687 -0.00108955 -0.00701644 -0.00553643 -0.000381613 0.0126794 0.0114846 0.00286878 -0.00945443 -0.00989901 0.0194288 0.0104275 -0.0151921 -0.0208406
internal_weight=162.703 136.797 130.559 91.5021 51.0974 34.1575 39.057 30.8616 12.7012 40.4047 19.9411 25.9062 18.1604 20.4635 16.9399 18.6835 13.4486
internal_count=653 549 524 367 205 137 157 124 51 162 80 104 73 82 68 75 54
is_linear=0
shrinkage=0.02


Tree=11
num_leaves=17
num_cat=0
split_feature=19 19 9 22 21 25 9 9 63 23 47 43 25 31 31 29
split_gain=8.05155 13.2627 6.60255 8.75048 8.45223 9.3495 8.4508 11.8311 7.07243 6.54053 7.45016 5.5618 5.12585 4.92229 3.32996 2.17373
threshold=-0.0040224999999999992 -0.0031724999999999995 438386.89185000613 0.0026573700000000005 -0.0024764999999999995 0.0099999999999999551 7209.7342000007638 -184183.93699999896 0.6294484145087319 1.5350000000000004 2.9977887938116625 1.1459138085971212 -0.019999999999999959 -0.77919540773579798 -0.45725190191310267 0.9995029525668564
decision_type=2 2 2 2 2 2 2 2 2 2 2 2 2 2 2 2
left_child=11 -2 3 9 -4 13 7 -5 -8 10 -3 12 -1 -6 -7 -14
right_child=1 2 4 6 5 14 8 -9 -10 -11 -12 -13 15 -15 -16 -17
leaf_value=-6.9340614438048669e-05 0.030650900108964891 0.019143009619727012 -0.023130214011221222 -0.00020194041194387062 0.0055969039483062914 0 0.00027408701331972207 -0.028185336154493371 0.027698313387024498 -0.0070993122223318664 -0.0037583652441780246 0.0076107158408316349 -0.028409811211999203 -0.016354617556894654 0.020712822419021788 -0.0086553217028823275
leaf_weight=7.4668393135070863 6.2364311516284934 27.939899623394012 8.1802493035793287 26.433633372187614 5.2377119362354305 5.2253685742616653 11.205090492963793 7.7123817205429068 5.7389617860317221 5.9815702885389319 6.4830973744392386 5.4791472852230063 7.9625451415777189 12.908943042159082 7.4814918339252454 4.9845553934574127
leaf_count=30 25 112 33 106 21 21 45 31 23 24 26 22 32 52 30 20
internal_value=0.000830767 0.0028046 0.00136105 0.0043325 -0.00543137 -0.000368693 -0.00106651 -0.00688702 0.0102309 0.0112643 0.0146618 -0.00927848 -0.0141458 -0.00970545 0.0124201 -0.0216256
internal_weight=162.658 136.765 130.528 91.4946 39.0338 30.8535 51.0901 34.146 16.9441 40.4046 34.423 25.8931 20.4139 18.1467 12.7069 12.9471
internal_count=653 549 524 367 157 124 205 137 68 162 138 104 82 73 51 52
is_linear=0
shrinkage=0.02


Tree=12
num_leaves=13
num_cat=0
split_feature=19 19 46 7 19 44 45 25 52 50 36 12
split_gain=7.7524 12.7719 5.98911 6.57133 6.70717 6.60112 8.35857 5.16468 3.91905 3.78588 3.53993 3.45559
threshold=-0.0040224999999999992 -0.0031724999999999995 5.3827170361982377 -0.75417281016698079 0.0026455000000000007 -0.97492979867748175 -2.0464545662885301 -0.029999999999999912 -0.022450000000000022 28.394860820580529 0.53214165741781183 0.44370627882703134
decision_type=2 2 2 2 2 2 2 2 2 2 2 2
left_child=7 -2 3 4 -3 11 -7 -1 -4 -9 -11 -5
right_child=1 2 8 5 -6 6 -8 9 -10 10 -12 -13
leaf_value=0.0044956820206398778 0.030085727422593047 0.027797512875467556 0.0015595766955853242 -0.0020698216375701988 -0.0018631758504844152 0.017494521448308101 -0.0017814886824206642 0 0.02687453310996565 -0.028398039530051229 -0.0053985326373749785 -0.02598503183461966
leaf_weight=7.223948702216151 6.2321872264146796 6.2382827252149564 5.2399620413780212 4.9824418127536756 4.9882700443267822 9.715003550052641 87.851235374808311 5.2323569804430035 5.4901614189147931 8.2010514587163907 5.2204763293266288 5.978593036532402
leaf_count=29 25 25 21 20 20 39 353 21 22 33 21 24
internal_value=0.00081206 0.0027497 0.00133217 0 0.0143924 -0.00148782 0.000124325 -0.00910973 0.0154348 -0.0146829 -0.020203 -0.0159917
internal_weight=162.594 136.716 130.484 119.754 11.2266 108.527 97.5662 25.8778 10.7301 18.6539 13.4215 10.961
internal_count=653 549 524 481 45 436 392 104 43 75 54 44
is_linear=0
shrinkage=0.02


Tree=13
num_leaves=18
num_cat=0
split_feature=19 19 0 9 22 9 9 3 2 23 47 1 33 34 54 35 3
split_gain=7.46382 12.303 6.37992 6.32619 8.3122 8.10129 11.4127 6.8259 6.78661 6.2524 7.15178 5.61579 5.19013 6.0035 4.81962 2.73567 2.27503
threshold=-0.0040224999999999992 -0.0031724999999999995 -0.67113331652506858 438386.89185000613 0.0026573700000000005 7209.7342000007638 -184183.93699999896 -0.31591839397079019 0.0010185000000000001 1.5350000000000004 2.9977887938116625 1636957.8871505263 0.060801648482389233 1.2541502342466539 0.099849999999999953 0.18475764500139882 -0.54395220573405434
decision_type=2 2 2 2 2 2 2 2 2 2 2 2 2 2 2 2 2
left_child=2 -2 14 4 9 6 -6 12 -9 10 -3 -7 -5 -14 -1 -10 -4
right_child=1 3 16 7 5 11 -8 8 15 -11 -12 -13 13 -15 -16 -17 -18
leaf_value=-0.0095745198732743574 0.029543553202025345 0.018688652214374758 -0.007594776033193416 0.016532003175895357 -0.00018217646202216327 0.025127145487339759 -0.027689473203778209 0.0029584010530966692 -0.029917098188445755 -0.0069714070300539409 -0.0037386053515204845 0.00077574353862391475 -0.017870966534162917 0.0076097236575153188 0.013250367674578803 -0.0082043654488797545 -0.028404116539143969
leaf_weight=8.7084404528141039 6.2251991331577292 27.935800462961197 4.9674043208360672 6.7192111611366299 26.431080251932144 5.9853847324848202 7.697628751397132 5.7080766260623959 7.6807581186294538 5.97925180196762 6.4814680814743033 10.959420323371885 6.6970002651214582 7.2205966413021088 5.9767973721027365 4.9749846309423447 6.2067871540784818
leaf_count=35 25 112 20 27 106 24 31 23 31 24 26 44 27 29 24 20 25
internal_value=0.000796682 0.00269826 -0.00894155 0.00130666 0.00421607 -0.00104435 -0.00674785 -0.00534436 -0.0141592 0.0109729 0.0142965 0.0100128 0.00230351 -0.00434768 0 -0.0222325 -0.0201168
internal_weight=162.555 136.696 25.8594 130.471 91.47 51.0735 34.1287 39.0006 18.3638 40.3965 34.4173 16.9448 20.6368 13.9176 14.6852 12.6557 11.1742
internal_count=653 549 104 524 367 205 137 157 74 162 138 68 83 56 59 51 45
is_linear=0
shrinkage=0.02


Tree=14
num_leaves=17
num_cat=0
split_feature=22 22 9 23 41 46 45 8 45 62 32 42 57 6 50 62
split_gain=6.96223 7.81202 11.6021 6.46103 6.30504 6.18608 8.00278 7.83216 9.70839 8.5143 7.53762 5.69839 5.90774 4.62072 3.24724 2.37806
threshold=-0.0055711799999999994 -0.0012496149999999997 438386.89185000613 1.3550000000000002 0.040356957964397151 3.3616816986505209 -1.8554322596513071 -0.12996341119587138 0.75563698038361171 0.55158462749266168 0.12758241596700917 0.048946650000000001 0.16725466781670617 0.036800000000000006 35.480237589959387 0.95451550754403602
decision_type=2 2 2 2 2 2 2 2 2 2 2 2 2 2 2 2
left_child=4 2 3 15 14 6 11 9 -9 -8 -7 -3 -13 -6 -1 -2
right_child=1 5 -4 -5 13 10 7 8 -10 -11 -12 12 -14 -15 -16 -17
leaf_value=-0.0059310767706390105 0.032925751186424039 -0.0054259917545937085 -0.0082275344821599976 0 -0.010187836514820218 0.025311969093043812 0.026358436406501623 -0.01443274069726201 0.0043414687118710198 -0.0015820396481418153 -0.00041440207571723334 0.029345001909096217 0 0.015560767086578305 -0.028312103999553664 0.013129063767963243
leaf_weight=5.7319865822792071 9.4681240469217354 5.7238300293684032 7.6889040470123282 4.9815306216478339 5.4647861719131452 7.7328545600175884 5.2398420274257687 38.009180188179016 14.69705645740032 18.918496295809746 9.4781496673822385 6.9813441932201368 4.9774698466062546 4.9786576330661774 6.6804138123989105 5.7271112501621237
leaf_count=23 38 23 31 20 22 31 21 153 59 76 38 28 20 20 27 23
internal_value=0.00077786 0.00249148 0.0119065 0.0198803 -0.00932797 6.48053e-05 -0.00189793 -0.00474544 -0.00908944 0.00448179 0.0110374 0.0100189 0.0178526 0.00162045 -0.0188325 0.0262502
internal_weight=162.48 139.624 27.8657 20.1768 22.8558 111.758 94.5472 76.8646 52.7062 24.1583 17.211 17.6826 11.9588 10.4434 12.4124 15.1952
internal_count=653 561 112 81 92 449 380 309 212 97 69 71 48 42 50 61
is_linear=0
shrinkage=0.02


Tree=15
num_leaves=23
num_cat=0
split_feature=58 52 39 39 62 16 35 25 45 57 36 7 53 36 52 28 62 31 22 32 57 39
split_gain=8.94687 10.7618 6.68341 5.31764 7.7994 6.02488 6.24508 5.59396 5.0099 4.76472 4.6776 4.72106 3.68497 7.2938 6.51157 5.34873 3.94724 5.79655 3.52524 3.04952 2.67368 2.56142
threshold=2.8650000000000007 -0.75554999999999972 -0.029099999999999997 0.069600000000000009 0.92933175183970396 -1.0000000180025095e-35 0.70771054134375355 -0.0099999999999998406 0.08596367079384272 0.15134660271177605 0.59378527367771616 -0.01443725035554788 -0.18100000000000002 0.19544420931193465 0.64655000000000007 0.56657375395343712 0.6408271253523653 -0.075729036543398229 0.0039853250000000005 -0.17006808186534325 0.22093150340017689 0.045100000000000008
decision_type=2 2 2 2 2 2 2 2 2 2 2 2 2 2 2 2 2 2 2 2 2 2
left_child=2 -2 -1 7 5 -5 -7 10 19 -6 11 -4 18 16 15 -15 -14 -18 -3 -9 -11 -10
right_child=1 12 3 4 9 6 -8 8 21 20 -12 -13 13 14 -16 -17 17 -19 -20 -21 -22 -23
leaf_value=0.024883426012058028 0.019219958072056412 -0.0044785581451887027 0 0.029463703943413033 0.011603758573316254 0.016648812958579059 -0.0088561380655463439 -0.0041690692477295834 0.01032020906389009 -0.020421302525963535 -0.0082922540724062448 0.026729422549084891 0.018122029288266724 0.0018736839298634873 -0.02859268178326 -0.017696592429990159 0.0072078317245058126 -0.014308884090605876 -0.027107973905144564 -0.02488874496999087 -5.1910236746980489e-05 -0.0084398294247492438
leaf_weight=5.7317342311143866 6.2411039471626273 5.977025240659712 5.4923100322484961 7.9617904871702203 5.9755690395832088 10.204995751380919 5.4786515235900888 5.978444889187811 5.9630480706691724 4.9796457737684232 4.9773491621017447 5.4818582981824866 4.9862189739942577 12.915958985686308 6.9229904264211646 8.9024328440427762 12.222509071230892 7.9619087427854511 6.7233491092920303 7.4446504563093221 6.2291923016309738 4.9696865081787109
leaf_count=23 25 24 22 32 24 41 22 24 24 20 20 22 20 52 28 36 49 32 27 30 25 20
internal_value=6.75754e-05 -0.00505179 0.00443243 0.0028277 0.0079214 0.0153324 0.00736498 -0.00220468 -0.0083051 -0.002021 0.00672201 0.0141034 -0.00749153 -0.00499475 -0.0118663 -0.00597192 0.0026634 -0.00107196 -0.0172688 -0.0163906 -0.009919 0.00126066
internal_weight=159.722 72.8535 86.8689 81.1372 40.8298 23.6454 15.6836 40.3073 24.3558 17.1844 15.9515 10.9742 66.6124 53.912 28.7414 21.8184 25.1706 20.1844 12.7004 13.4231 11.2088 10.9327
internal_count=642 293 349 326 164 95 63 162 98 69 64 44 268 217 116 88 101 81 51 54 45 44
is_linear=0
shrinkage=0.02


Tree=16
num_leaves=23
num_cat=0
split_feature=51 36 45 42 63 19 3 4 47 19 52 33 19 3 45 52 45 0 51 47 19 4
split_gain=9.57819 9.57233 10.5003 9.25508 6.1943 5.76535 9.09581 8.09005 10.172 6.17745 6.45576 5.47144 4.69838 4.67738 10.3476 5.68188 5.44965 8.00253 4.3395 4.12942 2.99566 0.687743
threshold=1.5450000000000002 0.30948561083345988 0.64644058699746554 0.11815186000000001 0.91309158771652765 -0.0040224999999999992 0.13778789420094525 -0.23379771868922147 1.1929858157212483 0.0017795000000000003 0.11415000000000004 -0.24317966778806263 0.0029570000000000004 0.64035112816238204 0.86382065820339593 -0.21999999999999989 -1.0492641431812331 -0.80284396526485302 1.3950000000000002 2.0145669297819251 0.0030695000000000006 0.25007683604957315
decision_type=2 2 2 2 2 2 2 2 2 2 2 2 2 2 2 2 2 2 2 2 2 2
left_child=5 4 11 -4 13 7 9 -1 -9 18 -11 12 -3 14 15 -2 -15 -18 -7 20 -8 -13
right_child=1 2 3 -5 -6 6 19 8 -10 10 -12 21 -14 16 -16 -17 17 -19 -20 -21 -22 -23
leaf_value=-0.022333666064299939 -0.00034929358063733761 -0.019602517077935342 0.023273092911473593 -0.013178151750998434 0.016105321321510796 0.020575708575600486 0.031968008943374301 -0.011347392719180669 0.02640208381368972 -0.020394690960349831 0.0048541634602287335 -0.034242528008137513 0.0050720304484095716 -0.025290494492752617 -0.015101779948347412 0.020139535528954179 0.014353726132159969 -0.014450258199972648 -0.0019579906385454966 0.0035642070736516445 0.011740983017581577 -0.017791651946636136
leaf_weight=5.9666770100593594 8.970384359359743 6.4362368583679199 4.9794551581144315 5.4545537829399109 8.7295767962932569 7.9733967483043688 9.1997789591550845 5.7090448737144452 4.9837514311075211 7.2231729179620725 7.9785766750574112 7.6560129374265671 4.9588379859924316 5.7154386937618282 8.2015205621719343 11.467742249369623 6.2244340926408777 8.9504167735576594 4.9793003797531128 6.2300869971513739 6.7293036729097357 4.9306814074516296
leaf_count=24 36 26 20 22 35 32 37 23 20 29 32 31 20 23 33 46 25 36 20 25 27 20
internal_value=6.44171e-05 -0.00405694 -0.0123816 0.00382288 0.000796464 0.00584927 0.00924932 -0.00404746 0.00594162 0.00142849 -0.00691839 -0.019639 -0.0084971 -0.00186201 0.00322639 0.0109826 -0.00906804 -0.00219847 0.0116123 0.0187671 0.0241677 -0.0288279
internal_weight=159.648 92.6753 34.4158 10.434 58.2595 66.9731 50.3136 16.6595 10.6928 28.1544 15.2017 23.9818 11.3951 49.5299 28.6396 20.4381 20.8903 15.1749 12.9527 22.1592 15.9291 12.5867
internal_count=642 373 139 42 234 269 202 67 43 113 61 97 46 199 115 82 84 61 52 89 64 51
is_linear=0
shrinkage=0.02


Tree=17
num_leaves=21
num_cat=0
split_feature=51 9 19 3 4 19 52 8 28 3 1 57 12 57 39 51 25 62 54 37
split_gain=9.22821 6.92663 5.55482 8.76941 7.79268 5.93376 6.21945 5.52353 5.33592 5.10363 7.48353 5.99716 5.8833 5.0824 4.26947 4.18258 3.87454 3.82581 4.63224 1.59827
threshold=1.5450000000000002 -868221.84175001073 -0.0040224999999999992 0.13778789420094525 -0.23379771868922147 0.0017795000000000003 0.11415000000000004 0.47677248114501586 0.0672682562224758 0.59137868831412932 3637523.4284000103 0.19982299846086124 0.53687099074852307 0.22945112914882285 0.10995000000000001 1.3950000000000002 -0.0099999999999998406 0.80013911834392315 -0.15490000000000001 -0.0061499999999999983
decision_type=2 2 2 2 2 2 2 2 2 2 2 2 2 2 2 2 2 2 2 2
left_child=2 14 4 5 -1 15 -7 9 -6 10 11 -3 -12 16 -2 -4 -11 -5 -19 -9
right_child=1 7 3 17 8 6 -8 19 -10 13 12 -13 -14 -15 -16 -17 -18 18 -20 -21
leaf_value=-0.021938379609176616 0.018443850939380852 0.021513532243777087 0.020185939475172818 0.028110142595998314 -0.0070726210556940781 -0.020019413569732695 0.0047601929559985398 -0.0084725260018523769 0.020033537135212009 -0.0030047800070991471 -0.011983538528483804 -0.0039166689376354293 0.0061842610005485559 0.0050789614184993392 -0.0028035549297521188 -0.0019211229464694329 -0.023667536443387566 0.022728631096615937 -0.00058017784850783439 -0.026965090699000101
leaf_weight=5.9581903219223049 7.736016780138014 8.9726186543703061 7.9706255644559878 9.6866422295570391 5.4632402211427671 7.2170878350734693 7.9792747646570206 4.9699864387512207 5.2276798039674759 6.4529324918985411 20.345502361655239 5.4679638594388953 10.175767615437506 4.9592907428741446 6.2225211411714554 4.9791183769702911 11.385873720049858 5.7252475470304489 6.7281607687473279 5.9182503372430784
leaf_count=24 31 36 32 39 22 29 32 20 21 26 82 22 41 20 25 20 46 23 27 24
internal_value=6.08797e-05 -0.00398548 0.00574117 0.00908007 -0.0039717 0.00139674 -0.00678074 -0.00633589 0.00582097 -0.0040535 0 0.0115935 -0.0057305 -0.011696 0.00869155 0.011382 -0.0166972 0.0184311 0.00994778 -0.0195139
internal_weight=159.542 92.6067 66.9353 50.2862 16.6491 28.1461 15.1964 78.6482 10.6909 67.7599 44.9619 14.4406 30.5213 22.7981 13.9585 12.9497 17.8388 22.1401 12.4534 10.8882
internal_count=642 373 269 202 67 113 61 317 43 273 181 58 123 92 56 52 72 89 50 44
is_linear=0
shrinkage=0.02


Tree=18
num_leaves=14
num_cat=0
split_feature=40 8 53 53 42 47 47 52 7 9 54 6 37
split_gain=8.14655 8.09911 6.26003 8.64603 8.29665 5.49971 10.0337 5.94033 5.05884 3.44716 2.53596 1.49122 1.37032
threshold=0.97933657559057552 -0.5759163423456336 -0.18100000000000002 -0.12385 0.083593550000000016 0.74357248640517526 1.0082232267259796 0.48680000000000007 -0.39279416730588762 -1173213.4450500009 -1.0000000180025095e-35 0.016400000000000001 0.011150000000000002
decision_type=2 2 2 2 2 2 2 2 2 2 2 2 2
left_child=-1 8 4 -4 9 7 -7 -5 -2 -3 -6 -10 -11
right_child=1 2 3 5 10 6 -8 -9 11 12 -12 -13 -14
leaf_value=0.017577629744529293 -0.002190886164160172 -0.0050202760653812184 0.018889736086474259 -0.016666703134409735 0.0091132026561636503 0.014118052405811699 -0.0034230327467084697 0.0025865841229559742 0.028595957506963036 -0.016011751538042435 -0.0088230134376348322 0.0097835661543761495 -0.034726462323492073
leaf_weight=9.6925864070653898 5.4675086289644232 5.4857672601938274 8.2189631015062314 17.358580648899082 7.2070261240005493 16.881509587168694 53.34801672399044 9.1815861612558347 5.2214458584785444 5.9582123160362261 4.9795905053615552 4.98263980448246 5.4620748311281204
leaf_count=39 22 22 33 70 29 68 215 37 21 24 20 20 22
internal_value=5.71772e-05 -0.0010697 -0.00270462 -0.000360285 -0.0108706 -0.00211039 0.000750473 -0.00982801 0.0123305 -0.0198388 0.00126785 0.0205229 -0.0261343
internal_weight=159.446 149.753 134.081 104.989 29.0927 96.7697 70.2295 26.5402 15.6716 16.9061 12.1866 10.2041 11.4203
internal_count=642 603 540 423 117 390 283 107 63 68 49 41 46
is_linear=0
shrinkage=0.02


Tree=19
num_leaves=18
num_cat=0
split_feature=58 8 63 36 53 63 60 21 41 1 28 24 6 1 48 62 62
split_gain=7.95239 8.80587 6.14701 6.22188 7.83174 5.56349 6.09841 7.06295 5.14297 5.1321 4.95701 5.15104 4.50842 4.49085 3.63742 2.96552 2.62499
threshold=2.8650000000000007 0.46580358046577347 0.49173522230342898 0.08797730542025041 -0.19465000000000002 0.91309158771652765 0.01999999999999991 0.00051699999999999999 0.01824415731959101 3275357.6784999375 14.041209703784288 -0.014999999999999901 0.063100000000000017 83562790.749049917 1.8210036400399254 0.90905400265333192 0.77154654395234024
decision_type=2 2 2 2 2 2 2 2 2 2 2 2 2 2 2 2 2
left_child=2 5 3 4 -1 6 8 16 -2 -10 11 -4 -5 14 -13 -7 -8
right_child=1 -3 10 12 -6 15 7 -9 9 -11 -12 13 -14 -15 -16 -17 -18
leaf_value=-0.0094778143131676248 0.0190397517330172 -0.021848708348190932 -0.0033613581569486533 -0.0029195552971191798 0.017957604743450747 0.021838419663371304 -0.033634753473296336 0.00068450229508093682 0.005424074485888105 -0.012044568431797834 -0.0050344782796729595 0.019652085261389129 -0.027119047034345648 0 0 0 -0.012374133523172267
leaf_weight=7.1903957128524771 4.9778546094894436 10.126070216298102 7.9722437858581534 8.6896861195564252 8.6993420422077197 4.9798893183469755 5.1833226829767245 8.4545331597328168 13.910218700766565 12.131201237440107 8.9609438329935056 27.322678983211517 5.2040434777736655 7.7056825757026663 4.9715837091207495 5.4778793305158615 7.440450519323349
leaf_count=29 20 41 32 35 35 20 21 34 56 49 36 110 21 31 20 22 30
internal_value=5.57665e-05 -0.00477489 0.00417603 -0.00302147 0.0052264 -0.00182454 -0.00458764 -0.012827 0.000888842 -0.00253028 0.00804221 0.0106253 -0.0127881 0.013566 0.0168124 0.0111267 -0.0221461
internal_weight=159.398 72.6814 86.7166 29.7835 15.8897 62.5553 52.0976 21.0783 31.0193 26.0414 56.9331 47.9722 13.8937 39.9999 32.2943 10.4578 12.6238
internal_count=642 293 349 120 64 252 210 85 125 105 229 193 56 161 130 42 51
is_linear=0
shrinkage=0.02


Tree=20
num_leaves=22
num_cat=0
split_feature=53 42 36 50 9 2 31 2 1 37 48 32 50 21 37 45 56 19 46 1 50
split_gain=7.49924 8.27542 9.63856 9.13044 9.11297 8.29229 8.91739 7.33178 7.02134 9.21297 6.97316 6.35364 3.52874 3.41342 3.89569 3.77311 3.23108 3.22922 3.06517 3.3168 2.8827
threshold=0.24455000000000002 0.065045430000000001 -0.67489575834134274 54.200222794629632 -1037221.1907999989 0.0010525000000000003 -0.21062356932264978 0.0076690000000000013 -598165.78819990146 0.011150000000000002 0.41188545766688378 0.1512124560093642 49.001020730703026 -0.0026219999999999998 -0.024549999999999992 -0.6454268351774094 1.0426500000000003 0.0023480000000000007 -1.4069263877337643 96033915.587000623 53.858289069427265
decision_type=2 2 2 2 2 2 2 2 2 2 2 2 2 2 2 2 2 2 2 2 2
left_child=1 2 4 7 -1 17 20 13 -5 -10 -8 12 -2 15 -15 -3 -11 -4 -13 -20 -7
right_child=11 3 5 8 -6 6 10 -9 9 16 -12 18 -14 14 -16 -17 -18 -19 19 -21 -22
leaf_value=-0.0079037274572290733 -0.0071506571109866196 -0.0038457918218410539 -0.030384504803718189 0.010987533122960759 0.020913475241093979 -0.025378873513195184 -0.004380523538950013 -0.0075979190713692515 -0.026117545039861183 -0.0081581157501151129 0.022051609225169334 -0.0015983383369794818 0.014645319267509558 0.0024609663587220171 0.023869274833401143 0.017470737367189841 0.013068262959834943 -0.0083206613123284617 -0.028532004138676327 -0.0066181980649378611 -0.0034406568295864536
leaf_weight=7.2169312238693264 6.1954159587621707 6.4726136922836304 7.9265550971031171 9.4432612806558627 9.7104373723268491 5.9611248075962049 8.423623129725458 5.9552416652441016 7.708158656954768 5.4556155353784543 6.720566362142562 5.1936094313859984 4.9853854179382324 4.9798461347818366 19.39662474393845 5.7176166325807554 5.2214761078357697 5.6991153955459595 8.9062951654195732 5.4475886672735223 5.2226958274841309
leaf_count=29 25 26 32 38 39 24 34 24 31 22 27 21 20 20 78 23 21 23 36 22 21
internal_value=-0.000517952 0.00158833 -0.00400896 0.00619669 0.00835538 -0.0094197 -0.00252746 0.0120195 -0.0025205 -0.00984479 0.00716132 -0.00936351 0.00217404 0.0154129 0.019822 0.00585146 0.0017492 -0.0219649 -0.0161982 -0.0209305 -0.016014
internal_weight=157.96 127.232 56.881 70.3505 16.9274 39.9537 26.328 42.5219 27.8285 18.3853 15.1442 30.7283 11.1808 36.5667 24.3765 12.1902 10.6771 13.6257 19.5475 14.3539 11.1838
internal_count=636 512 229 283 68 161 106 171 112 74 61 124 45 147 98 49 43 55 79 58 45
is_linear=0
shrinkage=0.02


Tree=21
num_leaves=22
num_cat=0
split_feature=2 2 63 2 1 51 43 45 23 31 51 51 52 39 38 41 45 28 40 57 39
split_gain=6.28573 13.2193 12.37 8.28742 9.09184 7.89553 8.48363 7.74646 6.7981 6.45963 5.64858 6.83677 5.51431 5.08673 4.89957 5.42291 4.45516 3.724 2.95708 2.5163 0.655373
threshold=0.0027190000000000005 0.0032810000000000005 0.42501467365617157 0.0019645000000000005 -598165.78819990146 1.5150000000000003 -1.0218905122732878 -0.72031717010426755 1.2550000000000001 -0.6418205445615498 1.9250000000000005 1.7350000000000005 0.3519500000000001 0.064750000000000016 0.04930000000000001 0.044246814919779234 -0.12622727138509868 0.67008036156785877 1.0473905163792538 0.15272248515944273 0.073250000000000023
decision_type=2 2 2 2 2 2 2 2 2 2 2 2 2 2 2 2 2 2 2 2 2
left_child=2 20 13 4 10 6 -3 -8 -9 -7 11 -4 17 18 15 -6 -15 -11 -1 -5 -2
right_child=1 5 3 19 14 9 7 8 -10 12 -12 -13 -14 16 -16 -17 -18 -19 -20 -21 -22
leaf_value=-0.010885616144992736 0.030485440581814838 0.025498065390048393 0.015691649585763939 -0.0036992609709842611 -0.013623817025048205 -0.022897049139773671 0.017598476891523464 0.0051689839397153917 -0.018841138144045998 -0.0034877749731483504 0.030212361064638617 -0.010668045195390795 -0.017567957601189045 -0.017960318944068649 0.012316734083745276 0.0071370221527683542 0.0070602219401690799 0.015607732939953749 -0.034204403955947787 -0.024788026610227273 0.01512500851260911
leaf_weight=4.9370075464248675 5.2286096513271314 7.2087309062480918 11.195523425936704 5.21464556455612 17.08873030543328 7.6780131012201336 7.7081992924213401 9.4482427984476143 8.4450695514678937 8.7027763277292269 5.7270439118146887 5.4629795849323264 5.9113920331001273 5.4532571882009506 5.7248367816209784 6.4429603666067115 4.9738903641700727 6.7302665114402762 7.1669104099273682 5.4579310864210129 5.9747744798660278
leaf_count=20 21 29 45 21 69 31 31 38 34 35 23 22 24 22 23 26 20 27 29 22 24
internal_value=-0.000513429 0.00373612 -0.00424223 0.000276252 0.00370461 0 0.00676563 0.00102517 -0.00595705 -0.00748463 0.0132681 0.00665766 -0.00142275 -0.0168413 -0.0034703 -0.00766946 -0.00560219 0.00459713 -0.0256701 -0.0154137 0.0234234
internal_weight=157.882 73.0361 84.8457 62.3147 51.6421 61.8327 32.8102 25.6015 17.8933 29.0224 22.3855 16.6585 21.3444 22.5311 29.2565 23.5317 10.4271 15.433 12.1039 10.6726 11.2034
internal_count=636 294 342 251 208 249 132 103 72 117 90 67 86 91 118 95 42 62 49 43 45
is_linear=0
shrinkage=0.02


Tree=22
num_leaves=22
num_cat=0
split_feature=2 2 63 2 56 51 43 5 33 39 45 47 25 45 56 33 8 25 40 28 39
split_gain=6.05651 12.7295 11.9319 7.9933 8.21711 7.60858 8.16966 8.16676 7.55099 4.92072 4.54369 4.44898 6.04819 4.29485 4.17409 3.60913 7.23526 4.66665 2.85517 1.93547 0.616186
threshold=0.0027190000000000005 0.0032810000000000005 0.42501467365617157 0.0019645000000000005 1.1041500000000004 1.5150000000000003 -1.0218905122732878 -0.85872871337765988 1.0405511283997584 0.064750000000000016 -0.72031717010426755 1.0822728779629311 -1.0000000180025095e-35 -0.12622727138509868 1.2437500000000001 0.42475963666840372 0.080549553358555417 -1.0000000180025095e-35 1.0473905163792538 0.18330538191283421 0.073250000000000023
decision_type=2 2 2 2 2 2 2 2 2 2 2 2 2 2 2 2 2 2 2 2 2
left_child=2 20 9 4 15 6 -3 -7 10 18 -8 -9 -13 -11 -6 16 -4 -17 -1 -5 -2
right_child=1 5 3 19 14 7 8 11 -10 13 -12 12 -14 -15 -16 17 -18 -19 -20 -21 -22
leaf_value=-0.010690003645257334 0.029896529074529238 0.025038934840471455 0.0053314316689860239 -0.0049174337983856143 -0.018490483539544227 -0.030035025777721946 0.018985081038755056 0.0083358952747474135 -0.018914114064851262 -0.01763583624597518 0 -0.021883706446514051 0.0027033931370827853 0.0069263737523129745 0.0024109567437790819 -0.014346400489099449 0.028669261071502687 0.011323618296058971 -0.033666718684859931 -0.023905092827011365 0.014836984199973174
leaf_weight=4.9323378950357455 5.2308548688888532 7.1996858417987815 19.140674650669101 5.4532922357320768 7.9163787811994535 4.9552814215421703 7.4584330320358303 9.1806841343641299 5.4797632098197928 5.4480909109115601 12.65583546459675 7.1983909457922008 7.6646802723407701 4.9743997901678068 6.1965472847223282 5.2095032185316086 7.701515018939971 5.4579107314348203 7.1407941579818726 5.2112376242876053 5.9747677892446518
leaf_count=20 21 29 77 22 32 20 30 37 22 22 51 29 31 20 25 21 31 22 29 21 24
internal_value=-0.000502714 0.00366868 -0.0041651 0.000270072 0.0036389 0 0.00664264 -0.00735087 0.00100585 -0.0165506 0.00692479 -0.0021168 -0.00900615 -0.00548752 -0.00903785 0.00860107 0.0124914 -0.00071495 -0.0252516 -0.0151432 0.0229846
internal_weight=157.781 72.9984 84.7827 62.2871 51.6225 61.7928 32.7937 28.999 25.594 22.4956 20.1143 24.0438 14.8631 10.4225 14.1129 37.5096 26.8422 10.6674 12.0731 10.6645 11.2056
internal_count=636 294 342 251 208 249 132 117 103 91 81 97 60 42 57 151 108 43 49 43 45
is_linear=0
shrinkage=0.02


end of trees

feature_importances:
funding=23
smart_vs_retail=22
glob_ls_chg_4h=16
btc_liq_ratio=15
mom_accel=15
btc_funding=14
cvd_f_accel=13
ob_std_4h=13
oi_chg_4h=13
btc_cvd_chg=12
ob_imbal=12
taker_chg_1h=12
funding_x_ls=11
liq_norm=11
taker_accel=11
vol_ratio=11
volatility_8h=11
btc_ob_imbal=9
ob_chg_1h=9
oi_range=9
bb_pos=8
glob_ls=8
ob_x_taker=8
oi_chg_1h=8
taker_std_4h=8
btc_mom_1h=7
coin_vs_btc=7
ob_chg_4h=7
btc_oi_chg=6
liq_ratio_chg=6
liq_x_mom=6
mom_8h=6
oi_x_cvd=6
rsi=6
taker_chg_4h=6
funding_vel=5
liq_ratio=5
mom_1h=5
mom_2h=5
oi_chg_8h=5
oi_std_4h=5
btc_mom_4h=4
oi_accel=4
cvd_f_chg_4h=3
mom_4h=3
ob_ratio=3
taker_dom=3
taker_ratio=3
top_ls=3
top_ls_chg_1h=3
cvd_f_chg_1h=2
cvd_f_ratio=2
div_ob_price=1
glob_ls_chg_1h=1
top_ls_chg_4h=1

parameters:
[boosting: gbdt]
[objective: binary]
[metric: binary_logloss]
[tree_learner: serial]
[device_type: cpu]
[data_sample_strategy: bagging]
[data: ]
[valid: ]
[num_iterations: 500]
[learning_rate: 0.02]
[num_leaves: 24]
[num_threads: 0]
[seed: 0]
[deterministic: 0]
[force_col_wise: 0]
[force_row_wise: 0]
[histogram_pool_size: -1]
[max_depth: 6]
[min_data_in_leaf: 20]
[min_sum_hessian_in_leaf: 0.001]
[bagging_fraction: 0.6]
[pos_bagging_fraction: 1]
[neg_bagging_fraction: 1]
[bagging_freq: 5]
[bagging_seed: 3]
[bagging_by_query: 0]
[feature_fraction: 0.6]
[feature_fraction_bynode: 1]
[feature_fraction_seed: 2]
[extra_trees: 0]
[extra_seed: 6]
[early_stopping_round: 0]
[early_stopping_min_delta: 0]
[first_metric_only: 0]
[max_delta_step: 0]
[lambda_l1: 0.3]
[lambda_l2: 0.3]
[linear_lambda: 0]
[min_gain_to_split: 0]
[drop_rate: 0.1]
[max_drop: 50]
[skip_drop: 0.5]
[xgboost_dart_mode: 0]
[uniform_drop: 0]
[drop_seed: 4]
[top_rate: 0.2]
[other_rate: 0.1]
[min_data_per_group: 100]
[max_cat_threshold: 32]
[cat_l2: 10]
[cat_smooth: 10]
[max_cat_to_onehot: 4]
[top_k: 20]
[monotone_constraints: ]
[monotone_constraints_method: basic]
[monotone_penalty: 0]
[feature_contri: ]
[forcedsplits_filename: ]
[refit_decay_rate: 0.9]
[cegb_tradeoff: 1]
[cegb_penalty_split: 0]
[cegb_penalty_feature_lazy: ]
[cegb_penalty_feature_coupled: ]
[path_smooth: 0]
[interaction_constraints: ]
[verbosity: -1]
[saved_feature_importance_type: 0]
[use_quantized_grad: 0]
[num_grad_quant_bins: 4]
[quant_train_renew_leaf: 0]
[stochastic_rounding: 1]
[linear_tree: 0]
[max_bin: 255]
[max_bin_by_feature: ]
[min_data_in_bin: 3]
[bin_construct_sample_cnt: 200000]
[data_random_seed: 1]
[is_enable_sparse: 1]
[enable_bundle: 1]
[use_missing: 1]
[zero_as_missing: 0]
[feature_pre_filter: 1]
[pre_partition: 0]
[two_round: 0]
[header: 0]
[label_column: ]
[weight_column: ]
[group_column: ]
[ignore_column: ]
[categorical_feature: ]
[forcedbins_filename: ]
[precise_float_parser: 0]
[parser_config_file: ]
[objective_seed: 5]
[num_class: 1]
[is_unbalance: 0]
[scale_pos_weight: 1]
[sigmoid: 1]
[boost_from_average: 1]
[reg_sqrt: 0]
[alpha: 0.9]
[fair_c: 1]
[poisson_max_delta_step: 0.7]
[tweedie_variance_power: 1.5]
[lambdarank_truncation_level: 30]
[lambdarank_norm: 1]
[label_gain: ]
[lambdarank_position_bias_regularization: 0]
[eval_at: ]
[multi_error_top_k: 1]
[auc_mu_weights: ]
[num_machines: 1]
[local_listen_port: 12400]
[time_out: 120]
[machine_list_filename: ]
[machines: ]
[gpu_platform_id: -1]
[gpu_device_id: -1]
[gpu_use_dp: 0]
[num_gpu: 1]

end of parameters

pandas_categorical:null
