tree
version=v4
num_class=1
num_tree_per_iteration=1
label_index=0
max_feature_idx=63
objective=binary sigmoid:1
feature_names=bb_pos btc_cvd_chg btc_funding btc_liq_ratio btc_mom_1h btc_mom_4h btc_ob_imbal btc_oi_chg coin_vs_btc cvd_f_accel cvd_f_chg_1h cvd_f_chg_4h cvd_f_ratio cvd_f_vs_spot cvd_spot_sign div_cvd_price div_ob_price div_oi_price div_taker_price funding funding_ext funding_vel funding_x_ls glob_ls glob_ls_chg_1h glob_ls_chg_4h glob_ls_extreme liq_cascade liq_norm liq_ratio liq_ratio_chg liq_x_mom mom_1h mom_2h mom_4h mom_8h mom_accel ob_chg_1h ob_chg_4h ob_imbal ob_ratio ob_std_4h ob_x_taker oi_accel oi_chg_1h oi_chg_4h oi_chg_8h oi_range oi_std_4h oi_x_cvd rsi smart_vs_retail taker_accel taker_chg_1h taker_chg_4h taker_dom taker_ratio taker_std_4h top_ls top_ls_chg_1h top_ls_chg_4h top_ls_extreme vol_ratio volatility_8h
feature_infos=[-4.355210764343461:4.0054117010421368] [-10345745449.3797:856158339.31439972] [-0.0090310000000000008:0.010496] [-1:1] [-21.296861476479513:2.9074508470599891] [-22.06569091082833:5.7426488779570795] [-0.46710000000000002:0.46710000000000002] [-16.639485635806839:4.8445823624005957] [-10.695573677173009:2.0883310785047904] [-8728943012.5279999:8602508584.5485001] [-8751305619.7859001:955127189.875] [-8933360632.1525993:1565970561.3389988] [0.34598309048421683:0.70994062398175506] [-1:1] [-1:1] [-1:1] [-1:1] none [-1:1] [-0.024951999999999998:0.009887] none [-0.020083999999999998:0.015527000000000001] [-0.075105519999999995:0.039765899999999993] [1.0800000000000001:4.3200000000000003] [-0.76000000000000001:1.4399999999999999] [-1.0100000000000002:1.8999999999999999] [0:1] [0:1] [0:25.390215293317958] [-1:1] [-1.9998637364318679:2] [-5.0246587447929487:8.8173170826513356] [-31.992435153652522:4.1210492043074254] [-32.417452988921944:6.2052902148144629] [-32.657892530807274:8.2969516361338425] [-32.658898482689246:8.636723451085393] [-31.807694093440375:31.36747845033624] [-0.42110000000000003:0.38819999999999999] [-0.57250000000000001:0.51900000000000002] [-0.28260000000000002:0.5121] [0.55929908609672518:3.0991035304855541] [0.0049002550954006466:0.28832749608734859] [-0.26951491:0.67044132000000001] [-31.813660644311135:31.355191630206566] [-32.022279646985105:5.4762945823632281] [-32.904232456316699:10.621929428624544] [-34.075949654858206:13.392067387473583] [0:6.4955697494728959] [0:23.958407439608497] [-5.4762945823632281:32.022279646985105] [3.7142018129348031:96.350908368328916] [-1.6099999999999999:1.6700000000000002] [-1.3930000000000002:1.5959000000000001] [-0.80600000000000005:1.3680000000000001] [-1.0199:1.6812] [0.34598309048421683:0.70994062398175506] [0.52900000000000003:2.4476] [0.0060417298847267303:0.69337220524044663] [1:3.54] [-1.3399999999999999:0.2799999999999998] [-1.3299999999999998:1.7200000000000002] [0:1] [0.13212143322669395:33.182031038854085] [0.089187849325572471:10.097322075577397]
tree_sizes=1593 1727

Tree=0
num_leaves=14
num_cat=0
split_feature=50 24 31 31 54 43 31 57 50 12 62 46 63
split_gain=8.64214 9.10825 8.90487 17.2517 7.08356 6.34483 6.39514 6.23377 4.0197 3.45982 3.22022 3.64403 1.70129
threshold=21.479741709576484 -0.10499999999999997 -0.51772354766859452 -0.31023059041971573 -0.28540000000000004 1.2598597157322757 -0.018624520521771014 0.18552586219231729 56.281621262271834 0.49001484057610423 0.46948955148145288 0.87863860016058626 0.83898025725522307
decision_type=2 2 2 2 2 2 2 2 2 2 2 2 2
left_child=9 12 4 10 -3 6 -5 8 -6 -1 -4 -12 -2
right_child=1 2 3 5 7 -7 -8 -9 -10 -11 11 -13 -14
leaf_value=0.061628626986967569 0.057854061388482814 0.042755798994543764 0.033190819591747432 0.025467849120415515 0.0071334626160850928 0.00990315740737404 0.036762961558791628 0.033190819591747432 0.02604313319293319 0.03688822978737618 0.055224552623148175 0.034975654953632487 0.038981233396059002
leaf_weight=4.9986231327056867 4.9986231327056867 4.9986231327056876 4.9986231327056911 46.987057447433472 15.995594024658205 6.4982100725173941 33.740706145763397 8.9975216388702375 7.9977970123291007 5.2485542893409729 15.74566286802292 5.4984854459762564 4.9986231327056885
leaf_count=20 20 20 20 188 64 26 135 36 32 21 63 22 20
internal_value=0.0325048 0.0313288 0.0300637 0.032933 0.0217197 0.0285989 0.0302585 0.0182947 0.0130236 0.0499912 0.0470016 0.05036 0.0494439
internal_weight=171.703 161.456 151.458 113.469 37.9895 87.226 80.7278 32.9909 23.9934 10.2472 26.2428 21.2441 9.99725
internal_count=687 646 606 454 152 349 323 132 96 41 105 85 40
is_linear=0
shrinkage=1


Tree=1
num_leaves=15
num_cat=0
split_feature=24 8 52 23 37 22 23 60 63 39 54 58 54 29
split_gain=7.62149 9.51941 9.10286 5.94501 7.31869 7.35028 6.81085 6.89643 6.18726 6.05592 5.31642 1.71733 1.23165 1.13894
threshold=-0.10499999999999997 0.33816604830392288 0.11460000000000005 2.7350000000000008 0.038050000000000007 -0.0096043350000000003 2.5250000000000004 -0.049999999999999926 0.42648136858818542 -0.024799999999999996 -0.092700000000000046 2.6850000000000005 0.10304999999999999 -0.87508474449618023
decision_type=2 2 2 2 2 2 2 2 2 2 2 2 2 2
left_child=11 3 -3 4 5 -2 7 -6 -7 -5 -11 -1 -12 -4
right_child=1 2 13 9 6 8 -8 -9 -10 10 12 -13 -14 -15
leaf_value=0.0055049106279505345 0.017017647751230325 0.0011284525712685596 -0.033865394744917732 0.021149717731022227 -0.0091166623931011742 0.00068557033088000637 -0.011671556787788306 0.013861519895924261 -0.011371472955777577 0.015199942562883073 -0.014520800194619939 0.024383664285867405 0 -0.016325923200014324
leaf_weight=4.9969597160816175 4.9978432804346076 7.9979973882436779 5.4991714358329782 9.4966438710689562 5.9986180961132076 24.992261096835136 7.2481613010168067 25.492158070206642 47.486500173807144 6.2476664334535625 4.9985000193119031 4.9969597160816193 4.9984216392040253 6.2489651739597294
leaf_count=20 20 32 22 38 24 100 29 102 190 25 20 20 20 25
internal_value=-0.000668666 -0.00176125 -0.0146634 1.84052e-05 -0.00187021 -0.00545031 0.00512302 0.00925099 -0.00714581 0.0086988 0.000805769 0.0159627 -0.00778806 -0.0256728
internal_weight=171.697 161.703 19.7461 141.957 116.216 77.4766 38.7389 31.4908 72.4788 25.7412 16.2446 9.99392 9.99692 11.7481
internal_count=687 647 79 568 465 310 155 126 290 103 65 40 40 47
is_linear=0
shrinkage=0.02


end of trees

feature_importances:
liq_x_mom=3
taker_chg_4h=3
glob_ls=2
glob_ls_chg_1h=2
rsi=2
volatility_8h=2
coin_vs_btc=1
cvd_f_ratio=1
funding_x_ls=1
liq_ratio=1
ob_chg_1h=1
ob_imbal=1
oi_accel=1
oi_chg_8h=1
taker_accel=1
taker_std_4h=1
top_ls=1
top_ls_chg_4h=1
vol_ratio=1

parameters:
[boosting: gbdt]
[objective: binary]
[metric: binary_logloss]
[tree_learner: serial]
[device_type: cpu]
[data_sample_strategy: bagging]
[data: ]
[valid: ]
[num_iterations: 500]
[learning_rate: 0.02]
[num_leaves: 24]
[num_threads: 0]
[seed: 0]
[deterministic: 0]
[force_col_wise: 0]
[force_row_wise: 0]
[histogram_pool_size: -1]
[max_depth: 6]
[min_data_in_leaf: 20]
[min_sum_hessian_in_leaf: 0.001]
[bagging_fraction: 0.6]
[pos_bagging_fraction: 1]
[neg_bagging_fraction: 1]
[bagging_freq: 5]
[bagging_seed: 3]
[bagging_by_query: 0]
[feature_fraction: 0.6]
[feature_fraction_bynode: 1]
[feature_fraction_seed: 2]
[extra_trees: 0]
[extra_seed: 6]
[early_stopping_round: 0]
[early_stopping_min_delta: 0]
[first_metric_only: 0]
[max_delta_step: 0]
[lambda_l1: 0.3]
[lambda_l2: 0.3]
[linear_lambda: 0]
[min_gain_to_split: 0]
[drop_rate: 0.1]
[max_drop: 50]
[skip_drop: 0.5]
[xgboost_dart_mode: 0]
[uniform_drop: 0]
[drop_seed: 4]
[top_rate: 0.2]
[other_rate: 0.1]
[min_data_per_group: 100]
[max_cat_threshold: 32]
[cat_l2: 10]
[cat_smooth: 10]
[max_cat_to_onehot: 4]
[top_k: 20]
[monotone_constraints: ]
[monotone_constraints_method: basic]
[monotone_penalty: 0]
[feature_contri: ]
[forcedsplits_filename: ]
[refit_decay_rate: 0.9]
[cegb_tradeoff: 1]
[cegb_penalty_split: 0]
[cegb_penalty_feature_lazy: ]
[cegb_penalty_feature_coupled: ]
[path_smooth: 0]
[interaction_constraints: ]
[verbosity: -1]
[saved_feature_importance_type: 0]
[use_quantized_grad: 0]
[num_grad_quant_bins: 4]
[quant_train_renew_leaf: 0]
[stochastic_rounding: 1]
[linear_tree: 0]
[max_bin: 255]
[max_bin_by_feature: ]
[min_data_in_bin: 3]
[bin_construct_sample_cnt: 200000]
[data_random_seed: 1]
[is_enable_sparse: 1]
[enable_bundle: 1]
[use_missing: 1]
[zero_as_missing: 0]
[feature_pre_filter: 1]
[pre_partition: 0]
[two_round: 0]
[header: 0]
[label_column: ]
[weight_column: ]
[group_column: ]
[ignore_column: ]
[categorical_feature: ]
[forcedbins_filename: ]
[precise_float_parser: 0]
[parser_config_file: ]
[objective_seed: 5]
[num_class: 1]
[is_unbalance: 0]
[scale_pos_weight: 1]
[sigmoid: 1]
[boost_from_average: 1]
[reg_sqrt: 0]
[alpha: 0.9]
[fair_c: 1]
[poisson_max_delta_step: 0.7]
[tweedie_variance_power: 1.5]
[lambdarank_truncation_level: 30]
[lambdarank_norm: 1]
[label_gain: ]
[lambdarank_position_bias_regularization: 0]
[eval_at: ]
[multi_error_top_k: 1]
[auc_mu_weights: ]
[num_machines: 1]
[local_listen_port: 12400]
[time_out: 120]
[machine_list_filename: ]
[machines: ]
[gpu_platform_id: -1]
[gpu_device_id: -1]
[gpu_use_dp: 0]
[num_gpu: 1]

end of parameters

pandas_categorical:null
