tree
version=v4
num_class=1
num_tree_per_iteration=1
label_index=0
max_feature_idx=63
objective=binary sigmoid:1
feature_names=bb_pos btc_cvd_chg btc_funding btc_liq_ratio btc_mom_1h btc_mom_4h btc_ob_imbal btc_oi_chg coin_vs_btc cvd_f_accel cvd_f_chg_1h cvd_f_chg_4h cvd_f_ratio cvd_f_vs_spot cvd_spot_sign div_cvd_price div_ob_price div_oi_price div_taker_price funding funding_ext funding_vel funding_x_ls glob_ls glob_ls_chg_1h glob_ls_chg_4h glob_ls_extreme liq_cascade liq_norm liq_ratio liq_ratio_chg liq_x_mom mom_1h mom_2h mom_4h mom_8h mom_accel ob_chg_1h ob_chg_4h ob_imbal ob_ratio ob_std_4h ob_x_taker oi_accel oi_chg_1h oi_chg_4h oi_chg_8h oi_range oi_std_4h oi_x_cvd rsi smart_vs_retail taker_accel taker_chg_1h taker_chg_4h taker_dom taker_ratio taker_std_4h top_ls top_ls_chg_1h top_ls_chg_4h top_ls_extreme vol_ratio volatility_8h
feature_infos=[-3.9928838803209139:3.6592538946647748] [-10345745449.3797:805871305.29150009] [-0.0090310000000000008:0.010496] [-1:1] [-21.296861476479513:2.9074508470599891] [-22.06569091082833:5.2531986283915311] [-0.46710000000000002:0.46710000000000002] [-16.639485635806839:4.8445823624005957] [-2.593135218720144:3.3200973481782081] [-133205621.12569994:120416720.70619994] [-134798139.23859996:37835657.707799971] [-151298499.65430003:87582969.394300044] [0.35682116955223253:0.63744584888262601] none none [-1:1] [-1:1] [-1:1] [-1:1] [-0.017381000000000001:0.010123] [-1:1] [-0.016396999999999998:0.014112] [-0.039976299999999999:0.025366979999999997] [1.6599999999999999:2.8500000000000001] [-0.33000000000000007:1.6899999999999999] [-0.36999999999999966:1.73] none [0:1] [0:66470.548014185959] [-1:1] [-2:2] [-4.9589431727102635:1.2907593189362676] [-20.541414829318118:4.0004199916001681] [-21.290542266110503:7.3829787234042543] [-21.317334694919587:8.3957930367504652] [-21.657346212506358:11.321776814734562] [-20.354483059414132:19.598625028589591] [-0.24430000000000002:0.192] [-0.28639999999999999:0.23680000000000001] [-0.1799:0.22009999999999999] [0.69509619737331996:1.5644944112552204] [0.0022331312097590684:0.13795572432849607] [-0.19785402000000002:0.27037084] [-37.45241846249926:36.923869336184495] [-37.094854225713867:10.352850006269264] [-37.265582968130943:11.983482587024019] [-37.537755295908802:15.419388780655719] [0:14.861634497250996] [0:29.436978668366791] [-10.352850006269264:37.094854225713867] [3.3669317395194867:100] [-1.3300000000000001:1.27] [-2.0606:1.3717999999999999] [-1.0393000000000001:0.91979999999999984] [-1.2534000000000001:1.0168999999999999] [0.35682116955223253:0.63744584888262601] [0.55479999999999996:1.7582] [0.0087731123325762005:0.5370576383173411] [1.1000000000000001:3.5800000000000001] [-0.25:1.3199999999999998] [-0.54999999999999982:1.3399999999999999] [0:1] [0.075057271572536138:18.64816637455435] [0.10821846939445112:6.5032905208764955]
tree_sizes=1522 2152 2171

Tree=0
num_leaves=13
num_cat=0
split_feature=3 33 19 50 19 10 59 32 48 49 31 43
split_gain=12.1032 11.574 11.8108 9.17168 8.34936 6.90399 6.58421 6.97823 6.53545 9.96178 7.32372 1.90424
threshold=-0.99401337515654287 -2.1800087289734535 0.0039950000000000012 81.921212662783972 -0.0071224999999999995 -2685464.0999999936 -0.089999999999999955 0.96728946826822881 0.69402221283746568 -0.67571300836579684 -1.0682172355765589 0.19042006263099157
decision_type=2 2 2 2 2 2 2 2 2 2 2 2
left_child=-1 -2 4 8 5 -3 -6 -8 9 -4 -10 -7
right_child=1 2 3 -5 6 11 7 -9 10 -11 -12 -13
leaf_value=-0.061742806632116773 -0.059888278633802222 -0.028184352417138993 -0.072579210315796089 -0.01871058641182035 -0.052344012057897384 -0.064330048335401679 -0.031381919458559768 -0.012151365226740953 -0.057120232964032541 -0.04520518242037002 -0.031333887231291289 -0.044794118420160386
leaf_weight=7.9969406127929679 8.2468450069427472 4.9980878829956046 6.2476098537445059 5.4978966712951651 4.9980878829956046 5.247992277145384 106.70917630195618 8.2468450069427472 5.2479922771453884 35.236519575119019 20.242255926132202 4.9980878829956055
leaf_count=32 33 20 25 22 20 21 427 33 21 141 81 20
internal_value=-0.0380926 -0.0371587 -0.0361986 -0.0426505 -0.0326957 -0.0463248 -0.0309001 -0.0298837 -0.0447871 -0.049682 -0.0370232 -0.0558019
internal_weight=223.914 215.917 207.671 72.4723 135.198 15.2442 119.954 114.956 66.9744 41.4841 25.4902 10.2461
internal_count=896 864 831 290 541 61 480 460 268 166 102 41
is_linear=0
shrinkage=1


Tree=1
num_leaves=19
num_cat=0
split_feature=33 19 10 19 50 54 9 19 9 29 0 0 28 45 0 28 10 8
split_gain=10.2024 10.0346 10.0724 11.4192 9.3022 7.16815 10.0579 7.70519 5.52343 4.47662 4.03543 9.68639 8.41606 6.92364 5.81131 3.65302 2.43276 1.80748
threshold=-2.1800087289734535 0.0041005000000000008 -3562360.2961000199 -0.0069444999999999993 81.921212662783972 1.0000000180025095e-35 -4999842.2138000419 0.0025290000000000004 -12973229.035949884 0.99923266825672508 -0.3355445498823279 0.97742668694444867 185.8095168488355 2.5131876734339591 -0.82319570464442138 461.72270448220002 -6230984.8538999846 0.15772570076800776
decision_type=2 2 2 2 2 2 2 2 2 2 2 2 2 2 2 2 2 2
left_child=-1 2 8 17 10 6 -5 -7 -2 16 14 12 -12 -13 15 -3 -10 -4
right_child=1 4 3 5 -6 7 -8 -9 9 -11 11 13 -14 -15 -16 -17 -18 -19
leaf_value=-0.020382698378864639 0.0010232040927896991 0.0072186683873041611 -0.0075124063138315217 0.021066702890967764 0.02001167975933775 0.0050760956542709621 -0.0069565298542915138 0.024143326730631531 0.035564145195382313 0.0073248843357365456 -0.0075049427752951862 -0.017037562889658277 0.016335568908265544 0.0058017687564527751 -0.02839424212701282 -0.015385904297136176 0.01603216310834989 -0.024998631291883299
leaf_weight=8.2426072061061841 9.7474163323640806 4.9977118372917193 7.2450257986783964 5.7486320585012427 5.4995187520980826 47.985842555761337 31.740792542695999 10.497082620859144 7.2482413202524167 9.2475632280111295 9.7449697554111498 20.487162917852405 13.493725091218947 6.4968039691448203 6.9955367445945731 5.4971718937158585 7.7479086667299306 5.2463846355676651
leaf_count=33 39 20 29 23 22 192 127 42 29 37 39 82 54 26 28 22 31 21
internal_value=0.000997782 0.00186988 0.00497823 0.00192141 -0.00409227 0.00432433 -0.00236754 0.00870629 0.0144553 0.0195328 -0.00621779 -0.0031429 0.0061151 -0.0113154 -0.014508 -0.00416422 0.0263774 -0.0157397
internal_weight=223.91 215.667 142.455 108.464 73.2126 95.9723 37.4894 58.4829 33.9911 24.2437 67.7131 50.2227 23.2387 26.984 17.4904 10.4949 14.9961 12.4914
internal_count=896 863 570 434 293 384 150 234 136 97 271 201 93 108 70 42 60 50
is_linear=0
shrinkage=0.02


Tree=2
num_leaves=19
num_cat=0
split_feature=33 22 22 2 60 44 8 44 54 25 44 4 29 23 9 44 57 36
split_gain=9.82071 11.6168 7.26738 6.68762 7.76688 7.41137 6.58925 8.70441 7.29269 6.22171 11.4935 5.34312 6.71851 4.83386 6.17342 5.98761 5.79145 4.08265
threshold=-2.1800087289734535 0.010415905000000003 0.011928800000000002 0.0019670000000000004 -0.024999999999999908 1.5866430732360051 -0.30844523692220566 -0.9681977738977442 0.012249999999999985 -0.010000000000000118 -0.21385668072119166 -0.34202697663816556 -0.31813432457176355 2.3350000000000004 -9702105.3668000326 0.83571542652789443 0.15502279162818178 0.30908313163792173
decision_type=2 2 2 2 2 2 2 2 2 2 2 2 2 2 2 2 2 2
left_child=-1 3 -3 4 9 6 7 -5 -8 -2 -11 -6 -13 14 -4 16 -15 -16
right_child=1 2 13 5 11 -7 8 -9 -10 10 -12 12 -14 15 17 -17 -18 -19
leaf_value=-0.020003269829063353 0.0059709998009645077 -0.020852061146105466 0.021086057208878808 -0.00010989033926952981 0.020912110580250508 0.028814960064590674 -0.0032949153827171256 0.027394611160138253 0.009917695165153095 0.0027979389928862344 -0.032351584886228871 0.01307878905523477 -0.006627486500732074 0.0042451183887584967 -0.0072981490051642044 -0.027814686983486818 -0.016999758062821075 0.0077670820875692763
leaf_weight=8.2367245405912382 5.9977399706840542 9.4919974505901319 5.747793421149253 6.7488357871770885 6.7486803382635108 6.4987639337778083 31.239473417401314 11.747105613350866 34.24098014831543 5.9978333711624154 8.2447213381528819 11.246423467993738 16.744310066103935 13.240018859505659 17.238587334752086 4.9933959990739814 7.7447376400232306 11.743530020117758
leaf_count=33 24 38 23 27 27 26 125 47 137 24 33 45 67 53 69 20 31 47
internal_value=0.000979775 0.00183566 -0.00478906 0.00507735 -0.000321193 0.00841424 0.00666733 0.0171979 0.00353672 -0.0101854 -0.0173845 0.00529276 0.00113296 -0.002089 0.00265681 -0.00861985 -0.00344282 -0.000971792
internal_weight=223.892 215.655 70.2001 145.455 54.9797 90.4752 83.9764 18.4959 65.4805 20.2403 14.2426 34.7394 27.9907 60.7081 34.7299 25.9782 20.9848 28.9821
internal_count=896 863 281 582 220 362 336 74 262 81 57 139 112 243 139 104 84 116
is_linear=0
shrinkage=0.02


end of trees

feature_importances:
funding=5
oi_chg_1h=4
bb_pos=3
cvd_f_accel=3
cvd_f_chg_1h=3
mom_2h=3
coin_vs_btc=2
funding_x_ls=2
liq_norm=2
liq_ratio=2
rsi=2
taker_chg_4h=2
btc_funding=1
btc_liq_ratio=1
btc_mom_1h=1
glob_ls=1
glob_ls_chg_4h=1
liq_x_mom=1
mom_1h=1
mom_accel=1
oi_accel=1
oi_chg_4h=1
oi_std_4h=1
oi_x_cvd=1
taker_std_4h=1
top_ls_chg_1h=1
top_ls_chg_4h=1

parameters:
[boosting: gbdt]
[objective: binary]
[metric: binary_logloss]
[tree_learner: serial]
[device_type: cpu]
[data_sample_strategy: bagging]
[data: ]
[valid: ]
[num_iterations: 500]
[learning_rate: 0.02]
[num_leaves: 24]
[num_threads: 0]
[seed: 0]
[deterministic: 0]
[force_col_wise: 0]
[force_row_wise: 0]
[histogram_pool_size: -1]
[max_depth: 6]
[min_data_in_leaf: 20]
[min_sum_hessian_in_leaf: 0.001]
[bagging_fraction: 0.6]
[pos_bagging_fraction: 1]
[neg_bagging_fraction: 1]
[bagging_freq: 5]
[bagging_seed: 3]
[bagging_by_query: 0]
[feature_fraction: 0.6]
[feature_fraction_bynode: 1]
[feature_fraction_seed: 2]
[extra_trees: 0]
[extra_seed: 6]
[early_stopping_round: 0]
[early_stopping_min_delta: 0]
[first_metric_only: 0]
[max_delta_step: 0]
[lambda_l1: 0.3]
[lambda_l2: 0.3]
[linear_lambda: 0]
[min_gain_to_split: 0]
[drop_rate: 0.1]
[max_drop: 50]
[skip_drop: 0.5]
[xgboost_dart_mode: 0]
[uniform_drop: 0]
[drop_seed: 4]
[top_rate: 0.2]
[other_rate: 0.1]
[min_data_per_group: 100]
[max_cat_threshold: 32]
[cat_l2: 10]
[cat_smooth: 10]
[max_cat_to_onehot: 4]
[top_k: 20]
[monotone_constraints: ]
[monotone_constraints_method: basic]
[monotone_penalty: 0]
[feature_contri: ]
[forcedsplits_filename: ]
[refit_decay_rate: 0.9]
[cegb_tradeoff: 1]
[cegb_penalty_split: 0]
[cegb_penalty_feature_lazy: ]
[cegb_penalty_feature_coupled: ]
[path_smooth: 0]
[interaction_constraints: ]
[verbosity: -1]
[saved_feature_importance_type: 0]
[use_quantized_grad: 0]
[num_grad_quant_bins: 4]
[quant_train_renew_leaf: 0]
[stochastic_rounding: 1]
[linear_tree: 0]
[max_bin: 255]
[max_bin_by_feature: ]
[min_data_in_bin: 3]
[bin_construct_sample_cnt: 200000]
[data_random_seed: 1]
[is_enable_sparse: 1]
[enable_bundle: 1]
[use_missing: 1]
[zero_as_missing: 0]
[feature_pre_filter: 1]
[pre_partition: 0]
[two_round: 0]
[header: 0]
[label_column: ]
[weight_column: ]
[group_column: ]
[ignore_column: ]
[categorical_feature: ]
[forcedbins_filename: ]
[precise_float_parser: 0]
[parser_config_file: ]
[objective_seed: 5]
[num_class: 1]
[is_unbalance: 0]
[scale_pos_weight: 1]
[sigmoid: 1]
[boost_from_average: 1]
[reg_sqrt: 0]
[alpha: 0.9]
[fair_c: 1]
[poisson_max_delta_step: 0.7]
[tweedie_variance_power: 1.5]
[lambdarank_truncation_level: 30]
[lambdarank_norm: 1]
[label_gain: ]
[lambdarank_position_bias_regularization: 0]
[eval_at: ]
[multi_error_top_k: 1]
[auc_mu_weights: ]
[num_machines: 1]
[local_listen_port: 12400]
[time_out: 120]
[machine_list_filename: ]
[machines: ]
[gpu_platform_id: -1]
[gpu_device_id: -1]
[gpu_use_dp: 0]
[num_gpu: 1]

end of parameters

pandas_categorical:null
