tree
version=v4
num_class=1
num_tree_per_iteration=1
label_index=0
max_feature_idx=63
objective=binary sigmoid:1
feature_names=bb_pos btc_cvd_chg btc_funding btc_liq_ratio btc_mom_1h btc_mom_4h btc_ob_imbal btc_oi_chg coin_vs_btc cvd_f_accel cvd_f_chg_1h cvd_f_chg_4h cvd_f_ratio cvd_f_vs_spot cvd_spot_sign div_cvd_price div_ob_price div_oi_price div_taker_price funding funding_ext funding_vel funding_x_ls glob_ls glob_ls_chg_1h glob_ls_chg_4h glob_ls_extreme liq_cascade liq_norm liq_ratio liq_ratio_chg liq_x_mom mom_1h mom_2h mom_4h mom_8h mom_accel ob_chg_1h ob_chg_4h ob_imbal ob_ratio ob_std_4h ob_x_taker oi_accel oi_chg_1h oi_chg_4h oi_chg_8h oi_range oi_std_4h oi_x_cvd rsi smart_vs_retail taker_accel taker_chg_1h taker_chg_4h taker_dom taker_ratio taker_std_4h top_ls top_ls_chg_1h top_ls_chg_4h top_ls_extreme vol_ratio volatility_8h
feature_infos=[-4.3440972952937669:3.8713957383191113] [-10345745449.3797:856158339.31439972] [-0.0090310000000000008:0.010240000000000001] [-1:1] [-21.296861476479513:2.654415853542802] [-22.06569091082833:5.7426488779570795] [-0.46710000000000002:0.44230000000000003] [-16.639485635806839:3.3570688136860261] [-10.841124885333564:2.8609665853199573] [-1214294969.0247998:1194046762.7465999] [-1219101384.9268999:123001220.63650036] [-1235352013.4045999:5061479899.2621002] [0.31281556381125275:0.65151260559733959] [-1:0] [-1:1] [-1:1] [-1:1] none [-1:1] [-0.037484999999999997:0.0099699999999999997] [-1:0] [-0.022594:0.024712999999999999] [-0.14319269999999998:0.048466240000000008] [1.48:5.7199999999999998] [-1.4800000000000004:2.7599999999999998] [-1.71:3.0899999999999999] none [0:1] [0:189.0486544566281] [-1:1] [-2:2] [-5.278286771189352:25.074071202637313] [-32.137986361813077:4.4747962571687117] [-32.884075411151223:8.4138243284032512] [-32.781616583641323:8.0885129521939483] [-33.485503764215927:9.3055880289922843] [-31.969797990837591:31.038565626501569] [-0.26939999999999997:0.27429999999999999] [-0.36319999999999997:0.34029999999999999] [-0.18310000000000001:0.30530000000000002] [0.69051244477327256:1.8789193283945975] [0.0014905955185763836:0.14346165646262418] [-0.22238166000000001:0.42867611999999999] [-29.865958457535857:29.28854095921826] [-29.873717598110851:4.4363022957850884] [-30.293367369218348:8.1818775492502169] [-31.132442295421569:9.5800569259467458] [0:15.574335257805515] [0:21.576261773797931] [-4.4363022957850884:29.873717598110851] [1.7540138804907315:100] [-3.79:-0.030000000000000027] [-1.6839:1.9077] [-1.0064:1.089] [-0.93120000000000003:0.91870000000000007] [0.31281556381125275:0.65151260559733959] [0.45519999999999999:1.8694999999999999] [0.015113735474726296:0.43321715397707877] [0.98999999999999999:2.3799999999999999] [-0.87000000000000011:1.0099999999999998] [-0.91000000000000014:1.0099999999999998] [0:1] [0.052208306363955764:9.7851386283817163] [0.10807190352393031:10.133608230566743]
tree_sizes=2151 2055 1953 1945 2143 1203 1849 1944 1631 1640 2447 2135 2098 2259 1829 1724 1811 2636

Tree=0
num_leaves=19
num_cat=0
split_feature=29 41 9 51 62 23 31 63 50 8 48 42 33 32 48 21 31 46
split_gain=11.4953 9.8403 12.9391 7.97769 8.36219 7.86355 8.04623 8.3284 7.92218 7.86089 7.79283 7.14136 5.68305 5.67275 5.00984 4.64772 2.47321 2.32882
threshold=0.96692591210814727 0.019945013278489413 14157505.539400103 -1.3249999999999997 0.59229021687092309 4.5650000000000004 -0.65798611426380071 0.38104725301824743 64.971311268867865 0.11172301934067598 0.51890287454287831 0.034000615000000005 -0.71271014533049171 1.3214935765542004 0.72527052873314257 -0.00018599999999999951 -0.029262024634161988 -0.63489592420320473
decision_type=2 2 2 2 2 2 2 2 2 2 2 2 2 2 2 2 2 2
left_child=1 2 9 4 -2 6 13 16 -9 10 -1 12 -6 14 -3 -13 -8 -5
right_child=3 5 -4 17 11 -7 7 8 -10 -11 -12 15 -14 -15 -16 -17 -18 -19
leaf_value=-0.027703091034637906 0.013697456029585327 -0.029841146339784699 -0.033239390801841316 -0.016213776900606242 -0.037368998296274498 -0.0064566567618944692 -0.045645429735542101 -0.016997590779810196 -0.032544718097997381 0.011983209979197221 0.0037155865652857417 -0.015987895603459167 -0.0093166355362087078 -0.018987912244691454 -0.051049216416489046 0.011788864680886066 -0.025900315119174913 -0.033765087349158951
leaf_weight=6.7493916749954277 7.2493466138839748 10.749031186103826 7.4993240833282462 5.4995043277740479 5.2495268583297738 8.24925649166107 7.2493466138839722 57.994772911071777 16.498512983322144 7.999279022216796 5.2495268583297729 4.999549388885498 5.4995043277740487 5.9994592666625968 9.9990987777709943 5.749481797218321 5.749481797218321 5.2495268583297712
leaf_count=27 29 43 30 22 21 33 29 232 66 32 21 20 22 24 40 23 23 21
internal_value=-0.0197363 -0.0222952 -0.0116332 -0.0102183 -0.00470376 -0.0247497 -0.0261524 -0.0230973 -0.0204013 -0.00314439 -0.0142268 -0.0115485 -0.0226007 -0.0357673 -0.0406583 -0.000155285 -0.0377161 -0.0244108
internal_weight=189.483 149.986 27.4975 39.4964 28.7474 122.489 114.24 87.4921 74.4933 19.9982 11.9989 21.4981 10.749 26.7476 20.7481 10.749 12.9988 10.749
internal_count=758 600 110 158 115 490 457 350 298 80 48 86 43 107 83 43 52 43
is_linear=0
shrinkage=1


Tree=1
num_leaves=18
num_cat=0
split_feature=29 41 9 28 52 22 30 51 62 8 25 42 7 33 4 21 46
split_gain=11.0709 9.46448 12.4518 9.19181 9.40265 9.59769 10.8936 7.67941 8.0304 7.55514 7.06133 6.87687 6.52637 5.4729 5.20646 4.46164 2.245
threshold=0.96692591210814727 0.019945013278489413 14157505.539400103 15.391030208901929 -0.24165000000000011 0.010221370000000002 0.0022395035050242766 -1.3249999999999997 0.59229021687092309 0.11172301934067598 0.29499999999999998 0.034000615000000005 -0.25377535725546457 -0.71271014533049171 0.042294504396722672 -0.00018599999999999951 -0.63489592420320473
decision_type=2 2 2 2 2 2 2 2 2 2 2 2 2 2 2 2 2
left_child=1 2 9 4 5 6 -3 8 -2 14 12 13 -6 -10 -1 -13 -9
right_child=7 3 -4 -5 10 -7 -8 16 11 -11 -12 15 -14 -15 -16 -17 -18
leaf_value=0.015847922937119872 0.032056264838107362 -0.023420384058525378 -0.013979936118540696 -0.02682411838058903 0.007831770531102282 -0.029727395449909402 0.0050221054786381289 0.0027214586090286395 -0.018037795999030742 0.030372461552898841 0.017499863586972326 0.0029433393287074095 -0.0057933306634066015 0.0094872349032479736 -0.009874655418281815 0.030190136796049587 -0.014500305408731623
leaf_weight=6.999316364526754 7.2496599107980755 8.2486239075660759 7.4979288876056662 7.4974907785654059 17.996317803859711 9.7477645426988584 13.747560784220694 5.4996384084224701 5.2481675148010263 7.9997129440307608 7.4994230270385733 4.9996805191040039 57.739989623427391 5.4998806715011606 4.9993703812360764 5.7498001903295499 5.2485039085149747
leaf_count=28 29 33 30 30 72 39 55 22 21 32 30 20 231 22 20 23 21
internal_value=-0.000732631 -0.00324451 0.00721022 -0.00565237 -0.00415356 -0.0133678 -0.00554641 0.00860738 0.0140187 0.0155398 -0.000532269 0.00730318 -0.00245872 -0.00353473 0.00466306 0.0184844 -0.00531053
internal_weight=189.469 149.973 27.4963 122.477 114.98 31.7439 21.9962 39.4953 28.7472 19.9984 83.2357 21.4975 75.7363 10.748 11.9987 10.7495 10.7481
internal_count=758 600 110 490 460 127 88 158 115 80 333 86 303 43 48 43 43
is_linear=0
shrinkage=0.02


Tree=2
num_leaves=17
num_cat=0
split_feature=29 19 45 53 1 28 24 31 43 6 31 11 31 2 42 2
split_gain=10.6609 8.57267 9.84791 8.29151 7.70716 6.92934 6.60569 6.56517 13.2389 6.11159 5.93327 6.1246 5.36276 4.97198 3.25975 0.979033
threshold=0.96692591210814727 0.0064055000000000006 -2.3438471679201096 -0.022750000000000044 -59488930.765100949 0.38310170592471032 -0.044999999999999922 -0.79889231894105783 -1.1892665702944669 0.0071000000000000013 0.15265541915863218 -42621189.341450088 -0.21817142531118303 0.0037575000000000004 0.026286830000000008 0.0064980000000000012
decision_type=2 2 2 2 2 2 2 2 2 2 2 2 2 2 2 2
left_child=1 2 14 15 6 -5 -4 8 -2 -9 11 -6 -8 -11 -1 -3
right_child=7 3 4 5 10 -7 12 9 -10 13 -12 -13 -14 -15 -16 -17
leaf_value=-0.0023084555125634397 0.018447475391704177 -0.03581752819815575 -0.0074047198910554227 0.014335912999012386 0.015652066896370297 -0.013715412859580096 0.0023159191883712284 0.028584187615811302 -0.017705754493523757 0.019660995918090961 -0.018650598117676945 -0.0020080861191436768 0.025834846845577124 -0.0025847407997328527 -0.024065367271079934 -0.017010463006128275
leaf_weight=4.9985353052616111 6.9973799288272849 4.9966492056846636 5.2479867041111019 4.9989358186721793 8.4982702881097776 9.7463086694478971 6.9978171437978789 8.4976744949817675 8.7465258836746198 6.4981517493724814 7.2485123276710501 72.728942945599556 10.74824950098991 8.7463957816362363 8.7451939731836301 4.9966434836387634
leaf_count=20 28 20 21 20 34 39 28 34 35 26 29 291 43 35 35 20
internal_value=-0.000715838 -0.00318142 -0.000990963 -0.013884 0.000944156 -0.00371042 0.0112153 0.00845 -0.00121899 0.0150465 -0.00168651 -3.60284e-05 0.0170858 0.00670819 -0.0167981 -0.0277667
internal_weight=189.438 149.952 125.214 24.7385 111.47 14.7452 22.9941 39.4861 15.7439 23.7422 88.4757 81.2272 17.7461 15.2445 13.7437 9.99329
internal_count=758 600 501 99 446 59 92 158 63 95 354 325 71 61 55 40
is_linear=0
shrinkage=0.02


Tree=3
num_leaves=17
num_cat=0
split_feature=29 41 57 28 57 63 50 51 22 28 57 3 43 8 3 45
split_gain=10.2623 9.06607 12.0624 8.67929 7.87612 8.47494 8.89549 7.33837 6.75437 6.18023 5.82722 4.94692 3.87996 8.35452 3.04033 2.82396
threshold=0.96692591210814727 0.020123834622186993 0.1112396877803196 15.391030208901929 0.25451572754057628 0.38104725301824743 57.91609127457459 -1.3249999999999997 0.0079243400000000002 0.61841348818778485 0.16209655424319966 -0.18569314793517203 -1.0465107551056561 -0.35884227306269828 0.92401845534943539 0.8921241002617043
decision_type=2 2 2 2 2 2 2 2 2 2 2 2 2 2 2 2
left_child=1 2 -1 4 5 11 -7 9 10 -2 -4 -3 -11 -14 -9 -6
right_child=7 3 8 -5 15 6 -8 14 -10 12 -12 -13 13 -15 -16 -17
leaf_value=0.026443837823125708 0.0291500743812655 -0.028369474177198453 -0.0055133721423632357 -0.026115455972452989 -0.029763322431994282 0.0043174767910389156 -0.0089487445852862568 0.0046350179234044891 -0.018390132381533888 0.020784037920744271 0.019666072373386242 -0.001856960709914483 -0.01426833693005013 0.014872536680192217 -0.015584539059112862 -0.0071695335105731442
leaf_weight=8.4968555867671984 7.4950738847255733 6.995107501745224 7.2473320513963717 7.4895708113908759 5.7474643290042859 60.483312398195267 29.985104292631149 5.2489323467016202 6.2461593747138968 5.9965173751115826 6.4972245246171951 5.4978454113006574 6.7450009435415295 8.4956082552671379 5.4979221373796463 5.2468373030424118
leaf_count=34 30 28 29 30 23 242 120 21 25 24 26 22 27 34 22 21
internal_value=-0.000703422 -0.00312312 0.00688844 -0.00553202 -0.00406167 -0.00224971 -2.84584e-05 0.00828949 -0.00139578 0.0135845 0.00612789 -0.0174881 0.00748287 0.00156317 -0.00530817 -0.0199889
internal_weight=189.412 149.933 28.4876 121.445 113.956 102.961 90.4684 39.4791 19.9907 28.7322 13.7446 12.493 21.2371 15.2406 10.7469 10.9943
internal_count=758 600 114 486 456 412 362 158 80 115 55 50 85 61 43 44
is_linear=0
shrinkage=0.02


Tree=4
num_leaves=19
num_cat=0
split_feature=23 29 31 25 52 1 1 3 11 43 31 2 2 35 58 6 11 11
split_gain=10.1349 9.8988 6.7635 8.23571 14.555 9.00611 9.00581 6.6485 6.58308 6.44407 7.45569 5.59974 4.23911 8.20565 4.23781 3.95125 2.78851 1.46968
threshold=4.5650000000000004 0.96692591210814727 -0.65798611426380071 -0.21999999999999995 0.25655000000000017 -55366575.504450314 -124747684.56870006 0.8065927102907442 -42621189.341450088 -1.2972338136667259 -0.8844531593945647 0.0042090000000000001 0.0041290000000000007 -0.83110051866537848 2.0050000000000003 0.057950000000000008 -20601842.502900001 -12772543.38890004
decision_type=2 2 2 2 2 2 2 2 2 2 2 2 2 2 2 2 2 2
left_child=1 2 9 4 17 6 -5 14 -7 -1 11 -11 13 -9 -3 -14 -2 -4
right_child=16 7 3 5 -6 8 -8 12 -10 10 -12 -13 15 -15 -16 -17 -18 -19
leaf_value=-0.032233827531847704 0.0040570323076906918 0.027348467356982105 -0.0337386787261367 -0.00097539983691196351 0.012103730098584637 0.012553451049300729 0.024950309648236937 0.021922866628195536 -0.0053644185773328665 0.013733639263662762 -0.02129112052344281 -0.010242173609224303 0.0019397605794792298 -0.0091134410505998697 0.0024129198345837562 -0.020906126367968941 0.024314208013024856 -0.015141690737463463
leaf_weight=5.4918860942125347 5.7475017458200455 7.9915874451398832 6.7438902407884607 9.9930519312620181 5.2477996945381156 8.997054383158682 10.245513409376143 7.494174510240553 62.46830141544342 6.9940968304872548 9.7401340007781947 7.9909831881523132 5.9942181259393674 5.4946482926607167 4.9961475431919098 4.9967330992221832 7.2478496283292753 5.4942034482955941
leaf_count=22 23 32 27 40 21 36 41 30 250 28 39 32 24 22 20 20 29 22
internal_value=-0.000691932 -0.00198837 -0.00445484 -0.00205652 -0.0145192 0.000294212 0.0120298 0.00711284 -0.00298201 -0.0128192 -0.00793236 0.000605611 0.000557524 0.00843276 0.0184788 -0.00819461 0.0161 -0.0264303
internal_weight=189.37 176.374 139.407 109.19 17.4859 91.7039 20.2386 36.9675 71.4654 30.2171 24.7252 14.9851 23.9798 12.9888 12.9877 10.991 12.9954 12.2381
internal_count=758 706 558 437 70 367 81 148 286 121 99 60 96 52 52 44 52 49
is_linear=0
shrinkage=0.02


Tree=5
num_leaves=10
num_cat=0
split_feature=22 42 53 24 22 22 50 45 50
split_gain=9.19538 5.9409 6.19457 7.22177 6.81847 9.64553 5.8592 3.43253 2.88103
threshold=-0.051625954999999994 -0.084426244999999997 0.35675000000000012 0.1199999999999999 0.010924540000000002 0.03636656500000001 24.253080659076542 -0.6582502513690579 49.219709742159509
decision_type=2 2 2 2 2 2 2 2 2
left_child=-1 -2 3 4 6 -6 -3 -5 -4
right_child=1 2 8 7 5 -7 -8 -9 -10
leaf_value=0.025234317726803353 0.016138887560020299 0.019073794073206408 -0.0019739887966913165 -0.003324199225456982 -0.0089152537642532143 0.01880680637928682 0.0016232442945836346 -0.025363742391507144 -0.021792163373803169
leaf_weight=4.9971767365932456 6.9959492087364188 8.2443427145481092 5.4969769567251197 6.2442003488540649 45.192625150084496 5.2445997148752204 93.176881060004234 6.49609726667404 8.7430346459150297
leaf_count=20 28 33 22 25 181 21 373 26 35
internal_value=-0.000689645 -0.00145853 -0.00220629 -0.00105957 0.000127543 -0.00582023 0.00315282 -0.0153469 -0.0147531
internal_weight=190.832 185.835 178.839 164.599 151.858 50.4372 101.421 12.7403 14.24
internal_count=764 744 716 659 608 202 406 51 57
is_linear=0
shrinkage=0.02


Tree=6
num_leaves=16
num_cat=0
split_feature=22 41 10 30 10 33 40 37 36 37 38 7 40 36 45
split_gain=8.85265 7.06222 9.17779 8.635 6.57262 7.66236 6.11655 5.69455 9.66127 6.50692 5.65186 8.05942 6.63776 2.2582 1.82091
threshold=-0.051625954999999994 0.019945013278489413 -30765814.711350199 0.0022395035050242766 -15275127.186949966 -1.2002550030085988 1.0167479933474008 0.0057500000000000008 0.071242033965723831 0.020350000000000004 -0.016949999999999996 0.058392285895136904 1.0996824457225693 0.71464819947183467 -0.84278505693318728
decision_type=2 2 2 2 2 2 2 2 2 2 2 2 2 2 2
left_child=-1 7 3 -3 5 -4 -7 8 -2 -9 11 -6 -12 -10 -5
right_child=1 2 4 14 10 6 -8 9 13 -11 12 -13 -14 -15 -16
leaf_value=0.024762930786876441 0.030356795606225308 0.0029085257773164481 0.027453001703324494 -0.033544842955032628 0.010719021874076546 0.015750642310811691 -0.0074840405246029253 -0.013979205531848723 -0.0076644635252741435 0.011864767319454491 -0.013762596990952227 -0.0055394629849617261 -0.00048615480172184493 0.010485423351447644 -0.013487369300602844
leaf_weight=4.9961750656366339 7.9935968965292004 5.4939042478799847 5.7432896643877056 6.9866986572742471 21.23299852013588 6.9931430518627193 11.484827846288679 8.2433962374925596 5.2451050430536252 6.7436398714780799 32.467516124248505 27.477373763918877 29.723287507891655 4.9956137537956238 4.9942117482423756
leaf_count=20 32 22 23 28 85 28 46 33 21 27 130 110 119 20 20
internal_value=-0.000674683 -0.00142968 -0.00327688 -0.0168207 -0.00144763 0.00785359 0.00110095 0.00682952 0.0142867 -0.00195321 -0.00354871 0.00144747 -0.0075461 0.000666605 -0.0262062
internal_weight=190.815 185.819 152.597 17.4748 135.122 24.2213 18.478 33.2214 18.2343 14.987 110.901 48.7104 62.1908 10.2407 11.9809
internal_count=764 744 611 70 541 97 74 133 73 60 444 195 249 41 48
is_linear=0
shrinkage=0.02


Tree=7
num_leaves=17
num_cat=0
split_feature=22 23 22 37 10 29 22 1 62 58 36 4 36 36 19 34
split_gain=8.52463 6.02044 8.88881 9.73359 8.60094 8.16469 6.73845 7.09653 11.3678 7.49719 5.75169 6.38397 5.08942 6.61267 4.35011 9.44148
threshold=-0.051625954999999994 4.1050000000000013 0.010924540000000002 0.10210000000000001 18503220.614449743 0.98169295695378878 0.00056742000000000012 -44340389.738049977 1.1877659011799442 1.2550000000000001 -0.51159552930339902 0.4470090607823774 -0.94542315574464564 -0.29926216838452863 0.0019190000000000003 0.040999214300341265
decision_type=2 2 2 2 2 2 2 2 2 2 2 2 2 2 2 2
left_child=-1 2 6 12 5 14 7 8 -2 -9 -8 -12 -4 -14 15 -3
right_child=1 4 3 -5 -6 -7 10 9 -10 -11 11 -13 13 -15 -16 -17
leaf_value=0.024307424126366758 0.016822129698185112 0.021887252130125375 -0.028623095748696415 0.014654401143719466 -0.015156248939183235 -0.0071489808858718378 -0.0089383570060345835 0.00017547970395241617 -0.010013363723927318 -0.015348518745533847 0.018791352007794398 -0.0057409585413166755 0.0033390715317028366 -0.015660246546547719 0.026193508018564432 -0.0088642324022821795
leaf_weight=4.9936494529247275 14.484852209687235 8.4943438619375247 7.7273458987474433 4.9934235811233512 6.2449661195278159 7.987195372581481 5.4952507317066219 23.476669862866402 10.485260456800459 24.479519382119179 17.238706931471828 4.9958986192941657 9.7365260422229749 23.711491867899895 9.4923550933599454 6.7455047219991675
leaf_count=20 58 34 31 20 25 32 22 94 42 98 69 20 39 95 38 27
internal_value=-0.000659488 -0.0014009 -0.00328141 -0.0105169 0.00550334 0.0097301 0 -0.00313331 0.00533104 -0.00767066 0.00839721 0.0130099 -0.0137981 -0.00997135 0.0154412 0.00798148
internal_weight=190.783 185.789 146.825 46.1688 38.9644 32.7194 100.656 72.9263 24.9701 47.9562 27.7299 22.2346 41.1754 33.448 24.7322 15.2398
internal_count=764 744 588 185 156 131 403 292 100 192 111 89 165 134 99 61
is_linear=0
shrinkage=0.02


Tree=8
num_leaves=14
num_cat=0
split_feature=51 63 45 7 24 59 7 9 9 45 45 19 60
split_gain=8.66156 6.4889 7.05848 5.97444 11.0578 8.08169 7.53726 8.32435 7.80066 5.29922 6.54947 3.7836 2.15807
threshold=-0.85499999999999998 1.3524882379339223 -2.9143379209590035 -0.058700606599265674 0.050000000000000495 -0.019999999999999903 0.59925637496005557 31407291.034799937 -23310729.440299448 0.19159413087161961 -0.76403677425623251 -0.005004999999999999 1.0000000180025095e-35
decision_type=2 2 2 2 2 2 2 2 2 2 2 2 2
left_child=1 2 -1 4 5 -4 8 -8 -5 10 -2 -3 -11
right_child=9 11 3 6 -6 -7 7 -9 -10 12 -12 -13 -14
leaf_value=-0.018655081071229523 -0.012765266476374156 0.026470950054901382 -0.0096214856337014584 0.012378879691064888 -0.017132367003129506 0.012880954543019924 -0.0012205668233102364 0.030355155696696192 -0.006992311249882071 -0.010907371735804717 0.014675580998268203 0.0026049564647961619 -0.031502583288772382
leaf_weight=7.4834997355937949 9.4877925366163236 5.7427322566509247 6.9906770437955847 8.9852564185857755 6.7379850447177878 41.696581244468689 7.4889250695705396 5.2460972219705582 68.670794919133186 5.9924233853816968 4.9932933300733593 5.9882711917161924 5.2370499521493912
leaf_count=30 38 23 28 36 27 167 30 21 275 24 20 24 21
internal_value=-0.000646132 0.00100942 -6.15151e-05 0.000888012 0.00606963 0.00948836 -0.00223262 0.0117258 -0.00463497 -0.0113926 -0.00279152 0.0151556 -0.0216025
internal_weight=190.741 165.031 153.3 145.816 55.4252 48.6873 90.3911 12.735 77.6561 25.7106 14.4811 11.731 11.2295
internal_count=764 661 614 584 222 195 362 51 311 103 58 47 45
is_linear=0
shrinkage=0.02


Tree=9
num_leaves=14
num_cat=0
split_feature=51 22 6 7 25 24 7 54 1 39 6 47 57
split_gain=8.34274 7.00368 5.25249 6.48184 8.80711 10.3938 7.63118 9.87704 6.87709 4.92861 4.70282 3.78142 2.92061
threshold=-0.85499999999999998 -0.051625954999999994 -0.10919999999999998 -0.054343006283213972 -0.24500000000000008 0.010000000000000455 0.59925637496005557 -0.019100000000000002 56449633.153899677 0.017050000000000006 0.028900000000000006 0.99334934894088633 0.13413966908371303
decision_type=2 2 2 2 2 2 2 2 2 2 2 2 2
left_child=1 -1 12 4 -4 -6 8 -8 -5 -2 -11 -12 -3
right_child=9 2 3 6 5 -7 7 -9 -10 10 11 -13 -14
leaf_value=0.023648641752705389 0.00014284791547952561 -0.0011666379022593132 -0.012925872837851952 -0.00035736892891349522 0.015993559066596514 -0.0041994304457084455 -0.0094050825135703463 0.024735358765480237 -0.013943225532863573 -0.032198280780429092 0.0016736221709920695 -0.020576005706295634 -0.017742378160940226
leaf_weight=4.9869796037673941 8.9856395572423953 9.4912808388471621 7.2354709208011618 51.685190439224243 34.202504903078079 13.728838235139845 4.9926628917455682 8.4924258589744532 21.220567584037781 5.7349556684494045 5.7422358989715558 5.2351023554801941 8.974686384201048
leaf_count=20 36 38 29 207 137 55 20 34 85 23 23 21 36
internal_value=-0.000634268 0.000989749 0.000203252 0.00155483 0.00691408 0.0100952 -0.00181032 0.0117305 -0.00443468 -0.0111842 -0.0175222 -0.0086703 -0.00969723
internal_weight=190.709 165.011 160.024 141.558 55.1668 47.9313 86.3908 13.4851 72.9058 25.6979 16.7123 10.9773 18.466
internal_count=764 661 641 567 221 192 346 54 292 103 67 44 74
is_linear=0
shrinkage=0.02


Tree=10
num_leaves=22
num_cat=0
split_feature=3 41 3 49 60 43 6 43 11 58 32 56 3 33 8 34 30 10 49 57 62
split_gain=9.90893 9.68616 7.6636 8.19666 8.10858 5.91079 9.42996 9.42137 9.75847 5.84518 6.44672 5.72819 5.4053 6.5354 4.98974 4.4584 5.7316 6.10844 4.37839 2.56076 0.58791
threshold=-0.73383033390696228 0.027005247930841293 -0.7863775295144092 -0.42762564587828228 -0.029999999999999912 -0.73742858322843319 0.023400000000000004 1.0802831850374341 -58637306.775350086 2.0550000000000002 0.023935293357724156 1.0770000000000002 -0.93126641352456196 -0.048599106129587614 0.29435836376681129 -0.18449482156486782 0.35727960605520986 -10743999.161749957 0.81044875541069772 0.11011495050382943 0.85776078169093817
decision_type=2 2 2 2 2 2 2 2 2 2 2 2 2 2 2 2 2 2 2 2 2
left_child=2 11 3 4 -1 6 18 9 -9 10 -7 15 13 -5 -6 16 17 -2 -3 -17 -15
right_child=1 5 -4 12 14 7 -8 8 -10 -11 -12 -13 -14 20 -16 19 -18 -19 -20 -21 -22
leaf_value=0.02028594536401955 0.029086203861202597 -0.026135445409779509 -0.028482817417428589 0 0.0087936146702700529 0.010020275669763162 0.0093642008030142884 0.010593662875241583 -0.022857463975747731 0.021683022304410684 -0.0052598508697133317 -0.0021198524468503343 0.0010131922178871332 -0.032795292326658128 -0.01379956363633046 0.036006035380867656 -0.0039916433895464919 0.00037535954012178906 -0.0046707269129457911 0.015726039748111872 -0.016636749435357086
leaf_weight=8.4887943118810671 6.9868225455284092 8.7278510481119209 5.2377575933933249 4.9927085936069497 6.4914350956678382 28.208594843745232 7.9866900146007529 4.9918766617774954 9.2390544116497022 9.2383589595556241 17.225072011351585 8.7409594655036909 8.2386341392993927 5.9902816563844663 8.48028616607189 5.2417385280132285 7.9848127216100684 5.7415984123945281 8.2282555103301984 9.7353140413761121 4.9908719658851624
leaf_count=34 28 35 21 20 26 113 32 20 37 37 69 35 33 24 34 21 32 23 33 39 20
internal_value=0.00123942 0.00408058 -0.00605406 -0.00330207 0.00491766 0.000362683 -0.00785103 0.00344388 -0.0107342 0.00728198 0.00409949 0.0117441 -0.011474 -0.018183 -0.00363043 0.0152957 0.00862046 0.0169026 -0.0163293 0.0237842 -0.0266209
internal_weight=191.188 138.277 52.9108 47.673 23.4605 93.8458 24.9428 68.903 14.2309 54.672 45.4337 44.4312 24.2125 15.9739 14.9717 35.6903 20.7132 12.7284 16.9561 14.9771 10.9812
internal_count=766 554 212 191 94 376 100 276 57 219 182 178 97 64 60 143 83 51 68 60 44
is_linear=0
shrinkage=0.02


Tree=11
num_leaves=19
num_cat=0
split_feature=51 44 36 12 52 50 43 24 43 3 45 9 3 36 63 12 8 21
split_gain=14.4288 8.86404 10.4599 8.83451 9.7572 8.25892 8.71567 7.48857 7.06644 7.37921 6.82093 5.82521 5.18479 6.28933 4.58458 4.50131 4.12681 1.33749
threshold=-1.8249999999999995 -0.37293646561071253 -0.52222348560197462 0.54803326729547186 -0.34500000000000003 81.284920466946389 1.0999190592818011 0.14500000000000027 -0.7006318917967268 -0.92026066299205034 -1.256167097372368 -25928284.805600043 0.96456153273668199 -0.4780856187370785 0.74692662732669401 0.45911608260250342 0.25579177245682599 -1.0000000180025095e-35
decision_type=2 2 2 2 2 2 2 2 2 2 2 2 2 2 2 2 2 2
left_child=3 2 14 4 11 6 8 12 -3 -10 -4 15 13 -6 -2 -1 -5 -8
right_child=1 5 10 16 7 -7 17 -9 9 -11 -12 -13 -14 -15 -16 -17 -18 -19
leaf_value=-0.0034102578997721789 -0.017970057467116905 -0.027560330352358761 0 0.0034725250526453084 0.027958892943757755 0.0152010708049945 -0.032707272725673142 -0.0096128691508436063 -0.018385494205479275 0.0013298276647247395 0.028364756687440186 -0.013967500586535347 -0.0026876067902626842 0.012008436229046628 0.0040464046931983615 0.020549302260921682 -0.01928703884467891 -0.01595296038132054
leaf_weight=6.7408879697322863 7.2360500693321246 5.2250074595212928 5.9933847039937964 4.9929509758949262 14.973742768168448 4.9924224615097037 6.2345092445611954 4.9870998412370673 9.4776214808225578 31.953254088759426 8.2371957004070264 9.732882007956503 5.4895993322134009 38.939057588577271 6.7291350811719894 4.9877336025238037 6.7344203293323517 7.4879507720470411
leaf_count=27 29 21 24 20 60 20 25 20 38 128 33 39 22 156 27 20 27 30
internal_value=0.00121553 -0.00435049 0.00485325 0.00661099 0.0088724 -0.00841566 -0.0105328 0.0127664 -0.00615783 -0.00313617 0.0168801 -0.00254975 0.0147846 0.0166794 -0.00707881 0.0065384 -0.00925333 -0.0245297
internal_weight=191.145 93.5665 28.1958 97.5784 85.851 65.3708 60.3783 64.3895 46.6559 41.4309 14.2306 21.4615 59.4024 53.9128 13.9652 11.7286 11.7274 13.7225
internal_count=766 375 113 391 344 262 242 258 187 166 57 86 238 216 56 47 47 55
is_linear=0
shrinkage=0.02


Tree=12
num_leaves=19
num_cat=0
split_feature=51 52 10 62 7 33 45 22 24 52 31 10 10 9 8 9 39 30
split_gain=13.8667 8.54227 8.3162 8.75035 11.0398 8.9941 7.24174 6.55377 6.13442 6.49135 5.32779 5.08457 9.15833 6.70322 4.57057 4.44725 3.37185 2.36402
threshold=-1.8249999999999995 -0.40305000000000013 36957341.111149915 0.70284790967878186 -0.12293808056489385 -0.73106277986027524 0.98831785304552844 -0.018060029999999998 -0.1350000000000002 0.51405000000000012 -0.29140005589463608 -31001694.539799925 -15013954.792449949 -18189587.236499902 -0.24329862934002186 -19242444.422300812 0.011750000000000002 0.19739873461261379
decision_type=2 2 2 2 2 2 2 2 2 2 2 2 2 2 2 2 2 2
left_child=1 7 3 4 -3 15 -6 -1 -2 11 -11 -10 14 -14 -13 -5 -9 -7
right_child=8 2 -4 5 6 17 -8 16 9 10 -12 12 13 -15 -16 -17 -18 -19
leaf_value=0.012833013412244326 -0.02111310323055288 0.021725166749842734 -0.012901455555941962 0.014448044357697618 -0.013957261368027545 0.018149711287466869 0.012343215357957982 -0.020771940513086059 -0.014720830197359588 0 -0.023021327926696106 0.032219332022471153 -0.018639069684576733 0.0014261614650669741 0.0046459286425315658 -0.0063764625510992299 0 0.032800166704663368
leaf_weight=4.9885108619928387 7.7184816896915427 7.7290195226669338 5.735993653535842 7.4814349859952927 13.730662450194361 22.712527230381969 5.4870518296957007 8.2290050536394101 7.9764582067728034 5.9824152290821067 9.7319543808698636 4.9887125343084335 7.4800161570310513 43.922678813338287 5.7306205779314023 7.9839408248662931 4.9927097856998435 8.4874024689197523
leaf_count=20 31 31 23 30 55 91 22 33 32 24 39 20 30 176 23 32 20 34
internal_value=0.00118845 0.00647858 0.00933687 0.0111962 0.00183629 0.0164271 -0.00606622 -0.00560124 -0.00426857 -0.00261553 -0.014104 0 0.00196202 -0.00146885 0.0185507 0.00340013 -0.0131306 0.0226
internal_weight=191.09 97.5583 79.348 73.612 26.9467 46.6653 19.2177 18.2102 93.5313 85.8129 15.7144 70.0985 62.122 51.4027 10.7193 15.4654 13.2217 31.1999
internal_count=766 391 318 295 108 187 77 73 375 344 63 281 249 206 43 62 53 125
is_linear=0
shrinkage=0.02


Tree=13
num_leaves=20
num_cat=0
split_feature=51 42 29 43 51 43 7 32 53 52 63 31 52 54 54 57 29 51 57
split_gain=13.3758 9.62948 10.3095 8.65484 8.38274 8.82516 8.34372 7.83639 6.52693 8.14388 6.48999 4.5994 5.48046 4.9506 3.99 2.7114 2.28277 1.53396 0.783936
threshold=-2.0549999999999993 -0.084426244999999997 -0.93388111982670063 1.0802831850374341 -1.5949999999999998 -0.73742858322843319 0.47271553932652927 0.28387992129573775 0.37520000000000003 -0.34500000000000003 0.78150729663623342 -0.33088523759846239 0.021649999999999951 -0.072699999999999973 -0.12849999999999998 0.13115916577545036 -0.99370573465866652 -2.4549999999999992 0.093211773126701661
decision_type=2 2 2 2 2 2 2 2 2 2 2 2 2 2 2 2 2 2 2
left_child=8 -2 6 4 7 -6 16 -4 9 14 -5 12 18 -13 -1 -14 -3 -15 -11
right_child=1 2 3 10 5 -7 -8 -9 -10 11 -12 13 15 17 -16 -17 -18 -19 -20
leaf_value=0.010028045663819238 0.022799787297185216 -0.012272453356599478 0.013820198264726576 -0.02681281398628307 -0.016981694038239101 0.001286787860669322 0.0038655874413316351 -0.0086621351509491053 -0.012832044934055549 0.024550791985926971 1.1976848514771858e-05 0.0055076882536637803 -0.0098026167309248902 0.015970260687724353 -0.010364509606897823 0.0076503685086971741 -0.031850897412013718 0.031733860878201112 0.0093020630808683998
leaf_weight=5.7391040176153174 5.2447670996189109 5.734919100999833 26.6853217035532 8.22304520010948 14.676868334412573 34.189151138067245 4.9874606877565375 7.4805759936571112 4.9889425188302985 4.9893860816955549 5.4902586340904227 7.9736799150705329 6.990379646420477 7.4826882928609875 9.7288403511047346 6.488310232758522 8.716096043586731 10.233312219381338 4.9844751507043839
leaf_count=23 21 23 107 33 59 137 20 30 20 20 22 32 28 30 39 26 35 41 20
internal_value=0.00116615 -0.00280328 -0.00406631 -0.00130726 0.00107514 -0.00414824 -0.0172655 0.00869109 0.00815969 0.00992484 -0.0158747 0.0139073 0.00696697 0.0198588 -0.00237086 -0.000982076 -0.0248955 0.0257856 0.0180083
internal_weight=191.028 121.428 116.184 96.7452 83.0319 48.866 19.4385 34.1659 69.5991 64.6102 13.7133 49.1422 23.4526 25.6897 15.4679 13.4787 14.451 17.716 9.97386
internal_count=766 487 466 388 333 196 78 137 279 259 55 197 94 103 62 54 58 71 40
is_linear=0
shrinkage=0.02


Tree=14
num_leaves=16
num_cat=0
split_feature=51 43 24 39 57 24 25 36 58 6 24 49 9 57 36
split_gain=12.883 8.75335 8.94104 6.92365 5.79391 5.6279 5.02227 4.93391 4.34432 6.92715 3.76618 3.39298 7.46417 5.73999 3.00985
threshold=-2.0549999999999993 1.319724778276238 -0.1350000000000002 0.036950000000000004 0.080933579996380026 -0.060000000000000268 0.2349999999999999 -0.73549328521603774 1.905 0.023400000000000004 -0.059999999999999824 -0.010305369485386072 -20672971.50105055 0.13643799528426614 0.30030670816671995
decision_type=2 2 2 2 2 2 2 2 2 2 2 2 2 2 2
left_child=4 2 -2 -3 14 -4 7 -7 10 -10 -6 13 -13 -12 -1
right_child=1 3 5 -5 8 6 -8 -9 9 -11 11 12 -14 -15 -16
leaf_value=0.027429884590406958 -0.020020338961462509 -0.0026497897813918415 0.018994208031647229 -0.030223644115749935 0.017344392708175997 -0.010490634044926289 0.014378199975845034 0.00089555768525112294 0.024676584673459932 -0.0025026328296195817 -0.0091131105403898811 0.0044260026729432975 -0.021073748226200222 0.013117733246712709 0.0056193123629531194
leaf_weight=8.2228378355503065 8.4536644965410215 7.9754148721694929 6.2347963899373999 7.4637085795402527 4.9849500060081473 19.41604129970073 8.2319774478673917 63.604106366634376 9.2276605218648893 5.4901690781116477 6.740014135837554 9.4700663387775439 7.9844960421323803 12.466339409351347 4.9875712543725959
leaf_count=33 34 32 25 30 20 78 33 255 37 22 27 38 32 50 20
internal_value=0.00114565 -0.00275012 -0.000621773 -0.016683 0.00801073 0.00105529 -0.000163071 -0.00172352 0.00501643 0.014291 0.00151696 -0.000596144 -0.00705977 0.00498858 0.0199471
internal_weight=190.954 121.38 105.941 15.4391 69.5741 97.4869 91.2521 83.0201 56.3637 14.7178 41.6459 36.6609 17.4546 19.2064 13.2104
internal_count=766 487 425 62 279 391 366 333 226 59 167 147 70 77 53
is_linear=0
shrinkage=0.02


Tree=15
num_leaves=15
num_cat=0
split_feature=51 33 0 60 12 5 21 39 35 60 39 48 54 48
split_gain=9.98028 8.50684 6.70997 6.36225 7.98977 6.68301 7.21271 5.85368 5.75276 4.64717 4.83469 2.44885 2.31974 2.26332
threshold=-1.1949999999999998 -1.8669034329690912 -1.4497568345178637 0.105 0.55092580010273029 0.66006982132426073 0.0045470000000000016 -0.022749999999999996 0.055055753089028332 0.050000000000000162 0.012250000000000002 0.48424330301323465 0.34190000000000004 0.37954428780996724
decision_type=2 2 2 2 2 2 2 2 2 2 2 2 2 2
left_child=1 -1 -2 4 5 7 -7 -3 -6 10 11 -4 -10 -12
right_child=2 3 9 -5 8 6 -8 -9 12 -11 13 -13 -14 -15
leaf_value=-0.015355804272755368 0.010096453511705095 -0.004782300386395614 -0.01434231952025063 -0.015718365210580971 0.0069912997332069607 0.022820942368143231 -0.0013924138751568148 0.0075108015160506329 -0.024479878871231566 0.0022175846656896062 -0.011317033712040792 0.0041659930187541334 -0.0049748464449888693 -0.031153335572811112
leaf_weight=8.7248350977897626 5.9831272661685935 18.958197027444839 5.2383649498224312 5.491871863603591 7.2371828109025982 18.693243339657787 5.9836241006851187 70.822650402784348 5.4785078763961774 6.2277125865221015 5.4879133254289618 4.9822216033935547 6.2280817478895187 8.2035117894411069
leaf_count=35 24 76 21 22 29 75 24 284 22 25 22 20 25 33
internal_value=0.000988877 0.00332564 -0.00834446 0.00457282 0.00548644 0.00750088 0.0167633 0.00484109 -0.00630015 -0.0122658 -0.0162664 -0.00488825 -0.0149862 -0.0240444
internal_weight=183.741 147.618 36.1229 138.893 133.401 114.458 24.6769 89.7808 18.9438 30.1397 23.912 10.2206 11.7066 13.6914
internal_count=737 592 145 557 535 459 99 360 76 121 96 41 47 55
is_linear=0
shrinkage=0.02


Tree=16
num_leaves=16
num_cat=0
split_feature=51 32 52 52 45 11 41 39 63 35 35 41 31 31 21
split_gain=9.58759 7.21667 6.72328 6.58837 6.505 6.2041 5.76363 8.00558 5.34768 4.32919 3.62832 3.76879 2.82629 6.10449 1.97327
threshold=-1.1949999999999998 -0.87880887661962992 0.79285000000000005 -0.46204999999999979 -2.6501225568829829 -54715537.898049943 0.048399336633950803 -0.0083999999999999995 0.48025705234873656 -1.1820084139437523 -1.8321169034819282 0.019585182244687329 -0.39435091018774299 -0.0076603477890581128 -0.0023764999999999997
decision_type=2 2 2 2 2 2 2 2 2 2 2 2 2 2 2
left_child=1 9 3 6 -5 -2 7 -3 -6 14 -7 -12 -13 -14 -1
right_child=5 2 -4 4 8 10 -8 -9 -10 -11 11 12 13 -15 -16
leaf_value=-0.0090245443524859525 0.010424365548343591 -0.017126902276981607 -0.014673823890125837 -0.011509862615190459 0.0015938952372608459 0.0023149700451003982 -0.022023141174323763 0.013926521680172334 0.012097675166473903 -0.021653711932396368 0 -0.029571547731835738 0 -0.026116359546266538 0.0076065993287869286
leaf_weight=5.4854537546634683 5.4854141026735297 4.9798081815242794 6.2315856814384452 5.9883521050214759 28.668140396475792 5.2331935316324261 5.2361853420734397 8.4744392931461316 71.063184916973114 6.2355249375104895 4.989754885435107 6.9575581401586595 7.2196830958128029 6.2196897566318405 5.2256372570991525
leaf_count=22 22 20 25 24 115 21 21 34 285 25 20 28 29 25 21
internal_value=0.000964433 0.00325535 0.004881 0.00594153 0.00789592 -0.00818503 -0.00474731 0.00187365 0.00915214 -0.00879582 -0.0117817 -0.0149142 -0.0186788 -0.0120803 -0.000379597
internal_weight=183.694 147.588 130.642 124.41 105.72 36.1053 18.6904 13.4542 99.7313 16.9466 30.6199 25.3867 20.3969 13.4394 10.7111
internal_count=737 592 524 499 424 145 75 54 400 68 123 102 82 54 43
is_linear=0
shrinkage=0.02


Tree=17
num_leaves=24
num_cat=0
split_feature=57 23 37 58 38 36 57 39 25 19 45 60 25 46 63 5 31 41 6 6 1 9 32
split_gain=12.2416 8.97116 11.0238 9.01614 9.49322 10.4675 8.62458 8.09105 7.0828 9.96086 6.95126 7.1083 6.38785 6.06504 5.5294 5.15469 4.90938 4.61386 4.27901 5.39053 6.68393 4.0275 3.31064
threshold=0.10528054117163269 4.0850000000000009 0.04130000000000001 1.2150000000000001 0.038950000000000005 -0.55406789055216776 0.1688010620481937 0.025100000000000004 -0.089999999999999955 0.0049370000000000013 1.0848655151375899 -0.024999999999999908 -0.13000000000000009 -2.1701302654650694 0.5656601590712288 0.44171073005425671 -0.36232523587078097 0.041574174903271942 -0.05124999999999999 0.15800000000000003 22524649.042799 9357068.1998499651 -0.11958011434005099
decision_type=2 2 2 2 2 2 2 2 2 2 2 2 2 2 2 2 2 2 2 2 2 2 2
left_child=10 3 13 6 8 -6 -2 17 9 -5 11 16 -7 -3 -15 -10 -1 -8 -13 20 -20 -12 -16
right_child=1 2 -4 4 5 12 7 -9 15 -11 21 18 -14 14 22 -17 -18 -19 19 -21 -22 -23 -24
leaf_value=0.0043553157407473144 0.020580466147152417 -0.0047822933644867142 -0.014039054544181742 0.011855990293784325 -0.023705254452691706 -0.0083074338454531133 0.019536953870998821 -0.020988870774215126 -0.02303257449391969 -0.020172063435257809 0.035687800310858817 -0.0045645316006106221 0.01510174082352737 0 0.0085198331348267514 -0.0052276083670580644 -0.021733785300240772 -0.0058095467887473076 0.027817345560918166 -0.0025952965353872866 0 0.0090906226731318467 0.03111927035916915
leaf_weight=5.2383264005184174 8.9796791076660174 5.2321999371051815 7.2322024106979361 8.726180434226988 4.9751267880201366 6.2250659763813081 5.4832669794559497 6.2172428369522086 25.9206463098526 6.460179775953292 5.4721794575452787 5.2401548624038687 14.459563151001925 4.9871146082878139 4.9820401519536999 10.202535659074782 5.2293439805507642 4.9858821481466293 11.966063141822824 4.9894603937864295 4.9833991080522528 5.4855899810791016 9.9726692736148781
leaf_count=21 36 21 29 35 20 25 22 25 104 26 22 21 58 20 20 41 21 20 48 20 20 22 40
internal_value=0.000940855 -0.00212347 0.00693083 -0.00505244 -0.00849683 0.00121882 0.00502461 -0.00320908 -0.0134507 -0.00150794 0.00953818 0.00516169 0.00775275 0.0132852 0.0183226 -0.018253 -0.00836322 0.00708309 0.0106234 0.0145335 0.0198811 0.023503 0.0242994
internal_weight=183.646 135.042 32.4062 102.635 76.9693 25.6598 25.6661 16.6864 51.3095 15.1864 48.6045 37.6467 20.6846 25.174 19.9418 36.1232 10.4677 10.4691 27.1791 21.9389 16.9495 10.9578 14.9547
internal_count=737 542 130 412 309 103 103 67 206 61 195 151 83 101 80 145 42 42 109 88 68 44 60
is_linear=0
shrinkage=0.02


end of trees

feature_importances:
smart_vs_retail=13
liq_x_mom=12
funding_x_ls=11
oi_chg_4h=11
taker_std_4h=11
mom_accel=10
oi_accel=10
cvd_f_accel=9
glob_ls_chg_1h=9
taker_accel=9
btc_liq_ratio=8
btc_ob_imbal=8
btc_oi_chg=8
liq_ratio=8
ob_std_4h=8
cvd_f_chg_1h=7
ob_imbal=7
volatility_8h=7
btc_cvd_chg=6
coin_vs_btc=6
cvd_f_chg_4h=6
glob_ls_chg_4h=6
mom_2h=6
funding_vel=5
mom_1h=5
ob_x_taker=5
rsi=5
top_ls=5
top_ls_chg_4h=5
vol_ratio=5
btc_funding=4
funding=4
glob_ls=4
liq_norm=4
liq_ratio_chg=4
mom_8h=4
ob_chg_1h=4
oi_std_4h=4
taker_chg_4h=4
cvd_f_ratio=3
oi_chg_8h=3
oi_x_cvd=3
taker_chg_1h=3
btc_mom_1h=2
btc_mom_4h=2
mom_4h=2
ob_chg_4h=2
ob_ratio=2
bb_pos=1
oi_chg_1h=1
oi_range=1
taker_ratio=1
top_ls_chg_1h=1

parameters:
[boosting: gbdt]
[objective: binary]
[metric: binary_logloss]
[tree_learner: serial]
[device_type: cpu]
[data_sample_strategy: bagging]
[data: ]
[valid: ]
[num_iterations: 500]
[learning_rate: 0.02]
[num_leaves: 24]
[num_threads: 0]
[seed: 0]
[deterministic: 0]
[force_col_wise: 0]
[force_row_wise: 0]
[histogram_pool_size: -1]
[max_depth: 6]
[min_data_in_leaf: 20]
[min_sum_hessian_in_leaf: 0.001]
[bagging_fraction: 0.6]
[pos_bagging_fraction: 1]
[neg_bagging_fraction: 1]
[bagging_freq: 5]
[bagging_seed: 3]
[bagging_by_query: 0]
[feature_fraction: 0.6]
[feature_fraction_bynode: 1]
[feature_fraction_seed: 2]
[extra_trees: 0]
[extra_seed: 6]
[early_stopping_round: 0]
[early_stopping_min_delta: 0]
[first_metric_only: 0]
[max_delta_step: 0]
[lambda_l1: 0.3]
[lambda_l2: 0.3]
[linear_lambda: 0]
[min_gain_to_split: 0]
[drop_rate: 0.1]
[max_drop: 50]
[skip_drop: 0.5]
[xgboost_dart_mode: 0]
[uniform_drop: 0]
[drop_seed: 4]
[top_rate: 0.2]
[other_rate: 0.1]
[min_data_per_group: 100]
[max_cat_threshold: 32]
[cat_l2: 10]
[cat_smooth: 10]
[max_cat_to_onehot: 4]
[top_k: 20]
[monotone_constraints: ]
[monotone_constraints_method: basic]
[monotone_penalty: 0]
[feature_contri: ]
[forcedsplits_filename: ]
[refit_decay_rate: 0.9]
[cegb_tradeoff: 1]
[cegb_penalty_split: 0]
[cegb_penalty_feature_lazy: ]
[cegb_penalty_feature_coupled: ]
[path_smooth: 0]
[interaction_constraints: ]
[verbosity: -1]
[saved_feature_importance_type: 0]
[use_quantized_grad: 0]
[num_grad_quant_bins: 4]
[quant_train_renew_leaf: 0]
[stochastic_rounding: 1]
[linear_tree: 0]
[max_bin: 255]
[max_bin_by_feature: ]
[min_data_in_bin: 3]
[bin_construct_sample_cnt: 200000]
[data_random_seed: 1]
[is_enable_sparse: 1]
[enable_bundle: 1]
[use_missing: 1]
[zero_as_missing: 0]
[feature_pre_filter: 1]
[pre_partition: 0]
[two_round: 0]
[header: 0]
[label_column: ]
[weight_column: ]
[group_column: ]
[ignore_column: ]
[categorical_feature: ]
[forcedbins_filename: ]
[precise_float_parser: 0]
[parser_config_file: ]
[objective_seed: 5]
[num_class: 1]
[is_unbalance: 0]
[scale_pos_weight: 1]
[sigmoid: 1]
[boost_from_average: 1]
[reg_sqrt: 0]
[alpha: 0.9]
[fair_c: 1]
[poisson_max_delta_step: 0.7]
[tweedie_variance_power: 1.5]
[lambdarank_truncation_level: 30]
[lambdarank_norm: 1]
[label_gain: ]
[lambdarank_position_bias_regularization: 0]
[eval_at: ]
[multi_error_top_k: 1]
[auc_mu_weights: ]
[num_machines: 1]
[local_listen_port: 12400]
[time_out: 120]
[machine_list_filename: ]
[machines: ]
[gpu_platform_id: -1]
[gpu_device_id: -1]
[gpu_use_dp: 0]
[num_gpu: 1]

end of parameters

pandas_categorical:null
