tree
version=v4
num_class=1
num_tree_per_iteration=1
label_index=0
max_feature_idx=63
objective=binary sigmoid:1
feature_names=bb_pos btc_cvd_chg btc_funding btc_liq_ratio btc_mom_1h btc_mom_4h btc_ob_imbal btc_oi_chg coin_vs_btc cvd_f_accel cvd_f_chg_1h cvd_f_chg_4h cvd_f_ratio cvd_f_vs_spot cvd_spot_sign div_cvd_price div_ob_price div_oi_price div_taker_price funding funding_ext funding_vel funding_x_ls glob_ls glob_ls_chg_1h glob_ls_chg_4h glob_ls_extreme liq_cascade liq_norm liq_ratio liq_ratio_chg liq_x_mom mom_1h mom_2h mom_4h mom_8h mom_accel ob_chg_1h ob_chg_4h ob_imbal ob_ratio ob_std_4h ob_x_taker oi_accel oi_chg_1h oi_chg_4h oi_chg_8h oi_range oi_std_4h oi_x_cvd rsi smart_vs_retail taker_accel taker_chg_1h taker_chg_4h taker_dom taker_ratio taker_std_4h top_ls top_ls_chg_1h top_ls_chg_4h top_ls_extreme vol_ratio volatility_8h
feature_infos=[-4.326141771979743:3.9367315490649921] [-10345745449.3797:26224748304.677299] [-0.0090310000000000008:0.010496] [-1:1] [-21.296861476479513:2.9074508470599891] [-21.309242167730357:5.7426488779570795] [-0.46710000000000002:0.46710000000000002] [-16.639485635806839:4.8445823624005957] [-7.2664502118321757:2.7024669668416879] [-319519732.60119998:319866801.59200001] [-24352551.284699991:319590521.40130001] [-24227869.951700002:322729410.00440001] [0.29787729900254506:0.68108440541373394] none none [-1:1] [-1:1] none [-1:1] [-0.038178999999999998:0.010064999999999999] [-1:1] [-0.040494000000000002:0.030514999999999997] [-0.08780460000000001:0.023320799999999999] [1.3200000000000001:3.1099999999999999] [-0.8899999999999999:1.3500000000000001] [-0.90000000000000013:1.4300000000000002] [0:1] [0:1] [0:146.58015342056936] [-1:1] [-2:2] [-6.4916847528849111:1.5226447921109485] [-28.563311688311689:3.7444933920705026] [-28.79449838187702:6.7351598173515992] [-28.790584415584419:8.217592592592581] [-28.790584415584419:13.557358053302426] [-28.239687092842438:8.8370241005937711] [-0.39169999999999999:0.3952] [-0.51900000000000002:0.45679999999999998] [-0.32790000000000002:0.47039999999999998] [0.50614114973450208:2.7764411425714735] [0.00089582364335843978:0.20256548323937126] [-0.34927163999999999:0.49372784999999997] [-14.775831262004303:15.026724940918834] [-15.333895307018929:15.082099010177075] [-15.567131147460378:15.570457040578622] [-16.093823598605926:20.667091721847221] [0:16.455996574593268] [0:8.1282445823056904] [-13.885768405777931:15.333895307018929] [2.0280569251924305:96.239848703971589] [-1.5799999999999998:0.16000000000000014] [-3.0756999999999999:2.0178000000000003] [-1.5326:1.5430999999999999] [-1.3422999999999998:1.4589000000000001] [0.29787729900254506:0.68108440541373394] [0.42430000000000001:2.1356000000000002] [0.013382147622859343:0.6759305678100378] [1.1200000000000001:1.99] [-0.18999999999999995:0.60000000000000009] [-0.26000000000000001:0.66999999999999993] [0:1] [0.11138863194278378:16.587725375070313] [0.12568358268683455:8.9886141573491329]
tree_sizes=2148 2455

Tree=0
num_leaves=19
num_cat=0
split_feature=19 33 63 3 2 3 32 52 43 62 28 42 7 33 28 4 31 45
split_gain=9.43645 9.09225 10.7848 9.59926 10.8157 10.371 10.2502 9.92308 7.13003 5.75841 5.63087 6.54477 4.92639 3.20764 3.2816 2.84562 2.65736 1.44669
threshold=0.0063220000000000004 -1.4929659571184914 0.90371545891562544 -0.71348810085785908 0.0067730000000000012 0.95208712314780786 -0.74543514742000927 0.43774999999999997 -0.81175047205092599 1.0793763331768331 0.86329034184485876 0.13878627000000002 -0.27337885127552969 0.15060454456017339 0.071343943982525387 0.15209849263343458 -1.0000000180025095e-35 -3.3513358951305743
decision_type=2 2 2 2 2 2 2 2 2 2 2 2 2 2 2 2 2 2
left_child=1 8 3 4 7 6 -5 -3 -1 13 16 -12 -7 14 -2 -11 -4 -10
right_child=9 2 10 5 -6 12 -8 -9 17 15 11 -13 -14 -15 -16 -17 -18 -19
leaf_value=-0.024970209000941275 -0.028744704965659618 -0.053285036167638772 -0.0021933508983276208 -0.047261677931120988 -0.019320992313204596 -0.030877458500178801 -0.021168791871005382 -0.027015192883332137 -0.041577991313195242 -0.022297620277765939 -0.016959098589682503 -0.043129995983264113 -0.052342783411840677 -0.056926800166830355 -0.050128495290903172 -0.041577991313195242 -0.019734676830085215 -0.059478400929070502
leaf_weight=4.9987208843231228 4.9987208843231254 19.495011448860172 8.7477615475654584 6.2484011054038993 7.4980813264846793 7.7480173707008362 59.984650611877441 7.4980813264846793 4.998720884323121 6.7482731938362104 8.9976975917816144 5.9984650611877433 7.9979534149169904 9.2476336359977704 5.2486569285392761 4.9987208843231201 9.49756968021393 6.2484011054038975
leaf_count=20 20 78 35 25 30 31 240 30 20 27 36 24 32 37 21 20 38 25
internal_value=-0.0316351 -0.0297037 -0.0281255 -0.0310611 -0.0398066 -0.0272936 -0.0237783 -0.0457935 -0.0436916 -0.0416287 -0.018119 -0.0278329 -0.0415832 -0.0482333 -0.0393329 -0.0310345 -0.010655 -0.0524981
internal_weight=197.2 165.958 149.712 116.47 34.4912 81.979 66.2331 26.9931 16.2458 31.242 33.2415 14.9962 15.746 19.495 10.2474 11.747 18.2453 11.2471
internal_count=789 664 599 466 138 328 265 108 65 125 133 60 63 78 41 47 73 45
is_linear=0
shrinkage=1


Tree=1
num_leaves=22
num_cat=0
split_feature=22 33 47 63 63 1 11 47 6 1 45 28 47 50 45 11 36 9 11 31 50
split_gain=10.2191 8.92467 14.096 6.54882 7.22653 9.26356 6.03563 6.02218 6.47841 5.8761 5.84961 5.49097 12.3485 5.04975 5.92967 3.97734 3.51279 4.66736 3.05805 2.00251 1.58855
threshold=0.013577225 -1.4929659571184914 2.4126770869208451 0.90371545891562544 0.54052002395714804 -65915887.542400591 -2865054.8530000052 0.70443969324288658 0.032350000000000004 -123683286.50960015 0.90992856698627345 0.86329034184485876 1.9710305954614873 76.721507683028577 -0.17479533840021319 -2089995.5848499981 -0.43208635142109036 632175.6944999994 -1.0000000180025095e-35 -0.060442816237038503 28.513231809368005
decision_type=2 2 2 2 2 2 2 2 2 2 2 2 2 2 2 2 2 2 2 2 2
left_child=1 2 20 4 7 9 -7 8 -3 -6 -9 18 -13 14 15 -2 -16 -18 19 -5 -1
right_child=13 3 -4 11 5 6 -8 10 -10 -11 -12 12 -14 -15 16 -17 17 -19 -20 -21 -22
leaf_value=-0.013064817410437969 -0.0020565164783985807 -0.010545554578198064 0.013396975819243909 0.036645200663243442 -0.0017458121301710938 -0.026999772613184238 -0.0050524525347225959 0.015636671667502339 0.0092199066234304496 0.026423969022403258 -0.00050618550456223209 -0.01586170884528507 0.018673685591094055 -0.028174780307256474 -0.010796985754875105 -0.027328642226135628 0.022152367603623779 -0.0035056800142086696 0.0082358142726419881 0.014327881196776285 -0.032811428132319534
leaf_weight=4.996961176395418 4.9985433518886566 14.244200482964517 5.4982514679431906 4.9999940395355216 5.4980790019035339 5.9980650544166556 32.240982428193092 28.493229404091835 11.7468144595623 5.2490941882133466 11.996194988489149 7.2480973005294791 8.7478181123733503 4.9970043152570716 5.2476859986782101 6.2470798790454918 4.9983564764261192 5.2472996413707733 7.7493252158165005 4.9995100647211066 5.7463234215974808
leaf_count=20 20 57 22 20 22 24 129 114 47 21 48 29 35 20 21 25 20 21 31 20 23
internal_value=0.000346718 0.00237407 -0.011481 0.00394232 0.00160451 -0.0041381 -0.00883411 0.00592539 -0.00138093 0.0118136 0.0107382 0.0116809 0.00265284 -0.00995866 -0.00605769 -0.0169605 0.0016479 0.00871677 0.0193056 0.026812 -0.0247745
internal_weight=197.189 165.453 16.2415 149.211 115.467 48.9862 38.239 66.4804 25.991 10.7472 40.4894 33.7447 15.9959 31.736 26.739 11.2456 15.4933 10.2457 17.7488 9.9995 10.7433
internal_count=789 662 65 597 462 196 153 266 104 43 162 135 64 127 107 45 62 41 71 40 43
is_linear=0
shrinkage=0.02


end of trees

feature_importances:
cvd_f_chg_4h=3
liq_norm=3
mom_2h=3
oi_chg_4h=3
oi_range=3
volatility_8h=3
btc_cvd_chg=2
btc_liq_ratio=2
liq_x_mom=2
rsi=2
btc_funding=1
btc_mom_1h=1
btc_ob_imbal=1
btc_oi_chg=1
cvd_f_accel=1
funding=1
funding_x_ls=1
mom_1h=1
mom_accel=1
ob_x_taker=1
oi_accel=1
taker_accel=1
vol_ratio=1

parameters:
[boosting: gbdt]
[objective: binary]
[metric: binary_logloss]
[tree_learner: serial]
[device_type: cpu]
[data_sample_strategy: bagging]
[data: ]
[valid: ]
[num_iterations: 500]
[learning_rate: 0.02]
[num_leaves: 24]
[num_threads: 0]
[seed: 0]
[deterministic: 0]
[force_col_wise: 0]
[force_row_wise: 0]
[histogram_pool_size: -1]
[max_depth: 6]
[min_data_in_leaf: 20]
[min_sum_hessian_in_leaf: 0.001]
[bagging_fraction: 0.6]
[pos_bagging_fraction: 1]
[neg_bagging_fraction: 1]
[bagging_freq: 5]
[bagging_seed: 3]
[bagging_by_query: 0]
[feature_fraction: 0.6]
[feature_fraction_bynode: 1]
[feature_fraction_seed: 2]
[extra_trees: 0]
[extra_seed: 6]
[early_stopping_round: 0]
[early_stopping_min_delta: 0]
[first_metric_only: 0]
[max_delta_step: 0]
[lambda_l1: 0.3]
[lambda_l2: 0.3]
[linear_lambda: 0]
[min_gain_to_split: 0]
[drop_rate: 0.1]
[max_drop: 50]
[skip_drop: 0.5]
[xgboost_dart_mode: 0]
[uniform_drop: 0]
[drop_seed: 4]
[top_rate: 0.2]
[other_rate: 0.1]
[min_data_per_group: 100]
[max_cat_threshold: 32]
[cat_l2: 10]
[cat_smooth: 10]
[max_cat_to_onehot: 4]
[top_k: 20]
[monotone_constraints: ]
[monotone_constraints_method: basic]
[monotone_penalty: 0]
[feature_contri: ]
[forcedsplits_filename: ]
[refit_decay_rate: 0.9]
[cegb_tradeoff: 1]
[cegb_penalty_split: 0]
[cegb_penalty_feature_lazy: ]
[cegb_penalty_feature_coupled: ]
[path_smooth: 0]
[interaction_constraints: ]
[verbosity: -1]
[saved_feature_importance_type: 0]
[use_quantized_grad: 0]
[num_grad_quant_bins: 4]
[quant_train_renew_leaf: 0]
[stochastic_rounding: 1]
[linear_tree: 0]
[max_bin: 255]
[max_bin_by_feature: ]
[min_data_in_bin: 3]
[bin_construct_sample_cnt: 200000]
[data_random_seed: 1]
[is_enable_sparse: 1]
[enable_bundle: 1]
[use_missing: 1]
[zero_as_missing: 0]
[feature_pre_filter: 1]
[pre_partition: 0]
[two_round: 0]
[header: 0]
[label_column: ]
[weight_column: ]
[group_column: ]
[ignore_column: ]
[categorical_feature: ]
[forcedbins_filename: ]
[precise_float_parser: 0]
[parser_config_file: ]
[objective_seed: 5]
[num_class: 1]
[is_unbalance: 0]
[scale_pos_weight: 1]
[sigmoid: 1]
[boost_from_average: 1]
[reg_sqrt: 0]
[alpha: 0.9]
[fair_c: 1]
[poisson_max_delta_step: 0.7]
[tweedie_variance_power: 1.5]
[lambdarank_truncation_level: 30]
[lambdarank_norm: 1]
[label_gain: ]
[lambdarank_position_bias_regularization: 0]
[eval_at: ]
[multi_error_top_k: 1]
[auc_mu_weights: ]
[num_machines: 1]
[local_listen_port: 12400]
[time_out: 120]
[machine_list_filename: ]
[machines: ]
[gpu_platform_id: -1]
[gpu_device_id: -1]
[gpu_use_dp: 0]
[num_gpu: 1]

end of parameters

pandas_categorical:null
