tree
version=v4
num_class=1
num_tree_per_iteration=1
label_index=0
max_feature_idx=63
objective=binary sigmoid:1
feature_names=bb_pos btc_cvd_chg btc_funding btc_liq_ratio btc_mom_1h btc_mom_4h btc_ob_imbal btc_oi_chg coin_vs_btc cvd_f_accel cvd_f_chg_1h cvd_f_chg_4h cvd_f_ratio cvd_f_vs_spot cvd_spot_sign div_cvd_price div_ob_price div_oi_price div_taker_price funding funding_ext funding_vel funding_x_ls glob_ls glob_ls_chg_1h glob_ls_chg_4h glob_ls_extreme liq_cascade liq_norm liq_ratio liq_ratio_chg liq_x_mom mom_1h mom_2h mom_4h mom_8h mom_accel ob_chg_1h ob_chg_4h ob_imbal ob_ratio ob_std_4h ob_x_taker oi_accel oi_chg_1h oi_chg_4h oi_chg_8h oi_range oi_std_4h oi_x_cvd rsi smart_vs_retail taker_accel taker_chg_1h taker_chg_4h taker_dom taker_ratio taker_std_4h top_ls top_ls_chg_1h top_ls_chg_4h top_ls_extreme vol_ratio volatility_8h
feature_infos=[-4.1234118591492335:3.6151661230387648] [-1320108454.8532996:26224748304.677299] [-0.018062999999999999:0.01082] [-1:1] [-100:3.4728250420922091] [-100:5.7426488779570795] [-0.46710000000000002:0.46710000000000002] [-4.3645404935849115:4.8445823624005957] [-5.8492792050991671:99.328214971209206] [-261764028.22909996:261895248.48149997] [-12128476.072799981:261738673.42889997] [-13870359.434100002:261590665.2243] [0.33134236184868154:0.66855719462805396] none none [-1:1] [-1:1] [-1:1] [-1:1] [-0.98033499999999996:0.011048000000000001] [-1:1] [-0.73095500000000002:0.73890499999999992] [-1.7345805300000001:0.017076959999999999] [0.92000000000000004:2.8199999999999998] [-0.20999999999999996:1.3900000000000001] [-0.33000000000000007:1.4399999999999999] [0:1] [0:1] [0:1299.7211241396037] [-1:1] [-2:2] [-7.5959269409402452:2.1104189020173525] [-7.9909414428987464:7.0907194994786371] [-11.703864997278169:8.0347448425624357] [-11.55943293347873:11.547085201793728] [-12.626262626262619:18.273542600896842] [-9.0381391684172918:9.5380581798888961] [-0.39500000000000002:0.36909999999999998] [-0.46379999999999999:0.39390000000000003] [-0.16769999999999999:0.40629999999999999] [0.71274480976766286:2.3684548153826244] [0.0032256782232578615:0.17846699274655806] [-0.20218968000000001:0.45195407999999998] [-46.955265624277445:32.879833977455739] [-22.77402722562606:31.426086680954946] [-25.264531087385677:28.424673108273257] [-20.79551557663094:29.251564944104459] [0:34.577833949809914] [0:14.748665020005699] [-31.426086680954946:22.77402722562606] [1.1280955877445962:97.285402210228682] [-0.67999999999999972:1.79] [-2.4035000000000002:1.6957000000000002] [-1.1728999999999998:1.3539000000000001] [-1.0581999999999998:1.2073] [0.33134236184868154:0.66855719462805396] [0.4955:2.0171000000000001] [0.013422183130921771:0.51530129293453164] [1.22:3.54] [-0.27000000000000002:1.1899999999999999] [-0.35000000000000009:1.2599999999999998] [0:1] [0.099373893323023668:23.250039987527277] [0.13102302595611903:3.168467773910284]
tree_sizes=2461 2570 2699 2457

Tree=0
num_leaves=22
num_cat=0
split_feature=6 1 9 43 43 48 31 51 62 40 22 38 22 2 32 0 2 8 41 1 62
split_gain=10.9406 8.98169 7.61859 14.0697 12.004 10.455 8.52256 8.89095 7.07228 6.71148 11.4155 9.81357 5.73199 5.4173 8.44684 7.89603 7.95586 5.58297 5.29534 4.97913 2.32559
threshold=0.33520000000000005 -56284974.698900692 -378466.18555001909 -0.72230425360809691 -1.9866025073244307 0.64682371066103028 -0.10058429186150271 0.58000000000000029 2.6162109706393042 1.4155248730778849 -0.017746479999999995 -0.15524999999999997 -0.019567044999999995 0.0045485000000000013 0.39633393563918157 0.98180435427525248 0.0033155000000000003 0.27100560099390664 0.058375480193838925 37965819.066350468 0.95908451603735612
decision_type=2 2 2 2 2 2 2 2 2 2 2 2 2 2 2 2 2 2 2 2 2
left_child=1 8 5 4 -4 12 7 -7 13 11 -11 -5 -3 15 17 16 -1 -15 -8 -6 -14
right_child=-2 2 3 9 19 6 18 -9 -10 10 -12 -13 20 14 -16 -17 -18 -19 -20 -21 -22
leaf_value=-0.08490784010248513 -0.12220038339335472 -0.092981765569499913 -0.091834360051608249 -0.11324226102933556 -0.12498582068843132 -0.10645183137067732 -0.12310622147547856 -0.07755316620192082 -0.10826373408018257 -0.11230320227279854 -0.09514233995259605 -0.09171868896446915 -0.062666728440110564 -0.084136460229678647 -0.062973003162551375 -0.11043958667423681 -0.10274981973602741 -0.10360864286539116 -0.09635827116483095 -0.10434258078401275 -0.084326611069628368
leaf_weight=33.671778738498688 5.9860939979553214 8.9791409969329852 8.7297204136848432 8.9791409969329816 16.212337911129001 6.7343557476997438 6.4849351644515973 9.9768233299255353 7.9814586639404288 25.690320074558258 36.914246320724487 89.541989386081696 6.7343557476997358 29.182208240032196 6.4849351644515982 8.7297204136848432 13.468711495399473 6.7343557476997367 5.237832248210907 8.2308792471885663 4.9884116649627686
leaf_count=135 24 36 35 36 65 27 26 40 32 103 148 359 27 117 26 35 54 27 21 33 20
internal_value=-0.0960759 -0.0955898 -0.0976881 -0.0994877 -0.111295 -0.0907178 -0.0984157 -0.0895242 -0.0907359 -0.0969964 -0.102132 -0.0937863 -0.0799808 -0.0892195 -0.0838097 -0.0934771 -0.0901402 -0.087983 -0.111444 -0.118458 -0.0708544
internal_weight=355.674 349.688 243.434 194.299 33.1729 49.1359 28.4339 16.7112 106.253 161.126 62.6046 98.5211 20.7019 98.2717 42.4015 55.8702 47.1405 35.9166 11.7228 24.4432 11.7228
internal_count=1426 1402 976 779 133 197 114 67 426 646 251 395 83 394 170 224 189 144 47 98 47
is_linear=0
shrinkage=1


Tree=1
num_leaves=23
num_cat=0
split_feature=6 4 41 47 11 52 62 28 63 4 46 41 19 33 52 52 53 51 47 25 22 37
split_gain=10.5407 8.33292 12.3728 8.36666 10.4114 10.7938 8.51298 10.9511 7.30366 6.63683 7.41773 10.4007 9.32588 6.48336 6.47352 8.25809 13.5638 6.70833 5.20683 4.90406 4.34998 1.74935
threshold=0.33520000000000005 -0.018022011957324887 0.085860755425424609 1.3791125263018735 -105143.47470000385 -0.54504999999999992 0.57761110552236639 1.9697103315803326 0.63303324574548314 -0.055983316224822437 1.0046049511764357 0.057792413405391922 -0.020696999999999997 -0.72617253244156565 -0.58084999999999998 0.15925000000000014 0.36399999999999999 0.56000000000000028 1.7250854674458196 -1.0000000180025095e-35 -0.0059403249999999989 0.049150000000000006
decision_type=2 2 2 2 2 2 2 2 2 2 2 2 2 2 2 2 2 2 2 2 2 2
left_child=1 2 9 4 5 -3 19 -8 -7 10 12 -12 -1 18 -5 17 -17 -16 -4 -6 -11 -15
right_child=-2 3 13 14 6 8 7 -9 -10 20 11 -13 -14 21 15 16 -18 -19 -20 -21 -22 -23
leaf_value=0.018426895429354283 -0.025384343351860131 0.013241155825755737 0.015737183765466779 -0.015828156472472949 0 -0.026532763621783435 -0.011819760403202409 0.015614408792940532 -0.0091138637249954767 0.0086389178928322954 -0.0094802398055311918 0.011879922085033585 0.0038175813187544118 -0.027045715300338759 0.0010073758954736961 -0.011540363476691689 0.013904013511323759 0.018263072320524276 -0.012209620381645891 0.024134017960921957 0.032230673442242383 -0.008407776355100342
leaf_weight=23.448681876063347 5.977656126022338 5.2392154037952414 4.9892078042030352 6.7345608770847312 6.2353044152259827 16.709727093577385 23.940193653106693 7.2337532192468634 27.183376997709274 9.2267097085714322 28.184130802750587 12.97236394882202 73.58500275015831 6.7319565266370756 17.208243414759636 23.690857976675034 12.471828937530516 20.701804652810097 4.9887215346097946 7.4838120490312559 5.7377010881900778 4.988468661904335
leaf_count=94 24 21 20 27 25 67 96 29 109 37 113 52 295 27 69 95 50 83 20 30 23 20
internal_value=0.000275323 0.000752486 0.00384938 -0.00231179 -0.0063762 -0.0127133 0.000464926 -0.00517502 -0.016016 0.00587936 0.00442858 -0.00256562 0.00745555 -0.010091 0.00234957 0.00414011 -0.00255833 0.0106567 0.00123215 0.013545 0.0185333 -0.02002
internal_weight=355.663 349.686 174.853 174.833 94.0254 49.1323 44.8931 31.1739 43.8931 153.155 138.19 41.1565 97.0337 21.6984 80.8073 74.0727 36.1627 37.91 9.97793 13.7191 14.9644 11.7204
internal_count=1426 1402 701 701 377 197 180 125 176 614 554 165 389 87 324 297 145 152 40 55 60 47
is_linear=0
shrinkage=0.02


Tree=2
num_leaves=24
num_cat=0
split_feature=6 1 28 57 5 22 9 43 43 48 31 1 39 4 4 39 37 8 36 60 1 45 19
split_gain=10.16 8.41487 7.34903 8.88984 8.17672 7.3469 7.19304 13.5233 11.4585 10.0255 8.13029 6.65581 8.64604 6.61806 10.4819 7.95925 6.47303 5.76943 5.55663 5.21339 4.73704 3.78911 2.5849
threshold=0.33520000000000005 -56284974.698900692 2.0082210382883132 0.084399362927205526 -0.29509603375201804 0.0020131150000000002 -378466.18555001909 -0.72230425360809691 -1.9866025073244307 0.64682371066103028 -0.10058429186150271 -97876994.497349724 0.17335000000000003 -0.021323776042075911 -0.05322851972596742 0.17195000000000002 -0.006400000000000002 0.11900747791259715 0.103033491082144 -0.054999999999999931 37965819.066350468 -0.82169834684022713 -0.0070099999999999989
decision_type=2 2 2 2 2 2 2 2 2 2 2 2 2 2 2 2 2 2 2 2 2 2 2
left_child=1 2 3 -1 18 11 9 8 -8 16 19 12 -4 14 -9 -15 -3 -6 -5 -11 -10 -13 -18
right_child=-2 6 5 4 17 -7 7 13 20 10 -12 21 -14 15 -16 -17 22 -19 -20 -21 -22 -23 -24
leaf_value=-0.0057931634888645804 -0.024941883132337805 0.0019951893917494901 0.0072023127212574858 -0.0037604755023192939 0.030837487276955039 -0.018631023998331834 0.0043695957618646577 0.0016952655378401269 -0.028014132467153049 0.023123014140117398 -0.014794563066889652 0.028105226358914794 -0.011825877129516962 0.0011558496914044903 0.029542449464323963 -0.0092635803719507276 0.013334848866243068 0.0092365045665878231 0.020377830060946428 -0.00031313611480216055 -0.0078337852738616792 0.0037920573803680319 0.035300059267375693
leaf_weight=9.4792888015508634 5.9674462080001822 8.7351706773042697 22.207659542560577 11.225643426179888 14.224311828613283 6.7338933646678916 8.7323845028877241 34.921606659889221 16.180555358529094 4.9908097833395031 11.711979463696478 5.4910006821155548 16.217646941542625 71.577027186751366 6.2411148995161048 48.359031453728676 5.9895201623439789 9.4812134206294996 5.2401497960090628 11.726958364248278 8.2272268384695035 5.9891392886638624 5.9927169382572156
leaf_count=38 24 35 89 45 57 27 35 140 65 20 47 22 65 287 25 194 24 38 21 47 33 24 24
internal_value=0.000270518 0.000738939 0.00543642 0.0110337 0.0151661 0.000392155 -0.00129206 -0.0030418 -0.0146238 0.0054784 -0.00205844 0.00317451 -0.000703118 -0.000599306 0.00624538 -0.00300806 0.0159882 0.0226713 0.00379071 0.00661505 -0.0216324 0.0163501 0.0254028
internal_weight=355.643 349.676 106.29 49.6506 40.1713 56.6393 243.386 194.239 33.1402 49.1472 28.4297 49.9054 38.4253 161.099 41.1627 119.936 20.7174 23.7055 16.4658 16.7178 24.4078 11.4801 11.9822
internal_count=1426 1402 426 199 161 227 976 779 133 197 114 200 154 646 165 481 83 95 66 67 98 46 48
is_linear=0
shrinkage=0.02


Tree=3
num_leaves=22
num_cat=0
split_feature=2 31 33 50 3 9 2 46 3 8 7 10 35 39 7 2 35 51 38 44 11
split_gain=7.55146 7.00273 10.6161 8.78291 7.95231 10.7148 8.25591 7.94532 7.49447 7.07513 12.3185 9.38262 5.80127 5.7938 11.2173 5.58803 5.19927 5.058 4.85137 2.93046 2.5864
threshold=0.0084940000000000015 -0.29407933088413335 -2.300629968070111 30.840935170789709 -0.92871401584340318 140828.56340000004 -0.000137 -0.43647008721521269 -0.99341982332759982 0.068091278244830647 0.49726277660069323 569389.07905000087 0.94541236333166589 0.20395000000000002 -0.16892503594707062 0.004020000000000001 -1.1127923598649556 1.0850000000000004 -0.0019000000000000056 0.17231928148815359 46703.374149996795
decision_type=2 2 2 2 2 2 2 2 2 2 2 2 2 2 2 2 2 2 2 2 2
left_child=1 2 3 -1 5 15 18 -7 -4 10 -8 -11 16 17 -15 -3 -2 -10 19 -6 -20
right_child=12 4 8 -5 6 7 9 -9 13 11 -12 -13 -14 14 -16 -17 -18 -19 20 -21 -22
leaf_value=0.0022924184607662859 0.015829373274233113 -0.030877181575090857 -0.017712291004157849 -0.028071138423284427 -0.010061088368088045 -0.013018322179177264 -0.00033169097774390422 0.02066122437068877 0.0092052771304476106 0.0078655243164354235 -0.026365519952061104 -0.017172616640111809 0.02420538752671262 0.011766157021612147 -0.01226374272261325 -0.0080923703830585465 -0.012095984433805527 -0.004202837254028445 -0.010860547872816357 -0.031494141173173659 0.0083357800358477598
leaf_weight=6.7349745780229551 4.986840546131134 10.714881271123891 5.4840795695781699 7.477576956152916 7.4767854511737841 5.2318644672632217 53.100323647260666 5.2365804612636548 92.805094540119171 60.107683062553406 8.2196522504091245 6.235366001725196 8.7328218966722471 12.973784968256952 18.198764443397522 8.9733922034502012 4.9858726710081118 11.97083769738674 5.4846802949905378 5.4834563136100769 4.9867652058601379
leaf_count=27 20 43 22 30 30 21 213 21 372 241 33 25 35 52 73 36 20 48 22 22 20
internal_value=0.000267491 -0.00040686 0.00268143 -0.0135192 -0.00309195 -0.0124365 -0.0011663 0.0033781 0.00437693 0.00080157 -0.00403015 0.00535553 0.0125433 0.00534907 -0.00205521 -0.02107 0.00133845 0.00760865 -0.0120153 -0.0200892 -0.00118419
internal_weight=355.602 336.897 155.645 14.2126 181.251 30.1567 151.095 10.4684 141.433 127.663 61.32 66.343 18.7055 135.948 31.1725 19.6883 9.97271 104.776 23.4317 12.9602 10.4714
internal_count=1426 1351 624 57 727 121 606 42 567 512 246 266 75 545 125 79 40 420 94 52 42
is_linear=0
shrinkage=0.02


end of trees

feature_importances:
btc_cvd_chg=5
btc_funding=5
btc_mom_1h=4
funding_x_ls=4
oi_accel=4
btc_ob_imbal=3
coin_vs_btc=3
cvd_f_accel=3
liq_x_mom=3
ob_imbal=3
ob_std_4h=3
smart_vs_retail=3
taker_accel=3
vol_ratio=3
btc_liq_ratio=2
btc_oi_chg=2
cvd_f_chg_4h=2
funding=2
liq_norm=2
mom_2h=2
mom_8h=2
ob_chg_1h=2
ob_chg_4h=2
oi_chg_8h=2
oi_range=2
oi_std_4h=2
bb_pos=1
btc_mom_4h=1
cvd_f_chg_1h=1
glob_ls_chg_4h=1
mom_1h=1
mom_accel=1
ob_ratio=1
oi_chg_1h=1
oi_chg_4h=1
rsi=1
taker_chg_1h=1
taker_std_4h=1
top_ls_chg_4h=1
volatility_8h=1

parameters:
[boosting: gbdt]
[objective: binary]
[metric: binary_logloss]
[tree_learner: serial]
[device_type: cpu]
[data_sample_strategy: bagging]
[data: ]
[valid: ]
[num_iterations: 500]
[learning_rate: 0.02]
[num_leaves: 24]
[num_threads: 0]
[seed: 0]
[deterministic: 0]
[force_col_wise: 0]
[force_row_wise: 0]
[histogram_pool_size: -1]
[max_depth: 6]
[min_data_in_leaf: 20]
[min_sum_hessian_in_leaf: 0.001]
[bagging_fraction: 0.6]
[pos_bagging_fraction: 1]
[neg_bagging_fraction: 1]
[bagging_freq: 5]
[bagging_seed: 3]
[bagging_by_query: 0]
[feature_fraction: 0.6]
[feature_fraction_bynode: 1]
[feature_fraction_seed: 2]
[extra_trees: 0]
[extra_seed: 6]
[early_stopping_round: 0]
[early_stopping_min_delta: 0]
[first_metric_only: 0]
[max_delta_step: 0]
[lambda_l1: 0.3]
[lambda_l2: 0.3]
[linear_lambda: 0]
[min_gain_to_split: 0]
[drop_rate: 0.1]
[max_drop: 50]
[skip_drop: 0.5]
[xgboost_dart_mode: 0]
[uniform_drop: 0]
[drop_seed: 4]
[top_rate: 0.2]
[other_rate: 0.1]
[min_data_per_group: 100]
[max_cat_threshold: 32]
[cat_l2: 10]
[cat_smooth: 10]
[max_cat_to_onehot: 4]
[top_k: 20]
[monotone_constraints: ]
[monotone_constraints_method: basic]
[monotone_penalty: 0]
[feature_contri: ]
[forcedsplits_filename: ]
[refit_decay_rate: 0.9]
[cegb_tradeoff: 1]
[cegb_penalty_split: 0]
[cegb_penalty_feature_lazy: ]
[cegb_penalty_feature_coupled: ]
[path_smooth: 0]
[interaction_constraints: ]
[verbosity: -1]
[saved_feature_importance_type: 0]
[use_quantized_grad: 0]
[num_grad_quant_bins: 4]
[quant_train_renew_leaf: 0]
[stochastic_rounding: 1]
[linear_tree: 0]
[max_bin: 255]
[max_bin_by_feature: ]
[min_data_in_bin: 3]
[bin_construct_sample_cnt: 200000]
[data_random_seed: 1]
[is_enable_sparse: 1]
[enable_bundle: 1]
[use_missing: 1]
[zero_as_missing: 0]
[feature_pre_filter: 1]
[pre_partition: 0]
[two_round: 0]
[header: 0]
[label_column: ]
[weight_column: ]
[group_column: ]
[ignore_column: ]
[categorical_feature: ]
[forcedbins_filename: ]
[precise_float_parser: 0]
[parser_config_file: ]
[objective_seed: 5]
[num_class: 1]
[is_unbalance: 0]
[scale_pos_weight: 1]
[sigmoid: 1]
[boost_from_average: 1]
[reg_sqrt: 0]
[alpha: 0.9]
[fair_c: 1]
[poisson_max_delta_step: 0.7]
[tweedie_variance_power: 1.5]
[lambdarank_truncation_level: 30]
[lambdarank_norm: 1]
[label_gain: ]
[lambdarank_position_bias_regularization: 0]
[eval_at: ]
[multi_error_top_k: 1]
[auc_mu_weights: ]
[num_machines: 1]
[local_listen_port: 12400]
[time_out: 120]
[machine_list_filename: ]
[machines: ]
[gpu_platform_id: -1]
[gpu_device_id: -1]
[gpu_use_dp: 0]
[num_gpu: 1]

end of parameters

pandas_categorical:null
