tree
version=v4
num_class=1
num_tree_per_iteration=1
label_index=0
max_feature_idx=63
objective=binary sigmoid:1
feature_names=bb_pos btc_cvd_chg btc_funding btc_liq_ratio btc_mom_1h btc_mom_4h btc_ob_imbal btc_oi_chg coin_vs_btc cvd_f_accel cvd_f_chg_1h cvd_f_chg_4h cvd_f_ratio cvd_f_vs_spot cvd_spot_sign div_cvd_price div_ob_price div_oi_price div_taker_price funding funding_ext funding_vel funding_x_ls glob_ls glob_ls_chg_1h glob_ls_chg_4h glob_ls_extreme liq_cascade liq_norm liq_ratio liq_ratio_chg liq_x_mom mom_1h mom_2h mom_4h mom_8h mom_accel ob_chg_1h ob_chg_4h ob_imbal ob_ratio ob_std_4h ob_x_taker oi_accel oi_chg_1h oi_chg_4h oi_chg_8h oi_range oi_std_4h oi_x_cvd rsi smart_vs_retail taker_accel taker_chg_1h taker_chg_4h taker_dom taker_ratio taker_std_4h top_ls top_ls_chg_1h top_ls_chg_4h top_ls_extreme vol_ratio volatility_8h
feature_infos=[-4.3073797213982754:3.7895272451231099] [-10345745449.3797:26224748304.677299] [-0.0090310000000000008:0.010496] [-1:1] [-21.296861476479513:2.9074508470599891] [-22.06569091082833:5.2531986283915311] [-0.46710000000000002:0.46710000000000002] [-16.639485635806839:4.8445823624005957] [-19.751021937816112:5.5373467437394686] [-72394731.012400001:72374902.950800002] [-6559498.2218999993:72490076.561000004] [-6932891.4175000004:72765824.328800008] [0.31190919164535613:0.71332148359970959] none none [-1:1] [-1:1] [-1:1] [-1:1] [-0.019848000000000001:0.01873] [-1:1] [-0.027550999999999999:0.018237] [-0.017664720000000002:0.020970959999999997] [0.70999999999999996:1.6699999999999999] [-0.57999999999999996:0.17999999999999994] [-0.56999999999999995:0.17999999999999994] [0:1] [0:1] [0:1104.7125659816195] [-1:1] [-2:2] [-7.2575191072497409:4.0893882415940492] [-41.047883414295626:7.3050008533879662] [-41.332872928176798:9.472401184050149] [-41.745567223274229:12.267857142857142] [-42.021001893613352:14.493938155564635] [-40.56445799993098:40.6358763513174] [-0.2601:0.35319999999999996] [-0.35349999999999998:0.41589999999999999] [-0.14330000000000001:0.40189999999999998] [0.74939054003258843:2.3437417636584632] [0.0013007209539328552:0.20040907383399584] [-0.20931831000000004:0.48949603999999997] [-37.670085383868113:37.498741469015485] [-38.206456536964019:18.824670058054949] [-39.354591363577576:21.109542779892543] [-40.116619036346293:26.760551139744294] [0:25.19149639098579] [0:31.535403434574405] [-18.824670058054949:38.206456536964019] [3.6779520315900385:95.755189397577084] [-0.1399999999999999:2.29] [-2.5491000000000001:1.6357000000000002] [-1.3853:1.3532] [-1.6250000000000002:1.4471999999999998] [0.31190919164535613:0.71332148359970959] [0.45329999999999998:2.4882] [0.011714174106611146:0.69002511910799302] [1.47:3.2000000000000002] [-0.19999999999999996:1.1299999999999999] [-0.32999999999999963:1.1499999999999999] none [0.054514369761528979:24.175115908880443] [0.16829924874376281:12.987941597091419]
tree_sizes=2569 2680 2676 1706 1912 2648 2481 2639 2482 2695 2667 2688 2693 2637 2667 2689 2677 2687 2695 2666 1744 1805 2023 2460 1733 2657 1430 1888 1512 1512 1788 2236 2498 2444 2345 2704 2677 2648 2137 2036 2670 2576 2355 2708 2595 2639 1820 2043 1519 2248 2682 2695 2696 2671 2588 2053 2688 2149 1633 2277 2483 2285 2278 2170

Tree=0
num_leaves=23
num_cat=0
split_feature=51 23 28 43 41 39 42 4 58 41 44 25 33 2 34 34 47 23 2 3 52 23
split_gain=11.1466 14.2208 9.9088 9.38726 8.99306 8.8956 8.22517 7.74643 9.07438 8.35687 7.71679 7.12115 6.55649 6.98046 8.64271 7.99057 6.13184 5.73313 5.21503 4.89624 2.01818 1.43251
threshold=0.51500000000000001 0.89500000000000013 1.6566513137404284 0.52243278690963801 0.032384573002689564 0.052750000000000005 0.030239605000000003 0.0057055901799052408 2.3650000000000007 0.083316819873094403 -0.50673795115257481 0.0099999999999999551 -0.78608399556761011 0.0041445000000000015 0.34147941629947282 -0.26867554937003985 2.4141366962680548 1.135 0.0045285000000000004 -0.3775206684900555 -0.10039999999999998 1.4150000000000003
decision_type=2 2 2 2 2 2 2 2 2 2 2 2 2 2 2 2 2 2 2 2 2 2
left_child=3 2 12 21 20 6 17 9 18 16 -6 -8 -2 15 -15 -14 -7 -3 -9 -19 -4 -1
right_child=1 5 4 -5 10 7 11 8 -10 -11 -12 -13 13 14 -16 -17 -18 19 -20 -21 -22 -23
leaf_value=-0.042701286087479667 -0.034569157309890228 -0.046658587588441269 -0.03859892531341394 -0.056871904995740859 -0.069387233053053693 -0.055454916804100619 -0.027608513464753091 -0.063740059799918758 -0.044453900284297528 -0.032719034181544059 -0.039797765017064383 -0.054993688943128977 -0.04750956234057737 -0.065359296557288865 -0.038424195207894182 -0.073737650589679418 -0.07074954456440101 -0.051600563634120189 -0.07646273612417516 -0.075092669957982416 -0.019406787069253521 -0.025334108281054427
leaf_weight=5.2459901869297054 5.4957992434501639 9.4927441477775591 6.994653582572937 8.7433169782161695 5.2459901869297019 50.211620360612869 8.4935079216957075 35.722695082426071 6.24522641301155 4.9961811304092398 8.9931260347366315 7.4942716956138602 6.2452264130115536 7.2444626390934017 11.990834712982176 14.239116221666334 13.239879995584486 4.9961811304092398 23.232242256402969 8.9931260347366315 6.9946535825729388 8.4935079216957075
leaf_count=21 22 38 28 35 21 201 34 143 25 20 36 30 25 29 48 57 53 20 93 36 28 34
internal_value=-0.0546875 -0.0559002 -0.0485718 -0.0412914 -0.0393306 -0.0590501 -0.0508203 -0.0615299 -0.0664612 -0.0567171 -0.0511778 -0.0398351 -0.0545401 -0.0572881 -0.0488746 -0.0654558 -0.0587982 -0.0581478 -0.0689367 -0.0663815 -0.0280311 -0.0311272
internal_weight=269.044 246.562 73.4439 22.4828 28.2284 173.118 39.4698 133.648 65.2002 68.4477 14.2391 15.9878 45.2154 39.7196 19.2353 20.4843 63.4515 23.4821 58.9549 13.9893 13.9893 13.7395
internal_count=1077 987 294 90 113 693 158 535 261 274 57 64 181 159 77 82 254 94 236 56 56 55
is_linear=0
shrinkage=1


Tree=1
num_leaves=24
num_cat=0
split_feature=11 28 31 0 8 25 46 11 8 46 28 43 41 63 63 60 35 48 46 24 6 34 34
split_gain=9.64272 8.29653 12.7207 9.78804 8.91861 8.46854 8.10178 14.1915 10.5758 8.96747 8.11614 7.74062 7.47127 7.02433 6.80387 6.51468 6.36112 6.28975 5.30975 3.82464 3.75839 3.57104 1.82461
threshold=-1752736.4999999993 0.79405985274304003 -1.0000000180025095e-35 -2.4126884653567182 -0.071815141118281009 -0.029999999999999968 -0.12448056594226985 -253350.41474999857 0.013873028509708842 -1.1746168463395987 0.0089673743179793982 1.8000780089289183 0.048771701240848446 0.4981980302687728 0.83776671653324764 0.0099999999999998996 -2.563765712757426 2.2611364609462785 -1.5232737398597649 0.0099999999999999551 0.03475000000000001 1.3005668914498616 -0.98641856055362565
decision_type=2 2 2 2 2 2 2 2 2 2 2 2 2 2 2 2 2 2 2 2 2 2 2
left_child=-1 6 3 -3 -4 22 8 20 13 16 -11 14 15 18 -6 -9 -10 -7 -2 -15 -8 -14 -5
right_child=1 2 4 5 11 17 7 12 9 10 -12 -13 21 19 -16 -17 -18 -19 -20 -21 -22 -23 -24
leaf_value=-0.020278224804173545 -0.013835567849499616 -0.016576093303995142 -0.027007890568806037 0.032907547600839131 -0.0045116241905604126 0.0095723024709339719 -0.029816409909054577 -0.011052093861235082 0.0073911642132097497 0.019791561959320986 -0.010406328973779194 -0.018570065980937286 0.0024033367129836095 0.02343442150621718 0.024708576910137336 0.0032006261575881806 -0.016904594005136879 -0.012898834239452211 0.011224152357977291 0.0032080031983473074 -0.0069017595927800728 0.023332743879886743 0.015992803842553756
leaf_weight=8.2408279180526716 5.9947835654020309 4.9949778467416754 6.2443270832300213 6.9962119609117535 5.9963752627372759 55.456505835056305 10.490677148103712 31.970902606844902 4.9964627027511588 8.9928621053695661 5.2450394034385672 5.4950208216905585 9.9923564642667753 15.488786906003954 5.7462977766990662 20.234157174825668 18.732927724719051 4.9956027418375006 6.994197949767111 5.9957436919212332 5.245672643184661 5.2462314218282691 9.2440950870513898
leaf_count=33 24 20 25 28 24 222 42 128 20 36 21 22 40 62 23 81 75 20 28 24 21 21 37
internal_value=0.000592581 0.00129761 0.00564149 0.0093963 -0.00712193 0.0112238 -0.00160473 -0.00587935 0.00322511 -0.00392973 0.0082692 7.83806e-05 -0.00175358 0.0112435 0.00954842 -0.00542688 -0.0115108 0.00756206 0 0.0181871 -0.022824 0.0103063 0.024107
internal_weight=269.031 260.79 105.169 81.6874 23.482 76.6924 155.621 83.18 72.4408 37.9673 14.2379 17.2377 67.4436 34.4735 11.7427 52.2051 23.7294 60.4521 12.989 21.4845 15.7363 15.2386 16.2403
internal_count=1077 1044 421 327 94 307 623 333 290 152 57 69 270 138 47 209 95 242 52 86 63 61 65
is_linear=0
shrinkage=0.02


Tree=2
num_leaves=24
num_cat=0
split_feature=51 23 46 46 28 59 58 46 34 2 48 2 38 23 43 22 11 60 50 38 43 31 35
split_gain=10.6446 13.574 12.9744 11.8418 13.9859 10.076 8.89773 8.41605 8.05513 7.96701 7.59439 11.6532 6.59408 6.74883 8.49668 5.3937 5.38994 4.90243 4.82192 4.71071 4.40282 4.24545 3.59808
threshold=0.51500000000000001 0.89500000000000013 1.3037480328986886 0.036118588297073824 1.6566513137404284 -1.0000000180025095e-35 2.4050000000000007 2.9107525571666963 -0.76575127487625283 0.0041445000000000015 0.54367036568643312 0.00065000000000000008 -0.079149999999999984 0.82500000000000007 0.93544007215098379 0.0052436950000000013 -39768.644899999716 -0.030000000000000134 50.067046719581874 -0.034449999999999988 -0.064740011152775154 -0.53695368105876085 -0.39265926977993243
decision_type=2 2 2 2 2 2 2 2 2 2 2 2 2 2 2 2 2 2 2 2 2 2 2
left_child=2 3 22 12 9 10 7 8 -7 -5 17 21 -2 -14 -15 -9 -11 -3 -6 -13 -19 -12 -1
right_child=1 5 -4 4 18 6 -8 15 -10 16 11 19 13 14 -16 -17 -18 20 -20 -21 -22 -23 -24
leaf_value=0.012570314993289129 -0.0055066071267770638 -0.016232987332320321 -0.0051634481319466239 -0.021548623982642148 0 -0.0032177522876586707 0.013047196815720528 0.020649004306547682 -0.015722987318969685 -0.012882799446187667 0.0073583495454981208 -0.010948383082573799 0.029796512209813386 0.018216886575942406 -0.010632117806219255 -0.0050079161468043355 0.014637586542749999 -0.012770087121085634 0.02306414579134056 0.0067838741041621456 0.0098529738843609344 0.033424050816752697 0.03555031659184963
leaf_weight=6.7469653636217117 4.9963994026184073 10.238724097609522 8.4935943484306318 12.481795579195024 5.2471643537282935 34.965895399451256 7.4942885041236869 5.4957806318998319 55.940438449382782 4.9949916899204254 4.9964088201522827 8.9885758161544818 12.243500053882601 13.740717947483065 5.2461300790309897 6.7423622310161591 5.747444272041319 4.9945475012063989 8.7474549412727338 16.482792779803276 9.2422142624855006 7.495491757988928 7.2478249520063418
leaf_count=27 20 41 34 50 21 140 30 22 224 20 20 36 49 55 21 27 23 20 35 66 37 30 29
internal_value=0.00058 -0.000604904 0.0136695 0.00655385 -0.00122821 -0.00368342 -0.00731612 -0.00888723 -0.0110052 -0.0108452 0.00266214 0.00830267 0.0146577 0.0180957 0.00989333 0.00625368 0.00129552 -0.00583914 0.0142042 0.000238927 0.00140384 0.0238846 0.0253876
internal_weight=269.012 246.523 22.4884 73.4456 37.2189 173.078 110.639 103.144 90.9063 23.2242 62.4388 37.9633 36.2267 31.2303 18.9868 12.2381 10.7424 24.4755 13.9946 25.4714 14.2368 12.4919 13.9948
internal_count=1077 987 90 294 149 693 443 413 364 93 250 152 145 125 76 49 43 98 56 102 57 50 56
is_linear=0
shrinkage=0.02


Tree=3
num_leaves=15
num_cat=0
split_feature=51 0 7 11 49 45 19 54 50 57 43 57 45 2
split_gain=10.237 12.7216 9.99082 9.20366 7.46725 7.25799 6.6897 6.26118 6.21529 4.61676 3.01637 2.83383 2.08005 0.016333
threshold=0.51500000000000001 1.0991119942452132 -0.54975749417597297 -1752736.4999999993 2.185688573004247 4.8740337550683641 0.0082275000000000004 -0.027250000000000048 54.619271378302749 0.23264424747883775 0.59570590657045963 0.13393281668976045 -1.3130685948846696 0.0055535000000000003
decision_type=2 2 2 2 2 2 2 2 2 2 2 2 2 2
left_child=1 10 4 -4 8 6 7 -5 9 12 13 -8 -2 -1
right_child=2 -3 3 5 -6 -7 11 -9 -10 -11 -12 -13 -14 -15
leaf_value=0.019915529073449657 0.014585670867529144 -0.011881532187413104 -0.026061826203315534 -0.0053727983470880283 -0.007272346401364824 0.016839450072790915 -0.027712844821828342 0.0019767613918623759 0 0.0036245440217357963 0.0080729731318971761 -0.0072189561384246358 0.035723903246028289 0.033737994681496443
leaf_weight=5.4986646175384575 4.9973660558462205 5.4953788220882407 5.9887077063322058 80.906455963850021 7.2410901337862006 7.9954572170972815 4.9918993562459937 106.38948258757591 7.2442584037780753 4.995596542954444 5.7465786784887305 8.4895985871553403 7.2462569028139141 5.7493255436420441
leaf_count=22 20 22 24 324 29 32 20 426 29 20 23 34 29 23
internal_value=0.000570343 0.0134064 -0.000591409 -0.0021655 0.00979761 -0.00141492 -0.00219573 -0.00116957 0.0151151 0.0215541 0.0219947 -0.0156808 0.0281296 0.0281933
internal_weight=268.976 22.4899 246.486 214.762 31.7246 208.773 200.777 187.296 24.4835 17.2392 16.9946 13.4815 12.2436 11.248
internal_count=1077 90 987 860 127 836 804 750 98 69 68 54 49 45
is_linear=0
shrinkage=0.02


Tree=4
num_leaves=17
num_cat=0
split_feature=51 50 7 11 28 55 31 44 7 57 6 50 49 40 54 28
split_gain=9.85907 11.0427 9.61519 8.86819 7.76185 11.6106 11.277 7.19237 6.70887 6.24446 7.80869 5.98971 5.16582 4.71831 2.83899 1.85799
threshold=0.51500000000000001 60.123072441494074 -0.54975749417597297 -1752736.4999999993 0.79405985274304003 0.44547472802230742 -1.0000000180025095e-35 -2.1582143400396041 -0.090968905603910896 0.11679657060034447 0.040600000000000004 54.619271378302749 0.27562052464802927 1.2478532905559367 -0.1012 0.4681408784573669
decision_type=2 2 2 2 2 2 2 2 2 2 2 2 2 2 2 2
left_child=1 14 7 -4 9 8 -7 -2 -6 10 -5 13 -11 -9 -1 -16
right_child=2 -3 3 4 5 6 -8 11 -10 12 -12 -13 -14 -15 15 -17
leaf_value=0.033465224370851886 -0.0071343653976611941 -0.009698673863458988 -0.02559660646213464 -0.019571476764305751 0.00025559604366876248 0.012205815949932572 -0.0061361034402882698 0.0090261646955677819 -0.02728753147684157 -0.004666056490719629 0.0026626985247259665 0 0.0055523399590222487 0.031570705992860923 0.021276213079485649 0.0030352056531538765
leaf_weight=5.747517839074141 7.2393324077129391 5.7443498671054831 5.9811279773712149 19.712805509567264 6.4933192729949951 47.220736235380173 17.977157443761826 8.4951089173555427 6.4915519058704358 76.404156550765038 8.489860534667967 7.2442584037780753 25.969071626663208 8.7481596469879133 5.9981548190116865 4.9977190643548965
leaf_count=23 29 23 24 79 26 189 72 34 26 306 34 29 104 35 24 20
internal_value=0.00056024 0.0131579 -0.000579466 -0.00212431 -0.00138734 0.00354588 0.00705181 0.00961127 -0.0133677 -0.00438833 -0.0127102 0.0148303 -0.00200686 0.0211502 0.0213844 0.0138175
internal_weight=268.954 22.4877 246.467 214.74 208.759 78.1828 65.1979 31.7269 12.9849 130.576 28.2027 24.4875 102.373 17.2433 16.7434 10.9959
internal_count=1077 90 987 860 836 313 261 127 52 523 113 98 410 69 67 44
is_linear=0
shrinkage=0.02


Tree=5
num_leaves=24
num_cat=0
split_feature=4 5 50 58 8 39 5 46 43 11 46 51 37 31 62 58 39 34 43 43 58 45 11
split_gain=16.8156 10.8078 9.96601 11.0895 9.43486 11.3361 9.29416 7.96562 7.4099 9.31403 8.72679 6.83282 6.73502 6.47749 6.49585 5.68159 7.20175 9.22357 5.36197 5.26173 5.21452 5.06795 4.66213
threshold=-0.097533811272737511 0.5451218628533484 53.88280343337572 1.8650000000000004 0.37871131877982306 0.19670000000000001 -1.5537433076159788 -0.10145083471555515 -0.1363012481940262 -119842.44164999945 -3.1830740915602891 0.85000000000000031 0.02059999999999999 -1.0000000180025095e-35 1.1745991755686871 1.655 0.080950000000000008 1.6101851472812514 -0.17748798492343007 0.34694854650430546 2.1650000000000005 1.9186113786583749 96267.747450000155
decision_type=2 2 2 2 2 2 2 2 2 2 2 2 2 2 2 2 2 2 2 2 2 2 2
left_child=1 2 3 6 5 -5 -1 8 -2 10 -10 -4 15 -14 -15 -9 17 -17 -13 -11 -12 -18 -21
right_child=7 -3 11 4 -6 -7 -8 12 9 19 20 18 13 14 -16 16 21 -19 -20 22 -22 -23 -24
leaf_value=-0.0035401712218141486 0.0095905069424917135 0.026972532134808214 -0.017511111898060643 -0.0075647520947267569 0.024421220091900064 0.021778975640172095 0.025685030114543102 0.00052997423857810996 -0.013167032051184992 -0.026721335275029554 0.019513516449453365 -0.0078203951709036705 0.0088757904707212013 0 -0.027759566442619201 -0.014184444299092831 -0.027291802648996569 0.012794040975920183 0.018591396014595019 0.0024361736117049387 -0.0033472660834211873 -0.0091234095660258779 -0.018764412762115903
leaf_weight=5.2445528060197857 21.975002229213715 8.2436089217662794 12.731893733143808 30.718874827027321 5.7466787397861472 5.9948961436748496 17.239404380321503 10.485668033361433 7.4844547361135509 7.740987196564677 11.737222209572794 6.7409247606992722 13.986611694097521 10.484301909804342 4.9909804910421363 16.726559519767765 20.464357003569607 6.7439206242561331 4.9953834414482099 9.4906471222639066 5.2446354776620856 10.986376136541365 6.4934693723916999
leaf_count=21 88 33 51 123 23 24 69 42 30 31 47 27 56 42 20 67 82 27 20 38 21 44 26
internal_value=-0.00116238 0.00537598 0.00323442 0.00737205 0.00117196 -0.0024735 0.0186478 -0.00507035 0 -0.00434425 0.00411167 -0.00746187 -0.00883985 -0.000669798 -0.0096822 -0.0124088 -0.0149772 -0.0061165 0.00310608 -0.0132565 0.0121705 -0.0212804 -0.00599503
internal_weight=262.691 97.6562 89.4126 64.9444 42.4604 36.7138 22.484 165.035 70.1664 48.1914 24.4663 24.4682 94.8688 29.4619 15.4753 65.4069 54.9212 23.4705 11.7363 23.7251 16.9819 31.4507 15.9841
internal_count=1052 391 358 260 170 147 90 661 281 193 98 98 380 118 62 262 220 94 47 95 68 126 64
is_linear=0
shrinkage=0.02


Tree=6
num_leaves=22
num_cat=0
split_feature=4 19 5 3 6 4 25 39 9 25 25 9 47 31 33 6 6 19 3 62 45
split_gain=16.1835 11.812 11.721 7.25413 6.76881 7.888 6.59513 5.71291 5.33899 10.2894 10.2187 13.9759 7.106 6.74001 11.8186 4.0233 3.64152 2.77806 4.03946 1.45365 0.186629
threshold=-0.097533811272737511 0.0082275000000000004 0.5451218628533484 -0.97164603513987446 -0.13164999999999996 -1.1555551687943475 -1.0000000180025095e-35 0.058050000000000011 190022.87555000003 0.019999999999999966 -0.0099999999999998406 92705.709699999556 2.0238450415591029 -0.60812515845732873 1.0891802634134031 0.056450000000000007 -0.07884999999999999 0.0049790000000000008 -0.6515064772821143 1.1421213912940054 0.33994951481688412
decision_type=2 2 2 2 2 2 2 2 2 2 2 2 2 2 2 2 2 2 2 2 2
left_child=1 2 4 7 -1 -6 -7 -2 10 17 11 12 -5 -12 -15 16 -9 18 -10 -11 -18
right_child=3 -3 -4 8 5 6 -8 15 9 19 13 -13 -14 14 -16 -17 20 -19 -20 -21 -22
leaf_value=0.022851997945957082 0.0040403107773865528 -0.018185226662435331 0.030547127273735552 -0.018225566866434499 -0.020320645605058977 0.011523457946006793 -0.00063172888735277147 -0.0080752452122140744 -0.0068920961230855247 -0.014892552913525941 0.021583161190164759 0.016575174792150021 0.0045395493682015139 0.0062439101793022459 -0.019789929420617268 -0.0036714080309838727 -0.02047254915075437 -0.010621738868361701 0.01238353081838069 -0.03233314822102356 -0.035867848347376038
leaf_weight=7.4945982843637458 4.9923124909400967 7.4831754863262168 7.7465418577194205 26.947817608714104 4.9912098348140708 31.970696836709976 37.962049186229706 5.4921495616436067 7.7383680194616344 7.2345284521579725 7.9947087466716757 6.9921088367700568 6.2419499754905692 42.434323787689209 7.9885104596614829 6.4873578846454611 4.9909642934799177 8.7424281835556013 8.73913821578026 5.7377593666315079 6.2386816293001175
leaf_count=30 20 30 31 108 20 128 152 22 31 29 32 28 25 170 32 26 20 35 35 23 25
internal_value=-0.00114 0.0052738 0.00734094 -0.00497487 0.00498437 0.00303332 0.00486523 -0.0142153 -0.00299912 -0.00932498 -0.000467295 -0.00825163 -0.0137627 0.00479969 0.00190842 -0.0183988 -0.0235945 -0.00154824 0.00301208 -0.0236152 -0.0302566
internal_weight=262.641 97.6483 90.1651 164.993 82.4186 74.924 69.9327 28.2015 136.792 38.1922 98.5994 40.1819 33.1898 58.4175 50.4228 23.2092 16.7218 25.2199 16.4775 12.9723 11.2296
internal_count=1052 391 361 661 330 300 280 113 548 153 395 161 133 234 202 93 67 101 66 52 45
is_linear=0
shrinkage=0.02


Tree=7
num_leaves=24
num_cat=0
split_feature=4 5 50 46 41 3 4 59 3 25 42 43 11 25 6 6 12 37 31 41 28 47 43
split_gain=15.5715 9.9482 9.56123 7.99923 9.25838 7.96545 7.85621 7.98865 7.8083 7.68382 7.62439 7.5536 8.88271 9.32487 8.0925 7.09522 7.20562 7.00599 8.42724 6.65383 5.8844 5.5738 5.04072
threshold=-0.10004331176307611 0.5451218628533484 53.88280343337572 -0.10145083471555515 0.047718325361200194 -0.92203007995204744 -1.1555551687943475 0.019999999999999688 -0.3775206684900555 -1.0000000180025095e-35 0.047399840000000006 -0.1363012481940262 -119842.44164999945 0.0099999999999999551 0.061200000000000011 0.089800000000000005 0.51137433899714002 0.02059999999999999 -0.43329358473074819 0.031655398435633759 7.9565390969691885 0.66939640971358527 0.34694854650430546
decision_type=2 2 2 2 2 2 2 2 2 2 2 2 2 2 2 2 2 2 2 2 2 2 2
left_child=1 2 6 11 17 -6 -1 10 -7 -4 -8 15 13 -13 -15 16 -2 20 -19 -9 21 -5 -14
right_child=3 -3 9 4 5 8 7 19 -10 -11 -12 12 22 14 -16 -17 -18 18 -20 -21 -22 -23 -24
leaf_value=-0.014721672698422989 -0.006564917969880347 0.025912331054086621 0.0067695866919498908 0 -0.018012274095530335 0.020103312607652794 -0.0018112668720635164 0.010686879379264031 -0.0059496522337784356 -0.015888827099599923 0.017995542997744175 0.01711131107358313 -0.026100898944171589 0.0072432672094547438 -0.023317837271012838 0.029592315673061399 0.019764835980415823 0.017913651638229902 -0.010421802468899491 -0.015338665878202897 0 -0.02127274446942817 -0.0057958152072548541
leaf_weight=5.4875570982694617 10.736610412597662 8.2458888143300992 8.987662538886072 4.9921998530626288 5.4869963377714184 10.24004198610783 9.2403727024793607 6.9936901181936246 7.488251477479932 15.471510902047156 34.724489986896515 11.488543733954431 7.7307573556900051 6.7406828403472883 6.2339175045490265 5.2456355541944495 6.2441090941429129 5.7436328083276775 13.218492910265921 7.9916831701993942 8.2402816116809827 39.641765058040619 15.978054001927374
leaf_count=22 43 33 36 20 22 41 37 28 30 62 139 46 31 27 25 21 25 23 53 32 33 159 64
internal_value=-0.00112065 0.00519579 0.00312621 -0.0048682 -0.00864489 0.00209716 0.007207 0.00941377 0.00885011 -0.00733939 0.013713 0.000161257 -0.00420029 0.00405272 -0.00718359 0.0098106 0.00294483 -0.0121938 -0.00138217 -0.00282862 -0.0159287 -0.0187786 -0.01291
internal_weight=262.593 97.1429 88.897 165.45 95.0517 23.2153 64.4378 58.9502 17.7283 24.4592 43.9649 70.3983 48.172 24.4631 12.9746 22.2264 16.9807 71.8364 18.9621 14.9854 52.8742 44.634 23.7088
internal_count=1052 389 356 663 381 93 258 236 71 98 176 282 193 98 52 89 68 288 76 60 212 179 95
is_linear=0
shrinkage=0.02


Tree=8
num_leaves=22
num_cat=0
split_feature=4 57 47 44 43 58 3 53 7 57 53 45 11 34 60 41 45 25 8 58 47
split_gain=14.9613 7.4009 7.61919 7.23368 7.81796 15.8525 6.90881 8.02326 6.38881 6.31491 5.76704 5.45362 5.24178 8.48955 8.82015 6.31909 9.66407 6.41635 5.49583 4.09393 2.26237
threshold=-0.10004331176307611 0.068082375345530563 4.2370111840892797 -1.3084106535461324 0.024000717519345741 2.1050000000000004 -0.97164603513987446 0.44935000000000008 -0.62908151900999953 0.13754873868244813 -0.060649999999999975 -1.711263317971695 -837943.82244999695 -0.78222996885515805 -0.024999999999999908 0.049459386535111304 0.43035368120339929 -0.0099999999999998406 0.018187254921697708 1.9150000000000003 1.2384461629617596
decision_type=2 2 2 2 2 2 2 2 2 2 2 2 2 2 2 2 2 2 2 2 2
left_child=1 11 3 8 5 -5 7 10 -3 -6 -2 -1 19 14 -14 17 -17 -15 -16 -8 -12
right_child=6 2 -4 4 9 -7 12 -9 -10 -11 20 -13 13 15 18 16 -18 -19 -20 -21 -22
leaf_value=0.0035343491303832593 -0.0020688065059079174 0.00087937348951991421 -0.020052662112113442 0.0065367109801742962 -0.0027602991457884628 -0.018934915128791665 -0.02787684634517831 0.0080130934757487154 0.026471333473307972 0.017474658561625275 -0.013886965433200589 0.03355868278237107 -0.0087365874522296015 -0.013324658845090985 0.027595056461731788 -0.011836665581162744 0.014165011167714887 -0.0017174610835538301 0.0029009825622494569 -0.0016275471645883408 -0.032109443924492206
leaf_weight=4.9912149757146835 6.7351604849100175 7.2393014580011394 4.9862287342548361 22.722396060824394 8.9865646809339541 16.476568385958672 5.4771803915500623 4.9877527654170981 9.7393540143966657 16.23922073841095 6.9800892770290401 5.7440797835588437 6.986599653959277 34.656951323151588 8.9905285984277707 8.4828998595476168 15.484508663415907 45.154003798961639 6.9890470057725897 4.9889235347509384 9.4658285826444608
leaf_count=20 27 29 20 91 36 66 22 20 39 65 28 23 28 139 36 34 62 181 28 20 38
internal_value=-0.00109876 0.00509239 0.00302912 0.00458483 0.00139377 -0.00408041 -0.00477358 -0.0137995 0.0161115 0.0100833 -0.0187908 0.0206186 -0.00285088 -0.00165587 0.0091918 -0.00413369 0.00468231 -0.00686367 0.0174156 -0.0163158 -0.025121
internal_weight=262.504 97.1249 86.3896 81.4034 64.4247 39.199 165.379 28.1688 16.9787 25.2258 23.1811 10.7353 137.211 126.745 22.9662 103.778 23.9674 79.811 15.9796 10.4661 16.4459
internal_count=1052 389 346 326 258 157 663 113 68 101 93 43 550 508 92 416 96 320 64 42 66
is_linear=0
shrinkage=0.02


Tree=9
num_leaves=24
num_cat=0
split_feature=46 57 19 36 4 49 11 9 4 28 0 36 19 42 36 0 28 25 49 62 60 63 54
split_gain=14.7722 8.74415 10.5869 8.44261 8.99924 7.40706 6.64998 6.67319 7.17815 6.20004 6.13181 5.94807 5.62658 4.96995 5.90767 9.78771 7.03831 4.63799 4.14457 4.09078 3.93027 3.95308 3.66568
threshold=-0.083317225162526917 0.31474586189502501 0.0059770000000000005 0.12379856851523764 -1.1555551687943475 0.50044142168431682 671576.98279999953 52269.512650000404 -0.24056736346567684 7.5143486040562699 -0.63922708575388965 -0.20492770228813792 -0.00020199999999999998 0.22889569500000004 0.45439589503752936 -0.9679402905866209 3.2287118806030448 0.019999999999999966 -0.23197501940476203 0.91876223170957927 0.029999999999999919 0.46814829752950443 -0.041649999999999958
decision_type=2 2 2 2 2 2 2 2 2 2 2 2 2 2 2 2 2 2 2 2 2 2 2
left_child=3 2 6 4 -1 20 7 8 -2 22 17 -9 -5 14 15 -14 -16 -7 -3 -12 21 -6 -4
right_child=1 18 9 12 5 10 -8 11 -10 -11 19 -13 13 -15 16 -17 -18 -19 -20 -21 -22 -23 -24
leaf_value=-0.015907779964378328 0.015139891480692429 -0.0030870247959285408 -0.0099841530219770113 -0.011403003628416661 -0.016368327047344547 0.033127059525494162 0.015332215125841837 -0.029208217803268943 -0.0041015773920290424 0.0010369741569516667 0.016560022993062022 -0.007043772852042266 0.011031300315173652 -0.012404813308074383 0.018693116007668629 -0.025054586694985011 -0.0027589265004939068 0.0081886938361440623 0.018788463948513971 -0.0053134610768785185 0.013158889862160248 0.0036315646520179924 -0.024661619011092237
leaf_weight=4.9824669063091269 9.9859076887369103 5.240250751376152 13.706571206450461 16.465907603502274 4.9883065521717134 11.735717698931699 6.7413587123155585 5.9839460998773566 30.908524528145794 6.7413683831691733 7.2422938048839551 29.422427654266357 5.7435472458600998 7.2321923822164527 15.979449808597566 5.4886629879474622 8.9822196662425977 5.243651717901229 7.7367971241474134 5.4936702698469162 11.237251028418539 14.724608495831488 20.423167854547501
leaf_count=20 40 21 55 66 20 47 27 24 124 27 29 118 23 29 64 22 36 21 31 22 45 59 82
internal_value=-0.00107792 -0.005634 -0.00730056 0.00384401 0.00879491 0.0109905 -0.00308629 -0.00484561 0.000527337 -0.0156325 0.0181314 -0.0111717 -0.00149982 0.00217044 0.00532528 -0.00627498 0.0107952 0.0260486 0.00963288 0.00675946 0.0038342 -0.00129906 -0.0190797
internal_weight=262.43 136.89 123.913 125.54 65.648 60.6655 83.0422 76.3008 40.8944 40.8711 29.7153 35.4064 59.892 43.4261 36.1939 11.2322 24.9617 16.9794 12.977 12.736 30.9502 19.7129 34.1297
internal_count=1052 549 497 503 263 243 333 306 164 164 119 142 240 174 145 45 100 68 52 51 124 79 137
is_linear=0
shrinkage=0.02


Tree=10
num_leaves=24
num_cat=0
split_feature=3 23 48 23 43 8 54 45 54 23 45 32 28 48 41 44 3 12 45 21 63 25 48
split_gain=10.3809 18.8438 11.1036 9.30378 8.98459 10.0601 10.564 8.11339 8.07184 8.06168 7.01897 6.99687 10.3172 8.32486 9.46154 7.59498 7.01965 5.81791 5.77762 5.71131 5.44365 5.30746 4.95918
threshold=0.11251103385111369 1.0550000000000004 0.37169229972281154 1.2150000000000001 0.39093655290151635 0.035705703938687668 0.17269999999999999 0.16383583571665253 0.21930000000000002 0.97500000000000009 3.3707480167582076 0.2955373883473667 0.73955173537406138 0.94159008643961883 0.02082376204386301 -0.14052444794867 0.79681196249862252 0.56166119357809086 -1.6720110417082155 0.00065300000000000004 0.80744533684342046 -1.0000000180025095e-35 0.64051368264972697
decision_type=2 2 2 2 2 2 2 2 2 2 2 2 2 2 2 2 2 2 2 2 2 2 2
left_child=3 11 -3 4 8 22 19 -5 10 -10 20 12 15 14 -14 16 -2 -8 -15 -7 -1 -4 -6
right_child=1 2 21 7 5 6 17 -9 9 -11 -12 -13 13 18 -16 -17 -18 -19 -20 -21 -22 -23 -24
leaf_value=-0.012680833473339538 0.020438542414571711 0.010422190654890475 -0.00040059508226370541 0.016697435530675316 0.022427626322831809 -0.0056652636272881973 -0.031185217735614005 -0.0048085069022765214 0.01822287838680586 -0.0147020873354092 0.0030392692665696347 0.023222648465650298 0 0.011562007436098929 0.032404507874206082 -0.014722460811141785 -0.004450092318824728 -0.0060292418851500143 -0.011206387259584552 0.015944642030715227 -0.029553036615480394 -0.015859871102609668 0.00053696884281969422
leaf_weight=20.684924855828285 7.4887959063053193 12.722792923450468 14.476430833339689 13.725423887372019 7.9822658747434643 12.460701733827593 7.9735596179962185 13.21741923689842 5.7387433201074582 5.485854759812355 5.4890837967395774 12.978310272097586 4.9931122958660152 13.975201860070227 12.990765199065207 11.222635596990584 9.9830313175916654 8.2307637184858304 5.9893683493137386 7.4825749695301047 15.199061274528502 26.690890476107597 9.4787908196449262
leaf_count=83 30 51 58 55 32 50 32 53 23 22 22 52 20 56 52 45 40 33 24 30 61 107 38
internal_value=-0.000372107 0.00354003 -0.00550406 -0.00433898 -0.00702516 -0.00112499 -0.00723365 0.0059902 -0.0128848 0.00164684 -0.0169547 0.0097341 0.00692536 0.0137473 0.0235861 -0.00193866 0.00604503 -0.019113 0.00437063 0.00226236 -0.0201788 -0.0106106 0.0110918
internal_weight=266.661 133.511 53.8901 133.149 106.206 53.6087 36.1476 26.9428 52.5977 11.2246 41.3731 79.6212 66.6429 37.9484 17.9839 28.6945 17.4718 16.2043 19.9646 19.9433 35.884 41.1673 17.4611
internal_count=1069 535 216 534 426 215 145 108 211 45 166 319 267 152 72 115 70 65 80 80 144 165 70
is_linear=0
shrinkage=0.02


Tree=11
num_leaves=24
num_cat=0
split_feature=3 23 48 57 34 52 63 8 8 30 38 21 58 62 55 34 22 4 62 3 46 3 46
split_gain=9.99706 16.32 13.5208 8.97805 8.71505 7.99716 7.93086 7.15551 9.93917 8.96638 8.72606 8.27468 6.3206 5.83321 5.49079 5.64984 5.30021 5.16107 5.6838 4.91319 5.7059 4.52666 4.08843
threshold=0.19745732808808286 1.0550000000000004 0.37169229972281154 0.32274910719738109 0.69543368154478824 -0.56140000000000001 0.46544042990387197 0.035705703938687668 -0.2062819052845388 -1.6275233138953564 -0.07599999999999997 0.0022830000000000007 1.6650000000000003 1.0483572956568714 0.5371063918597544 -3.9584796945505034 0.0046898400000000007 -0.069989726238311997 1.2604018481004939 -0.11871190951242415 1.6635994780024534 0.89559699726541642 1.3359549854376931
decision_type=2 2 2 2 2 2 2 2 2 2 2 2 2 2 2 2 2 2 2 2 2 2 2
left_child=3 5 -3 7 17 21 -7 8 19 -9 13 22 -12 -11 15 -8 -5 18 -4 20 -1 -2 -10
right_child=1 2 4 16 -6 6 14 9 11 10 12 -13 -14 -15 -16 -17 -18 -19 -20 -21 -22 -23 -24
leaf_value=-0.016037618165076394 -0.017421311703410849 0.013615933244449938 -0.00058436020307792462 -0.0013177542368637499 0.012230531926967056 -0.0092756126116981027 -0.00096216897025090014 0.0075464690589196939 0.025337237264226129 0.016384137304422355 0.00074692463663166215 -0.0099335251019437507 -0.01889475412498379 -0.011258144951641576 -0.0032037869241516876 0.018668240009498075 0.025164197090969204 -0.026687142887987014 -0.020718337062343467 0.0090109965188873258 0.0023285179966017811 0.0072533608118974212 0.0021979478860932804
leaf_weight=20.182985290884975 5.9925307333469373 11.479535087943075 14.727181300520895 4.9873740524053556 5.2411579042673102 5.7330221086740485 5.9887030720710746 9.7283429056406003 10.239624187350275 5.9820650517940503 6.979480803012847 5.2338471710681906 44.094552174210548 5.4830958694219589 5.7417850494384757 47.930362939834595 5.9920828640460968 9.9639024287462252 9.4726936072111112 5.9890247881412497 9.2141592204570753 4.9897562712430954 5.2316505610942832
leaf_count=81 24 46 59 20 21 23 24 39 41 24 28 21 177 22 23 192 24 40 38 24 37 20 21
internal_value=-0.000364252 0.003659 -0.00502123 -0.00408171 -0.0106636 0.00951734 0.012193 -0.00560654 -0.00013196 -0.0097549 -0.0125649 0.0106751 -0.0161052 0.00270453 0.0143922 0.016384 0.0128878 -0.0144259 -0.00886761 -0.00666012 -0.0101136 -0.0057839 0.0180837
internal_weight=266.599 127.261 50.8845 139.338 39.4049 76.3762 65.3939 128.359 56.0913 72.2675 62.5392 20.7051 51.074 11.4652 59.6609 53.9191 10.9795 34.1638 24.1999 35.3862 29.3971 10.9823 15.4713
internal_count=1069 510 204 559 158 306 262 515 225 290 251 83 205 46 239 216 44 137 97 142 118 44 62
is_linear=0
shrinkage=0.02


Tree=12
num_leaves=24
num_cat=0
split_feature=3 23 52 63 23 46 9 33 3 55 4 0 0 38 58 30 24 46 39 46 42 4 28
split_gain=9.57966 15.6721 7.67767 7.62814 6.93733 7.11702 7.58056 6.55838 8.05379 6.38168 7.25014 6.03452 5.93281 5.5843 9.02987 7.63721 5.46858 5.41636 5.40441 5.27124 5.19277 4.70582 3.74832
threshold=0.19745732808808286 1.0550000000000004 -0.56140000000000001 0.46544042990387197 1.2150000000000001 0.87604711883615416 -26625.933049999174 -0.11778628379418564 0.93443091264622624 0.47871054262145424 -0.090504126841967056 -0.48942133461795112 -1.7310167998548678 0.041550000000000004 2.4750000000000005 0.60650296311686269 0.019999999999999855 -6.0788906300753611 0.24585000000000004 -2.475920530407882 0.050684250000000007 0.57977171361737201 1.0000000180025095e-35
decision_type=2 2 2 2 2 2 2 2 2 2 2 2 2 2 2 2 2 2 2 2 2 2 2
left_child=4 2 11 -4 12 20 -7 9 -9 10 19 -2 -1 14 21 18 17 -5 -15 -3 -6 -14 -11
right_child=1 7 3 16 5 6 -8 8 -10 22 -12 -13 13 15 -16 -17 -18 -19 -20 -21 -22 -23 -24
leaf_value=-0.025455500431814753 0.007613836343687991 0.01654923448219384 -0.0091023346313388771 -0.0002566338958596139 -0.00033097374682423638 -0.024047845008954929 0.0058934402079538137 -0.0037164141117162048 0.025732419010076359 -0.0063322749822118229 -0.021907454376490453 -0.020926984806431709 -0.0071309193394030711 -0.025683781815711276 0.020090332169477532 0.0069197114743916087 -0.0016966355443666708 0.01865159408205248 -0.0029834720973851161 -0.005833113744148322 0.022514957061114806 0.0049337878001421039 -0.030605099931145349
leaf_weight=5.9728502035140982 5.7424427419900894 6.9811250865459469 5.731047421693801 6.2380920052528372 5.7420697659254101 5.2302470952272415 7.973095700144766 11.474372744560243 4.9923958033323279 5.233516797423361 5.727541550993922 5.2382144182920438 56.038646712899208 13.950482666492467 6.2375302463769904 5.4857433736324301 6.9902226924896231 46.430747762322426 6.9730190634727469 9.2330508232116681 9.7346302866935712 15.944903790950773 7.2228192090988159
leaf_count=24 23 28 23 25 23 21 32 46 20 21 23 21 225 56 25 22 28 186 28 37 39 64 29
internal_value=-0.000356601 0.00358144 0.00932256 0.0119449 -0.00399696 0.00461338 -0.00579364 -0.0049254 0.0051547 -0.00992663 -0.00301948 -0.00566385 -0.00629021 -0.00506932 -0.00227017 -0.0130168 0.0141022 0.0163101 -0.0185504 0.00356601 0.0138134 -0.0043661 -0.021266
internal_weight=266.519 127.236 76.3708 65.3901 139.283 28.68 13.2033 50.8648 16.4668 34.3981 21.9417 10.9807 110.603 104.63 78.2211 26.4092 59.6591 52.6688 20.9235 16.2142 15.4767 71.9836 12.4563
internal_count=1069 510 306 262 559 115 53 204 66 138 88 44 444 420 314 106 239 211 84 65 62 289 50
is_linear=0
shrinkage=0.02


Tree=13
num_leaves=24
num_cat=0
split_feature=3 23 57 30 8 41 45 36 32 47 44 54 32 3 62 2 6 58 5 54 8 58 30
split_gain=9.22536 16.8237 9.67281 8.18831 9.16251 10.7353 8.14037 7.76382 6.70993 10.216 6.37346 6.27383 5.64749 4.73792 7.70147 7.28143 4.69662 6.40677 3.80946 3.72187 3.17124 2.7292 2.27557
threshold=0.11251103385111369 1.0550000000000004 0.32274910719738109 -1.4533611997670011 0.22732861704436449 0.060042501424771633 0.82434492092658973 -0.2604889861041681 0.2955373883473667 1.0253379167426415 -1.2850352217554926 -0.11399999999999998 1.5102375102375001 0.9295442368095802 0.85185481246793959 0.0045285000000000004 0.13730000000000003 1.655 0.40306865095776084 0.26025000000000004 0.45420969411072992 1.7150000000000001 -0.073779314831060414
decision_type=2 2 2 2 2 2 2 2 2 2 2 2 2 2 2 2 2 2 2 2 2 2 2
left_child=2 8 3 20 5 7 -4 -5 9 11 -3 -2 21 15 -15 19 17 -11 -7 -12 -1 -6 -10
right_child=1 10 6 4 12 18 -8 -9 22 16 13 -13 -14 14 -16 -17 -18 -19 -20 -21 -22 -23 -24
leaf_value=0.020280233943054563 0.005715514752665473 -0.020647178103590333 0.030166401937187007 -0.014848146333151228 -0.0054236158644410774 0.0018354762353585503 -0.0031773456682377137 -0.0004428104399106104 0.010449625382309678 -0.0031943738906210625 -0.017784612477130684 -0.019817267279042417 0 0.022992427636079876 -0.0050483975128114908 0.0081690472096481396 -0.0025885144234300784 0.016610276870014953 0.026464843461344797 0.00022301245346404333 0 -0.022719872440754702 0.03026444825871177
leaf_weight=5.4844199568033201 6.4856691658496857 8.7118837088346464 5.4930392652749997 26.138508751988404 5.7288005650043514 5.7345992773771268 5.2374576181173325 36.606376245617874 5.7444720268249512 7.2398617416620246 15.948881790041929 7.980388939380644 7.2274541258811942 6.4924040883779517 8.4773042649030668 8.7183043211698514 8.2311194241046888 36.678088635206223 5.2391561716794968 5.4850491583347312 6.7320102006196976 23.383284077048302 7.2399053573608381
leaf_count=22 26 35 22 105 23 23 21 147 23 29 64 32 29 26 34 35 33 147 21 22 27 94 29
internal_value=-0.000353175 0.00333398 -0.00409639 -0.00573716 -0.00749496 -0.00331317 0.0137039 -0.00658111 0.00918767 0.00643707 -0.00521349 -0.00808009 -0.0157178 -0.00198487 0.00693285 -0.00663396 0.0106017 0.0132103 0.0145177 -0.0129608 0.00941959 -0.0196103 0.0223837
internal_weight=266.438 133.433 133.005 122.275 110.058 73.7186 10.7305 62.7449 79.5995 66.6151 53.8338 14.4661 36.3395 45.1219 14.9697 30.1522 52.1491 43.918 10.9738 21.4339 12.2164 29.1121 12.9844
internal_count=1069 535 534 491 442 296 43 252 319 267 216 58 146 181 60 121 209 176 44 86 49 117 52
is_linear=0
shrinkage=0.02


Tree=14
num_leaves=24
num_cat=0
split_feature=3 23 57 30 8 4 41 45 36 47 7 49 7 36 34 45 5 54 54 45 34 55 46
split_gain=8.86212 16.1667 9.29806 7.88208 8.82489 10.4707 10.342 7.84322 7.46476 6.37979 6.47522 6.14117 5.43147 6.0194 5.18078 5.13852 7.69104 8.61868 6.33048 4.73909 4.25688 3.78501 3.32087
threshold=0.11251103385111369 1.0550000000000004 0.32274910719738109 -1.4533611997670011 0.22732861704436449 0.65558487105641394 0.060042501424771633 0.82434492092658973 -0.2604889861041681 1.0253379167426415 -0.19391421949859763 1.2937579705849691 0.045034791193288022 0.25876752260359243 0.54562416987393736 1.3329874851023662 -0.48671274044623231 -0.25214999999999987 -0.18364999999999995 0.083455041541458122 1.2243515127426166 0.51171605266883746 -0.14982244026360278
decision_type=2 2 2 2 2 2 2 2 2 2 2 2 2 2 2 2 2 2 2 2 2 2 2
left_child=2 9 3 -1 6 22 8 -4 -5 10 -2 12 14 -14 19 16 17 -11 -18 -3 -17 -8 -6
right_child=1 11 7 4 5 -7 21 -9 -10 15 -12 -13 13 -15 -16 20 18 -19 -20 -21 -22 -23 -24
leaf_value=0.0092410314159934101 -0.016688408159711669 0.0044184023956198712 0.029597790416642053 -0.014565895405019444 -0.0069876284493942814 0.0044688449320239541 0.02459108620406723 -0.0031175374328249452 -0.00043403482419798907 0.029068461944878176 0.0081186189764858828 -0.020270919212464347 0.0017510968432744543 -0.023400258339394835 0.01974535994504717 -0.010558355722471477 0.0047502587345548937 0.00068916657602138278 0.029304677303391147 -0.013992407603960661 0.012035915431803618 0 -0.024886173423551549
leaf_weight=12.2175295650959 6.7331844717264202 17.710382774472244 5.492362365126608 26.118124529719346 6.7180916815996197 7.7253238558769217 5.9905548989772779 5.2369376122951508 36.605630636215217 5.2431502789258984 9.9752538800239545 8.70178574323654 6.230401083827017 7.9510035067796707 5.4904614835977545 6.4817291498184186 6.488542094826701 20.969904631376266 17.461184099316597 7.7283606082200995 6.2359369099140167 4.9843079447746277 21.860058411955833
leaf_count=49 27 71 22 105 27 31 24 21 147 21 40 35 25 32 22 26 26 84 70 31 25 20 88
internal_value=-0.000344434 0.00326918 -0.00401457 -0.00562454 -0.00735065 -0.0154263 -0.00324515 0.0134351 -0.00645506 0.00900792 -0.00164341 -0.00511045 -0.00193929 -0.0121287 0.00261216 0.0119275 0.0147935 0.0068566 0.0230408 -0.00103964 8.15872e-05 0.0142516 -0.0210027
internal_weight=266.35 133.401 132.949 122.22 110.002 36.3035 73.6986 10.7293 62.7238 79.5889 16.7084 53.8124 45.1106 14.1814 30.9292 62.8804 50.1628 26.2131 23.9497 25.4387 12.7177 10.9749 28.5782
internal_count=1069 535 534 491 442 146 296 43 252 319 67 216 181 57 124 252 201 105 96 102 51 44 115
is_linear=0
shrinkage=0.02


Tree=15
num_leaves=24
num_cat=0
split_feature=60 51 21 7 7 8 12 23 9 3 3 0 62 19 60 48 10 19 23 19 62 25 0
split_gain=9.92431 8.85945 7.56324 7.45069 9.14593 9.4717 8.94059 10.8315 6.43202 6.36033 6.2953 6.22083 5.88019 5.76646 8.40448 7.98684 5.69034 5.23148 4.43868 5.25496 4.43451 3.8601 3.42211
threshold=-0.155 0.94500000000000006 -0.0007409999999999998 0.021676957228344843 -0.14668529753439905 -0.19349653149833276 0.48514831538023478 0.88500000000000012 -8587.4551499993522 0.82740442437187978 -0.029053099332754146 -0.24992461416553369 0.98619316464262863 0.0060315000000000013 -0.010000000000000118 0.68167400158849667 59608.275750002365 0.0053525000000000005 1.0950000000000004 0.0023025000000000003 0.5556007150267509 0.039999999999999987 0.94833221359194242
decision_type=2 2 2 2 2 2 2 2 2 2 2 2 2 2 2 2 2 2 2 2 2 2 2
left_child=-1 3 10 4 5 9 12 -8 -7 -2 22 17 -5 15 -15 -13 -9 20 19 -12 -4 -6 -3
right_child=1 2 11 6 21 8 7 16 -10 -11 18 13 -14 14 -16 -17 -18 -19 -20 -21 -22 -23 -24
leaf_value=0.024877591465224759 0.024680399529816942 -0.023961175568872992 0.012399999190904358 -0.024251941072982244 0.021544725378272761 -0.014319974520359241 0.022600352999843892 0.005909335614191844 0.0049110383699767519 0.0020391533324932844 -0.0065376365670391495 -0.00019926603819116204 -0.00041176945362102495 0.013327163998389209 -0.014644401200734394 0.02405861452542522 -0.0080884648319787863 -0.020217675807696203 -0.017462492315694519 0.015902397593437288 -0.0067630880385150362 0.00045382113110729465 -0.0038817153107768422
leaf_weight=5.9852695018053046 8.9677180647850054 15.423899143934252 5.9853735268116024 9.7021024525165576 18.711549833416942 14.953006222844126 8.4764534980058652 20.927099496126175 11.966365575790403 12.212180912494658 10.972627773880964 9.9641298800706881 7.9735942482948294 6.7253787815570858 10.447892367839811 10.47408391535282 24.895838156342506 8.4598713517189008 6.4676584005355826 6.2401946038007727 19.4384735673666 4.9828183948993674 5.4683258682489386
leaf_count=24 36 62 24 39 75 60 34 84 48 49 44 40 32 27 42 42 100 34 26 25 78 20 22
internal_value=2.31075e-05 -0.000554374 -0.00467731 0.00273533 0.00729689 0.00210877 -0.00174312 0.0021977 -0.00559095 0.0121158 -0.0111209 -0.000546868 -0.0140177 0.00494299 -0.00330608 0.0121112 -0.0015688 -0.00680612 -0.0036643 0.00138804 -0.0019264 0.0174206 -0.0191181
internal_weight=265.822 259.837 116.068 143.769 71.7936 48.0993 71.9751 54.2994 26.9194 21.1799 44.5727 71.4952 17.6757 37.6115 17.1733 20.4382 45.8229 33.8837 23.6805 17.2128 25.4238 23.6944 20.8922
internal_count=1067 1043 466 577 288 193 289 218 108 85 179 287 71 151 69 82 184 136 95 69 102 95 84
is_linear=0
shrinkage=0.02


Tree=16
num_leaves=24
num_cat=0
split_feature=58 24 34 39 1 59 25 54 12 57 28 63 53 62 25 53 48 46 52 46 34 58 62
split_gain=8.38161 14.7593 7.84006 6.34064 10.2549 7.05875 9.79201 7.92459 11.4885 10.0645 7.38678 6.63056 6.6095 6.16123 5.85165 4.02466 3.89145 3.75756 3.63995 5.03464 2.47686 2.13507 1.901
threshold=1.7150000000000001 0.019999999999999966 0.63404792307804059 0.19520000000000001 -9996609.4852013569 -0.019999999999999903 -0.029999999999999968 0.12995000000000009 0.53368589912911812 0.25965783453071772 15.547010601441626 0.86735288048945669 -0.060649999999999975 1.4032079994316173 -0.014999999999999901 -0.13644999999999999 0.99740061161105031 0.26422365321201463 0.27865000000000012 -0.32578154463014924 -0.52002757634891361 1.6250000000000002 0.67226422050101731
decision_type=2 2 2 2 2 2 2 2 2 2 2 2 2 2 2 2 2 2 2 2 2 2 2
left_child=1 2 15 5 11 6 -2 8 10 13 -7 -5 -6 -9 -4 20 21 -11 19 -8 -1 -17 -14
right_child=3 -3 14 4 12 7 18 9 -10 17 -12 -13 22 -15 -16 16 -18 -19 -20 -21 -22 -23 -24
leaf_value=0.014555681868780618 0.024543545498515763 -0.022408056400016078 -0.018028700911207753 -0.0073664821126166761 0 -0.00056040172674532286 0.0068837761748611719 0.016354130660261968 -0.027218831653347639 -0.020653806203054396 -0.016202153388182362 0.019758532364197209 -0.014064773637545103 -0.0046860023226013413 0.0075139623267477156 0.034745856889700513 0.0055485577668658937 0.00079796629139701177 0.011793031493744111 -0.011912384719884933 -0.0034804555973347306 0.017274378820084875 -0.033336421030430788
leaf_weight=5.2335862517356873 9.4638687372207624 5.7226709872484198 5.2308947294950476 8.9685104936361295 5.7340567857027063 71.957393124699593 10.222329750657083 22.178679704666141 8.7084844410419446 6.2317408323287946 14.449377894401549 5.4829393923282614 5.4652470350265512 6.7163526266813269 9.7129756510257703 7.2341651469469168 6.4855935126543036 5.4733476489782333 9.2245625555515272 11.696081370115282 5.7296280562877602 10.217382803559302 8.2067981362342817
leaf_count=21 38 23 21 36 23 289 41 89 35 25 58 22 22 27 39 29 26 22 37 47 23 41 33
internal_value=2.28606e-05 0.00693143 0.0105335 -0.00178238 -0.00967363 -0.000219271 0.00702804 -0.00244254 -0.00562452 0.00485187 -0.0032923 0.00271065 -0.0191014 0.0112602 -0.00121214 0.0157007 0.0203453 -0.0103538 0.00133114 -0.00290158 0.00475524 0.0253196 -0.0265296
internal_weight=265.747 55.5669 49.8442 210.18 33.8576 176.322 40.6068 135.715 95.1153 40.6001 86.4068 14.4514 19.4061 28.895 14.9439 34.9004 23.9371 11.7051 31.143 21.9184 10.9632 17.4515 13.672
internal_count=1067 223 200 844 136 708 163 545 382 163 347 58 78 116 60 140 96 47 125 88 44 70 55
is_linear=0
shrinkage=0.02


Tree=17
num_leaves=24
num_cat=0
split_feature=51 1 1 47 1 62 0 38 35 54 7 25 54 32 45 50 56 3 4 51 5 7 32
split_gain=6.529 10.6808 10.8207 8.89047 7.25092 6.9663 6.70577 7.84566 6.47081 6.14024 6.06193 6.04807 8.15422 7.5389 6.88817 6.88067 5.95285 6.2943 5.92953 5.70876 6.52231 5.45354 5.39649
threshold=0.94500000000000006 3841914.8508501058 24309595.594249729 0.58705694053583513 59302342.388100155 0.92571493492664425 -0.085526720227770733 -0.010049999999999988 -2.1860968364689866 -0.02414999999999989 -0.42628556614178187 -0.0099999999999999516 0.054549999999999994 -0.49325598667825926 -1.1217702100919267 50.201306087462335 1.1553000000000002 -0.84529593142251913 -0.13421358267988179 0.72500000000000031 0.32683693794502983 0.57302167008888027 0.99444340172700774
decision_type=2 2 2 2 2 2 2 2 2 2 2 2 2 2 2 2 2 2 2 2 2 2 2
left_child=1 5 -3 -2 11 10 7 -7 -6 19 -1 12 13 -5 -13 -16 22 -18 -8 20 -4 -10 -11
right_child=3 2 9 4 8 6 18 -9 21 16 -12 14 -14 -15 15 -17 17 -19 -20 -21 -22 -23 -24
leaf_value=0.00020880200946655063 -0.023515036848447936 -0.02058613446991462 -0.012403196652423129 -0.01322861007193939 -0.030648179435456353 0.01971391268385839 -0.020993576867943863 -0.0043886576768699132 -0.011434616716084325 0.0059130097388228895 0.017893409462626166 0.0074054500080952095 0.018932852021592349 0.012080595039373586 -0.016741686452588712 0.0012048745029402722 -0.014508604932836362 0.0099324615196461474 0.0029211153748311004 -0.02098407343547825 0.016840100070214036 0.0086944192660282135 0.02987949656268573
leaf_weight=11.217237576842306 7.9548436999320975 11.189598530530928 6.4746670126914996 9.4724478572607023 4.9739951640367535 11.462280809879301 7.4676446467638016 9.2139226198196429 18.393944665789608 15.433239951729776 31.167884796857834 15.700267091393469 14.442369371652601 8.7206387817859667 17.923619821667671 14.926781311631201 8.9616627842187899 7.2263866811990729 7.9725794792175275 7.9445075243711463 5.2273275554180145 6.9786578416824332 5.2392046004533759
leaf_count=45 32 45 26 38 20 46 30 37 74 62 125 63 58 35 72 60 36 29 32 32 21 28 21
internal_value=2.05595e-05 0.0028747 -0.00287596 -0.00341997 -0.00187385 0.00790206 0.0012418 0.00877791 -0.0101843 0.000615612 0.0133881 0.00118493 0.00785821 -0.000773328 -0.0031987 -0.00846891 0.00551449 -0.00325195 -0.00844368 -0.00821949 0.000254393 -0.00562757 0.0126137
internal_weight=265.686 146.198 67.6966 119.488 111.533 78.5015 36.1164 20.6762 30.3466 56.507 42.3851 81.1861 32.6355 18.1931 48.5507 32.8504 36.8605 16.188 15.4402 19.6465 11.702 25.3726 20.6724
internal_count=1067 587 272 480 448 315 145 83 122 227 170 326 131 73 195 132 148 65 62 79 47 102 83
is_linear=0
shrinkage=0.02


Tree=18
num_leaves=24
num_cat=0
split_feature=7 54 10 35 47 1 44 54 43 22 22 36 22 43 43 62 12 56 45 21 10 0 10
split_gain=6.37766 12.6939 8.19345 10.9864 7.07831 7.58464 7.52219 12.6781 6.37885 5.7622 5.66694 5.51737 7.98425 6.05904 5.13592 6.29669 4.43495 8.64035 8.89343 4.27188 4.26736 5.88349 4.39716
threshold=0.021676957228344843 -0.086100000000000051 45760.62125000079 1.2661271666916998 0.98587861367116514 124582923.5664003 -2.1582143400396041 -0.26384999999999992 0.16482213791507719 0.0024186600000000009 0.0048369150000000015 -0.20492770228813792 0.006648750000000001 -2.0159778695271577 0.78229370355979999 1.3684713421832251 0.48793012666843577 0.98480000000000012 1.4470101179727914 -0.00042649999999999931 -218323.16854999957 0.97829126573841452 8929.7946000024695
decision_type=2 2 2 2 2 2 2 2 2 2 2 2 2 2 2 2 2 2 2 2 2 2 2
left_child=4 20 16 14 8 6 7 -6 9 -1 -5 13 -13 -8 -4 -16 19 -18 -19 -3 -2 22 -22
right_child=1 2 3 10 5 -7 11 -9 -10 -11 -12 12 -14 -15 15 -17 17 18 -20 -21 21 -23 -24
leaf_value=-0.025267268570089915 -0.024933822712178783 -0.011232167875769139 -0.018390548143969537 0.020705884351011634 0.015417726566562262 -0.016602058650310302 0.018683517460002266 -0.024491527323639618 0.0065073538933832879 -0.0033674433373257046 -0.0016026974134031055 0.02011387226882555 -0.0020107446292854164 0.00047830150221847209 0.0032854865139336515 -0.019823094444094132 0.034060965768407503 0.015537213636027702 -0.015472062024059104 0.011032689259215326 -0.0078736259196803566 0.0039279351732867777 -0.028503261436445784
leaf_weight=7.2161570936441448 8.6988821476697904 6.9576336592435837 15.906508371233938 8.4780650883913058 5.2291165441274643 5.2172693163156501 9.2185364812612516 6.966817304491995 12.963631376624106 15.930670514702795 8.4432097375392896 28.919100746512413 7.7197884768247595 34.870254337787628 15.936311542987825 6.2162077426910392 5.9853831380605724 11.461523562669756 4.9660711139440528 6.2235716134309751 16.161908358335499 9.7100042104721052 6.2055712342262259
leaf_count=29 35 28 64 34 21 21 37 28 52 64 34 116 31 140 64 25 24 46 20 25 65 39 25
internal_value=1.96806e-05 -0.00308716 0.00103082 -0.00372879 0.0031041 0.00591135 0.0072891 -0.00694058 -0.00434648 -0.0106867 0.00939215 0.00953063 0.0153113 0.00452055 -0.0097467 -0.00310999 0.0085196 0.0138842 0.00569504 -0.000263064 -0.012321 -0.00851599 -0.0141632
internal_weight=265.602 131.351 90.5745 54.9803 134.251 98.1409 92.9236 12.1959 36.1105 23.1468 16.9213 80.7277 36.6389 44.0888 38.059 22.1525 35.5942 22.413 16.4276 13.1812 40.7764 32.0775 22.3675
internal_count=1067 528 364 221 539 394 373 49 145 93 68 324 147 177 153 89 143 90 66 53 164 129 90
is_linear=0
shrinkage=0.02


Tree=19
num_leaves=24
num_cat=0
split_feature=60 51 1 1 24 21 46 53 45 3 45 3 9 43 37 12 48 12 38 47 7 1 33
split_gain=9.27104 8.02149 9.25767 9.56411 7.93907 7.12321 5.90099 7.11167 6.61312 5.87375 5.77264 5.14436 4.70464 9.08212 6.78744 6.11017 5.82032 3.81669 5.32079 3.66743 3.10271 2.23802 0.835599
threshold=-0.155 0.94500000000000006 3841914.8508501058 24309595.594249729 0.029999999999999975 -0.0007409999999999998 3.162607956524111 -0.13099999999999992 0.35799767904016738 -0.029053099332754146 -2.8689852799016364 -0.91893090362295993 158779.64785000126 0.33557423462017294 -0.0013499999999999899 0.50625508543821851 0.88692654954599892 0.44142080644187565 0.038100000000000023 1.4342409223732424 0.30536031095678157 12774488.916399958 -0.16912868607862894
decision_type=2 2 2 2 2 2 2 2 2 2 2 2 2 2 2 2 2 2 2 2 2 2 2
left_child=-1 2 4 21 6 9 8 -8 -2 20 -5 -12 13 14 -7 -15 19 -11 -19 -14 22 -4 -3
right_child=1 5 3 10 -6 12 7 -9 -10 17 11 -13 16 15 -16 -17 -18 18 -20 -21 -22 -23 -24
leaf_value=0.024052574938103741 0.0077709720754620404 -0.014555259845787608 -0.0073610341882252321 -0.01931799981016637 -0.0095932006994581473 0.0050534904537364866 -0.020697559648136101 0.010857309403773578 0.023408214512774014 0.0095362509276663825 -0.0054355824256554575 0.0076224873721600353 -0.0047891036107958343 0.0028469068429744873 -0.011972506277316271 0.026564702130538284 0.0045476132950207533 0 -0.023214651075060773 -0.030571081487176237 -0.0063204129931109625 -0.028150723205134044 -0.029626781051092885
leaf_weight=5.9787791520357123 41.851089522242546 5.7027540653944024 4.9631553590297681 4.9667293578386298 9.2074321359395963 17.935855180025101 4.9818467795848846 5.7362114042043668 15.696473196148871 5.9749381542205837 18.653100892901417 31.608577206730846 4.9747364372015017 10.698538258671762 18.404057681560516 7.9759265333414069 6.2191473990678778 11.709623098373415 5.9724059253931037 5.2124887257814407 7.2106632441282263 5.9553015232086182 7.9156207740306863
leaf_count=24 168 23 20 20 37 72 20 23 63 24 75 127 20 43 74 32 25 47 24 21 29 24 32
internal_value=1.67429e-05 -0.000541016 0.0025892 -0.00283497 0.00729061 -0.00446797 0.00968735 -0.00342931 0.0122391 -0.0107277 0.000476493 0.00265422 -0.000456741 0.00226667 -0.00343286 0.0135529 -0.00982484 -0.0035149 -0.0083442 -0.0190502 -0.0184696 -0.0196848 -0.0241964
internal_weight=265.505 259.527 143.62 66.1469 77.4731 115.907 68.2656 10.7181 57.5476 44.486 55.2284 50.2617 71.4208 55.0144 36.3399 18.6745 16.4064 23.657 17.682 10.1872 20.829 10.9185 13.6184
internal_count=1067 1043 577 266 311 466 274 43 231 179 222 202 287 221 146 75 66 95 71 41 84 44 55
is_linear=0
shrinkage=0.02


Tree=20
num_leaves=15
num_cat=0
split_feature=51 40 57 40 37 59 37 57 7 58 9 8 57 58
split_gain=12.5817 8.49434 9.07541 8.72183 7.16672 8.96674 7.77426 6.45114 6.12516 9.34604 5.82763 4.13667 3.80472 2.07373
threshold=0.31500000000000011 1.3214738695559367 0.070535181733284449 1.35291098156273 0.064900000000000027 -1.0000000180025095e-35 -0.0066000000000000043 0.29603680172157237 -0.34358518670545285 1.9650000000000001 -54875.862749999382 -0.11380419049514255 0.058525779319714748 1.9950000000000003
decision_type=2 2 2 2 2 2 2 2 2 2 2 2 2 2
left_child=-1 2 12 13 5 6 -4 8 11 -10 -7 -5 -2 -3
right_child=1 3 4 7 -6 10 -8 -9 9 -11 -12 -13 -14 -15
leaf_value=0.022679927731019619 0.006961282458208885 -0.028165038552060252 -0.00054775993172309742 0.016894783794648864 0.019637671818320983 0.0022379760829239212 0.016085657745768863 0.018286366613529639 -0.0011925155363418866 -0.016856452750818981 -0.0084233882676711079 -0.0029904676743537461 0.03013254703036905 -0.0084688160288784575
leaf_weight=9.2245425879955274 7.4735100716352445 7.2054324448108655 24.142075464129448 7.7189109772443771 7.2254654318094245 32.361306041479104 19.676510408520699 4.9821709692478171 42.550051778554916 24.321512058377266 51.985313102602966 7.7325732707977277 5.732453465461731 4.9759184569120407
leaf_count=37 30 29 97 31 29 130 79 20 171 98 209 31 23 20
internal_value=0.000101527 -0.000740235 0.00225856 -0.00527279 0.000651521 -0.0004155 0.00684398 -0.00294597 -0.0043653 -0.00702873 -0.00426862 0.00669503 0.0179096 -0.0209971
internal_weight=257.308 248.083 148.597 99.4866 135.391 128.165 43.8186 87.3052 82.323 66.8716 84.3466 15.4515 13.206 12.1814
internal_count=1034 997 597 400 544 515 176 351 331 269 339 62 53 49
is_linear=0
shrinkage=0.02


Tree=21
num_leaves=16
num_cat=0
split_feature=51 3 63 45 7 60 23 33 36 58 23 35 12 12 1
split_gain=12.1042 10.8928 8.95971 9.70047 5.94126 5.66172 6.73136 5.32468 5.29544 9.21044 4.96764 2.97493 2.9227 2.51273 0.0769635
threshold=0.31500000000000011 -0.97164603513987446 0.43106485441979653 -3.7384281560847215 0.54511589852701559 -0.064999999999999933 0.82500000000000007 0.81313258385712361 -0.0018060306915479438 2.0550000000000002 1.0250000000000001 -0.66589473430772028 0.53551508757730992 0.45644951702346986 70832857.658100143
decision_type=2 2 2 2 2 2 2 2 2 2 2 2 2 2 2
left_child=-1 4 8 10 12 7 -7 -5 11 -10 -4 -3 14 -12 -2
right_child=1 2 3 5 -6 6 -8 -9 9 -11 13 -13 -14 -15 -16
leaf_value=0.022253981073411904 -0.018543314691825966 -0.0055050867881712541 0 0.018619333398385212 0.0031555959136377173 0.012615846111468817 0.00029539857407678063 0 0.012015334187856977 -0.017582639514891613 -0.0079627793918518094 -0.027560614623580681 -0.0075838596457711658 -0.030488516902556925 -0.033148415717389759
leaf_weight=9.2188761979341489 4.9525772482156807 4.9821950495243073 9.2094335407018679 17.180652111768726 5.2173805981874457 20.419719979166985 131.42162111401558 9.7125314027070981 8.4629469960927981 7.6931594312191001 4.9683918505907041 7.4493133574724215 6.209463119506835 5.2044583261013031 4.9431047141551971
leaf_count=37 20 20 37 69 21 82 528 39 34 31 20 30 25 21 20
internal_value=0.000101034 -0.000724093 0.00054336 0.00208274 -0.0142979 0.00357042 0.00201331 0.0120222 -0.00982794 -0.00177752 -0.0111764 -0.0195307 -0.0202722 -0.0206032 -0.0271881
internal_weight=257.246 248.027 226.704 198.117 21.3225 178.735 151.841 26.8932 28.5876 16.1561 19.3823 12.4315 16.1051 10.1729 9.89568
internal_count=1034 997 911 796 86 718 610 108 115 65 78 50 65 41 40
is_linear=0
shrinkage=0.02


Tree=22
num_leaves=18
num_cat=0
split_feature=3 40 40 45 57 57 36 50 58 50 1 6 5 10 50 50 60
split_gain=9.83657 6.62931 10.7604 8.76398 8.16251 7.64669 7.24564 7.1289 7.02037 6.1151 8.47309 7.53297 5.15674 4.52018 4.4667 4.06512 1.40357
threshold=-0.97164603513987446 1.3214738695559367 1.3676387998550006 -4.5532381567410178 0.070535181733284449 0.089897105926163845 0.25284084173052285 49.330162227488763 1.7150000000000001 56.273929571549459 24839740.13930035 0.043150000000000008 0.16844070953401238 130346.99610000059 46.716627718071287 47.541481264515653 -0.0099999999999998961
decision_type=2 2 2 2 2 2 2 2 2 2 2 2 2 2 2 2 2
left_child=12 4 15 -4 14 -6 7 -5 -8 11 -11 -7 -1 16 -2 -3 -14
right_child=1 2 3 6 5 9 8 -9 -10 10 -12 -13 13 -15 -16 -17 -18
leaf_value=0.0023013300401446271 0.030683659950535978 -0.0063937802587437711 -0.023661079283388956 0 -0.015753818955996382 -0.0042916235291467972 0.0078206289270362547 0.01716327891270648 -0.011941378480771829 0.0034862453220722948 0.023777139584334205 0.007967451612811963 -0.014258722262225347 -0.002789998763206254 0.0059420450249106204 -0.026709309171675483 -0.033699126087347965
leaf_weight=6.2146587073802975 6.473153889179228 9.4417966455221194 5.2137716859579077 20.406462341547012 8.2033422142267209 49.018180504441261 10.713527455925943 18.425674349069595 19.377216771245003 26.140703499317169 12.457097187638281 33.341126441955566 4.9346283227205312 5.9572181403636923 6.7286451607942581 8.4393149018287641 5.6859026402235013
leaf_count=25 26 38 21 82 33 197 43 74 78 105 50 134 20 24 27 34 23
internal_value=9.55145e-05 0.00134403 -0.00279576 0.000505259 0.00406214 0.00245577 0.00251465 0.00825184 -0.00470013 0.00377615 0.0103221 0.000609477 -0.0123341 -0.0181195 0.01893 -0.0165946 -0.0258558
internal_weight=257.172 234.38 92.0178 74.1367 142.362 129.16 68.9229 38.8321 30.0907 120.957 38.5978 82.3593 22.7924 16.5777 13.2018 17.8811 10.6205
internal_count=1034 942 370 298 572 519 277 156 121 486 155 331 92 67 53 72 43
is_linear=0
shrinkage=0.02


Tree=23
num_leaves=22
num_cat=0
split_feature=51 60 5 1 6 33 19 41 40 5 25 34 25 60 34 42 40 33 40 60 50
split_gain=11.5637 7.93334 7.05741 9.59285 8.62112 6.42054 6.19083 7.94843 5.83514 7.65332 8.15703 7.40763 6.22588 9.9794 8.01751 5.02925 4.92743 3.96842 5.56222 3.94719 2.70995
threshold=0.31500000000000011 -0.0099999999999998961 0.19951879702796441 -51855143.10315036 -0.035449999999999988 -2.5370373699325426 0.004905500000000001 0.012546830668815167 1.1589116137850033 0.028947644551624577 -0.024999999999999908 -0.67465789207056803 0.019999999999999966 -0.019999999999999903 1.8105328143272816 0.082063225000000004 1.6198816254448987 0.28238015854116233 1.3010026431662087 -0.050000000000000148 54.872943430018623
decision_type=2 2 2 2 2 2 2 2 2 2 2 2 2 2 2 2 2 2 2 2 2
left_child=-1 8 5 -4 20 -3 7 -7 9 10 -2 -12 13 14 -10 -8 -6 18 -14 -11 -5
right_child=1 2 3 4 16 6 15 -9 12 19 11 -13 17 -15 -16 -17 -18 -19 -20 -21 -22
leaf_value=0.02175757184594598 0.01974926356235614 -0.0209253155503289 0.0086296924542139768 -0.034824154518031718 0 0.028351887312068783 -0.018235117008405029 0.0022482595947915553 0.0043420607402475768 0.0081361220793351331 0.0044942543724118328 -0.02488051951731891 -0.028868382025088419 0.027440904489363475 -0.017334088054292665 -4.2129193803274816e-05 -0.022376787125016503 0.0018742983038915768 -0.0033441463066089185 0.027983326968651176 -0.016258616427052515
leaf_weight=9.2081121504306775 5.7290255874395397 5.4549419283866873 8.4732352346181852 7.1838838756084469 17.401059925556186 4.9833088368177405 9.4549580216407794 48.023631900548935 38.780887916684151 9.4477351754903811 7.218559831380845 5.7141979783773396 6.2095268070697811 5.9813851714134207 7.9512903392314902 17.919172555208206 4.9427481293678275 8.2145016044378263 8.6906586587429029 9.2246470302343351 10.897109895944594
leaf_count=37 23 22 34 29 70 20 38 193 156 38 29 23 25 24 32 72 20 33 35 37 44
internal_value=9.18108e-05 -0.000714115 -0.00400867 -0.0100546 -0.014153 -0.000471794 0.000914533 0.00496063 0.00315581 0.00959402 0.000169961 -0.00830107 0 0.00375432 0.000439337 -0.00667231 -0.00537494 -0.00862821 -0.0147357 0.0185449 -0.0244094
internal_weight=257.105 247.896 134.734 48.898 40.4248 85.836 80.3811 53.0069 113.162 37.3342 18.6618 12.9328 75.8283 52.7136 46.7322 27.3741 22.3438 23.1147 14.9002 18.6724 18.081
internal_count=1034 997 542 197 163 345 323 213 455 150 75 52 305 212 188 110 90 93 60 75 73
is_linear=0
shrinkage=0.02


Tree=24
num_leaves=15
num_cat=0
split_feature=3 63 11 4 23 31 58 46 45 5 24 34 22 12
split_gain=9.4587 8.60565 9.40066 5.6159 6.37669 5.49621 6.70903 4.58935 5.29143 8.72133 5.31881 2.82286 1.06973 0.86824
threshold=-0.97164603513987446 0.43106485441979653 -1752736.4999999993 0.707172254006594 1.1950000000000001 -0.15182777712404724 2.0650000000000004 7.0362861584737599 0.73396397563433313 1.1499663336332235 0.0099999999999998441 -0.10045327585649909 0.0027567100000000003 0.50416438106970873
decision_type=2 2 2 2 2 2 2 2 2 2 2 2 2 2
left_child=3 5 -3 4 12 -2 11 8 9 -4 -10 -7 -1 -8
right_child=1 2 7 -5 -6 6 13 -9 10 -11 -12 -13 -14 -15
leaf_value=-0.014057834322413885 -0.023204088339356565 -0.018737521168454001 0.0067675814933296817 0.0045289020498214252 0.00030185814741033395 0.015683379363777211 -0.0070569058744388707 0.021050991524543566 -0.0039980282550327734 -0.019336526440264592 0.010144427599024952 -0.0019996033728224799 -0.031142588404290503 -0.022134925644092935
leaf_weight=4.9315628707408958 7.4524486958980587 7.4012336879968634 116.97526341676712 5.4640773236751548 4.9719184488058081 5.9737384170293835 4.9528808146715146 5.7357532680034629 55.93809549510479 4.9600883722305289 12.703710824251173 7.2099711894989005 7.3849268555641174 4.9482163339853287
leaf_count=20 30 30 470 22 20 24 20 23 225 20 51 29 30 20
internal_value=8.88509e-05 0.00131331 0.0028223 -0.0121105 -0.0176981 -0.00848811 -0.00324405 0.00369299 0.00310688 0.00561178 -0.00126086 0.00573851 -0.0252743 -0.0156099
internal_weight=257.004 234.251 203.714 22.7525 17.2884 30.5373 23.0848 196.313 190.577 121.935 68.6418 13.1837 12.3165 9.9011
internal_count=1034 942 819 92 70 123 93 789 766 490 276 53 50 40
is_linear=0
shrinkage=0.02


Tree=25
num_leaves=24
num_cat=0
split_feature=7 52 60 44 44 9 45 50 37 2 2 28 47 42 21 28 40 54 1 34 5 23 7
split_gain=7.63309 6.22139 8.58151 13.3838 12.3469 8.40532 6.04966 5.65059 5.58486 9.15458 14.1208 5.53048 5.31037 5.30157 6.17238 4.72399 4.08979 6.74679 4.19435 4.06255 4.39104 5.96454 5.81721
threshold=0.040688181754688919 -0.24244999999999997 0.044999999999999936 -0.089691967700067363 0.040053673369655492 64520.322700000375 -0.94701290718238174 63.1870385850929 -0.011549999999999989 0.0044275000000000009 0.0018815000000000001 49.84695414788181 1.3436360514692105 0.14141299500000001 -0.0020049999999999994 1.7458987464796309 1.2356612943673395 0.28684999999999999 44786470.37690068 -2.2843514876954738 -0.56888585149890691 1.0650000000000002 -0.33847762359026085
decision_type=2 2 2 2 2 2 2 2 2 2 2 2 2 2 2 2 2 2 2 2 2 2 2
left_child=1 19 4 -4 6 12 11 -8 9 10 -2 -3 -6 16 -15 -12 17 -10 -18 -1 -21 22 -22
right_child=8 2 3 -5 5 -7 7 -9 13 -11 15 -13 -14 14 -16 -17 18 -19 -20 20 21 -23 -24
leaf_value=0.011095404740157305 -0.017397305166485424 0 -0.018453833895821409 0.012991270702634672 -0.0033903351347821672 -0.013715906827542708 0.02446306941585473 0.0010219832834062806 -0.0071968520725791121 -0.018180755462633286 0.019035682157135827 0.021716352793166291 0.024065848731798747 0.0053074142602805062 -0.011946070915795467 -0.0027137199904440157 0.00073446485136313276 0.01420839139549317 0.026697202617613793 -0.017184257092763847 0.0020921362621889841 0.0072332947800620899 -0.020458388584193892
leaf_weight=5.7152486294507971 12.398787036538126 17.402717888355259 13.429622098803522 8.4695196002721769 5.2257176041603106 13.914755061268805 22.151138663291935 5.7339576035737982 17.64024838805199 26.026669472455978 9.9465437233448011 5.966748669743537 4.9773102402687073 11.394278302788733 25.771340385079384 5.7234473228454581 5.4604656100273115 8.4652148485183698 5.2350062429904938 10.706159472465513 7.7114916145801553 13.940724879503248 9.443103969097141
leaf_count=23 50 70 54 34 21 56 89 23 71 105 40 24 20 46 104 23 22 34 21 43 31 56 38
internal_value=-0.00124064 0.00187428 0.00479532 -0.00601091 0.0080257 -0.00355066 0.0135783 0.019918 -0.00480529 -0.00968573 -0.00148828 0.00560352 0.00973709 -0.00113049 -0.00649619 0.0108143 0.00413538 0 0.0143696 -0.00397248 -0.0062395 -0.0021519 -0.0101158
internal_weight=272.85 144.788 97.2715 21.8991 75.3723 24.1178 51.2546 27.8851 128.062 54.0954 28.0688 23.3695 10.203 73.9666 37.1656 15.67 36.8009 26.1055 10.6955 47.5167 41.8015 31.0953 17.1546
internal_count=1098 582 391 88 303 97 206 112 516 218 113 94 41 298 150 63 148 105 43 191 168 125 69
is_linear=0
shrinkage=0.02


Tree=26
num_leaves=12
num_cat=0
split_feature=63 3 11 51 3 57 42 29 21 46 21
split_gain=11.6015 8.39146 8.96751 7.21779 7.35935 8.56592 6.62102 4.35986 5.57756 3.99664 1.12223
threshold=0.28567908369124023 -0.97164603513987446 -1752736.4999999993 0.31500000000000011 0.98936726670980535 0.070535181733284449 0.055955340000000013 -1.0000000180025095e-35 0.0013110000000000001 -1.4981212504713679 0.0013625000000000002
decision_type=2 2 2 2 2 2 2 2 2 2 2
left_child=-1 6 -3 -4 5 -5 -2 10 -9 -6 -8
right_child=1 2 3 4 9 -7 7 8 -10 -11 -12
leaf_value=-0.027686180326222463 0.0093302912997012561 -0.018134768542311649 0.020491230192241527 0.014467802318992355 -0.027486682736390652 0.00040188813037199416 -0.014581394620195892 -0.017046157128554978 0.0073807084545158309 -0.0032629043526053213 -0.033380705741339355
leaf_weight=6.1745090186595908 4.9614879637956646 9.3711763024330121 7.4639242589473715 18.890236407518387 4.9751041382551193 189.27075223624706 4.9436322599649483 8.8608907163143105 5.6836721897125235 7.211833789944647 4.9389748275279999
leaf_count=25 20 38 30 76 20 761 20 36 23 29 20
internal_value=-0.00121396 -0.000547882 0.000682276 0.00150546 0.000808171 0.00172611 -0.0105846 -0.0149364 -0.00714027 -0.0140551 -0.0252725
internal_weight=272.746 266.572 237.183 227.812 220.348 208.161 29.3887 24.4272 14.5446 12.1869 9.88261
internal_count=1098 1073 954 916 886 837 119 99 59 49 40
is_linear=0
shrinkage=0.02


Tree=27
num_leaves=17
num_cat=0
split_feature=3 38 45 58 54 45 47 42 52 47 47 28 9 4 52 50
split_gain=7.42834 7.12515 7.42467 8.75207 6.92912 6.31898 6.1595 5.60783 4.82725 4.81299 4.39626 3.89748 3.71666 3.15475 2.35833 1.07381
threshold=-0.97164603513987446 -0.11355 3.0665667330928463 1.6250000000000002 0.58005000000000007 0.033844500935109607 1.2484502034321168 0.055955340000000013 -0.1799499999999998 1.1095144898092271 0.96212377483080325 1.3686373927933368 61680.475949999884 0.72251365825445346 0.20935000000000001 55.834053343442655
decision_type=2 2 2 2 2 2 2 2 2 2 2 2 2 2 2 2
left_child=7 6 3 8 5 -5 -2 -1 -3 -10 -9 -4 -13 15 -8 -12
right_child=1 2 11 4 -6 -7 14 10 9 -11 13 12 -14 -15 -16 -17
leaf_value=0.0071641788678070755 0.0014816222958485697 0 0.0019448915638452476 0.0025295661017295658 -0.022032913529153115 -0.0051400796054463429 -0.02444013393489184 0 0.0055331674837291057 0.034532205014249244 -0.032675088020158082 0.03230877576725414 0.0063708209475334832 -0.0056708068643958462 -0.0052550542504875208 -0.016031346757837989
leaf_weight=5.2105517238378551 9.6998161971569079 6.460018306970599 8.4622332006692904 105.36362405121326 5.9521653950214377 71.796932309865952 9.4461663365364057 5.9239966720342663 4.9690643697977048 5.4685166925191879 6.1101313084363955 5.4824058860540372 4.9869278371334076 5.9445103853940955 4.9677820503711692 6.4122098684310913
leaf_count=21 39 26 34 424 24 289 38 24 20 22 25 22 20 24 20 26
internal_value=-0.00119254 -1.05564e-05 0.00110606 -5.24654e-06 -0.00131427 -0.000548296 -0.0102837 -0.0105996 0.0136067 0.0218256 -0.0146784 0.0129759 0.0210324 -0.0194209 -0.0184777 -0.0251949
internal_weight=272.657 243.056 218.942 200.01 183.113 177.161 24.1138 29.6014 16.8976 10.4376 24.3908 18.9316 10.4693 18.4669 14.4139 12.5223
internal_count=1098 978 881 805 737 713 97 120 68 42 99 76 42 75 58 51
is_linear=0
shrinkage=0.02


Tree=28
num_leaves=13
num_cat=0
split_feature=3 51 11 1 21 4 51 51 40 1 41 31
split_gain=7.16487 8.00033 7.36155 6.89867 13.5241 9.70644 6.41651 6.22761 6.20503 6.01048 3.76996 4.26812
threshold=-0.97164603513987446 0.31500000000000011 -1752736.4999999993 95195459.674499765 -0.0014259999999999998 -0.097533811272737511 1.2350000000000005 0.73500000000000021 1.0988078522081457 200334647.80999973 0.040727554039119616 -1.0000000180025095e-35
decision_type=2 2 2 2 2 2 2 2 2 2 2 2
left_child=8 -2 -3 5 -5 7 -7 -4 -1 -6 11 -10
right_child=1 2 3 4 9 6 -8 -9 10 -11 -12 -13
leaf_value=0.0088349250650733534 0.019960551029802719 -0.017795293995523105 -0.0047816562742239686 0.03117921055990332 0.01013366922476111 -0.0082646334596072277 0.0043349489523069025 0.0063592236955076322 -0.020549939877959989 -0.010265767878986663 -0.025213859128518337 0
leaf_weight=4.9695660173893001 7.4507204443216315 9.3524106889963132 27.373076930642128 7.7311166524887112 12.439789041876795 79.94087515771389 19.365832015872002 69.153069123625755 6.1237787008285549 10.196583718061445 8.8416314572095853 9.6267467290163022
leaf_count=20 30 38 110 31 50 322 78 278 25 41 36 39
internal_value=-0.00116855 -7.71146e-06 -0.000689349 1.40512e-05 0.00886115 -0.00133872 -0.00574169 0.00313288 -0.010414 0.000669038 -0.0146044 -0.00791498
internal_weight=272.565 243.003 235.553 226.2 30.3675 195.833 99.3067 96.5261 29.5617 22.6364 24.5922 15.7505
internal_count=1098 978 948 910 122 788 400 388 120 91 100 64
is_linear=0
shrinkage=0.02


Tree=29
num_leaves=13
num_cat=0
split_feature=63 38 3 47 51 11 23 7 7 22 52 51
split_gain=11.1636 7.53022 7.52475 6.97205 6.81659 6.26273 7.46403 4.81752 6.93582 4.32596 3.09743 1.92083
threshold=0.28567908369124023 -0.11355 -0.97164603513987446 1.2484502034321168 0.31500000000000011 -1752736.4999999993 0.92500000000000016 0.21071083571566621 0.49222174597577389 0.0040353600000000009 -0.039200000000000006 0.83500000000000019
decision_type=2 2 2 2 2 2 2 2 2 2 2 2
left_child=-1 3 7 10 -4 -6 -7 -3 -9 -10 -2 -5
right_child=1 2 4 11 5 6 -8 8 9 -11 -12 -13
leaf_value=-0.027159526252310631 0.012427011078078073 0.0021370474485618734 0.021004545494804818 -0.028473604808223869 -0.016181322266541641 0.0072486265457809345 -0.00086766674879750513 -0.028669311026540148 0.0091797799198968574 -0.01567331997128114 -0.008830289828135671 -0.011574312407206886
leaf_weight=6.1510755717754355 5.2239708304405212 9.1201842874288577 6.9440995305776587 6.1812758892774573 7.621991127729415 68.339794158935547 130.28261215984821 8.0658798664808291 4.9576629102230054 5.4165368378162384 4.9673141092062014 9.1917223185300809
leaf_count=25 21 37 28 25 31 275 524 33 20 22 20 37
internal_value=-0.00114499 -0.000491738 0.000585638 -0.0107589 0.001884 0.0011816 0.00190146 -0.00915446 -0.015004 -0.00331012 0.0015379 -0.0191671
internal_weight=272.464 266.313 240.749 25.5643 213.188 206.244 198.622 27.5603 18.4401 10.3742 10.1913 15.373
internal_count=1098 1073 970 103 858 830 799 112 75 42 41 62
is_linear=0
shrinkage=0.02


Tree=30
num_leaves=16
num_cat=0
split_feature=63 63 48 22 2 2 48 55 55 58 31 1 41 42 57
split_gain=6.6012 7.19452 5.45843 5.20684 5.04351 9.7773 6.18049 5.56156 5.02393 4.10429 4.07707 3.63968 3.61354 3.18672 2.95754
threshold=0.43106485441979653 0.50079500482342565 0.36161859056181184 0.010654210000000001 0.007375500000000001 0.0069830000000000005 1.1470342110922152 0.42624161327265758 0.52306598209541588 2.0150000000000001 -0.58418353862118011 1804050.2544498446 0.022300355927211277 0.11841793500000002 0.20324838358716221
decision_type=2 2 2 2 2 2 2 2 2 2 2 2 2 2 2
left_child=8 2 -2 4 5 7 10 -3 9 13 -6 -4 -10 -1 -11
right_child=1 3 11 -5 6 -7 -8 -9 12 14 -12 -13 -14 -15 -16
leaf_value=0.013320998150695672 0.024095445848661589 -0.010365292475463415 0.012506506850963384 -0.016600355915770051 0 -0.02006896778263732 -0.0053376228046051024 0.0018911766875357847 -0.030417406811849235 0 0.020967244141952196 -0.0065709120587238304 -0.0063412839536000831 -0.0060141397416528146 -0.019449550650630879
leaf_weight=7.7059264481067675 8.70990699529648 16.159491240978241 8.4529231786727888 6.9243305772542945 5.4415260851383254 9.4050085693597776 7.9416251182556143 142.75773279368877 5.4223394989967328 5.9441138505935651 13.17634505033493 6.6841110587120047 6.1765947341918945 5.2067359983921051 6.6662998199462891
leaf_count=31 35 65 34 28 22 38 32 575 22 24 53 27 25 21 27
internal_value=0 0.00130528 0.0116236 4.08623e-05 0.000687487 -0.000562378 0.00874977 0.000590012 -0.00776352 -0.00245509 0.0150654 0.00372977 -0.0185839 0.0051109 -0.0106059
internal_weight=262.775 225.653 23.8469 201.806 194.882 168.322 26.5595 158.917 37.122 25.5231 18.6179 15.137 11.5989 12.9127 12.6104
internal_count=1059 909 96 813 785 678 107 640 150 103 75 61 47 52 51
is_linear=0
shrinkage=0.02


Tree=31
num_leaves=20
num_cat=0
split_feature=11 34 21 59 47 1 58 59 47 12 12 41 9 57 7 35 7 11 9
split_gain=7.52833 6.99279 7.21823 7.37188 6.95833 9.5859 9.71084 8.97622 9.91279 7.35187 6.12306 7.82404 6.75605 4.54045 9.50055 4.04123 3.89756 3.21117 3.19215
threshold=-1474892.0018999965 -0.70966038615624105 -0.0041139999999999996 -0.0099999999999998961 2.0651299161607022 11679738.066399338 1.905 1.0000000180025095e-35 4.0710597102698758 0.49716894967741454 0.44419571482250281 0.035222852116797758 351103.13695000211 0.17363739746415061 0.21971889335657971 -1.4806756008170272 -0.066024634733996543 -614460.36764999933 53533.049949999906
decision_type=2 2 2 2 2 2 2 2 2 2 2 2 2 2 2 2 2 2 2
left_child=16 10 3 -3 5 6 -4 8 -6 -7 11 17 13 14 -12 -15 -1 -2 -9
right_child=1 2 4 -5 7 9 -8 18 -10 -11 12 -13 -14 15 -16 -17 -18 -19 -20
leaf_value=-0.0037448986177820122 -0.0019138761776637712 0.0016339139257006692 0.010890725184880955 -0.024493141455835667 0.022379675754663712 0.0026769792272665388 -0.0040082178042590653 0.0036035490220806543 -0.0060001482145917448 -0.012237164052344264 0.014200594878832875 -0.017135054222759533 -0.0050409949674535973 0.01028957718970938 -0.014370538365407245 0.034177605619892873 -0.02827258238491908 0.018782374575510609 -0.017343777873415966
leaf_weight=6.4476368576288223 5.4650297611951828 6.7281322479248074 32.515540137887001 9.8994362056255323 17.652658656239513 17.860321417450905 36.512981057167053 4.9554766118526441 6.2223662585020056 43.995281964540482 21.644186183810238 8.6897941976785642 9.1775077134370786 6.9647799283266068 5.4553769230842581 6.7241734713315946 5.1231476962566358 5.2152560353279132 5.4635186642408371
leaf_count=26 22 27 131 40 71 72 147 20 25 178 87 35 37 28 22 27 21 21 22
internal_value=0 0.000748298 -0.00128672 -0.0137251 0 -0.00211613 0.00294007 0.00796718 0.0147524 -0.00784215 0.00615303 -0.00312579 0.00986665 0.0133793 0.00813563 0.0229339 -0.0155504 0.00788286 -0.00699905
internal_weight=262.713 251.142 181.806 16.6276 165.178 130.884 69.0285 34.294 23.875 61.8556 69.3361 19.3701 49.966 40.7885 27.0996 13.689 11.5708 10.6803 10.419
internal_count=1059 1012 733 67 666 528 278 138 96 250 279 78 201 164 109 55 47 43 42
is_linear=0
shrinkage=0.02


Tree=32
num_leaves=23
num_cat=0
split_feature=63 10 63 28 63 47 57 60 31 36 57 41 48 47 12 62 37 12 46 37 47 41
split_gain=6.32349 7.07492 6.90501 5.46988 9.81181 8.09971 6.71766 7.23147 6.20663 6.12378 5.82608 5.32719 5.25943 6.99581 4.8431 4.83873 4.60149 3.66081 3.5383 3.13551 2.87549 2.39645
threshold=0.43106485441979653 30372.083800000142 0.50079500482342565 0.79405985274304003 0.67610951734613911 4.0710597102698758 0.12769638607060743 0.064999999999999961 -0.46185440318994847 -0.33264459607619806 0.2928426273126315 0.023465409591716842 0.36161859056181184 1.1808679840649818 0.46135792414328941 1.8441761673306629 0.0066000000000000095 0.43236859047001053 -0.47251382081312515 0.011150000000000023 1.645838024551727 0.022300355927211277
decision_type=2 2 2 2 2 2 2 2 2 2 2 2 2 2 2 2 2 2 2 2 2 2
left_child=1 14 12 6 15 10 7 11 19 -10 -6 -4 -2 -14 17 20 -7 -1 -16 -8 -5 -3
right_child=2 21 3 4 5 16 8 -9 9 -11 -12 -13 13 -15 18 -17 -18 -19 -20 -21 -22 -23
leaf_value=0 0.023633236224079517 -0.029967679344571688 -0.017432757991814089 0.011377379439870628 0.0051224595776164158 -0.024235801192069435 -0.023692555258841359 -0.030955262297728537 -0.0062148745730905043 0.0072443602996522492 -0.016652104551871914 0 -0.0099632422400938309 0.016553337474654799 0.018101824216387234 0 0 -0.022859864935194613 -0.0016025741960236013 -0.00058108476185232368 0.033714182629064608 -0.0093865043541852475
leaf_weight=6.4315838515758532 8.7036317884922045 5.6441564410924894 10.139299035072328 5.964243561029436 60.298479303717613 7.1524146795272809 5.4279457926750165 5.4489498138427725 19.137095719575882 42.218766540288925 4.9572353065013877 19.861896470189095 7.179977744817732 7.9424718767404556 5.7200312167406064 4.9649396240711203 4.9710127264261246 5.1864167600870132 7.9211635887622833 4.9478166997432709 6.2013482600450516 6.1676884889602661
leaf_count=26 35 23 41 24 243 29 22 22 77 170 20 80 29 32 23 20 20 21 32 20 25 25
internal_value=0 -0.00760857 0.00127305 3.35499e-05 0.00356434 0.000429252 -0.00302523 -0.0101152 0.000422912 0.00293925 0.00330817 -0.00586312 0.011386 0.0036256 -0.00131063 0.0171303 -0.0142896 -0.0108489 0.00644124 -0.0135596 0.0237821 -0.0202151
internal_weight=262.589 37.071 225.518 201.691 94.5097 77.3791 107.182 35.4501 71.7316 61.3559 65.2557 30.0012 23.8261 15.1224 25.2592 17.1305 12.1234 11.618 13.6412 10.3758 12.1656 11.8118
internal_count=1059 150 909 813 381 312 432 143 289 247 263 121 96 61 102 69 49 47 55 42 49 48
is_linear=0
shrinkage=0.02


Tree=33
num_leaves=22
num_cat=0
split_feature=63 10 63 58 10 28 63 9 2 2 32 12 36 46 63 38 19 47 38 31 46
split_gain=6.09843 6.82926 6.64681 5.66898 7.15223 5.26812 9.46021 7.81506 7.01936 5.26157 5.22663 7.89118 6.04989 5.00193 4.12332 4.06226 3.97751 4.10359 3.473 3.42762 1.6253
threshold=0.43106485441979653 30372.083800000142 0.50079500482342565 2.0150000000000001 -61830.6453000002 0.79405985274304003 0.67610951734613911 284232.76854999742 0.0043885000000000009 0.0081575000000000033 0.41582428565455359 0.51137433899714002 1.7140889157779839 -0.99626745809810446 0.54860290648357368 0.0036500000000000078 0.0038665000000000006 1.1294154460612218 -0.025649999999999989 -0.52942282023536447 0.33183512306423918
decision_type=2 2 2 2 2 2 2 2 2 2 2 2 2 2 2 2 2 2 2 2 2
left_child=1 3 16 4 -1 9 14 8 -8 10 11 -4 -12 -9 -7 -5 17 -2 -18 -16 -3
right_child=2 20 5 15 -6 6 7 13 -10 -11 12 -13 -14 -15 19 -17 18 -19 -20 -21 -22
leaf_value=-0.0075500254361843848 -0.0082798642919470217 -0.010982981506823364 -0.0057486968504979188 0 0.022360843629431706 0.00065738933485689848 -0.0026359755629154786 -0.0238440083112531 0.0108177395705131 0.01225611589798028 -0.01493426193907817 0.0088428803675844984 0.0072045380439861471 -0.0012585380910347891 0.011923234437886607 -0.02145059203114966 0.031449638829503954 0.014993959342441427 0.0082082876747893423 0.036187026438304723 -0.029049567083333835
leaf_weight=5.4450660198926926 6.2021224647760409 6.6470524072647077 45.945564180612564 6.9330050945281965 6.4710995554924029 5.2072769105434444 31.03404825925827 7.1306089609861401 29.521902024745941 7.9011594653129569 26.444800242781643 21.395723953843117 5.4647566825151435 9.6751254647970182 6.9331840872764596 6.3998541682958603 5.1996229290962219 5.2172376662492752 7.1972484588623029 4.9833699613809559 5.1392517536878586
leaf_count=22 25 27 185 28 26 21 125 29 119 32 107 86 22 39 28 26 21 21 29 20 21
internal_value=0 -0.00747963 0.0012463 -0.00128957 0.00835222 2.95483e-05 0.00349561 0.000415652 0.00384531 -0.00297217 -0.00427802 -0.00100529 -0.0109248 -0.0114423 0.0168191 -0.0103411 0.0111705 0.00195305 0.0189417 0.0232007 -0.0198826
internal_weight=262.489 37.0353 225.454 25.249 11.9162 201.638 94.4855 77.3617 60.556 107.152 99.2508 67.3413 31.9096 16.8057 17.1238 13.3329 23.8162 11.4194 12.3969 11.9166 11.7863
internal_count=1059 150 909 102 48 813 381 312 244 432 400 271 129 68 69 54 96 46 50 48 48
is_linear=0
shrinkage=0.02


Tree=34
num_leaves=21
num_cat=0
split_feature=21 6 3 9 2 43 8 54 41 43 5 22 22 24 28 3 54 39 34 10
split_gain=5.45065 7.28351 8.41546 11.4215 9.18869 6.9822 11.5758 7.19071 6.87511 6.4967 6.25601 6.20957 6.47652 5.79587 4.94142 4.54473 4.27387 4.21486 4.14768 2.68197
threshold=-0.0036794999999999992 0.29350000000000004 -0.096636599002849169 284232.76854999742 0.0039365000000000008 0.33557423462017294 0.044779597893340746 0.21930000000000002 0.063117268430657139 0.28161676265600627 0.7939470696169294 -0.0014729499999999998 0.0016905550000000003 0.019999999999999966 0.43816014364385453 -0.97164603513987446 -0.11399999999999998 0.12150000000000001 -0.76575127487625283 -58644.80529999546
decision_type=2 2 2 2 2 2 2 2 2 2 2 2 2 2 2 2 2 2 2 2
left_child=11 2 5 4 9 7 15 8 -2 -4 -8 16 19 -6 -9 -7 -1 -18 -5 -13
right_child=1 -3 3 18 13 6 10 14 -10 -11 -12 12 -14 -15 -16 -17 17 -19 -20 -21
leaf_value=0.014471880701743239 -0.015324771428016963 -0.020884901329282109 -0.0017427972637491104 -0.02410486780963279 0.017691676660060843 0.001228384692918028 -0.0090325221350487841 -0.0032036484079881015 0.0064273677495779048 0.013681834512978462 0.0089332460132476778 -0.031728073110961028 0 -0.0036918392881429896 0.019447217355554911 0.026184625939364752 0.0048437771407952839 -0.016825152446967789 -0.0011658154988894718 -0.011327982615329342
leaf_weight=6.444338425993922 33.107218787074089 5.4426518976688376 38.491669148206711 5.4328229725360861 38.443633168935776 4.9538026601076117 22.721678495407104 11.592003062367441 6.43177306652069 14.67487260699272 11.157441318035124 6.6707425862550735 8.1762129515409452 5.2101053893566123 5.2227353304624549 9.4622837007045728 7.191814184188841 6.1909028887748718 8.4161566197872144 6.9269091784954089
leaf_count=26 134 22 155 22 155 20 92 47 26 59 45 27 33 21 21 38 29 25 34 28
internal_value=0 0.00126294 0.00187889 0.00573154 0.00819988 -0.00214297 0.00334362 -0.0069437 -0.011614 0.00245532 -0.00291382 -0.00660444 -0.0139266 0.0149953 0.0036988 0.0182165 0.00122629 -0.00489097 -0.0109089 -0.0222365
internal_weight=262.362 220.761 215.318 110.669 96.8203 104.649 48.2952 56.3537 39.539 53.1665 33.8791 41.6009 21.7739 43.6537 16.8147 14.4161 19.8271 13.3827 13.849 13.5977
internal_count=1059 891 869 446 390 423 195 228 160 214 137 168 88 176 68 58 80 54 56 55
is_linear=0
shrinkage=0.02


Tree=35
num_leaves=24
num_cat=0
split_feature=40 40 3 53 25 59 33 28 3 1 5 55 37 28 53 55 9 31 53 46 41 3 42
split_gain=10.0533 11.5091 8.08349 10.7724 7.42272 7.56762 8.25557 6.51127 6.50312 6.35673 6.77917 7.20899 6.17088 5.9789 5.49996 5.44709 5.42947 4.8051 6.62284 4.59212 5.07187 4.44348 4.37312
threshold=1.3214738695559367 1.3859231349736971 0.19745732808808286 -0.10060000000000001 -1.0000000180025095e-35 -0.019999999999999681 0.16513962622893844 0.23356650545530797 0.91419077216516431 -42670916.32259988 -0.49810571543090759 0.44547472802230742 -0.024749999999999998 0.031442697796077237 -0.086299999999999974 0.48514831538023478 119809.83719999251 -0.50215815313101586 0.02505000000000002 0.42771206570061399 0.025768700499412388 0.75076569551393268 0.16236197000000005
decision_type=2 2 2 2 2 2 2 2 2 2 2 2 2 2 2 2 2 2 2 2 2 2 2
left_child=4 22 3 7 5 12 19 -3 9 14 16 -12 -1 -8 -6 -4 -11 -5 -19 20 -7 -17 -2
right_child=1 2 15 17 8 6 13 -9 -10 10 11 -13 -14 -15 -16 21 -18 18 -20 -21 -22 -23 -24
leaf_value=0.0021401351936742507 -0.021860078997633307 -0.0055453839507197365 -0.00082083750212028712 -0.028645614096966612 0.027213081920211317 0.0027072088757987838 -0.01934584379965118 0.022091728129572826 -0.012797301149961705 0.026335735188489841 -0.022947412148752483 -0.0010798851369887787 0.025701598790287709 0.0032299086283667671 0.00090030100700345494 0.028316982039849069 -0.0010651217111301314 -0.025223016715802023 -0.0013494528995726149 -0.0012494405395001675 0.023314179048461278 0.0050554456138943663 -0.00029422055385729974
leaf_weight=7.4674914181232479 18.256162375211719 6.4335436969995481 20.828372463583946 6.8780471235513678 6.2237341701984406 9.1848628073930794 8.4204738736152667 6.2112013399600983 14.882432356476782 5.4719036072492582 6.9009860008954993 41.886877879500389 13.669245526194571 9.2117198258638364 7.2063630223274213 5.7092263996601096 4.9575067907571793 6.6419270336628022 16.015317127108574 9.6738755553960782 11.908917918801306 9.4242982119321805 5.4432161897420874
leaf_count=30 74 26 84 28 25 37 34 25 60 22 28 169 55 37 29 23 20 27 65 39 48 38 22
internal_value=-0.000179188 -0.00508685 -0.00127799 -0.00725586 0.00296843 0.00784015 0.00328284 0.00776405 -0.000847079 0.00156134 -0.00118274 -0.00441659 0.0178038 -0.00736011 0.0138593 0.00557006 0.0130862 -0.0139007 -0.00884745 0.00958735 0.0147855 0.0145996 -0.0172225
internal_weight=258.908 101.841 78.1419 42.18 157.066 69.5366 48.3998 12.6447 87.5298 72.6474 59.2173 48.7879 21.1367 17.6322 13.4301 35.9619 10.4294 29.5353 22.6572 30.7677 21.0938 15.1335 23.6994
internal_count=1045 412 316 171 633 280 195 51 353 293 239 197 85 71 54 145 42 120 92 124 85 61 96
is_linear=0
shrinkage=0.02


Tree=36
num_leaves=24
num_cat=0
split_feature=40 40 3 3 60 58 42 9 63 3 45 28 11 57 29 58 58 46 23 34 23 42 38
split_gain=9.68154 11.0776 7.79119 6.86023 6.62438 7.94154 7.37891 7.20568 6.29554 6.08425 6.06124 7.62302 7.28686 5.54948 5.51769 5.45087 6.49591 5.34429 4.83342 4.56916 4.33007 4.20484 3.43856
threshold=1.3214738695559367 1.3859231349736971 0.19745732808808286 0.98936726670980535 0.039999999999999931 2.4150000000000005 0.079343170000000005 85932.349799999283 0.70521555210758768 -0.049894411891211861 0.019451113464463713 2.7298070984055234 -353871.36265000043 0.16458425851436256 0.42510980964112993 2.2550000000000003 2.0550000000000002 2.2732156621062876 0.91500000000000015 0.12722692646209846 1.1150000000000004 0.16236197000000005 0.045200000000000018
decision_type=2 2 2 2 2 2 2 2 2 2 2 2 2 2 2 2 2 2 2 2 2 2 2
left_child=3 21 10 4 5 15 9 -8 13 -6 12 17 -3 -4 -10 16 -1 -12 -16 -7 -11 -2 -14
right_child=1 2 8 -5 6 19 7 -9 14 20 11 -13 22 -15 18 -17 -18 -19 -20 -21 -22 -23 -24
leaf_value=0.0027216924201221297 -0.021462410577087847 -0.016297021194721262 0.0079894626473332037 -0.013685839699149894 -0.023712154605333602 0.033625040700064085 0.019552526328372417 -0.0068498870139268786 0.026092684509457408 0.0082795548365260426 -0.026987996050700826 0.0066061352941643317 0.020520507489762783 -0.014701924928832934 0.01746170320508655 -0.0082729258900856827 0.015062692645345837 -0.0043341496061022663 -0.0072195147894026394 0.0066701699112929605 -0.013436209540584 -0.0002886482768164051 -0.00028123501814575298
leaf_weight=63.19234362244606 18.228369370102886 5.39463543891907 7.9400785118341473 8.9290131479501706 8.4079576134681702 6.2175635993480665 8.4401757270097715 7.1867412626743308 7.6991944760084161 7.2183120995759964 12.486354365944868 5.4480232447385779 6.4375036507844907 8.4178759455680829 5.4513714462518692 11.151044219732283 24.096043020486832 7.4093119800090781 6.4419919699430466 5.4704315066337585 6.6981742978096008 5.4431269317865363 4.959947481751442
leaf_count=255 74 22 32 36 34 25 34 29 31 29 51 22 26 34 22 45 97 30 26 22 27 22 20
internal_value=-0.000175651 -0.00499451 -0.00125542 0.00291291 0.00397988 0.00647653 -0.003102 0.00713316 0.00546584 -0.0105313 -0.00712953 -0.0132789 0.00187058 -0.00338191 0.0130941 0.00451231 0.00623686 -0.0190383 0.00375244 0.0219923 -0.00181343 -0.0169085 0.01118
internal_weight=258.766 101.758 78.0863 157.008 148.079 110.127 37.9514 15.6269 35.9505 22.3244 42.1358 25.3437 16.7921 16.358 19.5926 98.4394 87.2884 19.8957 11.8934 11.688 13.9165 23.6715 11.3975
internal_count=1045 412 316 633 597 444 153 63 145 90 171 103 68 66 79 397 352 81 48 47 56 96 46
is_linear=0
shrinkage=0.02


Tree=37
num_leaves=24
num_cat=0
split_feature=40 40 7 39 51 25 59 57 46 21 7 10 2 9 60 8 35 57 2 42 21 50 46
split_gain=9.31468 10.6675 7.80193 9.47549 7.13022 7.37731 7.89135 7.58424 7.04826 5.56679 4.77749 7.28326 4.71568 4.40635 7.08585 5.01679 4.93765 4.75418 4.34696 4.04437 3.93876 3.12395 2.16676
threshold=1.3214738695559367 1.3859231349736971 0.33467714232811036 0.18885000000000005 0.32500000000000012 -1.0000000180025095e-35 -0.019999999999999681 0.18618619971817499 0.09755467529311003 -0.0027094999999999997 -0.76216979417280661 -119045.87060000001 0.0075395000000000011 164773.24019999898 0.039999999999999931 0.11388651114357386 1.4799049324369598 0.25542675177271862 0.0016255000000000004 0.16236197000000005 -0.0015134999999999999 59.533318188631561 1.553957642228543
decision_type=2 2 2 2 2 2 2 2 2 2 2 2 2 2 2 2 2 2 2 2 2 2 2
left_child=4 19 10 -4 -1 6 9 8 -8 -6 -3 21 -13 15 17 16 -7 -15 -9 -2 -17 -12 -11
right_child=1 2 3 -5 5 13 7 18 -10 22 11 12 -14 14 -16 20 -18 -19 -20 -21 -22 -23 -24
leaf_value=0.023979419821462861 -0.021076118443164617 0.018904981753741494 0.0080226867576057154 -0.02415170332450417 0 0 0.01789777726835471 -0.017089822386477518 -0.002234814041425818 0.029234216861203727 -0.0043660860123272754 0.0017221626457411773 0.020747062772017173 -0.0093262159412188447 -0.02768421987487615 -0.0035579224801578725 -0.017647412248266235 0.012754271676917662 0.001429135136580475 -0.00028318130851570704 0.014306901624477999 -0.023450921570442519 0.0098889188398457659
leaf_weight=5.8935558497905722 18.197028353810314 5.6649868637323371 4.9346547424793235 10.795084387063978 5.9652535021305111 32.260717839002609 15.140318080782892 9.1701245754957217 11.688482925295828 9.9332558810710889 13.876808255910875 31.59390626847744 6.2001404464244834 12.354837551712995 5.9230254739522925 6.459242686629298 7.4084191024303427 5.2196824997663489 9.6705210208892805 5.4430390596389762 14.912237077951429 4.9485058933496466 4.9784633666276923
leaf_count=24 74 23 20 44 24 130 61 37 47 40 56 128 25 50 24 26 30 21 39 22 60 20 20
internal_value=-0.000172606 -0.00490286 -0.00123088 -0.0137226 0.00285592 0.00194641 0.00693216 0.00208751 0.00897774 0.017067 0.00187865 0 0.00513953 -0.00191817 -0.00924053 0.000834161 -0.0032631 -0.00232858 -0.00739753 -0.0166028 0.00865613 -0.00998569 0.0234924
internal_weight=258.632 101.654 78.0141 15.7297 156.978 151.085 66.5464 45.6694 26.8288 20.877 62.2843 56.6194 37.794 84.5382 23.4975 61.0406 39.6691 17.5745 18.8406 23.6401 21.3715 18.8253 14.9117
internal_count=1045 412 316 64 633 609 268 184 108 84 252 229 153 341 95 246 160 71 76 96 86 76 60
is_linear=0
shrinkage=0.02


Tree=38
num_leaves=19
num_cat=0
split_feature=40 40 7 39 51 3 28 11 33 21 11 50 37 54 63 49 33 49
split_gain=8.96133 10.2794 7.50613 9.14871 6.88169 9.22079 6.34295 8.34739 6.49104 5.72506 5.07519 8.86243 4.87328 4.6441 4.58531 3.05733 1.86457 0.20178
threshold=1.3214738695559367 1.3859231349736971 0.33467714232811036 0.18885000000000005 0.32500000000000012 0.99398389992861558 4.424995246512073 -514004.97729999752 -0.029951837552855128 -0.0072274999999999987 -208502.40544999993 44.568357919569756 0.011150000000000023 0.17080000000000004 1.0521055933348864 0.56202494965888483 0.5021211190245235 -0.16972600482021424
decision_type=2 2 2 2 2 2 2 2 2 2 2 2 2 2 2 2 2 2
left_child=4 13 6 -4 -1 9 7 -3 -9 -6 14 -12 -8 15 -11 17 -5 -2
right_child=1 2 3 16 5 -7 12 8 -10 10 11 -13 -14 -15 -16 -17 -18 -19
leaf_value=0.023583171827649765 -0.018863459759434525 -0.020419924383827275 0.0078692161150861004 -0.032408279455639309 0.020687573630495955 -0.022248164358982615 0.026334052110445701 0.011232771164895275 -0.0049343714277289234 0.00096873688605787203 0.01352319096877925 0.0002406093467383809 0.002575380818674275 0 -0.012035600391169252 -0.0088834358096574421 -0.011974501940886043 -0.033396881042273084
leaf_weight=5.8779255002737036 5.3622490018606221 7.6675161868333808 4.9361113160848609 5.6043072789907438 6.701363503932952 5.715472310781478 6.1958748102188101 17.083359256386753 22.408048406243328 32.004877716302872 30.514179959893227 60.538900330662727 8.9119019806385023 5.1939213424921027 15.550233528017996 7.1503059566020957 5.1623647511005402 5.8988461047410983
leaf_count=24 22 31 20 23 27 23 25 69 91 129 123 244 36 21 63 29 21 24
internal_value=-0.000167911 -0.00481009 -0.00120416 -0.0134697 0.00280259 0.00190901 0.0018429 -0.00167477 0.00194045 0.00294427 0.0020004 0.00478741 0.0130315 -0.0163051 -0.00320702 -0.0209507 -0.0237431 -0.0276645
internal_weight=258.478 101.575 77.9695 15.7028 156.903 151.025 62.2667 47.1589 39.4914 145.31 138.608 91.0531 15.1078 23.6053 47.5551 18.4114 10.7667 11.2611
internal_count=1045 412 316 64 633 609 252 191 160 586 559 367 61 96 192 75 44 46
is_linear=0
shrinkage=0.02


Tree=39
num_leaves=18
num_cat=0
split_feature=39 39 7 28 51 3 11 33 54 21 3 39 11 54 38 57 49
split_gain=8.31491 9.47694 7.78366 7.24539 6.6855 8.83426 6.30816 7.76927 5.75597 5.55091 4.75015 8.29762 8.24605 4.53037 4.51095 3.06789 1.25825
threshold=0.13910000000000003 0.16645000000000001 0.33467714232811036 2.9419308971093865 0.32500000000000012 0.99398389992861558 -666872.23835000081 -0.029951837552855128 0.081299999999999997 -0.0072274999999999987 -0.73315563887280832 0.070050000000000015 -208502.40544999993 0.13905000000000003 0.084550000000000014 0.21008092690737004 0.70359971316685266
decision_type=2 2 2 2 2 2 2 2 2 2 2 2 2 2 2 2 2
left_child=4 13 3 6 -1 9 -3 -8 -4 -6 11 -11 -12 15 -5 16 -2
right_child=1 2 8 14 5 -7 7 -9 -10 10 12 -13 -14 -15 -16 -17 -18
leaf_value=0.02319859029194709 -0.029503038454997625 -0.022538916983681039 0.0014126850128883938 0.022379065270657302 0.020292390518594616 -0.021848556529637461 0.01114981272218454 -0.0070789629399437394 -0.023447565650342162 0.004142398569502638 -0.0028976020320327857 -0.014241904262609731 0.0087670788627087388 0 0.000749662608135105 -0.0048480891914583022 -0.013720961929517677
leaf_weight=5.8610039651393881 9.0386035889387184 4.9415772557258597 5.4363011568784705 9.4199503809213656 6.7010744661092749 5.7091564536094657 16.32580807805061 20.921443551778797 9.0088301301002485 21.34094350039959 38.648012638092041 17.25177089869976 61.60808727145195 6.9040773808956137 7.419736221432685 5.6596784293651572 6.1498446911573401
leaf_count=24 37 20 22 38 27 23 66 85 37 86 156 70 248 28 30 23 25
internal_value=-0.000165421 -0.00464967 -0.000784099 0.00236514 0.00268883 0.00181018 -0.00195323 0.000776324 -0.0138463 0.00282236 0.00189417 -0.00396797 0.00421553 -0.014552 0.0133789 -0.0191463 -0.0238898
internal_weight=258.346 101.226 73.4736 59.0285 157.12 151.259 42.1888 37.2473 14.4451 145.55 138.849 38.5927 100.256 27.7522 16.8397 20.8481 15.1884
internal_count=1045 411 298 239 634 610 171 151 59 587 560 156 404 113 68 85 62
is_linear=0
shrinkage=0.02


Tree=40
num_leaves=24
num_cat=0
split_feature=38 39 50 47 4 50 24 38 36 58 63 35 63 58 35 4 36 47 58 12 4 52 49
split_gain=8.08988 11.5762 11.5382 8.76758 11.1644 7.07005 9.65762 7.06349 6.28577 4.79834 4.65497 4.21663 4.17561 4.10529 8.1423 5.3961 3.97313 3.90444 3.84045 3.67908 3.66568 3.30218 2.57528
threshold=0.089349999999999999 0.28395000000000004 60.123072441494074 4.1368796680918205 -0.10712286121484225 56.002212352954295 0.019999999999999966 -0.034449999999999988 0.60007114744455314 1.8450000000000004 0.76685509033289578 -0.34914560539011646 0.71086386115971523 2.1050000000000004 1.9259602313823956 0.078611447786891567 0.73852755972159134 1.6748143347000812 1.925 0.50272315322444938 -0.020585537631023772 -0.056449999999999827 -0.83342896357772023
decision_type=2 2 2 2 2 2 2 2 2 2 2 2 2 2 2 2 2 2 2 2 2 2 2
left_child=2 18 3 4 7 6 -6 11 13 -10 -3 -1 -9 14 17 -16 -7 -4 19 -2 -15 -5 -11
right_child=1 10 8 21 5 16 -8 12 9 22 -12 -13 -14 20 15 -17 -18 -19 -20 -21 -22 -23 -24
leaf_value=-0.002997590383735353 -0.017622367684786623 -0.00425710791479626 -0.0073213107072566822 -0.02381091844212118 0.0014035408303549038 0.018881104989518775 -0.017585562768335023 0.0091791741871999205 -0.008796910248075827 0.020782541203358425 0.021523039090281505 0.01498703026905982 0.02291439238348128 -0.0070922410170059383 -0.0045709864978102791 0.020408654415660917 -0.0011858132054507798 -0.030175486700952998 -0.023030682720781952 0.0050312516623159595 -0.030834464643900415 -0.0007363767983442624 1.5376058584880006e-05
leaf_weight=15.865768343210222 5.2010360211133975 4.9272380173206312 9.3870419412851351 5.4020802229642868 77.609252616763115 12.081300839781763 12.070629626512526 19.332979843020439 6.9363116919994381 5.7230180799961099 5.190240278840065 7.2032372802495948 21.550367519259453 5.9529811590909958 8.4235882014036161 5.207106724381446 4.9501800239086142 5.1856316179037085 14.315299227833746 5.1845705807209015 6.3924727141857129 5.4267981797456724 4.940831616520879
leaf_count=64 21 20 38 22 314 49 49 78 28 23 21 29 87 24 34 21 20 21 58 21 26 22 20
internal_value=0.000113475 -0.00882824 0.00144707 0.00395097 0.00509024 0.00105924 -0.00113576 0.0116867 -0.00624554 0.00344114 0.00863105 0.00248162 0.0166791 -0.0105913 -0.00596197 0.00477487 0.0127829 -0.0163019 -0.0162373 -0.00592826 -0.0203003 -0.013118 0.0119715
internal_weight=274.46 34.8184 239.642 181.493 170.664 106.711 89.6799 63.9524 58.149 17.6002 10.1175 23.069 40.8833 40.5488 28.2034 13.6307 17.0315 14.5727 24.7009 10.3856 12.3455 10.8289 10.6638
internal_count=1110 141 969 734 690 432 363 258 235 71 41 93 165 164 114 55 69 59 100 42 50 44 43
is_linear=0
shrinkage=0.02


Tree=41
num_leaves=23
num_cat=0
split_feature=1 43 50 62 23 47 44 51 33 45 2 44 53 23 1 4 62 21 21 42 36 37
split_gain=10.1636 9.20513 9.03466 10.2044 8.26439 9.6412 9.34369 6.07243 5.79228 7.07233 7.07509 6.89648 7.23092 5.74548 5.73905 5.09779 6.38036 7.13276 5.04632 3.84922 3.4427 3.62792
