tree
version=v4
num_class=1
num_tree_per_iteration=1
label_index=0
max_feature_idx=63
objective=binary sigmoid:1
feature_names=bb_pos btc_cvd_chg btc_funding btc_liq_ratio btc_mom_1h btc_mom_4h btc_ob_imbal btc_oi_chg coin_vs_btc cvd_f_accel cvd_f_chg_1h cvd_f_chg_4h cvd_f_ratio cvd_f_vs_spot cvd_spot_sign div_cvd_price div_ob_price div_oi_price div_taker_price funding funding_ext funding_vel funding_x_ls glob_ls glob_ls_chg_1h glob_ls_chg_4h glob_ls_extreme liq_cascade liq_norm liq_ratio liq_ratio_chg liq_x_mom mom_1h mom_2h mom_4h mom_8h mom_accel ob_chg_1h ob_chg_4h ob_imbal ob_ratio ob_std_4h ob_x_taker oi_accel oi_chg_1h oi_chg_4h oi_chg_8h oi_range oi_std_4h oi_x_cvd rsi smart_vs_retail taker_accel taker_chg_1h taker_chg_4h taker_dom taker_ratio taker_std_4h top_ls top_ls_chg_1h top_ls_chg_4h top_ls_extreme vol_ratio volatility_8h
feature_infos=[-4.0789618488729973:4.0549321435583954] [-1843205816.7132988:26224748304.677299] [-0.018062999999999999:0.010907999999999999] [-1:1] [-100:3.4728250420922091] [-100:5.7426488779570795] [-0.46710000000000002:0.46710000000000002] [-4.3645404935849115:4.8445823624005957] [-12.542879880997859:100] [-350806173.91539997:651962718.08760011] [-31688924.435699999:651717399.98600006] [-49816275.222799987:651832741.48520005] [0.29866237660598788:0.63695025421689833] none none [-1:1] [-1:1] [-1:1] [-1:1] [-0.82544399999999996:0.011651999999999999] [-1:1] [-0.56622799999999995:0.47024300000000002] [-1.4636795599999999:0.0225612] [0.96999999999999997:2.6499999999999999] [-0.40000000000000013:0.39999999999999991] [-0.62000000000000011:1.04] [0:1] [0:1] [0:1615.0081722402042] [-1:1] [-2:2] [-8.9984312136366:2.7018099832017892] [-13.148584905660366:18.839427662957075] [-13.225331369661264:36.685214626391094] [-15.523894330661925:56.888686131386848] [-17.075564278704604:63.980815347721823] [-18.128091992208194:23.399772957255763] [-0.47400000000000003:0.3821] [-0.44530000000000003:0.43969999999999998] [-0.19750000000000001:0.48010000000000003] [0.67010424208233987:2.8470120777131109] [0.0018978606376654722:0.22300202913875022] [-0.18898775000000001:0.48475697000000006] [-23.454536709488327:24.123176601474619] [-17.064013514245058:21.647852996363049] [-22.51613949483361:62.865267522125201] [-24.21065781504036:87.523195606949571] [0:26.8480371145716] [0:13.385081546177984] [-21.647852996363049:17.064013514245058] [1.718352821555726:94.969168615777164] [-0.73999999999999977:1.55] [-1.8905999999999998:1.7818000000000001] [-1.0484:1.0366999999999997] [-1.1027999999999998:0.9587] [0.29866237660598788:0.63695025421689833] [0.42580000000000001:1.7544] [0.011318789687948094:0.48648820322285308] [1.1499999999999999:3.23] [-0.83000000000000007:0.31000000000000005] [-0.75:1.1499999999999999] [0:1] [0.094460651022199998:27.939280849800774] [0.15683375160076357:9.1708482013320829]
tree_sizes=2691 2708 2702 2673 2664 2343

Tree=0
num_leaves=24
num_cat=0
split_feature=0 47 50 50 46 41 43 53 54 22 9 54 33 8 2 62 57 57 22 22 42 53 38
split_gain=15.6102 10.2506 11.0234 8.56758 8.36907 13.1154 9.06874 8.25381 7.85471 7.59819 7.13829 6.94649 11.6332 6.7051 6.58197 8.28184 6.27149 6.23839 6.22956 5.95231 5.76323 5.44225 5.33563
threshold=-0.22410341871700759 0.82953492433250908 70.712342739095604 74.104050408992691 -1.1637415794927717 0.057955270508002373 -0.2775757456075944 -0.38929999999999992 0.18240000000000009 -0.0010335799999999999 353107.66335000104 0.23310000000000006 -0.54242574221012296 0.18584083572818491 0.0070770000000000008 0.59963726515276039 0.13195346211011336 0.18632484493097315 -0.020899109999999995 0.014184335000000001 0.028803285000000001 -0.079149999999999984 0.018950000000000005
decision_type=2 2 2 2 2 2 2 2 2 2 2 2 2 2 2 2 2 2 2 2 2 2 2
left_child=4 8 7 -4 14 6 9 -3 17 16 21 12 -8 -10 22 -16 -6 -2 -9 -20 -11 -5 -1
right_child=1 2 3 10 5 -7 11 18 13 20 -12 -13 -14 -15 15 -17 -18 -19 19 -21 -22 -23 -24
leaf_value=-0.063284699990704768 -0.065839769279155386 -0.058352598963067839 -0.043622180754994563 -0.068593586004515247 -0.059460611788870722 -0.0893505364166928 -0.082235727117722895 -0.06881576319949724 -0.092511781813885544 -0.085215879997118382 -0.058135554741623602 -0.09343170021980049 -0.059412540598112615 -0.063127574175626394 -0.052304672040031912 -0.081578525747655103 -0.030658867768842919 -0.045358598880090938 -0.084101969250498884 -0.066962234406247767 -0.05850623716628435 -0.096549262218744006 -0.05218979176666879
leaf_weight=46.944492697715759 21.474608361721042 6.7420282065868369 5.74320921301842 4.9940949678421047 8.9893709421157855 11.736123174428938 15.481694400310511 16.730218142271042 6.2426187098026258 4.9940949678421003 8.7396661937236768 5.2437997162342063 20.226084619760517 5.2437997162342072 5.2437997162342098 11.985827922821043 5.2437997162342063 8.4899614453315717 81.903157472610474 8.2402566969394666 7.9905519485473633 4.9940949678421012 30.214274555444717
leaf_count=188 86 27 23 20 36 47 62 67 25 20 35 21 81 21 21 48 21 34 328 33 32 20 121
internal_value=-0.0695973 -0.0737458 -0.0763745 -0.0644116 -0.0653571 -0.0700556 -0.0667457 -0.0790085 -0.0651407 -0.0578035 -0.0707674 -0.0725799 -0.0691711 -0.0787863 -0.0613246 -0.0721977 -0.0478692 -0.0596641 -0.080393 -0.0824681 -0.0687585 -0.082391 -0.0588153
internal_weight=353.832 179.538 138.087 24.4711 174.294 79.9055 68.1694 113.616 41.451 27.2178 18.7279 40.9516 35.7078 11.4864 94.3884 17.2296 14.2332 29.9646 106.874 90.1434 12.9846 9.98819 77.1588
internal_count=1417 719 553 98 698 320 273 455 166 109 75 164 143 46 378 69 57 120 428 361 52 40 309
is_linear=0
shrinkage=1


Tree=1
num_leaves=24
num_cat=0
split_feature=53 46 44 52 11 22 44 56 9 44 41 46 44 30 51 63 11 44 44 62 37 60 60
split_gain=13.5721 12.1984 9.09104 8.27153 8.75067 8.73702 7.44814 9.12788 7.09776 10.343 9.39787 7.46714 12.2589 6.64898 5.96456 6.06175 5.84949 5.48842 5.21225 5.15497 4.5982 4.38677 4.05155
threshold=-0.46679999999999999 -1.9099232311820866 0.37266321649648276 -0.29000000000000009 955652.59084999945 0.010208210000000001 0.042321070962758618 1.1354500000000003 1125036.6739999878 -0.97951801378229331 0.032097147368106933 -2.8193184600037555 -0.32445479161523622 0.99582571934588815 0.77000000000000002 0.49227100580892563 1506214.7965000051 -0.035933268787657895 -0.44495911740985433 1.1594223491216431 0.046650000000000011 0.0099999999999998996 0.01999999999999991
decision_type=2 2 2 2 2 2 2 2 2 2 2 2 2 2 2 2 2 2 2 2 2 2 2
left_child=-1 8 6 -4 5 -5 14 13 9 10 21 12 -11 -8 15 -3 -6 -13 -16 22 -12 -2 -10
right_child=1 2 3 4 16 -7 7 -9 19 11 20 17 -14 -15 18 -17 -18 -19 -20 -21 -22 -23 -24
leaf_value=0.019373711687542438 -0.0026791172461062811 -0.011808089349290127 -0.024912439352748669 -0.0066309310005991332 0.020239975803580279 -0.026424180259992491 0.016791594443673782 -0.013341624166716257 0.011046132202783202 0.02909523926137526 0.015626259348238806 0.011731003885788127 0.00073152218385860084 -0.0049425893869034405 -0.019707499801897489 0.0017705230709658363 -0.0021286278433693302 0.038657963319244863 -0.00075956020964571349 -0.018462403962830855 -0.0060168039626210951 -0.028824726838467818 -0.0080902151791812874
leaf_weight=12.489947631955145 5.7431918233633059 15.980599790811537 11.233998760581015 52.920220240950584 6.2425333708524731 10.985302001237867 23.223079681396488 6.7402377128601065 8.2416728585958534 7.7416401952505103 9.7391115725040418 7.7411402761936188 27.219003453850746 6.7419109344482413 14.477161705493929 66.662554711103439 14.98006136715412 6.4926900118589383 10.735182493925093 7.4911044985055915 5.7433962672948828 5.4943126142024994 8.7413116693496686
leaf_count=50 23 64 45 212 25 44 93 27 33 31 39 31 109 27 58 267 60 26 43 30 23 22 35
internal_value=-0.000819253 -0.00159212 -0.00404431 -0.0087992 -0.00652255 -0.0102344 -0.000821688 0.00687083 0.00422781 0.00727327 -0.00254249 0.012709 0.00737662 0.0117028 -0.00350687 -0.000816029 0.00436263 0.0249709 -0.0119786 -0.00495018 0.00725562 -0.0163996 0.000879842
internal_weight=353.801 341.311 240.923 96.3621 85.1281 63.9055 144.561 36.7052 100.389 75.9145 26.72 49.1945 34.9606 29.965 107.855 82.6432 21.2226 14.2338 25.2123 24.4741 15.4825 11.2375 16.983
internal_count=1417 1367 965 386 341 256 579 147 402 304 107 197 140 120 432 331 85 57 101 98 62 45 68
is_linear=0
shrinkage=0.02


Tree=2
num_leaves=24
num_cat=0
split_feature=53 50 32 10 21 6 43 60 50 47 39 43 45 38 11 6 45 5 45 11 55 21 21
split_gain=13.0443 11.314 9.79466 8.77211 10.5159 8.25655 8.14801 7.80172 7.48093 9.27115 8.34356 9.47991 7.46786 7.40892 6.58847 6.10737 6.07458 13.4992 5.97553 5.22484 4.93261 4.49311 1.78937
threshold=-0.46679999999999999 51.188662810622525 0.89619168730340493 -1761962.2625999895 0.0015500000000000002 0.16245000000000001 -1.0000000180025095e-35 0.0099999999999998996 70.712342739095604 0.82953492433250908 0.017150000000000002 -0.17715406963065836 -0.9284312570466523 0.006199999999999998 -412407.80145000661 0.10325000000000002 1.5446204830665946 0.085907537668450398 -2.0622882994675846 -1193765.647049993 0.51210153595353169 -0.00040050000000000041 0.00019000000000000053
decision_type=2 2 2 2 2 2 2 2 2 2 2 2 2 2 2 2 2 2 2 2 2 2 2
left_child=21 2 3 4 15 12 -7 19 9 10 -3 -12 -5 18 -15 -2 17 -10 -11 -4 22 -1 -18
right_child=1 8 7 5 -6 6 -8 -9 16 13 11 -13 -14 14 -16 -17 20 -19 -20 -21 -22 -23 -24
leaf_value=0.033539978291780043 -0.008359666914905077 -0.01701332533227631 0.015269042423362293 0.013235211299017658 -0.026446906927388825 0.0072298260754042852 -0.021105292140149771 -0.023437424203718988 0.0098920315224731888 0.00056500466951223919 -0.0075434199329123723 0.018137483608657762 0.0031387812553481278 -0.012568397950024384 0.0039886461288107236 0.01421253518063554 0.010731048715437726 -0.031508212614937747 -0.019112590492576291 -0.011438099262565013 0.02697299580056748 0.0075992234252043982 -0.0049784355809367299
leaf_weight=4.9979502558708191 11.485846906900411 6.9903537333011654 4.9936946779489517 45.949548304080963 7.7389737218618384 6.7445722222328195 8.7366554290056193 10.231268554925917 7.2390734106302279 6.4901887774467459 9.2395830154418999 13.486311301589007 86.887752115726471 18.965599417686462 18.218414634466171 7.7406291216611853 5.491891145706175 4.9931571334600449 43.17018349468708 6.2408997565507907 5.2459028363227835 7.4974999874830228 4.9921381175518036
leaf_count=20 46 28 20 184 31 27 35 41 29 26 37 54 348 76 73 31 22 20 173 25 21 30 20
internal_value=-0.00080419 -0.00156244 0.00153428 0.00312752 -0.00721991 0.0050599 -0.00847781 -0.0110637 -0.00581411 -0.00805413 0.00140107 0.00747367 0.00669824 -0.011352 -0.00432916 0.000499423 0.00329752 -0.00687836 -0.0164329 1.23003e-06 0.0115656 0.0189871 0.00276395
internal_weight=353.768 341.273 196.75 175.284 26.9654 148.319 15.4812 21.4659 144.523 116.561 29.7162 22.7259 132.837 86.8444 37.184 19.2265 27.9622 12.2322 49.6604 11.2346 15.7299 12.4955 10.484
internal_count=1417 1367 788 702 108 594 62 86 579 467 119 91 532 348 149 77 112 49 199 45 63 50 42
is_linear=0
shrinkage=0.02


Tree=3
num_leaves=24
num_cat=0
split_feature=35 44 50 44 54 42 28 51 8 55 2 46 51 10 44 54 57 53 41 38 9 45 38
split_gain=13.0521 13.2434 13.0171 11.6517 9.74426 7.74266 10.4743 8.26382 8.13614 12.5672 11.5226 10.7377 7.03207 9.39973 6.98999 6.37305 6.53519 6.1428 7.05299 5.63455 5.55539 5.55546 5.39467
threshold=-0.20174857812703115 0.3396574626481686 67.483503007818882 -0.77105759209306057 -0.18834999999999999 -0.0051768149999999987 6.9638978674316752 0.54000000000000026 -0.026786994157435014 0.44288962728505049 0.0055155000000000004 -1.9099232311820866 0.16499999999999995 43772.505199998624 -0.10063037850993049 0.15180000000000002 0.13443093563236252 -0.40414999999999995 0.041589288502168538 -0.023599999999999999 1418011.4756499988 -1.4897551547593977 -0.024249999999999994
decision_type=2 2 2 2 2 2 2 2 2 2 2 2 2 2 2 2 2 2 2 2 2 2 2
left_child=5 3 22 4 -2 6 7 -1 9 17 14 20 -13 -14 -11 16 -5 -7 -19 -17 21 -10 -3
right_child=1 2 -4 15 -6 8 -8 -9 11 10 -12 12 13 -15 -16 19 -18 18 -20 -21 -22 -23 -24
leaf_value=0.020901265536018929 0.0033534177010180748 -0.025189283640134411 0.0026171546380821149 0.00063026183355577943 -0.019427506619722038 0.01690250803889223 -0.019909315630556357 -0.011318636850989335 0.026620560635138141 0.027010755146241624 0 0.010006722138175288 -0.02511542601681957 -0.00089612019057497012 0.0093845189715714549 -0.023714830538445159 0.014149119253126339 -0.013259606332716611 0.0087198810690918092 0.00092098867382296571 -0.004512085913791937 0.004513930412485114 -0.011147595032334636
leaf_weight=6.4926840364933032 11.731764033436777 18.198999404907227 19.719004049897194 30.453209489583969 18.4678765386343 5.496515408158305 12.478396624326704 5.4909108579158783 7.9955889880657223 23.731208309531212 16.479994311928749 5.9907100051641455 12.97777569293976 13.476002797484396 17.231633439660072 4.9903840720653543 28.469593092799187 16.974120154976848 8.2400510013103467 10.982755288481709 8.9880226552486402 12.24069954454899 36.423240542411804
leaf_count=26 47 73 79 122 74 22 50 22 32 95 66 24 52 54 69 20 114 68 33 44 36 49 146
internal_value=-0.000787588 -0.00458363 -0.0110255 0 -0.0104351 0.00308747 -0.00718757 0.0057337 0.00481609 0.00870902 0.0142173 -0.000667107 -0.00863878 -0.0131504 0.0198636 0.00422068 0.00730204 -0.00143835 -0.00582342 -0.00670241 0.00797759 0.013802 -0.0160473
internal_weight=353.721 179.437 74.3412 105.096 30.1996 174.284 24.462 11.9836 149.822 88.1535 57.4428 61.6688 32.4445 26.4538 40.9628 74.8959 58.9228 30.7107 25.2142 15.9731 29.2243 20.2363 54.6222
internal_count=1417 719 298 421 121 698 98 48 600 353 230 247 130 106 164 300 236 123 101 64 117 81 219
is_linear=0
shrinkage=0.02


Tree=4
num_leaves=24
num_cat=0
split_feature=35 44 50 44 6 39 23 56 11 6 52 37 50 58 52 28 6 56 44 30 48 52 52
split_gain=12.5489 12.7378 12.5332 11.1942 9.04742 9.09673 8.0751 7.77921 9.18208 7.36314 11.6168 9.59042 9.00087 10.3985 8.83149 7.43182 7.23118 6.44211 6.73536 9.17335 5.9956 5.83516 4.72672
threshold=-0.20174857812703115 0.3396574626481686 67.483503007818882 -0.77105759209306057 0.0030000000000000005 0.047050000000000008 1.885 0.78575000000000006 369710.91740000068 0.16245000000000001 0.27729999999999999 0.063950000000000021 50.238209058201086 2.5350000000000006 -0.14254999999999987 28.45269802538014 0.089950000000000016 0.86440000000000017 0.028468584626217822 0.99582571934588815 0.39905826061766797 -0.18764999999999996 0.27729999999999999
decision_type=2 2 2 2 2 2 2 2 2 2 2 2 2 2 2 2 2 2 2 2 2 2 2
left_child=9 3 -3 6 5 -4 7 -2 -9 11 15 12 13 16 -14 -11 -1 -5 20 -20 -19 -13 -16
right_child=1 2 4 17 -6 -7 -8 8 -10 10 -12 21 14 -15 22 -17 -18 18 19 -21 -22 -23 -24
leaf_value=0.0047876678743686129 0.0036833726288077019 -0.015745778180736213 -0.025724826067337819 0.014579047814543965 0.019247965647919998 0.0079510661004400397 0.010649602154206048 -0.034461548115620577 -0.0053908216361060676 0.013933537921233516 -0.026457279964716675 0.00025405411999255162 0.0069087467148379947 -0.013479255260856214 -0.023231407917217579 -0.014632196191999189 0.019581460489186912 -0.014955826257372731 0.017430884997751226 -0.012564390370885534 0.0015923468214189302 0.023920280084088134 -0.0016511365743474694
leaf_weight=74.419895246624947 5.9894111454486909 54.576417550444603 5.7404868602752703 17.732749238610268 7.7395401597023001 6.240797221660614 5.491321772336959 9.9734049290418643 8.7308617979288083 9.2405323237180728 7.98099461197853 6.4925210326910046 10.737005487084391 9.9827369600534421 11.474163889884951 5.4880403727293006 16.488145753741264 13.225354194641112 15.736240968108179 4.9918386340141288 23.215352699160576 14.735402047634123 7.2360465228557578
leaf_count=298 24 219 23 71 31 25 22 40 35 37 32 26 43 40 46 22 66 53 63 20 93 59 29
internal_value=-0.000770769 -0.00449396 -0.0108142 0 0.00256536 -0.00792948 -0.0102306 -0.015186 -0.0215068 0.00302832 -0.00742521 0.00464569 0.00254249 0.0054142 -0.00705012 0.00281075 0.00759221 0.00413687 0.000734292 0.00984575 -0.00432322 0.0170651 -0.0153588
internal_weight=353.659 179.384 74.2972 105.087 19.7208 11.9813 30.185 24.6937 18.7043 174.275 22.7096 151.566 130.338 100.891 29.4472 14.7286 90.908 74.9015 57.1688 20.7281 36.4407 21.2279 18.7102
internal_count=1417 719 298 421 79 48 121 99 75 698 91 607 522 404 118 59 364 300 229 83 146 85 75
is_linear=0
shrinkage=0.02


Tree=5
num_leaves=21
num_cat=0
split_feature=50 12 6 25 47 34 62 44 53 53 4 47 45 60 52 37 29 44 28 12
split_gain=16.2309 14.3911 9.34971 9.6639 8.9319 14.3277 10.1663 8.55311 7.91462 8.95448 7.76018 7.2759 10.623 8.85883 5.6241 3.86268 3.00349 1.30956 1.22793 0.634349
threshold=61.521465461754843 0.56276509279236653 -0.13364999999999996 -0.064999999999999933 1.7904577699906945 -1.5533262480611318 0.76282676179328601 1.9132063211496966 -0.11284999999999999 0.15694999999999995 -0.32517239275769988 1.5991470741450688 0.18082967584703849 0.034999999999999927 -0.33899999999999997 0.0079500000000000005 -0.90820339642393721 0.38396805613355461 0.86494785909780625 0.49551891511196339
decision_type=2 2 2 2 2 2 2 2 2 2 2 2 2 2 2 2 2 2 2 2
left_child=1 2 14 8 5 -5 -6 10 -4 -10 -2 12 19 -14 -1 -16 -9 -13 -3 -12
right_child=7 18 3 4 6 -7 -8 16 9 -11 11 17 13 -15 15 -17 -18 -19 -20 -21
leaf_value=-0.0011901506955579347 0.0043110046632425028 -0.010978520410959534 -0.0034957199810113043 0.017897231033377876 0.0070552409817876477 0.00025263682007194843 -0.0098909319392426667 0.016124225321377309 0.029857039944892388 0 -0.032404632132119172 -0.018359607171590801 -0.013621322636176957 0.011753231378238487 0.01083282241801722 0.032896365186714516 -0.0024895013440387162 -0.035673337365756036 -0.028154504375636755 -0.016169559728453561
leaf_weight=5.4903300106525448 8.2331594824790937 5.4855012297630292 7.4932264238595989 21.228566467761993 18.216569349169731 132.28203828632832 56.373236685991287 5.2439249604940414 11.98687092959881 5.7412291169166556 5.9859576523303968 6.7276665866374952 11.720967635512354 9.7335878908634168 8.7331850826740247 6.7429300397634497 7.9825962483882886 7.2281850725412369 5.4841026216745377 4.9885670393705368
leaf_count=22 33 22 30 85 73 530 226 21 48 23 24 27 47 39 35 27 32 29 22 20
internal_value=-0.000595856 0.00147945 0.00240663 0.00130975 0 0.00276182 -0.00566048 -0.00937777 0.0129812 0.0202207 -0.0128886 -0.0160781 -0.0104196 -0.00183016 0.0151718 0.021269 0.00464066 -0.0283098 -0.0206187 -0.0261836
internal_weight=353.102 285.258 274.288 253.322 228.1 153.511 74.5898 67.8446 25.2213 17.7281 54.6181 46.3849 32.4291 21.4546 20.9664 15.4761 13.2265 13.9559 10.9696 10.9745
internal_count=1415 1143 1099 1015 914 615 299 272 101 71 219 186 130 86 84 62 53 56 44 44
is_linear=0
shrinkage=0.02


end of trees

feature_importances:
oi_chg_1h=14
rsi=8
taker_chg_1h=7
btc_ob_imbal=6
taker_accel=6
cvd_f_chg_4h=5
oi_chg_4h=5
funding_x_ls=4
ob_chg_4h=4
oi_chg_8h=4
oi_range=4
taker_chg_4h=4
top_ls_chg_4h=4
cvd_f_accel=3
funding_vel=3
liq_norm=3
ob_chg_1h=3
ob_std_4h=3
oi_accel=3
smart_vs_retail=3
taker_ratio=3
taker_std_4h=3
vol_ratio=3
btc_funding=2
coin_vs_btc=2
cvd_f_chg_1h=2
cvd_f_ratio=2
liq_ratio_chg=2
mom_8h=2
ob_imbal=2
ob_x_taker=2
taker_dom=2
bb_pos=1
btc_mom_1h=1
btc_mom_4h=1
glob_ls=1
glob_ls_chg_4h=1
liq_ratio=1
mom_1h=1
mom_2h=1
mom_4h=1
oi_std_4h=1
top_ls=1
volatility_8h=1

parameters:
[boosting: gbdt]
[objective: binary]
[metric: binary_logloss]
[tree_learner: serial]
[device_type: cpu]
[data_sample_strategy: bagging]
[data: ]
[valid: ]
[num_iterations: 500]
[learning_rate: 0.02]
[num_leaves: 24]
[num_threads: 0]
[seed: 0]
[deterministic: 0]
[force_col_wise: 0]
[force_row_wise: 0]
[histogram_pool_size: -1]
[max_depth: 6]
[min_data_in_leaf: 20]
[min_sum_hessian_in_leaf: 0.001]
[bagging_fraction: 0.6]
[pos_bagging_fraction: 1]
[neg_bagging_fraction: 1]
[bagging_freq: 5]
[bagging_seed: 3]
[bagging_by_query: 0]
[feature_fraction: 0.6]
[feature_fraction_bynode: 1]
[feature_fraction_seed: 2]
[extra_trees: 0]
[extra_seed: 6]
[early_stopping_round: 0]
[early_stopping_min_delta: 0]
[first_metric_only: 0]
[max_delta_step: 0]
[lambda_l1: 0.3]
[lambda_l2: 0.3]
[linear_lambda: 0]
[min_gain_to_split: 0]
[drop_rate: 0.1]
[max_drop: 50]
[skip_drop: 0.5]
[xgboost_dart_mode: 0]
[uniform_drop: 0]
[drop_seed: 4]
[top_rate: 0.2]
[other_rate: 0.1]
[min_data_per_group: 100]
[max_cat_threshold: 32]
[cat_l2: 10]
[cat_smooth: 10]
[max_cat_to_onehot: 4]
[top_k: 20]
[monotone_constraints: ]
[monotone_constraints_method: basic]
[monotone_penalty: 0]
[feature_contri: ]
[forcedsplits_filename: ]
[refit_decay_rate: 0.9]
[cegb_tradeoff: 1]
[cegb_penalty_split: 0]
[cegb_penalty_feature_lazy: ]
[cegb_penalty_feature_coupled: ]
[path_smooth: 0]
[interaction_constraints: ]
[verbosity: -1]
[saved_feature_importance_type: 0]
[use_quantized_grad: 0]
[num_grad_quant_bins: 4]
[quant_train_renew_leaf: 0]
[stochastic_rounding: 1]
[linear_tree: 0]
[max_bin: 255]
[max_bin_by_feature: ]
[min_data_in_bin: 3]
[bin_construct_sample_cnt: 200000]
[data_random_seed: 1]
[is_enable_sparse: 1]
[enable_bundle: 1]
[use_missing: 1]
[zero_as_missing: 0]
[feature_pre_filter: 1]
[pre_partition: 0]
[two_round: 0]
[header: 0]
[label_column: ]
[weight_column: ]
[group_column: ]
[ignore_column: ]
[categorical_feature: ]
[forcedbins_filename: ]
[precise_float_parser: 0]
[parser_config_file: ]
[objective_seed: 5]
[num_class: 1]
[is_unbalance: 0]
[scale_pos_weight: 1]
[sigmoid: 1]
[boost_from_average: 1]
[reg_sqrt: 0]
[alpha: 0.9]
[fair_c: 1]
[poisson_max_delta_step: 0.7]
[tweedie_variance_power: 1.5]
[lambdarank_truncation_level: 30]
[lambdarank_norm: 1]
[label_gain: ]
[lambdarank_position_bias_regularization: 0]
[eval_at: ]
[multi_error_top_k: 1]
[auc_mu_weights: ]
[num_machines: 1]
[local_listen_port: 12400]
[time_out: 120]
[machine_list_filename: ]
[machines: ]
[gpu_platform_id: -1]
[gpu_device_id: -1]
[gpu_use_dp: 0]
[num_gpu: 1]

end of parameters

pandas_categorical:null
