tree
version=v4
num_class=1
num_tree_per_iteration=1
label_index=0
max_feature_idx=63
objective=binary sigmoid:1
feature_names=bb_pos btc_cvd_chg btc_funding btc_liq_ratio btc_mom_1h btc_mom_4h btc_ob_imbal btc_oi_chg coin_vs_btc cvd_f_accel cvd_f_chg_1h cvd_f_chg_4h cvd_f_ratio cvd_f_vs_spot cvd_spot_sign div_cvd_price div_ob_price div_oi_price div_taker_price funding funding_ext funding_vel funding_x_ls glob_ls glob_ls_chg_1h glob_ls_chg_4h glob_ls_extreme liq_cascade liq_norm liq_ratio liq_ratio_chg liq_x_mom mom_1h mom_2h mom_4h mom_8h mom_accel ob_chg_1h ob_chg_4h ob_imbal ob_ratio ob_std_4h ob_x_taker oi_accel oi_chg_1h oi_chg_4h oi_chg_8h oi_range oi_std_4h oi_x_cvd rsi smart_vs_retail taker_accel taker_chg_1h taker_chg_4h taker_dom taker_ratio taker_std_4h top_ls top_ls_chg_1h top_ls_chg_4h top_ls_extreme vol_ratio volatility_8h
feature_infos=[-4.2907953130443222:3.726922508388363] [-10345745449.3797:856158339.31439972] [-0.0085950000000000002:0.010240000000000001] [-1:1] [-21.296861476479513:2.9074508470599891] [-22.06569091082833:5.7426488779570795] [-0.46710000000000002:0.46710000000000002] [-16.639485635806839:4.8445823624005957] [-1.9621082895737914:3.8365976796912893] [-343492793.78820002:330968463.91859996] [-341765317.01160002:43066244.922499955] [-349841049.27419996:2466941926.4130001] [0.32510129796119341:0.62144927227352731] none none [-1:1] [-1:1] none [-1:1] [-0.023755999999999999:0.011135000000000001] [-1:1] [-0.023210999999999999:0.018017999999999999] [-0.057739549999999994:0.032848250000000002] [1.8300000000000001:3.3300000000000001] [-1.1800000000000002:0.27000000000000002] [-1.1299999999999999:1.5800000000000001] none [0:1] [0:6689.6831956437909] [-1:1] [-2:2] [-12.904671825648222:0.7440869926858249] [-23.258969766053305:4.4378323626234506] [-23.915757477066713:5.5242012626745662] [-23.882704317132774:8.0424389285480338] [-23.973495546382793:9.2950841393931292] [-23.318713411501932:22.403120282392251] [-0.1633:0.14149999999999999] [-0.21579999999999999:0.13830000000000001] [-0.16539999999999999:0.1545] [0.71608051050338273:1.3654494677919071] [0.0017930421077041103:0.076588804664911692] [-0.22193372:0.16285845000000002] [-25.349896872775879:23.92186224415822] [-25.146191515919714:7.461517363875414] [-25.977021815591893:13.064067267490142] [-26.474994316236945:15.566360791470778] [0:7.8374694944043588] [0:17.252045803647064] [-7.461517363875414:25.146191515919714] [4.0139050826963683:95.406308893475696] [-2.0100000000000002:-0.41999999999999993] [-2.0988000000000002:1.3561999999999999] [-1.0971000000000002:0.79319999999999991] [-1.4208000000000001:0.96130000000000004] [0.32510129796119341:0.62144927227352731] [0.48170000000000002:1.6416999999999999] [0.009417138631240423:0.48791842043521993] [0.78000000000000003:1.75] [-0.59999999999999998:0.20999999999999996] [-0.71000000000000008:0.56000000000000005] [0:1] [0.16077464760754742:11.002567256527625] [0.11326894593972202:7.3796958839532305]
tree_sizes=1610 2325

Tree=0
num_leaves=14
num_cat=0
split_feature=42 55 57 28 36 28 52 57 5 33 43 37 35
split_gain=9.65954 5.4031 7.14334 16.1809 10.0114 9.8432 8.61215 9.91797 5.5865 5.24858 4.966 4.70532 4.31544
threshold=-0.014131349999999999 0.56875450844648989 0.17753451750003477 106.13977340669233 1.27321580897673 125.72986610287549 0.012399999999999913 0.14621590267296405 -1.9090143190816753 0.069681648193709048 -0.43113004504073399 -0.025949999999999997 -0.30302269635002482
decision_type=2 2 2 2 2 2 2 2 2 2 2 2 2
left_child=11 2 3 6 8 9 10 -8 -5 12 -2 -1 -4
right_child=1 -3 5 4 -6 -7 7 -9 -10 -11 -12 -13 -14
leaf_value=-0.069864324178643494 -0.097741657692975978 -0.079980466936975442 -0.081586047704977266 -0.10024687625671534 -0.10764772942752915 -0.12208801074607226 -0.088598652455560159 -0.11156252567279849 -0.07870666928152642 -0.11036700791927648 -0.11267565779774126 -0.094845299068444938 -0.10174864348915812
leaf_weight=8.2311688810586912 15.714049682021139 7.2334514409303656 8.2311688810586912 4.9885872006416312 6.4851633608341208 9.7277450412511808 31.677528724074364 9.4783156812190992 33.922392964363098 8.979456961154936 24.194647923111916 5.4874459207057944 7.7323101609945324
leaf_count=33 63 29 33 20 26 39 127 38 136 36 97 22 31
internal_value=-0.0951709 -0.0964637 -0.0972685 -0.0951023 -0.0855374 -0.105278 -0.100402 -0.0941091 -0.0816355 -0.0982482 -0.107004 -0.0791982 -0.091654
internal_weight=182.083 168.365 161.131 126.461 45.3961 34.6707 81.0645 41.1558 38.911 24.9429 39.9087 13.7186 15.9635
internal_count=730 675 646 507 182 139 325 165 156 100 160 55 64
is_linear=0
shrinkage=1


Tree=1
num_leaves=21
num_cat=0
split_feature=39 38 12 62 62 28 62 2 57 35 62 10 47 58 35 22 24 60 10 8
split_gain=8.16858 8.0048 10.289 7.85659 10.47 7.29619 9.30025 12.5739 8.2991 8.28061 8.07811 7.09774 6.87897 6.77121 6.58529 5.85311 4.60712 5.70744 3.8209 1.04423
threshold=-0.013549999999999998 -0.0076 0.46777032860784346 0.83621683957668569 0.55212602334015359 39.669565112832025 0.54994166058775351 0.0076225000000000008 0.18067296051888829 -0.70175609934387528 1.7476319853749587 -9667597.6185499411 0.66882410528958947 1.155 0.84969097435617658 -0.0043356099999999993 -0.024999999999999908 -0.019999999999999848 343180.91619992262 0.21063793867177052
decision_type=2 2 2 2 2 2 2 2 2 2 2 2 2 2 2 2 2 2 2 2
left_child=13 2 11 4 -4 6 9 14 10 -3 15 -2 -6 -1 -8 -7 -5 -18 -11 -12
right_child=1 5 3 16 12 8 7 -9 -10 18 19 -13 -14 -15 -16 -17 17 -19 -20 -21
leaf_value=-0.00068684681823134007 -0.0046469832630112408 -0.0099297890996875027 -0.019037030441182438 0 -0.0083212641042323104 0.017844691233819189 -0.0082045199240492212 0.019684764335211328 -0.0075603921280777957 0.028003149989661805 0.035183915196375405 0.021593735808892619 0.019949351796515219 0.025928705820796014 -0.032116627182625895 -0.00094851436690586888 -0.0069936577656862335 -0.028128732493082502 0.0052572172117154835 0.016812489903490921
leaf_weight=5.9899809062480918 7.9805421084165573 5.9858357608318356 7.9786723256111172 5.2379702627658871 4.9872836768627158 10.479697093367575 23.690562397241596 4.9871397018432608 9.4725909531116468 6.734215095639227 5.4891708195209485 7.4832278490066511 8.7309617996215803 8.4856709539890272 5.9844184815883628 15.71636274456978 9.2292257547378558 15.461135119199751 6.7341363131999969 5.2398538738489151
leaf_count=24 32 24 32 21 20 42 95 20 38 27 22 30 35 34 24 63 37 62 27 21
internal_value=0.000442029 -0.000779404 -0.00614234 -0.0104673 -0.000974518 0.00274825 -0.00215094 -0.00842596 0.00856806 0.00868389 0.0128943 0.00784009 0.0092854 0.0147189 -0.0135001 0.00646015 -0.0170727 -0.0206474 0.0174284 0.027457
internal_weight=182.079 167.603 67.089 51.6252 21.6969 100.514 54.1163 34.6621 46.3977 19.4542 36.9251 15.4638 13.7182 14.4757 29.675 26.1961 29.9283 24.6904 13.4684 10.729
internal_count=730 672 269 207 87 403 217 139 186 78 148 62 55 58 119 105 120 99 54 43
is_linear=0
shrinkage=0.02


end of trees

feature_importances:
vol_ratio=4
liq_norm=3
mom_8h=3
taker_std_4h=3
cvd_f_chg_1h=2
btc_funding=1
btc_mom_4h=1
coin_vs_btc=1
cvd_f_ratio=1
funding_x_ls=1
glob_ls_chg_1h=1
mom_2h=1
mom_accel=1
ob_chg_1h=1
ob_chg_4h=1
ob_imbal=1
ob_x_taker=1
oi_accel=1
oi_range=1
taker_accel=1
taker_dom=1
top_ls=1
top_ls_chg_4h=1

parameters:
[boosting: gbdt]
[objective: binary]
[metric: binary_logloss]
[tree_learner: serial]
[device_type: cpu]
[data_sample_strategy: bagging]
[data: ]
[valid: ]
[num_iterations: 500]
[learning_rate: 0.02]
[num_leaves: 24]
[num_threads: 0]
[seed: 0]
[deterministic: 0]
[force_col_wise: 0]
[force_row_wise: 0]
[histogram_pool_size: -1]
[max_depth: 6]
[min_data_in_leaf: 20]
[min_sum_hessian_in_leaf: 0.001]
[bagging_fraction: 0.6]
[pos_bagging_fraction: 1]
[neg_bagging_fraction: 1]
[bagging_freq: 5]
[bagging_seed: 3]
[bagging_by_query: 0]
[feature_fraction: 0.6]
[feature_fraction_bynode: 1]
[feature_fraction_seed: 2]
[extra_trees: 0]
[extra_seed: 6]
[early_stopping_round: 0]
[early_stopping_min_delta: 0]
[first_metric_only: 0]
[max_delta_step: 0]
[lambda_l1: 0.3]
[lambda_l2: 0.3]
[linear_lambda: 0]
[min_gain_to_split: 0]
[drop_rate: 0.1]
[max_drop: 50]
[skip_drop: 0.5]
[xgboost_dart_mode: 0]
[uniform_drop: 0]
[drop_seed: 4]
[top_rate: 0.2]
[other_rate: 0.1]
[min_data_per_group: 100]
[max_cat_threshold: 32]
[cat_l2: 10]
[cat_smooth: 10]
[max_cat_to_onehot: 4]
[top_k: 20]
[monotone_constraints: ]
[monotone_constraints_method: basic]
[monotone_penalty: 0]
[feature_contri: ]
[forcedsplits_filename: ]
[refit_decay_rate: 0.9]
[cegb_tradeoff: 1]
[cegb_penalty_split: 0]
[cegb_penalty_feature_lazy: ]
[cegb_penalty_feature_coupled: ]
[path_smooth: 0]
[interaction_constraints: ]
[verbosity: -1]
[saved_feature_importance_type: 0]
[use_quantized_grad: 0]
[num_grad_quant_bins: 4]
[quant_train_renew_leaf: 0]
[stochastic_rounding: 1]
[linear_tree: 0]
[max_bin: 255]
[max_bin_by_feature: ]
[min_data_in_bin: 3]
[bin_construct_sample_cnt: 200000]
[data_random_seed: 1]
[is_enable_sparse: 1]
[enable_bundle: 1]
[use_missing: 1]
[zero_as_missing: 0]
[feature_pre_filter: 1]
[pre_partition: 0]
[two_round: 0]
[header: 0]
[label_column: ]
[weight_column: ]
[group_column: ]
[ignore_column: ]
[categorical_feature: ]
[forcedbins_filename: ]
[precise_float_parser: 0]
[parser_config_file: ]
[objective_seed: 5]
[num_class: 1]
[is_unbalance: 0]
[scale_pos_weight: 1]
[sigmoid: 1]
[boost_from_average: 1]
[reg_sqrt: 0]
[alpha: 0.9]
[fair_c: 1]
[poisson_max_delta_step: 0.7]
[tweedie_variance_power: 1.5]
[lambdarank_truncation_level: 30]
[lambdarank_norm: 1]
[label_gain: ]
[lambdarank_position_bias_regularization: 0]
[eval_at: ]
[multi_error_top_k: 1]
[auc_mu_weights: ]
[num_machines: 1]
[local_listen_port: 12400]
[time_out: 120]
[machine_list_filename: ]
[machines: ]
[gpu_platform_id: -1]
[gpu_device_id: -1]
[gpu_use_dp: 0]
[num_gpu: 1]

end of parameters

pandas_categorical:null
