tree
version=v4
num_class=1
num_tree_per_iteration=1
label_index=0
max_feature_idx=44
objective=binary sigmoid:1
feature_names=oi_chg_1h oi_chg_2h oi_chg_4h oi_chg_8h oi_range_1h oi_accel cvd_f_chg_1h cvd_f_chg_4h cvd_f_ratio_1h cvd_f_accel cvd_f_vs_spot taker_ratio taker_ratio_chg_1h taker_ratio_chg_4h taker_buy_dom taker_imbalance_accel top_ls top_ls_chg_1h top_ls_chg_4h top_ls_extreme glob_ls glob_ls_chg_1h glob_ls_chg_4h glob_ls_extreme funding funding_vel_4h funding_extreme ob_imbal ob_imbal_chg_1h ob_imbal_chg_4h ob_bid_ask_ratio liq_ratio liq_total_norm liq_ratio_chg_1h liq_cascade mom_1h mom_2h mom_4h mom_8h rsi_14 vol_ratio price_vs_bb div_oi_price div_cvd_price div_taker_price
feature_infos=[-14.997867735263615:19.787122151427617] [-14.674387925381483:22.553436526322159] [-15.587177528047725:24.824445380928537] [-16.247329136535793:26.444186682074577] [0:21.158726011476013] [-17.477763411347414:19.960508701272918] [-6808187.9358999878:99089541.5493] [-7450754.1501999944:99080610.716700003] [0.32463388919692759:0.70572544556852457] [-99202468.289399996:99066285.556299999] none [0.48070000000000002:2.3982000000000001] [-1.3868:1.5746] [-1.5713000000000001:1.7840000000000003] [0.32463388919692759:0.70572544556852457] [-2.8250000000000002:2.1366999999999998] [1.1200000000000001:2.0800000000000001] [-0.18999999999999995:0.27000000000000002] [-0.19000000000000017:0.27000000000000002] [0:1] [0.80000000000000004:1.6200000000000001] [-0.14000000000000001:0.55000000000000004] [-0.17000000000000004:0.62000000000000011] [0:1] [-0.29926599999999998:0.011704000000000001] [-0.13181899999999999:0.16314900000000002] [-1:1] [-0.2747:0.42070000000000002] [-0.38150000000000001:0.41039999999999999] [-0.37359999999999999:0.43469999999999998] [0.56896864174550221:2.4524210053461286] [-1:1] [0:6231.8347463296714] [-2:2] [0:1] [-32.001493651979082:4.2622950819672267] [-32.254464285714278:5.7450628366247702] [-32.019338043882485:7.6782449725776969] [-32.614354778728149:9.6065873741994601] [2.6229338575752195:93.882801756642706] [0.044769877840376983:54.02310245211077] [-4.3067635535474986:3.6224221135200123] [-1:1] [-1:1] [-1:1]
tree_sizes=3375

Tree=0
num_leaves=31
num_cat=0
split_feature=25 38 2 20 6 2 17 40 2 15 13 4 15 12 6 40 3 37 28 13 1 8 12 31 32 39 32 4 20 13
split_gain=9.91149 13.3152 11.8247 10.1953 9.70986 7.82706 8.91021 8.73501 8.43341 9.22004 8.31176 8.3055 7.40637 8.46929 7.1907 8.05888 6.96627 9.51985 7.42841 6.61655 7.17022 6.56478 6.50305 7.68608 6.09659 5.94967 5.78086 11.6419 8.84156 6.91833
threshold=0.0085595000000000029 -2.1024356518683889 0.87882892153956516 1.4350000000000003 -584964.76154999982 -2.0314696299379982 0.039999999999999931 0.65447191791515558 -0.51069645095007099 0.76470000000000005 0.032200000000000013 0.5759728323529002 0.10119999999999997 0.10450000000000005 -106491.46229999977 0.26894216447748859 2.6685017082538569 -0.56440419577236656 0.089649999999999994 -0.35729999999999995 -1.2947111610704884 0.43803501325307154 -0.020150000000000109 0.9758822975886623 143.88164602239425 36.563566391937499 15.542840899130011 2.0570936237973352 1.0750000000000004 -0.2892499999999999
decision_type=2 2 2 2 2 2 2 2 2 2 2 2 2 2 2 2 2 2 2 2 2 2 2 2 2 2 2 2 2 2
left_child=1 2 12 4 -3 10 7 11 -9 24 -6 -7 22 -14 21 -16 17 -17 -19 -2 -21 -13 23 -1 26 -25 27 29 -28 -10
right_child=19 3 -4 -5 5 6 -8 8 9 -11 -12 14 13 -15 15 16 -18 18 -20 20 -22 -23 -24 25 -26 -27 28 -29 -30 -31
leaf_value=-0.14680152795945853 -0.088480860075468099 -0.10446461772284416 -0.15192111687391877 -0.17277649625900274 -0.16836795872399743 -0.14893584268281493 -0.16554081391700648 -0.12612704871996222 -0.11264001238651668 -0.18310278275456907 -0.12531342824715402 -0.12768223494728109 -0.15796797504425444 -0.1138431205468162 -0.093028403460094944 -0.10818479521974669 -0.099745374680122983 -0.15325058040341355 -0.11302913830878039 -0.16065531807068409 -0.12020862812016662 -0.080380015303920943 -0.076050636972677138 -0.11708403398812882 -0.1140134413949437 -0.071991061358840619 -0.16870057981207787 -0.087926592357494282 -0.13340582877131396 -0.14794350305071885
leaf_weight=4.2309447824954995 5.2264612019062033 7.9641313552856436 8.7107686698436719 7.2174940407276145 13.93722987174988 11.697317928075789 8.7107686698436719 29.367734372615814 5.724219411611549 5.2264612019062033 5.4753403067588797 4.7287029922008497 5.7242194116115597 11.697317928075789 5.4753403067588797 7.9641313552856365 5.2264612019062033 21.154723912477504 4.9775820970535269 4.2309447824954978 40.567294090986252 6.4708567261695862 6.2219776213169125 7.7152522504329681 6.2219776213169089 4.2309447824954987 16.923779129981998 3.733186572790145 9.9551641941070539 33.349800050258644
leaf_count=17 21 32 35 29 56 47 35 118 23 21 22 19 23 47 22 32 21 85 20 17 163 26 25 31 25 17 68 15 40 134
internal_value=-0.132531 -0.134794 -0.120592 -0.137924 -0.136719 -0.137992 -0.136086 -0.134612 -0.139825 -0.144824 -0.156088 -0.126151 -0.113636 -0.128566 -0.121321 -0.126819 -0.131692 -0.136588 -0.145424 -0.120276 -0.124146 -0.0998528 -0.102234 -0.112784 -0.142088 -0.100481 -0.144663 -0.137714 -0.155563 -0.142653
internal_weight=320.059 270.034 48.5314 221.502 214.285 206.321 186.908 178.197 110.502 81.1346 19.4126 67.6951 39.8207 17.4215 55.9978 44.7982 39.3229 34.0964 26.1323 50.0247 44.7982 11.1996 22.3991 16.1771 75.9081 11.9462 69.6861 42.8072 26.8789 39.074
internal_count=1286 1085 195 890 861 829 751 716 444 326 78 272 160 70 225 180 158 137 105 201 180 45 90 65 305 48 280 172 108 157
is_linear=0
shrinkage=1


end of trees

feature_importances:
oi_chg_4h=3
taker_ratio_chg_4h=3
oi_range_1h=2
cvd_f_chg_1h=2
taker_ratio_chg_1h=2
taker_imbalance_accel=2
glob_ls=2
liq_total_norm=2
vol_ratio=2
oi_chg_2h=1
oi_chg_8h=1
cvd_f_ratio_1h=1
top_ls_chg_1h=1
funding_vel_4h=1
ob_imbal_chg_1h=1
liq_ratio=1
mom_4h=1
mom_8h=1
rsi_14=1

parameters:
[boosting: gbdt]
[objective: binary]
[metric: binary_logloss]
[tree_learner: serial]
[device_type: cpu]
[data_sample_strategy: bagging]
[data: ]
[valid: ]
[num_iterations: 500]
[learning_rate: 0.03]
[num_leaves: 31]
[num_threads: 0]
[seed: 0]
[deterministic: 0]
[force_col_wise: 0]
[force_row_wise: 0]
[histogram_pool_size: -1]
[max_depth: -1]
[min_data_in_leaf: 15]
[min_sum_hessian_in_leaf: 0.001]
[bagging_fraction: 0.7]
[pos_bagging_fraction: 1]
[neg_bagging_fraction: 1]
[bagging_freq: 5]
[bagging_seed: 3]
[bagging_by_query: 0]
[feature_fraction: 0.7]
[feature_fraction_bynode: 1]
[feature_fraction_seed: 2]
[extra_trees: 0]
[extra_seed: 6]
[early_stopping_round: 0]
[early_stopping_min_delta: 0]
[first_metric_only: 0]
[max_delta_step: 0]
[lambda_l1: 0.1]
[lambda_l2: 0.1]
[linear_lambda: 0]
[min_gain_to_split: 0]
[drop_rate: 0.1]
[max_drop: 50]
[skip_drop: 0.5]
[xgboost_dart_mode: 0]
[uniform_drop: 0]
[drop_seed: 4]
[top_rate: 0.2]
[other_rate: 0.1]
[min_data_per_group: 100]
[max_cat_threshold: 32]
[cat_l2: 10]
[cat_smooth: 10]
[max_cat_to_onehot: 4]
[top_k: 20]
[monotone_constraints: ]
[monotone_constraints_method: basic]
[monotone_penalty: 0]
[feature_contri: ]
[forcedsplits_filename: ]
[refit_decay_rate: 0.9]
[cegb_tradeoff: 1]
[cegb_penalty_split: 0]
[cegb_penalty_feature_lazy: ]
[cegb_penalty_feature_coupled: ]
[path_smooth: 0]
[interaction_constraints: ]
[verbosity: -1]
[saved_feature_importance_type: 0]
[use_quantized_grad: 0]
[num_grad_quant_bins: 4]
[quant_train_renew_leaf: 0]
[stochastic_rounding: 1]
[linear_tree: 0]
[max_bin: 255]
[max_bin_by_feature: ]
[min_data_in_bin: 3]
[bin_construct_sample_cnt: 200000]
[data_random_seed: 1]
[is_enable_sparse: 1]
[enable_bundle: 1]
[use_missing: 1]
[zero_as_missing: 0]
[feature_pre_filter: 1]
[pre_partition: 0]
[two_round: 0]
[header: 0]
[label_column: ]
[weight_column: ]
[group_column: ]
[ignore_column: ]
[categorical_feature: ]
[forcedbins_filename: ]
[precise_float_parser: 0]
[parser_config_file: ]
[objective_seed: 5]
[num_class: 1]
[is_unbalance: 0]
[scale_pos_weight: 1]
[sigmoid: 1]
[boost_from_average: 1]
[reg_sqrt: 0]
[alpha: 0.9]
[fair_c: 1]
[poisson_max_delta_step: 0.7]
[tweedie_variance_power: 1.5]
[lambdarank_truncation_level: 30]
[lambdarank_norm: 1]
[label_gain: ]
[lambdarank_position_bias_regularization: 0]
[eval_at: ]
[multi_error_top_k: 1]
[auc_mu_weights: ]
[num_machines: 1]
[local_listen_port: 12400]
[time_out: 120]
[machine_list_filename: ]
[machines: ]
[gpu_platform_id: -1]
[gpu_device_id: -1]
[gpu_use_dp: 0]
[num_gpu: 1]

end of parameters

pandas_categorical:null
