tree
version=v4
num_class=1
num_tree_per_iteration=1
label_index=0
max_feature_idx=44
objective=binary sigmoid:1
feature_names=oi_chg_1h oi_chg_2h oi_chg_4h oi_chg_8h oi_range_1h oi_accel cvd_f_chg_1h cvd_f_chg_4h cvd_f_ratio_1h cvd_f_accel cvd_f_vs_spot taker_ratio taker_ratio_chg_1h taker_ratio_chg_4h taker_buy_dom taker_imbalance_accel top_ls top_ls_chg_1h top_ls_chg_4h top_ls_extreme glob_ls glob_ls_chg_1h glob_ls_chg_4h glob_ls_extreme funding funding_vel_4h funding_extreme ob_imbal ob_imbal_chg_1h ob_imbal_chg_4h ob_bid_ask_ratio liq_ratio liq_total_norm liq_ratio_chg_1h liq_cascade mom_1h mom_2h mom_4h mom_8h rsi_14 vol_ratio price_vs_bb div_oi_price div_cvd_price div_taker_price
feature_infos=[-17.064013514245058:21.647852996363049] [-18.504548704795234:36.652760901923884] [-22.51613949483361:62.865267522125201] [-25.829593486700887:87.523195606949571] [0:26.8480371145716] [-23.454536709488327:24.123176601474619] [-31688924.435699999:651717399.98600006] [-49816275.222799987:651832741.48520005] [0.29866237660598788:0.66296068299027711] [-652605368.75200009:651962718.08760011] none [0.42580000000000001:1.9670000000000001] [-1.0484:1.1496999999999999] [-1.1027999999999998:1.0701000000000001] [0.29866237660598788:0.66296068299027711] [-1.8905999999999998:1.7818000000000001] [1.1499999999999999:3.23] [-0.83000000000000007:1.3999999999999999] [-0.75:1.3999999999999999] [0:1] [0.96999999999999997:2.6499999999999999] [-0.40000000000000013:0.85000000000000009] [-0.62000000000000011:1.04] [0:1] [-0.82544399999999996:0.011651999999999999] [-0.56622799999999995:0.47024300000000002] [-1:1] [-0.21460000000000001:0.53639999999999999] [-0.47400000000000003:0.3821] [-0.50360000000000005:0.57650000000000001] [0.64666116248223215:3.3141577215265574] [-1:1] [0:1615.0081722402042] [-2:2] [0:1] [-13.148584905660366:18.839427662957075] [-13.225331369661264:36.685214626391094] [-15.523894330661925:56.888686131386848] [-17.075564278704604:63.980815347721823] [1.718352821555726:94.969168615777164] [0.094460651022199998:27.939280849800774] [-4.0789618488729973:4.0549321435583954] [-1:1] [-1:1] [-1:1]
tree_sizes=3347 3431 3445 3450

Tree=0
num_leaves=31
num_cat=0
split_feature=12 31 41 28 38 32 38 12 9 1 39 4 37 37 39 2 3 0 28 38 32 8 12 2 21 16 2 16 9 17
split_gain=13.5969 10.2029 8.7875 8.65765 14.9703 12.1365 10.3708 10.3808 9.53699 15.0233 12.4514 8.24036 11.4852 9.40283 8.66614 10.3112 9.65057 8.22736 8.13629 8.09344 8.09117 8.75921 11.4458 11.0324 9.82619 9.68777 11.53 9.29888 11.2524 8.55828
threshold=0.17145000000000002 0.31781469531591205 0.1393189836167317 0.049350000000000012 1.357927750314625 49.332693694740222 -8.9884277897365958 -0.48204999999999992 -740563.32030001271 -1.1600388300514684 50.438826649245961 1.4856181662646242 -1.3450494233848751 -0.59760956175298185 36.282616224201263 -0.126218676606038 1.425506988145653 0.25464760119627844 -0.025399999999999992 -0.84388561255146477 90.743691506355859 0.47070780354126501 -0.19889999999999994 4.6941463682215536 -1.0000000180025095e-35 1.9850000000000001 -0.43289000514222792 1.675 556896.89464996767 0.044999999999999936
decision_type=2 2 2 2 2 2 2 2 2 2 2 2 2 2 2 2 2 2 2 2 2 2 2 2 2 2 2 2 2 2
left_child=3 -2 -3 6 11 -6 -1 -8 10 -10 17 12 -5 19 -13 -16 -17 -9 -4 -14 21 -11 -23 24 -24 26 -26 -28 -29 -27
right_child=1 2 18 4 5 -7 7 8 9 20 -12 14 13 -15 15 16 -18 -19 -20 -21 -22 22 23 -25 25 29 27 28 -30 -31
leaf_value=-0.14077567565810373 -0.20573555742926433 -0.1817339871191346 -0.17903062160034136 -0.12419381361802102 -0.21260615427000884 -0.16004103240467257 -0.1682197566691192 -0.18747556864251369 -0.20475738135336341 -0.17591204377846417 -0.21381812244959669 -0.20457315979523658 -0.22312291393881309 -0.16004775364650684 -0.15046472990201831 -0.22046167311869314 -0.16394531044702426 -0.22586581855478122 -0.21984936483033776 -0.16821369381705259 -0.15631777303325706 -0.2244588897264358 -0.17220624344564139 -0.23069358491998926 -0.20583883024939253 -0.20396868017968034 -0.192614017102713 -0.15381113565440127 -0.20241041777042784 -0.1669567197580431
leaf_weight=3.7167913466691962 78.548190459609032 42.1236352622509 6.4424383342266109 5.699080064892768 17.592812374234203 4.9557217955589286 17.840598464012146 51.787292763590813 43.362565711140633 51.787292763590813 35.433410838246346 11.645946219563482 4.707935705780983 22.548534169793129 9.9114435911178589 5.4512939751148224 5.2035078853368759 5.4512939751148215 12.884876668453215 4.7079357057809847 8.1769409626722318 8.1769409626722318 32.707763850688934 5.203507885336875 13.628234937787047 49.309431865811348 15.362737566232687 21.3096037209034 5.203507885336875 6.1946522444486609
leaf_count=15 317 170 26 23 71 20 72 209 175 209 143 47 19 91 40 22 21 22 52 19 33 33 132 21 55 199 62 86 21 25
internal_value=-0.190379 -0.198578 -0.189367 -0.187926 -0.179705 -0.200845 -0.189949 -0.190462 -0.1916 -0.188669 -0.19986 -0.172832 -0.163305 -0.170551 -0.184109 -0.172356 -0.192608 -0.191138 -0.206109 -0.195426 -0.185435 -0.186605 -0.190116 -0.188228 -0.186641 -0.190879 -0.182056 -0.174222 -0.163477 -0.199752
internal_weight=607.076 139.999 61.451 467.077 92.4242 22.5485 374.653 370.936 353.095 260.423 92.672 69.8757 37.6635 31.9644 32.2122 20.5662 10.6548 57.2386 19.3273 9.41587 217.061 208.884 157.096 148.919 143.716 111.008 55.5041 41.8758 26.5131 55.5041
internal_count=2450 565 248 1885 373 91 1512 1497 1425 1051 374 282 152 129 130 83 43 231 78 38 876 843 634 601 580 448 224 169 107 224
is_linear=0
shrinkage=1


Tree=1
num_leaves=31
num_cat=0
split_feature=12 41 3 4 3 39 4 25 13 2 4 25 27 5 11 39 6 41 2 5 13 3 22 27 15 12 2 3 22 1
split_gain=12.8078 8.8559 10.3548 8.38728 7.25302 12.7397 7.84339 10.4071 8.06842 8.97097 7.71953 7.67006 7.52066 11.2735 7.85393 8.28433 7.06104 7.11887 7.70819 7.98279 6.99284 6.99362 11.4963 7.86284 9.24122 6.95196 6.66662 6.64205 10.4462 6.58668
threshold=0.17145000000000002 0.52388453456229034 5.5665669644733198 2.6328992295944214 -1.8794727182353475 64.904604456093907 1.3999047996370753 -0.026119 -0.24524999999999994 4.6941463682215536 0.84867357624982553 0.0096450000000000025 0.058050000000000011 2.029103630826246 0.83715000000000017 73.745351528120565 1445661.9173499944 -2.1250689757546608 -2.1508305092176268 3.3232299898764031 -0.37745000000000001 -2.5019631550451944 0.0099999999999998996 0.065950000000000022 0.35615000000000013 0.40640000000000004 0.28151309521730067 0.15903597636716119 0.0099999999999998996 -0.74060692087731239
decision_type=2 2 2 2 2 2 2 2 2 2 2 2 2 2 2 2 2 2 2 2 2 2 2 2 2 2 2 2 2 2
left_child=4 2 16 25 5 20 8 -8 10 11 26 -10 14 27 -9 -16 17 -2 19 -19 -1 23 -23 24 -22 -3 -6 28 -14 -12
right_child=1 3 -4 -5 6 -7 7 12 9 -11 29 -13 13 -15 15 -17 -18 18 -20 -21 21 22 -24 -25 -26 -27 -28 -29 -30 -31
leaf_value=0.03288666006182233 -0.038018162254377055 -0.018834259324816305 -0.052378171345867711 0.0075333200976332986 -0.013455657904811208 -0.030437738116493425 0.037484337871167846 -0.00011334112540759087 0.0028877701938170644 -0.044774686831308454 0.00016326825080402064 -0.018257361804049875 0.025457025336664645 0.037219869639011242 -0.025654490330374199 0.0039501476235730242 -0.031214850386017696 0.037671474627769763 -0.0016264128668256677 -0.013200577058171301 0.0011390130019951887 0.042295905401880177 -0.0022070974439546589 0.017391884979441739 -0.041002826150686511 -0.049842404139193441 0.022323406748919455 -0.013555993348321941 -0.024975235293397877 0.038177059784272729
leaf_weight=10.164892703294752 3.9648577570915213 32.159143105149269 3.7130968123674384 8.1647402644157392 11.652706608176233 7.6755558401346198 4.463471144437789 25.271422773599625 133.82749669253826 3.9544910043478003 5.9460818320512798 17.34325198829174 11.890529289841654 6.4420114308595648 46.78729073703289 10.155683398246763 6.6830918639898291 9.6611616760492307 63.391111552715302 3.7151886224746695 63.177556186914444 11.648961499333383 9.1695257872343046 26.030793622136116 4.9500833153724662 8.4082562625408155 7.6866361796855918 29.225915312767029 5.2030392140150061 14.387508168816565
leaf_count=41 16 130 15 33 47 31 18 102 540 16 24 70 48 26 189 41 27 39 256 15 255 47 37 105 20 34 31 118 21 58
internal_value=-0.00156398 -0.00952618 -0.00395603 -0.0198514 0.000815433 0.00674744 -0.00153413 -0.00696883 0.00234228 -0.000729614 0.0144008 0.000431571 -0.0084877 0.000297938 -0.0141559 -0.0203243 -0.00180745 0.000625412 0.00270715 0.0233264 0.00907462 0.00691663 0.0226342 0.0033893 -0.00193461 -0.0254417 0.000652483 -0.00484157 0.0098757 0.0272628
internal_weight=606.916 139.861 91.1285 48.7321 467.055 132.817 334.238 139.439 194.798 155.125 39.6729 151.171 134.976 52.7615 82.2144 56.943 87.4154 80.7323 76.7675 13.3764 125.142 114.977 20.8185 94.1584 68.1276 40.5674 19.3393 46.3195 17.0936 20.3336
internal_count=2450 565 368 197 1885 536 1349 563 786 626 160 610 545 213 332 230 353 326 310 54 505 464 84 380 275 164 78 187 69 82
is_linear=0
shrinkage=0.03


Tree=2
num_leaves=31
num_cat=0
split_feature=0 20 38 7 30 8 9 6 38 5 13 17 32 9 16 20 6 17 28 28 28 16 5 5 28 20 6 24 30 36
split_gain=11.5805 11.2186 9.68766 16.2547 10.5524 10.1183 9.66862 9.54754 9.58508 9.42649 8.47919 10.2623 8.99918 10.9354 13.7601 9.87111 9.16357 7.90813 11.2839 8.21902 9.11146 7.9846 7.9357 7.86801 7.77955 11.2242 7.89207 7.72975 7.50047 7.91684
threshold=0.30782869962149301 1.1150000000000004 -0.20411649395983275 -397570.63709998125 1.1685286923000067 0.56398063350204342 -963907.33699995268 760557.87695001077 1.6444005036293399 0.13604018397980203 -0.1916499999999999 -0.089999999999999955 0.018198013779144793 657917.26775000256 1.6650000000000003 1.9550000000000003 -379113.32964999595 1.0000000180025095e-35 -0.071899999999999992 -0.046249999999999993 0.05025000000000001 1.7050000000000003 0.57600980466810403 -0.47635519131030696 -0.018949999999999998 1.7550000000000001 -1297206.423600055 0.0027525000000000002 1.124025349334109 -0.10706687208832942
decision_type=2 2 2 2 2 2 2 2 2 2 2 2 2 2 2 2 2 2 2 2 2 2 2 2 2 2 2 2 2 2
left_child=1 -1 6 4 -4 9 -2 8 10 -5 17 -12 13 14 -13 -14 -16 18 -3 -20 22 -19 -21 -8 25 27 -26 -10 29 -18
right_child=2 7 3 5 -6 -7 23 -9 24 -11 11 12 15 -15 16 -17 28 21 19 20 -22 -23 -24 -25 26 -27 -28 -29 -30 -31
leaf_value=-0.016743423656550467 -0.037312114541223601 -0.039004145794029672 -0.035372097169089699 -0.020414627602885423 -0.0024473578281592545 -0.029089176027020207 0.037292467600521191 -0.021985893500502937 0.041933920207919043 0.0064389226631516227 0.040510028879799077 -0.044057855921694214 0.0081065612139595133 -0.047903250840461681 -0.034455008587709265 -0.012598089065789971 0.023587467172159773 -0.0049408136311107518 0.044369670867222363 0.0057568472344837586 0.03028493900612331 0.03494479683350174 -0.032525644363489599 0.00035826637528254879 0.0097759905788789674 -0.027054731665861843 -0.025124666477284622 -0.0054346061834532628 0.03234568417615203 -0.016546081549635688
leaf_weight=27.736938536167145 5.6860061585903159 4.2126534283161154 33.615948960185051 15.093156248331068 12.129230156540869 12.337035700678824 5.4522835910320273 13.109109327197073 7.6786387115716952 51.982351928949356 6.2003074139356604 6.4331435710191718 135.55606938898563 5.9321285784244528 4.7090978920459738 24.272352084517479 7.1878689527511623 5.4542013853788402 5.9528283029794684 30.501276448369026 11.431313067674635 22.567397832870483 5.6947315633296958 82.705379277467728 7.4185387045145026 5.6886973679065695 24.734675899147987 4.9508817940950394 9.1791069954633695 11.139473617076876
leaf_count=112 23 17 136 61 49 50 22 53 31 210 25 26 547 24 19 98 29 22 24 123 46 91 23 334 30 23 100 20 37 45
internal_value=-0.00151889 0.00158973 -0.00703459 -0.0124952 -0.026732 -0.00423319 0.000221799 0.00301481 0.00397429 0.000330353 0.00603794 0.00277854 0.00160012 -0.0102823 -0.00432174 0.00493758 0.00363214 0.0139899 0.00755302 0.0113352 0.00705916 0.0270847 -0.000256516 0.00271619 -0.0080744 0.00739092 -0.0169739 0.0232326 0.0103625 -0.000600568
internal_weight=606.743 387.741 219.001 125.158 45.7452 79.4125 93.8437 360.004 346.895 67.0755 296.424 210.61 204.409 44.5808 38.6487 159.828 32.2155 85.8144 57.7928 53.5801 47.6273 28.0216 36.196 88.1577 50.4714 18.3182 32.1532 12.6295 27.5064 18.3273
internal_count=2450 1565 885 506 185 321 379 1453 1400 271 1196 850 825 180 156 645 130 346 233 216 192 113 146 356 204 74 130 51 111 74
is_linear=0
shrinkage=0.03


Tree=3
num_leaves=31
num_cat=0
split_feature=41 12 16 29 31 4 4 28 22 38 11 0 35 4 36 18 38 41 13 17 30 15 38 15 4 22 17 24 35 36
split_gain=11.5554 12.5242 11.5708 11.2396 9.22174 10.2153 9.25134 13.4967 13.3086 9.73531 10.6178 9.93835 8.58106 8.47423 8.07801 7.95179 7.8457 7.80845 8.18415 12.351 7.60095 11.0737 9.15181 7.52364 7.30615 7.79918 9.67631 7.26766 6.87376 6.65597
threshold=0.51356040977680306 0.29855000000000004 1.3250000000000004 0.034950000000000009 0.54398980004479891 0.47411303695873436 1.4856181662646242 0.087550000000000017 -0.059999999999999935 -0.51706363465256466 0.78420000000000012 -0.59102141229737659 -0.10309289307354196 4.9811184114734077 -1.9017889566681432 -0.10999999999999997 -0.69942820838628228 2.8630134288821196 -0.3542499999999999 -1.0000000180025095e-35 1.1330469513658474 -0.17100000000000007 0.26283126431422282 0.40065000000000012 0.45306037653791714 -0.039999999999999918 -0.069999999999999937 -0.0070134999999999998 -0.32379933877134109 0.7470659522898272
decision_type=2 2 2 2 2 2 2 2 2 2 2 2 2 2 2 2 2 2 2 2 2 2 2 2 2 2 2 2 2 2
left_child=2 17 -1 -3 5 16 7 9 14 10 -6 -12 15 20 -8 -10 -4 18 19 -2 22 -22 -7 -23 -20 -26 -27 -16 -17 -13
right_child=1 3 4 -5 6 13 8 -9 12 -11 11 29 -14 -15 27 28 -18 -19 24 -21 21 23 -24 -25 25 26 -28 -29 -30 -31
leaf_value=0.046509335166357253 -0.028521522501179009 -0.040460820797181052 -0.013430670337393529 0.0094251234598619667 -0.021715920685392326 -0.0082366835674805398 0.052108110273431228 0.042982491277428432 0.027586507790780885 0.017779924522324183 0.033797081236995805 -0.0014098316720425942 -0.024589908631954888 0.026522471870180076 -0.017386804090962726 -0.0082795901079189757 0.038500243230994435 0.025085647331562832 -0.045619852294961905 0.035438431091970528 -0.022203817138413021 0.016648677562186368 -0.03054681506868924 -0.01709491314755214 -0.021068986455929778 0.036042701498920207 -0.0053434196426781827 0.025990468518656527 0.026483436914971022 0.039466685676905755
leaf_weight=4.9547547698020926 3.7071646749973288 16.967417225241665 3.7165388613939285 5.1734527349472037 15.37789313495159 59.632626801729202 5.2150733768939999 9.9402559697628003 7.1868572682142249 46.860345497727394 9.6793092340230853 56.526851907372482 19.289905607700348 6.1921610087156287 5.701734110713006 61.711956471204758 7.9347029179334623 7.4317413419485083 4.4441148191690436 9.1785536557435972 13.877918049693106 27.52144230902195 23.207244053483009 7.4107667356729499 28.170288920402527 5.2030699700117102 116.71666397154331 8.4314390271902049 5.4524755030870429 3.7228431254625312
leaf_count=20 15 69 15 21 62 241 21 40 29 189 39 228 78 25 23 249 32 30 18 37 56 111 94 30 114 21 472 34 22 15
internal_value=-0.00147572 -0.00744666 0.00139012 -0.0286796 0.000818802 -0.00508643 0.00429181 0.00938729 -0.0020929 0.00680733 0.000731042 0.00573409 -0.0068007 -0.00738698 0.0204554 -0.0021183 0.0217066 -0.004726 -0.00608143 0.0167285 -0.0090236 0.000308759 -0.0145522 0.00937607 -0.00801241 -0.00684926 -0.00352454 0.00828083 -0.00537772 0.00112744
internal_weight=606.538 196.992 409.545 22.1409 404.59 149.493 255.097 142.107 112.989 132.167 85.3069 69.929 93.6412 137.842 19.3482 74.3513 11.6512 174.852 167.42 12.8857 131.65 48.8101 82.8399 34.9322 154.534 150.09 121.92 14.1332 67.1644 60.2497
internal_count=2450 797 1653 90 1633 604 1029 573 456 533 344 282 378 557 78 300 47 707 677 52 532 197 335 141 625 607 493 57 271 243
is_linear=0
shrinkage=0.03


end of trees

feature_importances:
oi_range_1h=8
mom_8h=8
ob_imbal_chg_1h=7
oi_chg_4h=6
taker_ratio_chg_1h=6
oi_chg_8h=5
oi_accel=5
top_ls=5
top_ls_chg_1h=5
price_vs_bb=5
cvd_f_chg_1h=4
cvd_f_accel=4
taker_ratio_chg_4h=4
glob_ls_chg_4h=4
rsi_14=4
oi_chg_1h=3
taker_imbalance_accel=3
glob_ls=3
ob_bid_ask_ratio=3
liq_total_norm=3
mom_2h=3
oi_chg_2h=2
cvd_f_ratio_1h=2
taker_ratio=2
funding=2
funding_vel_4h=2
ob_imbal=2
liq_ratio=2
mom_1h=2
mom_4h=2
cvd_f_chg_4h=1
top_ls_chg_4h=1
glob_ls_chg_1h=1
ob_imbal_chg_4h=1

parameters:
[boosting: gbdt]
[objective: binary]
[metric: binary_logloss]
[tree_learner: serial]
[device_type: cpu]
[data_sample_strategy: bagging]
[data: ]
[valid: ]
[num_iterations: 500]
[learning_rate: 0.03]
[num_leaves: 31]
[num_threads: 0]
[seed: 0]
[deterministic: 0]
[force_col_wise: 0]
[force_row_wise: 0]
[histogram_pool_size: -1]
[max_depth: -1]
[min_data_in_leaf: 15]
[min_sum_hessian_in_leaf: 0.001]
[bagging_fraction: 0.7]
[pos_bagging_fraction: 1]
[neg_bagging_fraction: 1]
[bagging_freq: 5]
[bagging_seed: 3]
[bagging_by_query: 0]
[feature_fraction: 0.7]
[feature_fraction_bynode: 1]
[feature_fraction_seed: 2]
[extra_trees: 0]
[extra_seed: 6]
[early_stopping_round: 0]
[early_stopping_min_delta: 0]
[first_metric_only: 0]
[max_delta_step: 0]
[lambda_l1: 0.1]
[lambda_l2: 0.1]
[linear_lambda: 0]
[min_gain_to_split: 0]
[drop_rate: 0.1]
[max_drop: 50]
[skip_drop: 0.5]
[xgboost_dart_mode: 0]
[uniform_drop: 0]
[drop_seed: 4]
[top_rate: 0.2]
[other_rate: 0.1]
[min_data_per_group: 100]
[max_cat_threshold: 32]
[cat_l2: 10]
[cat_smooth: 10]
[max_cat_to_onehot: 4]
[top_k: 20]
[monotone_constraints: ]
[monotone_constraints_method: basic]
[monotone_penalty: 0]
[feature_contri: ]
[forcedsplits_filename: ]
[refit_decay_rate: 0.9]
[cegb_tradeoff: 1]
[cegb_penalty_split: 0]
[cegb_penalty_feature_lazy: ]
[cegb_penalty_feature_coupled: ]
[path_smooth: 0]
[interaction_constraints: ]
[verbosity: -1]
[saved_feature_importance_type: 0]
[use_quantized_grad: 0]
[num_grad_quant_bins: 4]
[quant_train_renew_leaf: 0]
[stochastic_rounding: 1]
[linear_tree: 0]
[max_bin: 255]
[max_bin_by_feature: ]
[min_data_in_bin: 3]
[bin_construct_sample_cnt: 200000]
[data_random_seed: 1]
[is_enable_sparse: 1]
[enable_bundle: 1]
[use_missing: 1]
[zero_as_missing: 0]
[feature_pre_filter: 1]
[pre_partition: 0]
[two_round: 0]
[header: 0]
[label_column: ]
[weight_column: ]
[group_column: ]
[ignore_column: ]
[categorical_feature: ]
[forcedbins_filename: ]
[precise_float_parser: 0]
[parser_config_file: ]
[objective_seed: 5]
[num_class: 1]
[is_unbalance: 0]
[scale_pos_weight: 1]
[sigmoid: 1]
[boost_from_average: 1]
[reg_sqrt: 0]
[alpha: 0.9]
[fair_c: 1]
[poisson_max_delta_step: 0.7]
[tweedie_variance_power: 1.5]
[lambdarank_truncation_level: 30]
[lambdarank_norm: 1]
[label_gain: ]
[lambdarank_position_bias_regularization: 0]
[eval_at: ]
[multi_error_top_k: 1]
[auc_mu_weights: ]
[num_machines: 1]
[local_listen_port: 12400]
[time_out: 120]
[machine_list_filename: ]
[machines: ]
[gpu_platform_id: -1]
[gpu_device_id: -1]
[gpu_use_dp: 0]
[num_gpu: 1]

end of parameters

pandas_categorical:null
