tree
version=v4
num_class=1
num_tree_per_iteration=1
label_index=0
max_feature_idx=44
objective=binary sigmoid:1
feature_names=oi_chg_1h oi_chg_2h oi_chg_4h oi_chg_8h oi_range_1h oi_accel cvd_f_chg_1h cvd_f_chg_4h cvd_f_ratio_1h cvd_f_accel cvd_f_vs_spot taker_ratio taker_ratio_chg_1h taker_ratio_chg_4h taker_buy_dom taker_imbalance_accel top_ls top_ls_chg_1h top_ls_chg_4h top_ls_extreme glob_ls glob_ls_chg_1h glob_ls_chg_4h glob_ls_extreme funding funding_vel_4h funding_extreme ob_imbal ob_imbal_chg_1h ob_imbal_chg_4h ob_bid_ask_ratio liq_ratio liq_total_norm liq_ratio_chg_1h liq_cascade mom_1h mom_2h mom_4h mom_8h rsi_14 vol_ratio price_vs_bb div_oi_price div_cvd_price div_taker_price
feature_infos=[-22.77402722562606:31.426086680954946] [-24.903153189258898:31.060395788770691] [-25.264531087385677:28.968010597845726] [-24.001599253309791:29.251564944104459] [0:34.577833949809914] [-46.955265624277445:32.879833977455739] [-12128476.072799981:261738673.42889997] [-13960360.789499998:261590665.2243] [0.3093785787673885:0.68372575619501907] [-261764028.22909996:261895248.48149997] none [0.44800000000000001:2.1617999999999999] [-1.3458000000000001:1.3539000000000001] [-1.1434:1.4352999999999998] [0.3093785787673885:0.68372575619501907] [-2.6280000000000001:1.7932999999999999] [1.1899999999999999:3.54] [-0.27000000000000002:1.1899999999999999] [-0.35000000000000009:1.2599999999999998] [0:1] [0.92000000000000004:2.8199999999999998] [-0.22999999999999998:1.3900000000000001] [-0.33000000000000007:1.4399999999999999] [0:1] [-0.98033499999999996:0.011048000000000001] [-0.73095500000000002:0.73890499999999992] [-1:1] [-0.16769999999999999:0.41599999999999998] [-0.39500000000000002:0.36909999999999998] [-0.46379999999999999:0.42069999999999996] [0.71274480976766286:2.4245695294305811] [-1:1] [0:1299.7211241396037] [-2:2] [0:1] [-7.9909414428987464:7.0907194994786371] [-11.703864997278169:8.0347448425624357] [-11.55943293347873:11.547085201793728] [-12.626262626262619:21.239954075774968] [1.1280955877445962:97.554481521141383] [0.099373893323023668:23.250039987527277] [-4.1234118591492335:3.6151661230387648] [-1:1] [-1:1] [-1:1]
tree_sizes=3360 3418 3435 3441 3414 3407 3453 3402 3426 3446 3429 3435

Tree=0
num_leaves=31
num_cat=0
split_feature=9 4 3 1 17 28 28 13 6 38 8 25 27 32 32 8 6 15 39 28 1 0 0 6 3 38 37 0 27 40
split_gain=19.7194 16.1805 11.5808 9.74653 7.74743 10.186 8.91457 8.66036 10.1911 8.51114 7.50056 11.1299 7.33202 8.50832 7.31823 9.26922 6.92637 8.30138 9.91654 7.03002 7.01381 6.98812 8.86124 7.91458 9.65391 8.13591 6.92482 8.30943 6.75226 6.65604
threshold=-136023.82275000584 4.0090778127901414 -3.4031219654311271 -0.020809318489373171 0.019999999999999688 -0.0084500000000000009 0.023049999999999998 0.099450000000000052 -986502.62814999733 -0.10772960652145612 0.42826640706049851 0.013419000000000002 0.26760000000000006 1.1279023936213124 6.3833845232656836 0.42946654846355392 299862.95784999483 -0.2138499999999999 42.445165770614814 -0.15929999999999997 0.70445036587524223 0.87409786980638959 0.72050916411382515 524021.67364999844 -0.89970527256926769 2.7087243916644526 -1.0000000180025095e-35 -1.3020276571351239 0.10885000000000002 1.4019590761098997
decision_type=2 2 2 2 2 2 2 2 2 2 2 2 2 2 2 2 2 2 2 2 2 2 2 2 2 2 2 2 2 2
left_child=2 12 3 29 5 7 9 8 -4 -7 -8 -12 16 -14 -6 -16 17 18 -2 -19 -20 22 -18 -23 -25 -26 27 -10 -9 -1
right_child=1 -3 4 -5 14 6 10 28 26 -11 11 -13 13 -15 15 -17 21 19 20 -21 -22 23 -24 24 25 -27 -28 -29 -30 -31
leaf_value=-0.13918413553414197 -0.1405151855985452 -0.15523616075367183 -0.20130715035370184 -0.18755890159345084 -0.19280429286942893 -0.12801867979078094 -0.19066038039533631 -0.21869895311280113 -0.19217977253351778 -0.1668407114255723 -0.15889379813153875 -0.20143028589722539 -0.13829915744877147 -0.1840398585830508 -0.19976196261077261 -0.14271229541397096 -0.17967116854096246 -0.166175376130236 -0.16970491914970684 -0.18961576473672148 -0.21547470066775079 -0.15043025218801534 -0.22334325631655172 -0.1364717604383639 -0.20779456336034735 -0.16477798523996845 -0.17865141817675598 -0.14849388018982046 -0.17713477154252705 -0.16970491914970684
leaf_weight=21.085931137204174 7.194023564457896 18.853303134441376 10.170860901474951 6.9459537863731375 31.256792038679123 10.667000457644464 11.907349348068236 7.6901631206274015 4.7133257836103466 10.170860901474951 43.412211164832115 6.2017444521188727 6.6978840082883817 7.6901631206274033 3.9691164493560773 6.6978840082883835 33.737489819526672 11.907349348068236 9.674721345305441 228.72033539414406 4.2171862274408332 15.13225646317005 4.713325783610343 3.721046671271325 9.1785817891359311 6.6978840082883844 28.528024479746822 19.845582246780392 6.6978840082883835 9.674721345305441
leaf_count=85 29 76 41 28 126 43 48 31 19 41 175 25 27 31 16 27 136 48 39 922 17 61 19 15 37 27 115 80 27 39
internal_value=-0.177833 -0.182196 -0.171143 -0.155895 -0.174014 -0.170994 -0.163645 -0.178757 -0.174012 -0.146689 -0.169475 -0.164311 -0.183665 -0.162839 -0.185454 -0.16424 -0.184573 -0.186853 -0.168921 -0.18844 -0.183566 -0.176371 -0.185211 -0.166673 -0.17913 -0.189501 -0.168688 -0.157031 -0.199697 -0.148634
internal_weight=607.771 368.136 239.635 37.7066 201.929 160.005 82.3592 77.6458 63.2578 20.8379 61.5213 49.614 349.282 14.388 41.9238 10.667 334.894 261.714 21.0859 240.628 13.8919 73.1806 38.4508 34.7298 19.5975 15.8765 53.0869 24.5589 14.388 30.7607
internal_count=2450 1484 966 152 814 645 332 313 255 84 248 200 1408 58 169 43 1350 1055 85 970 56 295 155 140 79 64 214 99 58 124
is_linear=0
shrinkage=1


Tree=1
num_leaves=31
num_cat=0
split_feature=35 4 15 39 22 38 41 16 20 6 27 4 35 4 36 1 5 12 11 13 36 35 36 1 36 1 35 25 35 25
split_gain=16.4545 15.3172 14.8499 22.3243 11.4889 13.9045 17.0046 10.5044 10.1799 10.0182 10.195 11.6968 9.45463 8.98031 7.76646 7.69314 7.66108 7.39044 7.42505 7.26193 9.62927 8.33691 7.22101 7.14465 7.22886 7.08997 6.95234 12.1596 11.3299 7.97099
threshold=-0.45153610495045621 2.6948352700547966 -0.2138499999999999 41.196141092864174 0.034999999999999927 -3.907120876028674 -1.7575310215663829 1.4750000000000003 1.9150000000000003 299862.95784999483 0.26545000000000007 1.3348224088717167 0.46835281199704154 1.7086388766898166 -0.31120340322227652 0.086464232737304428 -0.67818067786058467 0.1283 0.92425000000000013 0.092850000000000113 2.0959987162890941 1.5482062558190182 0.24968827930174078 2.9200619446855818 2.2276159654800347 0.90532664718744338 0.20120744710461216 0.0032175000000000007 0.13033562804446455 -0.0012099999999999991
decision_type=2 2 2 2 2 2 2 2 2 2 2 2 2 2 2 2 2 2 2 2 2 2 2 2 2 2 2 2 2 2
left_child=4 2 3 -2 5 13 -7 -8 15 10 12 -12 26 -1 -11 -6 -9 18 -3 -16 21 22 -21 24 25 -5 28 29 -4 -28
right_child=1 17 9 23 8 6 7 16 -10 14 11 -13 -14 -15 19 -17 -18 -19 -20 20 -22 -23 -24 -25 -26 -27 27 -29 -30 -31
leaf_value=0.0066371534907624817 0.026230812301616273 0.029091893319247195 -0.011608502520505101 0.0012167201340348936 -0.027514364646232324 -0.017956108345440765 0.038636296407391815 0.001197552536128948 0.019708875133299299 -0.023614564852492092 0.040822082527475115 -0.023701539007699949 -0.024521296901278234 0.051154854256163118 0.030388909507885514 0.012884415858356162 0.019688645545376169 0.025310141663175134 -0.0095107260544308996 0.024812651329661806 -0.045026288961169232 0.046934986307585407 -0.0071833874752784089 -0.040758302360059923 0.032530677203433937 -0.020601814812568897 -0.0043664852148221677 -0.026806665148329717 -0.049766008057575008 0.026158740536744111
leaf_weight=6.7038223445415523 27.814174115657806 5.9597209990024593 115.74963167309761 42.43255278468132 19.834758684039119 21.084532022476196 11.417571023106573 55.31184358894825 7.9393000453710547 9.6749126464128476 6.4588524550199491 3.9702518582344055 58.48490446805954 11.174758911132811 8.6845567971467954 5.2125141620635977 31.997732222080231 20.360589861869812 17.122638449072838 8.1851534992456418 3.7197056710720053 3.7265277951955786 27.02539399266243 4.7099492251873007 4.7142157256603232 19.335881173610687 16.107391521334648 10.902716398239134 7.4343630820512763 14.372276440262796
leaf_count=27 112 24 467 171 80 85 46 223 32 39 26 16 236 45 35 21 129 82 69 33 15 15 109 19 19 78 65 44 30 58
internal_value=-0.00159296 -0.00468216 -0.00655398 0.00347213 0.00629619 0.0101157 0.0063874 0.0116296 -0.00953855 -0.00993487 -0.0127632 0.0159819 -0.0141272 0.034759 0.00084197 -0.01897 0.00802337 0.0121799 0.000409318 0.0055459 0.000358663 0.00487543 0.000218756 -0.00540168 -0.00279434 -0.00558709 -0.0104025 0.000165397 -0.0139742 0.00996764
internal_weight=607.623 436.946 393.503 99.0068 170.677 137.69 119.812 98.7271 32.9866 294.497 233.48 10.4291 223.051 17.8786 61.0163 25.0473 87.3096 43.4429 23.0824 51.3413 42.6568 38.9371 35.2105 71.1926 66.4826 61.7684 164.566 41.3824 123.184 30.4797
internal_count=2450 1762 1587 399 688 555 483 398 133 1188 942 42 900 72 246 101 352 175 93 207 172 157 142 287 268 249 664 167 497 123
is_linear=0
shrinkage=0.03


Tree=2
num_leaves=31
num_cat=0
split_feature=9 5 28 3 17 5 16 17 13 8 24 0 35 3 3 24 15 33 3 30 15 38 35 5 5 5 21 20 1 1
split_gain=17.8176 15.0189 10.8216 10.362 9.43849 9.09086 8.63388 7.83764 7.59655 7.33188 7.01331 6.95903 6.93652 6.88565 11.8796 6.63159 7.44411 6.60771 8.80383 6.75221 6.4834 6.38051 8.45121 6.80505 6.23317 6.1866 8.50826 6.07393 5.96795 5.81508
threshold=-136023.82275000584 -2.0097489115881877 -0.0084500000000000009 1.0134138963126207 0.019999999999999688 3.2051497895053962 1.3450000000000004 -0.049999999999999926 0.071050000000000016 0.52833576909513602 0.0039280000000000001 2.0762964486337525 0.11624528735321162 -1.2846816211508292 -2.1725460022805949 0.00011850000000000002 1.0000000180025095e-35 -0.016285058078094855 -5.549701596363426 1.2157124512574289 0.20364999999999997 -1.1451497841492628 -0.77429450169967373 -1.7465567751453357 -0.95486458467179947 0.38866457305078433 0.0099999999999998996 1.5750000000000004 0.8595943133591134 0.0949429275836189
decision_type=2 2 2 2 2 2 2 2 2 2 2 2 2 2 2 2 2 2 2 2 2 2 2 2 2 2 2 2 2 2
left_child=2 28 6 12 15 7 -1 8 -3 10 17 27 13 14 -4 16 -5 19 -19 -8 21 -20 23 -23 -16 26 -24 -7 -2 -9
right_child=1 5 3 4 -6 11 9 29 -10 -11 -12 -13 -14 -15 24 -17 -18 18 20 -21 -22 22 25 -25 -26 -27 -28 -29 -30 -31
leaf_value=0.04072107856022484 0.043037989515248336 -0.0098201039781411412 0.020801650301701842 -0.0056564759415521481 -0.027004811871378515 0.014974137268782233 -0.0025662330374296789 -0.0052698619862706544 0.031087071015374446 -0.044632209461223378 -0.027455462200576812 0.028522661814657416 -0.0050174200662424602 0.030249020529943917 -0.040873090704423236 0.038818565190487202 0.039448392631872095 0.029970056820892554 -0.017845708723131529 0.032535398850536391 -0.045079340331597786 0.0032110649236989767 -0.024897994757602255 0.047285228558832347 0.0045889289204610485 0.01749415616060913 0.018341348699041523 -0.029469856336048265 0.0049070333648820264 -0.013478275007753155
leaf_weight=3.9737529158592215 7.2083949446678144 7.4300550818443325 32.806321233510971 23.582933858036998 9.9089929014444333 5.9464514106512087 9.1783196628093737 162.26391644775867 8.6676606684923154 3.7139427512884131 8.9231174737215024 10.940338134765623 11.411702886223791 32.783606097102165 4.7110985964536667 4.7133697569370261 3.7227912694215766 6.2147312611341468 21.824771851301186 10.173741340637205 3.7198583930730811 7.682313397526741 17.105519697070143 5.4644725769758136 5.9550751000642759 6.9461914002895346 5.2141406238079062 4.9548685997724533 7.9348150044679642 152.35059912502766
leaf_count=16 29 30 132 95 40 24 37 655 35 15 36 44 46 132 19 19 15 25 88 41 15 31 69 22 24 28 21 20 32 615
internal_value=-0.00154517 -0.00569703 0.00481012 0.0106864 -0.00151332 -0.0069624 -0.00208072 -0.00820644 0.0120767 -0.0037479 -0.00219442 0.0116889 0.0165503 0.0198196 0.0118342 0.00634168 0.000505041 0.000210444 -0.00383384 0.0158055 -0.00700881 -0.00469095 0.00203374 0.0219757 -0.0154055 -0.00686673 -0.0146262 -0.00503811 0.023418 -0.0092573
internal_weight=607.428 367.697 239.731 129.596 41.9281 352.554 110.135 330.712 16.0977 106.161 102.447 21.8417 87.6678 76.2561 43.4725 32.0191 27.3057 93.5241 74.172 19.3521 67.9573 64.2374 42.4126 13.1468 10.6662 29.2659 22.3197 10.9013 15.1432 314.615
internal_count=2450 1484 966 522 169 1423 444 1335 65 428 413 88 353 307 175 129 110 377 299 78 274 259 171 53 43 118 90 44 61 1270
is_linear=0
shrinkage=0.03


Tree=3
num_leaves=31
num_cat=0
split_feature=9 4 28 38 16 9 13 28 11 40 24 18 9 29 15 40 30 30 18 28 17 35 21 2 37 37 35 30 17 6
split_gain=16.7708 13.8007 10.1725 9.58907 8.11626 7.66364 8.11108 7.47857 6.94796 6.84592 6.624 7.43131 8.5396 7.88731 8.25736 8.66827 6.45893 6.43643 8.68744 6.75535 11.8477 10.1505 17.1882 9.76082 8.54713 9.89563 11.4396 8.991 7.80494 7.72657
threshold=-136023.82275000584 4.0090778127901414 -0.0084500000000000009 -0.19389279974435511 1.3450000000000004 -208727.21755000853 -0.49619999999999992 0.10085000000000002 1.1195000000000002 1.0981769553467129 0.0039280000000000001 0.010000000000000122 -843557.25420000392 -0.17544999999999997 -0.059100000000000034 1.0452007704332542 1.3605573919845939 1.7308544477505341 0.039999999999999931 -0.0048500000000000062 0.079999999999999752 -0.12957565337693985 -1.0000000180025095e-35 -2.43842650335147 1.2151901849550286 -1.274114964141204 0.10248527447043189 1.3000297336776079 -0.029999999999999912 280440.29114998883
decision_type=2 2 2 2 2 2 2 2 2 2 2 2 2 2 2 2 2 2 2 2 2 2 2 2 2 2 2 2 2 2
left_child=2 17 4 7 -1 6 -5 -4 10 -9 11 13 -13 -6 -15 -16 -8 19 -19 20 23 22 -21 -2 25 26 -23 -26 -24 -25
right_child=1 -3 3 5 8 -7 16 9 -10 -11 -12 12 -14 14 15 -17 -18 18 -20 21 -22 24 28 29 27 -27 -28 -29 -30 -31
leaf_value=0.039420246759268703 -0.027876261886076274 0.019316177401132256 0.024895973886358357 0.038972656968182855 -0.032106340162392624 0.02431137152057649 0.0096844388514272396 0.01796872820698061 -0.043534772927775606 -0.016966837022179146 -0.026712971239644022 -0.034944165945101878 -0.0015398798492206381 0.016356751230911803 -0.035347741783424737 0.014281098415252344 -0.013876491944612514 -0.0022371423427991017 0.048227092899975815 -0.034814084536364504 0.0442240166464214 -0.03282544270856648 0.044330581060635393 -0.0064329749829786873 -0.036079315744313903 -0.025180327305028366 0.027720982661937992 0.0079347769862399362 0.0027233350808065189 0.0093779113471336006
leaf_weight=3.9848561435937873 14.846345767378805 18.924162313342094 46.515940099954605 3.7267223000526419 4.2118142694234839 11.179988235235212 15.141151010990141 11.686585456132891 3.696123629808425 8.6877192556858045 8.8991434723138791 9.409233093261717 25.787116020917892 41.696551814675331 6.442112669348715 5.9562634378671646 32.74174876511097 10.17900203168392 4.2300910949707022 10.894571810960768 4.4603223651647559 4.4526262879371625 4.4601088017225257 108.61886593699455 5.1972272545099285 78.152643620967865 7.1863679438829422 19.56132198870182 39.122822970151901 37.183041051030159
leaf_count=16 60 76 187 15 17 45 61 47 15 35 36 38 104 168 26 24 132 41 17 44 18 18 18 439 21 316 29 79 158 150
internal_value=-0.00149844 -0.00552877 0.00466581 0.0103597 -0.00201779 0.00188017 -0.00295861 0.01826 -0.00363802 0.00291537 -0.00212765 0.000206245 -0.0106287 0.00680504 0.00994368 -0.0113422 -0.00635906 -0.00689148 0.0126012 -0.00774456 -0.00340007 -0.0119661 -0.00124221 -0.00476768 -0.0170344 -0.0213355 0.0042204 -0.00129179 0.00714167 -0.00237659
internal_weight=607.233 367.47 239.763 129.68 110.083 62.7896 51.6096 66.8902 106.098 20.3743 102.402 93.5031 35.1963 58.3067 54.0949 12.3984 47.8829 348.545 14.4091 334.136 165.109 169.028 54.4775 160.648 114.55 89.7916 11.639 24.7585 43.5829 145.802
internal_count=2450 1484 966 522 444 253 208 269 428 82 413 377 142 235 218 50 193 1408 58 1350 667 683 220 649 463 363 47 100 176 589
is_linear=0
shrinkage=0.03


Tree=4
num_leaves=31
num_cat=0
split_feature=9 5 3 1 5 20 24 6 13 1 11 11 11 3 2 37 36 18 24 25 27 22 5 24 13 38 39 15 15 39
split_gain=15.783 13.8423 10.0033 8.80049 8.21785 6.74414 7.47156 7.80595 13.6034 10.6119 8.11966 12.9705 8.87479 7.02438 6.73482 6.47727 7.40519 6.44378 6.78748 14.6184 10.4649 10.2891 7.64883 7.74285 8.37759 6.76224 8.64307 8.19876 10.7748 9.55285
threshold=-136023.82275000584 -2.0097489115881877 -3.4031219654311271 -0.020809318489373171 3.2051497895053962 2.1550000000000007 -0.034662999999999992 -535177.45230000082 -0.60119999999999985 -0.63160768381592114 0.76065000000000016 0.83610000000000018 0.59745000000000015 1.1565660182816353 2.7020144904038261 -1.274114964141204 -0.79957378795950651 -0.12499999999999999 -0.010306999999999998 -0.008231999999999998 0.26325000000000004 0.0099999999999998996 0.66225196518172613 -0.027318999999999996 0.26850000000000002 0.70714836413657844 58.555843006808807 0.21940000000000001 0.12010000000000016 47.627661212705625
decision_type=2 2 2 2 2 2 2 2 2 2 2 2 2 2 2 2 2 2 2 2 2 2 2 2 2 2 2 2 2 2
left_child=2 14 3 -1 17 6 13 10 -9 15 12 -12 -8 -4 -2 -10 -17 -3 20 21 22 -20 -19 24 -24 26 -21 28 -27 -29
right_child=1 4 5 -5 -6 -7 7 8 9 -11 11 -13 -14 -15 -16 16 -18 18 19 25 -22 -23 23 -25 -26 27 -28 29 -30 -31
leaf_value=0.025546895372214981 0.035431457470872681 0.011736486473525274 0.034404878482396664 -0.011419363544897967 0.01113822648828959 -0.019238893965027808 0.01534678483363033 0.05563260023943966 -0.0090466859561359435 -0.001053233729762704 0.030472960385106176 -0.029417976609673921 -0.026431041589563987 0.0028658172655771233 -0.0077226918499418533 0.061713017005102039 0.015876126838935811 -0.0092316692286922228 0.063593210558009872 -0.0084708559279527973 0.032448426203565188 0 -0.021270173873516117 -0.035570736726074047 0.024781839238756369 -0.00090226583660941279 -0.033884216266680804 0.050735830579517159 -0.041463246873459064 0.0042089262312538164
leaf_weight=30.884914964437485 10.70071905851364 14.362579837441443 12.445656314492227 6.9445810467004767 21.858105286955833 12.645418331027029 5.4549902975559261 4.4779167324304572 3.9689101874828365 97.236795246601105 8.9482554048299772 4.9515577703714362 24.50855316221714 13.380964413285254 4.4662826955318442 5.2330780774354944 8.699443250894543 61.823530629277229 4.4645868390798551 109.57003472745419 3.9808096438646308 4.4516455829143524 15.573295682668688 27.903034627437592 4.4562495797872534 25.230640351772308 13.588151097297667 4.461432307958602 7.6582967787981024 32.648982912302017
leaf_count=124 43 58 50 28 88 51 22 18 16 392 36 20 99 54 18 21 35 250 18 443 16 18 63 113 18 102 55 18 31 132
internal_value=-0.00145424 -0.00536659 0.00452432 0.0186695 -0.00658436 0.00185188 0.00328597 0.000893244 0.00487966 0.0028332 -0.00989592 0.00886587 -0.0186997 0.018254 0.0225598 0.0239987 0.0336234 -0.00776973 -0.00866978 -0.00534235 -0.0145453 0.0319425 -0.016305 -0.0253276 -0.0108031 -0.0070946 -0.0113243 0.000309945 -0.010535 0.0100044
internal_weight=606.979 367.198 239.781 37.8295 352.031 201.952 189.306 163.48 119.616 115.138 43.8634 13.8998 29.9635 25.8266 15.167 17.9014 13.9325 330.173 315.811 202.074 113.737 8.91623 109.756 47.9326 20.0295 193.158 123.158 69.9994 32.8889 37.1104
internal_count=2450 1484 966 152 1423 814 763 659 482 464 177 56 121 104 61 72 56 1335 1277 817 460 36 444 194 81 781 498 283 133 150
is_linear=0
shrinkage=0.03


Tree=5
num_leaves=31
num_cat=0
split_feature=12 9 30 37 28 38 22 4 18 28 32 16 24 32 25 11 38 41 29 18 21 25 20 37 20 25 16 7 24 16
split_gain=17.6358 9.78448 8.49538 7.81495 9.65861 8.65181 8.19846 7.06928 6.91193 8.22993 7.49115 6.94541 9.32805 10.5915 8.88526 7.19945 6.97452 6.68965 8.68088 12.9107 8.24729 7.81192 7.32317 7.02937 9.44261 9.66158 8.27795 7.24561 6.95366 6.46327
threshold=-0.035099999999999958 -365553.87209999742 0.9873415075201738 -0.1020942080949938 0.048800000000000003 4.4817321261188772 -0.044999999999999922 4.0090778127901414 0.01999999999999991 -0.0084500000000000009 0.028338634464999315 2.1450000000000005 -0.0022809999999999996 7.7943802467851588 -0.0014209999999999997 0.80100000000000005 -3.1796338238039232 -0.6161156299221674 -0.051799999999999999 -0.13499999999999998 -0.044999999999999922 -0.011769 1.175 -3.2328562487778654 1.9350000000000003 -9.600000000000026e-05 2.6750000000000003 -1584315.9016499964 -0.010306999999999998 2.1450000000000005
decision_type=2 2 2 2 2 2 2 2 2 2 2 2 2 2 2 2 2 2 2 2 2 2 2 2 2 2 2 2 2 2
left_child=3 -2 -3 8 5 -5 -6 17 11 -10 -11 -1 13 14 15 -13 -15 18 21 -20 -19 -4 -23 -21 25 26 28 -27 -25 -29
right_child=1 2 7 4 6 -7 -8 -9 9 10 -12 12 -14 16 -16 -17 -18 20 19 23 -22 22 -24 24 -26 27 -28 29 -30 -31
leaf_value=0.024861961689557247 -0.052688207050252199 -0.038844709623430895 -0.015751946840000731 -0.0071614971817396903 0.038740159994718019 0.023159283904509498 0.0058088841827318681 0.015804843151446073 -0.011810947091876462 -0.021011532077662005 0.016511647821982212 0.040209612044000996 -0.014948198155405878 0.020022363462839712 0.052273070652472088 -0.012048992756806962 -0.026683810631562069 -0.052225898872565728 0.04131476395047716 -0.032776326784589999 -0.007419114289994113 0.053543687481966473 0.013053312232854216 0 0.020497947559710284 0.020084026990843634 -0.035964196763653339 -0.011232516065205768 0.033424841782427141 -0.037249318519401053
leaf_weight=40.532840102910995 3.7108141332864752 6.1835296750068656 6.4142576456069937 95.354882597923279 8.452942028641699 9.161923944950102 35.223978370428085 15.952066630125044 22.295354396104813 5.4504559934139243 32.833602666854858 3.974012956023218 11.910311833024023 4.9840139895677567 8.7161580622196215 5.478139191865921 6.4495048671960813 3.709005892276763 5.2069149464368811 8.4164900630712491 170.45208762586117 4.9388889074325588 22.519765451550484 16.05838833749295 11.880567774176596 3.956587851047515 3.7007072120904914 21.736912429332733 8.4215375632047635 14.803955674171446
leaf_count=163 15 25 26 385 34 37 142 64 90 22 132 16 48 20 35 22 26 15 21 34 690 20 91 65 48 16 15 88 34 60
internal_value=-5.09642e-05 -0.0048232 -0.00425028 0.00532194 0.000474969 -0.00445531 0.0123247 -0.00355652 0.0103333 0.00258167 0.0110505 0.0160102 0.00725622 0.0163114 0.0305147 0.00979921 -0.00606682 -0.0045933 0.000590276 -0.00407081 -0.00841998 0.0136124 0.0206129 -0.0068039 -0.00401593 -0.00832382 0.00507332 -0.0177098 0.0115202 -0.0219276
internal_weight=618.881 328.062 324.352 290.818 148.194 104.517 43.6769 318.168 142.624 60.5794 38.2841 82.045 41.5121 29.6018 18.1683 9.45215 11.4335 302.216 128.055 94.1821 174.161 33.8729 27.4587 88.9751 80.5587 68.6781 28.1806 40.4975 24.4799 36.5409
internal_count=2499 1327 1312 1172 598 422 176 1287 574 244 154 330 167 119 73 38 46 1223 518 381 705 137 111 360 326 278 114 164 99 148
is_linear=0
shrinkage=0.03


Tree=6
num_leaves=31
num_cat=0
split_feature=35 27 29 4 18 29 36 35 36 29 27 25 5 40 5 29 30 18 25 22 17 3 18 27 22 38 3 15 40 41
split_gain=14.0591 10.4288 9.3209 7.73165 7.39714 10.1971 6.85917 6.27624 6.57993 8.84941 8.80135 8.5353 7.96228 7.56861 7.29259 7.08691 6.41501 6.16621 6.15774 7.85339 6.06522 8.62843 7.24487 11.1937 6.74096 8.0626 6.63731 6.00138 10.1136 9.66846
threshold=0.29582847224339798 0.010900000000000002 -0.15579999999999997 4.0090778127901414 -0.1300000000000002 0.0055500000000000072 2.0053344834470859 2.4968011707481423 1.0000000180025095e-35 -0.073949999999999988 0.13595000000000004 -9.600000000000026e-05 0.92747205066435756 1.0885446850973668 0.13543490208929868 -0.054799999999999974 1.2293422931490359 -0.11999999999999998 -0.0088574999999999991 -0.024999999999999908 0.019999999999999688 1.598809413795055 -0.014999999999999901 0.25675000000000009 -0.17000000000000001 -6.3951692556343636 8.225216117695668 -0.10644999999999986 1.1689705585302217 -0.040781536465155137
decision_type=2 2 2 2 2 2 2 2 2 2 2 2 2 2 2 2 2 2 2 2 2 2 2 2 2 2 2 2 2 2
left_child=1 2 -1 7 5 -3 20 8 15 -10 11 14 13 -13 -11 -2 -16 -12 -17 -20 24 22 -22 -24 -6 -26 27 28 29 -27
right_child=3 4 -4 -5 6 -7 -8 -9 9 10 17 12 -14 -15 16 18 -18 -19 19 -21 21 -23 23 -25 25 26 -28 -29 -30 -31
leaf_value=-0.044893389395522114 0.0032893189419211694 -0.0023213415016938373 0.011195912021036987 0.014979444104153765 -0.032745328753907059 0.042810478298094597 0.038626153362999113 -0.045298926138180373 -0.017438420758470703 0.024584425356655126 0.030694667326423297 0.025113106024783758 0.045319251924640161 -0.02162199459637543 0.0028042343597078413 0.0031989825419764546 -0.045954738756416362 -0.008319706664471951 -0.00098997468560428907 -0.041982728666685558 0.035995191213193417 -0.026839055977359534 -0.0075406502810735528 0.036219684704202712 0.046928280521353845 0.021998048943077789 -0.029649878121616652 0.0010055183229184463 -0.0034586512526921256 0.0023387688483105669
leaf_weight=7.4004480838775635 9.8731658905744535 7.9390639215707806 3.9706933349370939 13.696716234087942 4.2142318189144126 9.9380770325660688 4.7111991345882407 3.958430513739585 35.078440681099892 4.4549093246459952 3.7285898774862281 8.6393781453371066 8.912606939673422 4.7010189145803443 4.6873725503683072 5.1818584054708507 4.6871158629655838 67.713570192456245 5.682210028171542 18.008781939744949 4.4750805497169486 13.334868043661116 53.221941024065018 5.7250076234340659 3.9770593941211692 61.16003155708313 4.953949660062789 160.49894799292088 37.965855553746223 36.213424548506737
leaf_count=30 40 32 16 55 17 40 19 16 142 18 15 35 36 19 19 21 19 274 23 73 18 54 215 23 16 246 20 649 153 146
internal_value=-4.96517e-05 0.0030594 -0.0251192 -0.00661994 0.00385741 0.0226996 0.00298144 -0.00823983 -0.00738986 -0.00437695 -7.57049e-05 0.011954 0.023447 0.00838259 -0.00635964 -0.0183617 -0.0214857 -0.00620154 -0.0258547 -0.0323223 0.00252842 -0.0049963 -0.000321483 -0.00318564 0.00440841 0.00494257 0.00436206 0.00495157 0.00960484 0.0147274
internal_weight=618.704 419.7 11.3711 199.004 408.329 17.8771 390.452 185.307 181.349 142.603 107.525 36.0824 22.253 13.3404 13.8294 38.746 9.37449 71.4422 28.8729 23.691 385.74 76.7569 63.422 58.9469 308.984 304.769 300.792 295.838 135.339 97.3735
internal_count=2499 1694 46 805 1648 72 1576 750 734 577 435 146 90 54 56 157 38 289 117 96 1557 310 256 238 1247 1230 1214 1194 545 392
is_linear=0
shrinkage=0.03


Tree=7
num_leaves=31
num_cat=0
split_feature=35 27 29 4 39 39 41 1 41 37 7 24 8 18 29 37 20 25 25 9 5 38 6 35 27 8 9 4 0 20
split_gain=13.2391 9.84006 8.84538 7.28164 8.20803 10.5994 8.92468 8.55978 8.0216 9.80796 8.36766 7.1313 7.40754 6.9468 9.56786 6.1946 6.13213 5.92527 6.57374 6.29349 13.4581 7.57754 8.17839 9.46517 7.29435 10.1291 19.3359 7.33139 9.18952 7.08443
threshold=0.29582847224339798 0.010900000000000002 -0.15579999999999997 4.0090778127901414 84.622916025885374 51.331242894688096 0.4597178672098603 -0.95832983360102364 1.143772094545336 1.8619774051458762 -913080.65940000105 -0.017678999999999997 0.56521828371794103 -0.1300000000000002 0.0055500000000000072 0.57166779872439577 1.5350000000000004 0.027835000000000002 0.037226000000000002 -136023.82275000584 -1.9122307024402372 -4.9201740492724459 -1018068.2010000012 -1.0102825048570294 0.12045000000000002 0.44330479694061919 -657392.55289999943 1.6126908739814485 -0.83248363771793998 1.3950000000000002
decision_type=2 2 2 2 2 2 2 2 2 2 2 2 2 2 2 2 2 2 2 2 2 2 2 2 2 2 2 2 2 2
left_child=1 2 -1 4 5 6 -2 -7 11 10 -10 -9 -13 14 -3 -12 -11 19 -19 21 -21 -15 23 29 25 26 -24 28 -26 -23
right_child=3 13 -4 -5 -6 7 -8 8 9 16 15 12 -14 17 -16 -17 -18 18 -20 20 -22 22 24 -25 27 -27 -28 -29 -30 -31
leaf_value=-0.043805352461937126 -0.0044121781634325046 -0.00225298862605038 0.010859315873362986 0.014522277859361384 0.034055674305648709 0.019158172158548422 0.02974789345677669 -0.0053861232519867661 -0.035012203178460655 -0.01212796299334174 -0.016677788635449851 -0.045594496901823114 0 0.033296453237103799 0.041430922967896154 0.01534057497826781 -0.044064483134556229 0.049703312363673702 0.0021341891159623282 0.031269300820626206 -0.0035729934758676044 0.038054616989207042 -0.032508749297194169 -0.036402682449456228 -0.02054690820123501 -0.013040311274264325 0.031752226223547064 0.024966383090386804 0.010782972074486891 -0.0088565484327574624
leaf_weight=7.359822615981102 81.021363228559494 7.9375851750373867 3.9740040749311429 13.707039862871168 3.9594690948724738 5.6732531636953345 7.4125486910343161 8.1290364116430265 5.1743624508380881 12.855661660432817 7.3955400288105073 20.404589042067531 3.946663409471511 8.7350316494703275 9.9638300091028196 19.278356462717056 9.8621747344732267 4.9795460253953916 5.6938116550445557 10.459526613354681 178.31898267567158 3.7337810695171383 5.6901281774044064 8.6472838670015317 9.4357151985168439 30.497545078396797 15.174133092164992 27.865158915519714 69.600911259651184 11.648489117622374
leaf_count=30 328 32 16 55 16 23 30 33 21 52 30 83 16 35 40 78 40 20 23 42 722 15 23 35 38 123 61 112 280 47
internal_value=-4.77767e-05 0.00296805 -0.0244484 -0.00642765 -0.00800213 -0.00895622 -0.00148462 -0.0160409 -0.0183887 -0.0112411 -0.000388157 -0.0302332 -0.0383491 0.00374208 0.0219897 0.00632206 -0.0262559 0.00289243 0.0248609 0.00226079 -0.00161109 0.00610162 0.00476452 -0.0114624 0.00725292 -0.00198679 0.0140123 0.011718 0.00698354 0.00250881
internal_weight=618.535 419.715 11.3338 198.82 185.113 181.154 88.4339 92.7196 87.0464 54.5661 31.8483 32.4803 24.3513 408.381 17.9014 26.6739 22.7178 390.48 10.6734 379.807 188.779 191.028 182.293 24.0296 158.264 51.3618 20.8643 106.902 79.0366 15.3823
internal_count=2499 1694 46 805 750 734 358 376 353 221 129 132 99 1648 72 108 92 1576 43 1533 764 769 734 97 637 207 84 430 318 62
is_linear=0
shrinkage=0.03


Tree=8
num_leaves=31
num_cat=0
split_feature=12 2 9 30 35 18 17 6 2 3 6 2 5 29 8 5 22 5 15 6 5 20 5 27 7 28 15 2 18 15
split_gain=15.343 11.5277 9.23233 7.46929 6.75037 9.72012 11.0819 9.88946 8.42511 9.87183 8.66456 8.54274 8.75847 7.38265 6.76733 6.29389 7.63455 7.4182 6.29073 7.49209 7.35108 6.07244 7.60172 6.06212 7.62445 5.86675 8.53965 8.35996 5.8543 8.46731
threshold=-0.035099999999999958 -5.9209923302086347 -365553.87209999742 0.9873415075201738 -0.099775511321498186 0.0099999999999998996 0.074999999999999969 -986502.62814999733 -0.21186762957647318 1.5268903357528953 -362603.7735999971 -0.5745825590030228 0.27789934819240086 -0.076949999999999991 0.44833958887840114 -0.34104349531308692 -0.010000000000000118 0.037004892371561578 -0.52864999999999973 -110083.86345000005 -1.814608342280549 1.3050000000000004 -0.55731523156946061 0.18645000000000003 -811873.57764999557 -0.15564999999999998 0.29435000000000011 0.77976551903836688 -0.12499999999999999 0.3766000000000001
decision_type=2 2 2 2 2 2 2 2 2 2 2 2 2 2 2 2 2 2 2 2 2 2 2 2 2 2 2 2 2 2
left_child=1 -1 -2 -4 5 -3 7 -7 11 21 -11 12 -6 -12 23 18 -17 -18 19 -16 -20 -10 -23 24 -9 26 27 -5 29 -27
right_child=2 4 3 25 8 6 -8 14 9 10 13 -13 -14 -15 15 16 17 -19 20 -21 -22 22 -24 -25 -26 28 -28 -29 -30 -31
leaf_value=0.039803568318408374 -0.051170704333484439 0.013689052189959106 -0.036585836208447374 0.019023125615390511 0.023908934616697637 -0.032010245314846204 0.036610325207239759 -0.02758327644156117 -0.036297560990371368 -0.021923745368408944 -0.014417937140109704 0.041988654915367435 -0.022163033363970477 0.019236828020708144 -0.024241759772277448 0.038706062103049145 0.022587913662717434 -0.033867676980085436 0.0066879096897146193 0.030912624071185262 -0.035903403241940385 0.02102381347642375 -0.018670690489733438 0.031342500888489819 0.014005546588869535 0.032700109849471443 0.036969608360104558 -0.038076561325669812 -0.0052048010510349482 -0.015051899014753949
leaf_weight=8.2224816381931287 3.6828251481056204 99.186504378914833 6.1091574281454077 5.2013894766569155 7.4443450123071688 9.393612861633299 6.7058166712522498 5.4634769260883358 11.627388238906859 9.3840559720993024 7.6462556272745159 6.6934429556131354 7.2013189941644669 23.292229577898979 3.9664026647806168 4.9737151861190787 3.7279687374830264 4.463250070810318 4.7170094847679129 4.7249251604080182 14.130796283483507 5.4438742101192501 19.281557217240334 9.456441402435301 13.649083420634271 8.6976716220378858 7.6938731819391242 3.9573825746774673 286.9235538393259 5.2137679606676093
leaf_count=33 15 399 25 21 30 38 27 22 47 38 31 27 29 94 16 20 15 18 19 19 57 22 78 38 55 35 31 16 1163 21
internal_value=-4.65485e-05 0.00496279 -0.00450407 -0.00394839 0.00392464 0.00730641 -8.1239e-05 -0.00328955 -0.00241353 -0.0070805 0.00307703 0.0141706 0.00105508 0.010803 0.000602338 -0.00720127 0.00967232 -0.00784937 -0.015382 0.00541151 -0.0251068 -0.0184071 -0.0097607 0.0118116 0.00187921 -0.00330001 0.0138323 -0.00546964 -0.00427401 0.0146097
internal_weight=618.276 290.796 327.48 323.797 282.573 184.559 85.3725 78.6667 98.0145 76.6754 40.3225 21.3391 14.6457 30.9385 69.2731 40.7041 13.1649 8.19122 27.5391 8.69133 18.8478 36.3528 24.7254 28.569 19.1126 317.688 16.8526 9.15877 300.835 13.9114
internal_count=2499 1172 1327 1312 1139 743 344 317 396 310 163 86 59 125 279 164 53 33 111 35 76 147 100 115 77 1287 68 37 1219 56
is_linear=0
shrinkage=0.03


Tree=9
num_leaves=31
num_cat=0
split_feature=0 41 30 7 0 29 27 40 18 22 4 18 22 3 4 1 0 13 5 5 21 0 25 22 21 18 7 4 8 25
split_gain=11.0702 16.7119 13.7088 11.3825 9.86528 9.65128 9.60983 9.40512 8.89453 9.04475 8.72432 6.69934 6.82363 6.82637 6.85014 6.82886 6.08593 6.08529 5.82519 5.797 5.70535 12.417 7.08283 7.02935 6.15698 6.31526 5.82635 8.80663 7.90572 5.9266
threshold=0.089080001361152586 -1.1209173131541499 1.0236569839021097 -571971.92324999708 0.061341298666428574 -0.060199999999999983 0.17085000000000003 0.85915966315524794 -0.054999999999999931 -0.030000000000000134 0.91610769750104526 -0.12499999999999999 0.12500000000000003 8.9143734802866987 4.5896025537748972 -3.1987455249321557 1.9431206818464888 -0.66584999999999994 1.1225840204800943 1.9315664495519749 1.0000000180025095e-35 -0.25767793148877555 0.027835000000000002 0.0099999999999998996 0.044999999999999936 -0.010000000000000118 -931845.84630000021 1.3834970484588374 0.44833958887840114 0.0016880000000000003
decision_type=2 2 2 2 2 2 2 2 2 2 2 2 2 2 2 2 2 2 2 2 2 2 2 2 2 2 2 2 2 2
left_child=2 10 -1 16 11 -5 7 8 -7 -10 -2 -4 13 14 15 19 -3 -17 -11 -13 22 23 26 -22 25 -25 27 29 -28 -19
right_child=1 3 4 5 -6 6 -8 -9 9 18 -12 12 -14 -15 -16 17 -18 20 -20 -21 21 -23 -24 24 -26 -27 28 -29 -30 -31
leaf_value=-0.031179538333983074 -0.013216965714468339 -0.023548910479952143 0.023295300726733959 -0.016111905819467271 0.041134365558780236 0.032320759848151984 -0.0083159120425237935 0.019382317868626202 0.024816244482922772 -0.031419567065807188 0.015656906748076915 -0.041801125735801171 -0.028635238097592785 -0.036335517098550769 0.026234893199562615 0.033169463727736291 0.0093373977115623948 -0.028205586439413378 0.010193980117981201 0.0035190377642510145 0.040768064301971225 -0.0085685575169058906 0.031132111833370845 -0.0042243894438484123 -0.013879390544246736 0.030750699995957809 0.015651913187264586 0.0039347069671782876 -0.00061512180618541275 0.0012653040786083116
leaf_weight=9.798499792814253 11.623254641890524 48.976220011711121 15.177331179380415 45.317362979054451 6.4458497315645209 4.7090360224247005 60.197634652256966 32.923064708709717 4.4545786976814332 13.782168000936506 46.307733878493309 5.4261374324560148 5.9341792762279502 3.701540693640708 11.964536786079405 6.2129212170839301 5.4550553560256949 20.747084021568302 3.6926047056913367 4.4655902683734894 11.670816019177435 18.290864527225494 6.7132167667150489 6.4499264210462597 5.9365324378013602 15.1355077624321 34.795401453971863 27.52621853351593 115.81427192687988 8.4237668067216855
leaf_count=40 47 199 61 184 26 19 244 133 18 56 187 22 24 15 48 25 22 84 15 18 47 74 27 26 24 61 140 111 468 34
internal_value=-4.52301e-05 -0.00449791 0.00357287 -0.0082875 0.00462033 -0.00433583 0.000104981 0.00866578 -0.00448983 -0.0126414 0.00979917 0.00387307 0.00290281 0.00353904 0.00405371 0.00311174 -0.020187 0.00399619 -0.0224475 -0.0212108 0.00330559 0.0116932 0.00103433 0.0212233 0.0127091 0.0201902 3.06663e-05 -0.00814334 0.00313104 -0.0196174
internal_weight=618.069 277.439 340.63 219.508 330.832 165.076 119.759 59.5615 26.6384 21.9294 57.931 324.386 309.209 303.274 299.573 287.608 54.4313 277.717 17.4748 9.89173 271.504 57.4836 214.02 39.1928 27.522 21.5854 207.307 56.6971 150.61 29.1709
internal_count=2499 1124 1375 890 1335 669 485 241 108 89 234 1309 1248 1224 1209 1161 221 1121 71 40 1096 232 864 158 111 87 837 229 608 118
is_linear=0
shrinkage=0.03


Tree=10
num_leaves=31
num_cat=0
split_feature=35 40 31 13 8 31 27 7 11 6 3 9 16 27 2 2 21 8 40 5 27 22 40 36 30 20 20 27 9 27
split_gain=9.06387 11.5455 9.94069 9.01824 8.57035 8.01594 8.90117 10.6804 7.87794 7.4348 9.58459 9.08685 7.35144 9.61499 8.32257 7.54219 7.34192 9.23873 6.79089 7.32179 9.45431 6.85982 8.37174 6.75712 6.50551 6.20251 6.63222 9.99975 6.14924 5.92753
threshold=-0.24853131811159443 0.45582773822889611 -0.16249880645274348 0.24504999999999999 0.41731899043414794 -0.90849047685082007 0.052350000000000008 -961893.7490499987 1.0762000000000003 -1018068.2010000012 -3.7887586020670212 -1095061.5278500055 2.7250000000000005 0.093600000000000017 -1.080944384504928 0.13508972009317335 -0.0099999999999998961 0.47839956397759792 2.4535238723820529 -0.034903290107679556 0.27035000000000003 0.024999999999999915 1.1931627349475875 -1.0193690510827522 1.0236569839021097 1.1950000000000001 1.6050000000000002 0.13145000000000004 -72310.159799993024 0.12555000000000002
decision_type=2 2 2 2 2 2 2 2 2 2 2 2 2 2 2 2 2 2 2 2 2 2 2 2 2 2 2 2 2 2
left_child=3 12 5 9 -4 6 24 -8 16 10 -1 23 13 -2 -15 28 -7 -18 19 20 21 -11 25 29 -3 -23 27 -27 -16 -12
right_child=1 2 4 -5 -6 8 7 -9 -10 18 11 -13 -14 14 15 -17 17 -19 -20 -21 -22 22 -24 -25 -26 26 -28 -29 -30 -31
leaf_value=0.0163036073367431 0.032454999425093271 -0.00067571551826824605 -0.052062644921788824 -0.020788219160243131 -0.0089890769297456194 -0.035733209692306318 -0.031699518678961182 0.0039208442677379513 0.032469175303078128 0.0047182704451189427 0.012395774890742393 -0.042524165486801623 0.043985332493715022 0.022361681262727886 0.0071513590645353011 0.0030834703049312899 0.049109504715639025 -0.0059840771672293866 0.036769632391075398 0.016641275581810389 0.033418429339312175 -0.037440292557667051 -0.040568237772794113 0.023733482472784333 -0.047837693033731185 -0.0093486029870539916 -0.01494036751093028 0.050826720148671317 -0.03725828641171984 -0.0318274409474857
leaf_weight=10.928090631961821 9.6156300008296949 4.6499212533235532 4.1874549388885489 12.368971943855284 194.01336757838726 3.6903431266546241 8.366792291402815 71.833887323737144 12.618749544024466 94.117324307560921 3.9501280784606951 8.3757586628198641 4.7121536880731574 11.128804117441176 3.7264182865619668 23.442154809832573 3.9602901041507748 8.1423690468072873 6.9680279344320288 48.337251871824265 8.4700164794921857 3.7166786640882554 6.9103040397167197 5.2010361701250067 6.3979413211345673 4.6931043714284915 8.1838222146034223 4.964448481798172 9.8267828971147502 7.9149141013622284
leaf_count=44 39 19 17 50 786 15 34 291 51 379 16 34 19 45 15 95 16 33 28 195 34 15 28 21 26 19 33 20 40 32
internal_value=-0.000629108 -0.00349552 -0.00581808 0.00399455 -0.00994003 0.000986924 -0.00332143 0.000132606 0.0148922 0.00539299 -0.00695654 -0.0170897 0.00826802 0.00523025 -0.000203308 -0.00711408 0.000543304 0.0120528 0.00782163 0.00666066 0.00294675 0.000791345 -0.0120573 -0.0042571 -0.028441 -0.00263461 0.0046171 0.0214808 -0.0248653 -0.0168733
internal_weight=615.413 380.313 317.861 235.1 198.201 119.66 91.2485 80.2007 28.4118 222.731 36.3699 25.4418 62.4519 57.7398 48.1242 36.9954 15.793 12.1027 186.361 179.393 131.056 122.586 28.4684 17.0661 11.0479 21.5581 17.8414 9.65755 13.5532 11.865
internal_count=2489 1541 1288 948 803 485 370 325 115 898 147 103 253 234 195 150 64 49 751 723 528 494 115 69 45 87 72 39 55 48
is_linear=0
shrinkage=0.03


Tree=11
num_leaves=31
num_cat=0
split_feature=12 0 3 1 18 27 3 12 2 7 32 38 20 18 4 4 34 40 3 27 4 18 7 8 4 38 1 0 1 38
split_gain=8.89356 7.76314 7.36732 7.04919 9.71937 8.47213 8.4256 9.14875 8.37987 9.6564 8.20718 9.09453 8.02437 9.77439 7.74138 7.58511 7.58493 7.34445 6.49869 9.79334 6.40642 6.73633 6.46912 10.8801 7.32596 6.26048 6.18623 7.77441 6.40935 7.08356
threshold=-0.035099999999999958 1.0340822880652525 0.88035696767833083 0.0949429275836189 -0.12499999999999999 0.27660000000000001 0.62683606181324081 0.14155000000000004 0.17971253529013301 -587702.66329999629 12.032513677899834 -5.0512009576559098 1.3650000000000004 -0.010000000000000118 1.0778003706783836 1.5581324426519385 1.0000000180025095e-35 0.49334988102262961 0.53118966565405279 0.15265000000000004 0.70602506165936563 -0.054999999999999931 -338249.29799999663 0.4403248004802614 0.49296489721344378 -2.5534278958354024 0.83490865049700169 -0.72779766226917497 -1.1880298613023141 -3.9533341210863489
decision_type=2 2 2 2 2 2 2 2 2 2 2 2 2 2 2 2 2 2 2 2 2 2 2 2 2 2 2 2 2 2
left_child=20 3 -3 5 -5 6 7 10 -6 -10 16 -12 17 15 -9 -14 -2 -8 19 -11 22 -22 23 -1 -24 -13 27 28 29 -23
right_child=1 2 -4 4 8 -7 12 14 9 18 11 25 13 -15 -16 -17 -18 -19 -20 -21 21 26 24 -25 -26 -27 -28 -29 -30 -31
leaf_value=-0.030825810136327618 0.0020822533513105202 0.018760633983997993 -0.0027638391072911895 0.024014800900492288 -0.023906090776392774 0.03262595311890016 0.020735004997679506 -0.025915290948281346 -0.031266505249361594 0.039320605585553302 0.021854205408534066 -0.04801872116157014 -0.020746450247607136 0.033677201007895181 -0.004140803800902957 0.031109193783676076 0.03587057413378493 -0.021929646305151207 -0.0088734772986078375 -0.0063233370126449234 0.016404449649824591 0.040392339246026816 0.0083744354705335127 0.029263951254027067 -0.028995506881843852 -0.0073656048606482016 -0.0057803968522085313 0.011770829503897514 -0.012446885725501147 0.0010558625742480249
leaf_weight=3.9594618231058103 35.038372680544853 23.960548058152199 34.798055842518806 6.2201467603445044 44.966931283473969 5.9666691422462454 5.1703074127435711 31.950237229466438 11.289123088121412 7.6408731490373638 4.208857253193858 6.8804399371147165 7.3923880010843295 15.294954419136046 27.911020517349243 3.7247640341520309 7.1741659939289084 11.334131345152853 29.537627771496773 9.0768529474735242 39.526052698493004 4.738521695137023 6.4562472254037884 7.9548391699790955 16.093818500638008 7.1444448828697178 54.379857897758484 87.604518428444862 28.792447835206985 29.014930129051208
leaf_count=16 142 97 141 25 183 24 21 130 46 31 17 28 30 62 113 15 29 46 120 37 159 19 26 32 65 29 220 353 116 117
internal_value=-0.000610788 -0.00389511 0.00597939 -0.00599498 -0.0119573 -0.0021407 -0.00344916 -0.00753166 -0.0141906 -0.00651822 0.000655872 -0.016057 0.00791642 0.0181805 -0.0158365 -0.0029825 0.0079668 -0.00833913 -0.000358995 0.0144697 0.00334857 0.0050666 -0.00871021 0.00895435 -0.018174 -0.0277207 0.00285392 0.00600274 -0.0020343 0.00676978
internal_weight=615.202 336.681 58.7586 277.922 108.732 169.191 163.224 120.308 102.511 57.5445 60.4463 18.2337 42.9165 26.4121 59.8613 11.1172 42.2125 16.5044 46.2554 16.7177 278.521 244.056 34.4644 11.9143 22.5501 14.0249 204.53 150.15 62.5459 33.7535
internal_count=2489 1366 238 1128 442 686 662 488 417 234 245 74 174 107 243 45 171 67 188 68 1123 984 139 48 91 57 825 605 252 136
is_linear=0
shrinkage=0.03


end of trees

feature_importances:
oi_accel=20
ob_imbal=18
top_ls_chg_4h=17
oi_chg_8h=16
oi_range_1h=16
mom_1h=15
oi_chg_2h=14
funding_vel_4h=13
mom_8h=13
cvd_f_accel=12
oi_chg_1h=11
cvd_f_chg_1h=11
taker_imbalance_accel=11
glob_ls=11
cvd_f_ratio_1h=10
glob_ls_chg_4h=10
ob_imbal_chg_1h=10
ob_imbal_chg_4h=10
vol_ratio=10
oi_chg_4h=9
funding=9
ob_bid_ask_ratio=9
cvd_f_chg_4h=8
taker_ratio_chg_4h=8
mom_2h=8
mom_4h=8
taker_ratio=7
top_ls=7
top_ls_chg_1h=7
glob_ls_chg_1h=6
rsi_14=6
price_vs_bb=6
taker_ratio_chg_1h=5
liq_total_norm=5
liq_ratio=2
liq_ratio_chg_1h=1
liq_cascade=1

parameters:
[boosting: gbdt]
[objective: binary]
[metric: binary_logloss]
[tree_learner: serial]
[device_type: cpu]
[data_sample_strategy: bagging]
[data: ]
[valid: ]
[num_iterations: 500]
[learning_rate: 0.03]
[num_leaves: 31]
[num_threads: 0]
[seed: 0]
[deterministic: 0]
[force_col_wise: 0]
[force_row_wise: 0]
[histogram_pool_size: -1]
[max_depth: -1]
[min_data_in_leaf: 15]
[min_sum_hessian_in_leaf: 0.001]
[bagging_fraction: 0.7]
[pos_bagging_fraction: 1]
[neg_bagging_fraction: 1]
[bagging_freq: 5]
[bagging_seed: 3]
[bagging_by_query: 0]
[feature_fraction: 0.7]
[feature_fraction_bynode: 1]
[feature_fraction_seed: 2]
[extra_trees: 0]
[extra_seed: 6]
[early_stopping_round: 0]
[early_stopping_min_delta: 0]
[first_metric_only: 0]
[max_delta_step: 0]
[lambda_l1: 0.1]
[lambda_l2: 0.1]
[linear_lambda: 0]
[min_gain_to_split: 0]
[drop_rate: 0.1]
[max_drop: 50]
[skip_drop: 0.5]
[xgboost_dart_mode: 0]
[uniform_drop: 0]
[drop_seed: 4]
[top_rate: 0.2]
[other_rate: 0.1]
[min_data_per_group: 100]
[max_cat_threshold: 32]
[cat_l2: 10]
[cat_smooth: 10]
[max_cat_to_onehot: 4]
[top_k: 20]
[monotone_constraints: ]
[monotone_constraints_method: basic]
[monotone_penalty: 0]
[feature_contri: ]
[forcedsplits_filename: ]
[refit_decay_rate: 0.9]
[cegb_tradeoff: 1]
[cegb_penalty_split: 0]
[cegb_penalty_feature_lazy: ]
[cegb_penalty_feature_coupled: ]
[path_smooth: 0]
[interaction_constraints: ]
[verbosity: -1]
[saved_feature_importance_type: 0]
[use_quantized_grad: 0]
[num_grad_quant_bins: 4]
[quant_train_renew_leaf: 0]
[stochastic_rounding: 1]
[linear_tree: 0]
[max_bin: 255]
[max_bin_by_feature: ]
[min_data_in_bin: 3]
[bin_construct_sample_cnt: 200000]
[data_random_seed: 1]
[is_enable_sparse: 1]
[enable_bundle: 1]
[use_missing: 1]
[zero_as_missing: 0]
[feature_pre_filter: 1]
[pre_partition: 0]
[two_round: 0]
[header: 0]
[label_column: ]
[weight_column: ]
[group_column: ]
[ignore_column: ]
[categorical_feature: ]
[forcedbins_filename: ]
[precise_float_parser: 0]
[parser_config_file: ]
[objective_seed: 5]
[num_class: 1]
[is_unbalance: 0]
[scale_pos_weight: 1]
[sigmoid: 1]
[boost_from_average: 1]
[reg_sqrt: 0]
[alpha: 0.9]
[fair_c: 1]
[poisson_max_delta_step: 0.7]
[tweedie_variance_power: 1.5]
[lambdarank_truncation_level: 30]
[lambdarank_norm: 1]
[label_gain: ]
[lambdarank_position_bias_regularization: 0]
[eval_at: ]
[multi_error_top_k: 1]
[auc_mu_weights: ]
[num_machines: 1]
[local_listen_port: 12400]
[time_out: 120]
[machine_list_filename: ]
[machines: ]
[gpu_platform_id: -1]
[gpu_device_id: -1]
[gpu_use_dp: 0]
[num_gpu: 1]

end of parameters

pandas_categorical:null
