tree
version=v4
num_class=1
num_tree_per_iteration=1
label_index=0
max_feature_idx=44
objective=binary sigmoid:1
feature_names=oi_chg_1h oi_chg_2h oi_chg_4h oi_chg_8h oi_range_1h oi_accel cvd_f_chg_1h cvd_f_chg_4h cvd_f_ratio_1h cvd_f_accel cvd_f_vs_spot taker_ratio taker_ratio_chg_1h taker_ratio_chg_4h taker_buy_dom taker_imbalance_accel top_ls top_ls_chg_1h top_ls_chg_4h top_ls_extreme glob_ls glob_ls_chg_1h glob_ls_chg_4h glob_ls_extreme funding funding_vel_4h funding_extreme ob_imbal ob_imbal_chg_1h ob_imbal_chg_4h ob_bid_ask_ratio liq_ratio liq_total_norm liq_ratio_chg_1h liq_cascade mom_1h mom_2h mom_4h mom_8h rsi_14 vol_ratio price_vs_bb div_oi_price div_cvd_price div_taker_price
feature_infos=[-25.146191515919714:7.461517363875414] [-26.062648604218598:7.1953164790600876] [-25.977021815591893:13.064067267490142] [-26.612371307716121:15.566360791470778] [0:7.8374694944043588] [-25.349896872775879:23.92186224415822] [-341765317.01160002:2466333668.1173] [-349841049.27419996:2472602020.1519003] [0.32510129796119341:0.6788801136826369] [-2464016079.5180001:2463735597.1287999] none [0.48170000000000002:2.1141000000000001] [-1.2363:1.4784999999999999] [-1.4208000000000001:1.0799000000000001] [0.32510129796119341:0.6788801136826369] [-2.7147999999999999:2.3121] [0.78000000000000003:1.75] [-0.59999999999999998:0.54000000000000004] [-0.71000000000000008:0.56000000000000005] [0:1] [1.8300000000000001:3.3300000000000001] [-1.1800000000000002:1.5499999999999998] [-1.1299999999999999:1.6200000000000001] none [-0.023755999999999999:0.011135000000000001] [-0.025061:0.021491] [-1:1] [-0.16539999999999999:0.1545] [-0.1633:0.1636] [-0.21579999999999999:0.2039] [0.71608051050338273:1.3654494677919071] [-1:1] [0:6689.6831956437909] [-2:2] [0:1] [-23.258969766053305:4.4378323626234506] [-23.915757477066713:5.5242012626745662] [-23.882704317132774:8.0424389285480338] [-24.257721326602621:9.2950841393931292] [4.0139050826963683:95.406308893475696] [0.15983433845547418:11.002567256527625] [-4.2907953130443222:3.726922508388363] [-1:1] [-1:1] [-1:1]
tree_sizes=3380

Tree=0
num_leaves=31
num_cat=0
split_feature=15 28 13 29 20 33 11 29 3 12 11 29 7 5 37 33 2 17 7 27 36 1 1 20 3 9 15 29 37 21
split_gain=16.4493 14.6223 11.6112 10.6073 10.4857 10.1632 9.65506 9.4473 8.5039 7.4556 7.36069 7.32189 9.8011 7.28303 8.39764 12.3715 10.8613 10.645 9.5886 9.57953 8.59206 7.18558 6.92883 6.48727 6.92725 9.39539 9.3765 9.50425 8.38783 8.28838
threshold=-0.47875000000000018 0.0077500000000000043 -0.15514999999999998 -0.023949999999999996 2.6350000000000002 0.32592972014828153 0.68265000000000009 0.027650000000000004 -2.8184698382541002 -0.11120000000000001 1.0397000000000003 0.026800000000000001 -6760982.9705000008 2.2076094325241939 1.7675091887153884 0.051978296710503254 -1.0000000180025095e-35 1.0000000180025095e-35 7685337.1595000038 0.038050000000000007 -0.96057982708450662 -0.16422235486107103 -1.0395390512996425 2.2950000000000004 0.4074672541400482 -1796451.0994000433 0.31720000000000009 1.0000000180025095e-35 0.1995191017296172 0.019999999999999688
decision_type=2 2 2 2 2 2 2 2 2 2 2 2 2 2 2 2 2 2 2 2 2 2 2 2 2 2 2 2 2 2
left_child=8 2 6 5 13 -4 -2 22 -1 -7 -10 -8 -13 14 16 -16 17 19 -18 -3 -21 -22 -6 -5 28 -26 27 -27 29 -25
right_child=1 4 3 23 7 9 11 -9 10 -11 -12 12 -14 -15 15 -17 18 -19 -20 20 21 -23 -24 24 25 26 -28 -29 -30 -31
leaf_value=-0.094071375607715446 -0.13670900103698228 -0.14673659337651784 -0.13161230635648438 -0.089685410490871864 -0.15451072010904748 -0.067892588755308791 -0.0858993726883297 -0.089491464335919216 -0.12756831828475537 -0.11470238447590346 -0.15534063899979811 -0.085675987754185806 -0.14855769680395095 -0.16287977707944201 -0.059998560591476131 -0.13248916129030039 -0.15163130662741553 -0.094459835484417373 -0.11946681851636258 -0.1460027692444891 -0.083509952709889756 -0.12829888505013443 -0.1124501859120858 -0.10434777440872613 -0.1524689493011572 -0.067960452289500553 -0.13848797016848155 -0.11868715389391019 -0.086156844066396898 -0.1378318672598588
leaf_weight=4.9836301803588858 4.4852671623229972 12.459075450897219 35.63295578956604 17.941068649291992 3.986904144287112 3.9869041442871085 39.619859933853149 15.698435068130491 34.387048244476318 11.711530923843382 11.711530923843382 4.485267162322998 4.2360856533050519 4.4852671623229972 4.2360856533050519 3.9869041442871094 21.678791284561157 13.206619977951048 13.954164505004881 4.9836301803588858 8.4721713066101056 4.9836301803588894 24.918150901794434 32.642777681350708 6.7279007434844997 5.7311747074127215 7.4754452705383292 7.4754452705383301 17.193524122238159 8.2229897975921613
leaf_count=20 18 50 143 72 16 16 159 63 138 47 47 18 17 18 17 16 87 53 56 20 34 20 100 131 27 23 30 30 69 33
internal_value=-0.114825 -0.112476 -0.10745 -0.111623 -0.120066 -0.122732 -0.0953095 -0.108172 -0.130701 -0.102784 -0.134762 -0.0913686 -0.115918 -0.125838 -0.123862 -0.0952991 -0.126866 -0.116826 -0.139168 -0.126516 -0.112916 -0.100299 -0.118266 -0.106078 -0.109579 -0.121926 -0.112 -0.0967144 -0.103695 -0.111199
internal_weight=395.7 344.618 207.568 154.742 137.05 51.3314 52.8265 44.6035 51.0822 15.6984 46.0986 48.3412 8.72135 92.4463 87.9611 8.22299 79.7381 44.1051 35.633 30.8985 18.4394 13.4558 28.9051 103.41 85.4693 27.41 20.6821 13.2066 58.0593 40.8658
internal_count=1588 1383 833 621 550 206 212 179 205 63 185 194 35 371 353 33 320 177 143 124 74 54 116 415 343 110 83 53 233 164
is_linear=0
shrinkage=1


end of trees

feature_importances:
ob_imbal_chg_4h=4
oi_chg_2h=2
oi_chg_8h=2
cvd_f_chg_4h=2
taker_ratio=2
taker_imbalance_accel=2
glob_ls=2
liq_ratio_chg_1h=2
mom_4h=2
oi_chg_4h=1
oi_accel=1
cvd_f_accel=1
taker_ratio_chg_1h=1
taker_ratio_chg_4h=1
top_ls_chg_1h=1
glob_ls_chg_1h=1
ob_imbal=1
ob_imbal_chg_1h=1
mom_2h=1

parameters:
[boosting: gbdt]
[objective: binary]
[metric: binary_logloss]
[tree_learner: serial]
[device_type: cpu]
[data_sample_strategy: bagging]
[data: ]
[valid: ]
[num_iterations: 500]
[learning_rate: 0.03]
[num_leaves: 31]
[num_threads: 0]
[seed: 0]
[deterministic: 0]
[force_col_wise: 0]
[force_row_wise: 0]
[histogram_pool_size: -1]
[max_depth: -1]
[min_data_in_leaf: 15]
[min_sum_hessian_in_leaf: 0.001]
[bagging_fraction: 0.7]
[pos_bagging_fraction: 1]
[neg_bagging_fraction: 1]
[bagging_freq: 5]
[bagging_seed: 3]
[bagging_by_query: 0]
[feature_fraction: 0.7]
[feature_fraction_bynode: 1]
[feature_fraction_seed: 2]
[extra_trees: 0]
[extra_seed: 6]
[early_stopping_round: 0]
[early_stopping_min_delta: 0]
[first_metric_only: 0]
[max_delta_step: 0]
[lambda_l1: 0.1]
[lambda_l2: 0.1]
[linear_lambda: 0]
[min_gain_to_split: 0]
[drop_rate: 0.1]
[max_drop: 50]
[skip_drop: 0.5]
[xgboost_dart_mode: 0]
[uniform_drop: 0]
[drop_seed: 4]
[top_rate: 0.2]
[other_rate: 0.1]
[min_data_per_group: 100]
[max_cat_threshold: 32]
[cat_l2: 10]
[cat_smooth: 10]
[max_cat_to_onehot: 4]
[top_k: 20]
[monotone_constraints: ]
[monotone_constraints_method: basic]
[monotone_penalty: 0]
[feature_contri: ]
[forcedsplits_filename: ]
[refit_decay_rate: 0.9]
[cegb_tradeoff: 1]
[cegb_penalty_split: 0]
[cegb_penalty_feature_lazy: ]
[cegb_penalty_feature_coupled: ]
[path_smooth: 0]
[interaction_constraints: ]
[verbosity: -1]
[saved_feature_importance_type: 0]
[use_quantized_grad: 0]
[num_grad_quant_bins: 4]
[quant_train_renew_leaf: 0]
[stochastic_rounding: 1]
[linear_tree: 0]
[max_bin: 255]
[max_bin_by_feature: ]
[min_data_in_bin: 3]
[bin_construct_sample_cnt: 200000]
[data_random_seed: 1]
[is_enable_sparse: 1]
[enable_bundle: 1]
[use_missing: 1]
[zero_as_missing: 0]
[feature_pre_filter: 1]
[pre_partition: 0]
[two_round: 0]
[header: 0]
[label_column: ]
[weight_column: ]
[group_column: ]
[ignore_column: ]
[categorical_feature: ]
[forcedbins_filename: ]
[precise_float_parser: 0]
[parser_config_file: ]
[objective_seed: 5]
[num_class: 1]
[is_unbalance: 0]
[scale_pos_weight: 1]
[sigmoid: 1]
[boost_from_average: 1]
[reg_sqrt: 0]
[alpha: 0.9]
[fair_c: 1]
[poisson_max_delta_step: 0.7]
[tweedie_variance_power: 1.5]
[lambdarank_truncation_level: 30]
[lambdarank_norm: 1]
[label_gain: ]
[lambdarank_position_bias_regularization: 0]
[eval_at: ]
[multi_error_top_k: 1]
[auc_mu_weights: ]
[num_machines: 1]
[local_listen_port: 12400]
[time_out: 120]
[machine_list_filename: ]
[machines: ]
[gpu_platform_id: -1]
[gpu_device_id: -1]
[gpu_use_dp: 0]
[num_gpu: 1]

end of parameters

pandas_categorical:null
