tree
version=v4
num_class=1
num_tree_per_iteration=1
label_index=0
max_feature_idx=44
objective=binary sigmoid:1
feature_names=oi_chg_1h oi_chg_2h oi_chg_4h oi_chg_8h oi_range_1h oi_accel cvd_f_chg_1h cvd_f_chg_4h cvd_f_ratio_1h cvd_f_accel cvd_f_vs_spot taker_ratio taker_ratio_chg_1h taker_ratio_chg_4h taker_buy_dom taker_imbalance_accel top_ls top_ls_chg_1h top_ls_chg_4h top_ls_extreme glob_ls glob_ls_chg_1h glob_ls_chg_4h glob_ls_extreme funding funding_vel_4h funding_extreme ob_imbal ob_imbal_chg_1h ob_imbal_chg_4h ob_bid_ask_ratio liq_ratio liq_total_norm liq_ratio_chg_1h liq_cascade mom_1h mom_2h mom_4h mom_8h rsi_14 vol_ratio price_vs_bb div_oi_price div_cvd_price div_taker_price
feature_infos=[-5.2479996321149969:6.0344327834873646] [-8.2550606033391141:7.5755569555546964] [-8.8723521747486203:8.1018795514217636] [-10.020049210618598:9.3970718117338592] [0:12.27633792213747] [-7.3061347548634359:6.6467736554367329] [-7208100.0991999954:201692792.52070001] [-15887308.0089:202343106.00189999] [0.2643232905679207:0.66851734935162377] [-202037255.4122:201425084.31140003] none [0.35930000000000001:2.0167000000000002] [-1.1280999999999999:0.96449999999999991] [-1.1723999999999999:1.1366000000000001] [0.2643232905679207:0.66851734935162377] [-2.0926:1.7249999999999999] [1.0900000000000001:2.6899999999999999] [-0.29000000000000004:0.85000000000000009] [-0.42999999999999994:0.89999999999999991] [0:1] [0.83999999999999997:2.3199999999999998] [-0.15999999999999992:0.23999999999999999] [-0.21000000000000019:0.42999999999999994] [0:1] [-0.034707000000000002:0.010907999999999999] [-0.035364:0.035699000000000002] [-1:1] [-0.18360000000000001:0.30909999999999999] [-0.30570000000000003:0.49270000000000003] [-0.32820000000000005:0.2843] [0.6896940651421164:1.8947958124743804] [-1:1] [0:1384.8907178075206] [-2:2] [0:1] [-5.8381502890173405:5.1475634866163356] [-9.3063583815028892:6.094182825484773] [-10.734463276836159:7.4898785425101311] [-10.169491525423723:7.4898785425101311] [10.139493025348742:96.094592512710037] [0.13372754565785513:16.047300535737946] [-3.9109617987712122:3.5934227452430179] [-1:1] [-1:1] [-1:1]
tree_sizes=3397 3388

Tree=0
num_leaves=31
num_cat=0
split_feature=27 17 38 16 25 39 20 0 39 27 15 37 15 39 13 37 31 25 8 6 40 27 39 1 12 40 2 4 16 16
split_gain=17.2617 8.40963 11.5424 11.9485 8.00133 9.99478 6.69944 6.8313 9.64586 6.99266 13.1842 9.43927 9.50801 7.74395 7.29703 6.87763 6.62483 6.57628 6.70987 6.39346 6.22289 7.06519 6.06951 5.90516 6.46427 5.68422 7.12192 6.92614 5.48408 5.41327
threshold=0.18075000000000002 -0.044999999999999922 -2.3832328798112754 1.5550000000000004 -0.0054994999999999983 63.403889245025546 1.9350000000000003 0.37927253277716405 32.550599639447469 0.081550000000000025 0.50325000000000009 0.33461761106426963 0.22989999999999997 45.457701024407868 0.33610000000000007 -0.22520599681495887 -0.97103572897152934 0.0065055000000000017 0.40814567251159456 46952.549050003297 0.8451874144018745 0.20600000000000004 45.457701024407868 0.27954477655617321 -0.093749999999999931 0.75859399270118233 -0.20191687450226145 0.63140676555309982 1.7850000000000004 1.4450000000000001
decision_type=2 2 2 2 2 2 2 2 2 2 2 2 2 2 2 2 2 2 2 2 2 2 2 2 2 2 2 2 2 2
left_child=1 -1 3 -3 -2 20 7 9 -9 10 25 14 13 -13 15 17 -8 18 -11 -15 23 -22 -17 24 -6 26 -4 -27 -18 -10
right_child=4 2 6 -5 5 -7 16 8 29 11 -12 12 -14 19 -16 22 28 -19 -20 -21 21 -23 -24 -25 -26 27 -28 -29 -30 -31
leaf_value=-0.12321858468277203 -0.057217740461372374 -0.10720628853922971 -0.077077789695408835 -0.05673985016660222 -0.12530471583275118 -0.050100941342185214 -0.094778688824862095 -0.15450554736113919 -0.089984020040016877 -0.062335122743093919 -0.12331380407242915 -0.060758492879009203 -0.059906274129368942 -0.12076609227007355 -0.073687630860526127 -0.14740284836325485 -0.10330032165887963 -0.13997431194866558 -0.10420974041087006 -0.084384560833214994 -0.087016202497607775 -0.13827833779226406 -0.11223496164469271 -0.053423694821051949 -0.075735592088722131 -0.038623228492012114 -0.11162107971574209 -0.080420820072320195 -0.1477111261845418 -0.11056935123592758
leaf_weight=14.464084506034849 10.473992228507994 6.7332807183265713 10.473992228507997 10.723372995853422 3.9900922775268555 4.9876153469085684 6.2345191836357143 3.7407115101814261 15.212226808071135 3.7407115101814261 8.2295653223991376 3.9900922775268617 7.98018455505371 10.972753763198854 4.9876153469085684 7.2320422530174282 3.9900922775268537 3.9900922775268546 33.167642056941986 6.9826614856719962 4.2394730448722822 5.2369961142539978 12.219657599925993 3.9900922775268546 5.4863768815994316 4.2394730448722866 10.723372995853422 24.688695967197418 7.481423020362854 44.888538122177124
leaf_count=58 42 27 42 43 16 20 25 15 61 15 33 16 32 44 20 29 16 16 133 28 17 21 49 16 22 17 43 99 30 180
internal_value=-0.0983546 -0.101051 -0.0997609 -0.0763087 -0.0795707 -0.0881815 -0.101524 -0.100061 -0.108313 -0.0966473 -0.0884708 -0.101631 -0.0877434 -0.0981363 -0.108046 -0.110973 -0.119219 -0.103877 -0.0997954 -0.106446 -0.096769 -0.11514 -0.125641 -0.0836011 -0.0969703 -0.0826548 -0.0946678 -0.0740029 -0.132688 -0.105302
internal_weight=305.491 267.087 252.623 17.4567 38.4046 27.9306 235.166 217.46 63.8415 153.619 58.3551 95.2635 29.9257 21.9455 65.3378 60.3501 17.706 40.8984 36.9084 17.9554 22.943 9.47647 19.4517 13.4666 9.47647 50.1255 21.1974 28.9282 11.4715 60.1008
internal_count=1225 1071 1013 70 154 112 943 872 256 616 234 382 120 88 262 242 71 164 148 72 92 38 78 54 38 201 85 116 46 241
is_linear=0
shrinkage=1


Tree=1
num_leaves=31
num_cat=0
split_feature=30 25 39 25 13 38 39 5 12 39 6 14 13 1 6 5 38 24 41 2 5 4 3 25 27 35 6 11 38 11
split_gain=16.4707 6.86739 9.20664 6.21712 6.93567 6.1646 5.91722 8.26449 13.4271 7.42222 10.4156 7.28604 8.44667 8.39769 6.85206 6.30518 7.19657 6.00138 10.7093 7.1591 6.93812 11.381 8.60435 6.34567 8.49714 7.12214 14.09 5.92118 7.42154 5.83087
threshold=1.4360198078313386 -0.0054994999999999983 63.403889245025546 0.0015370000000000004 0.077999999999999917 -3.2068365979029285 39.513177034657133 -1.6923251049984487 -0.41025 44.183422815872511 -395539.01029999997 0.47113549682573252 -0.07585000000000007 -1.2210100784278863 -783788.54865000013 0.12115798142325886 -0.58618730657365437 -0.0018424999999999997 0.16082749300098986 1.0376485409607896 0.25806884396928359 0.46117762899172693 1.4333636396847818 -0.0010730000000000004 0.047850000000000011 -0.065423680932752401 372156.26605000353 0.9851000000000002 0.34002044053514929 1.1614000000000002
decision_type=2 2 2 2 2 2 2 2 2 2 2 2 2 2 2 2 2 2 2 2 2 2 2 2 2 2 2 2 2 2
left_child=5 -2 3 -3 -5 -1 11 -8 -9 10 -10 13 -13 -7 -11 -14 -17 18 -16 20 21 -19 27 -22 -25 -26 -27 -23 -29 -21
right_child=1 2 -4 4 -6 6 7 8 9 14 -12 12 15 -15 17 16 -18 19 -20 29 23 22 -24 24 25 26 -28 28 -30 -31
leaf_value=0.018999558474234724 0.039335915144023077 -0.01055709191118263 0.047973342026652578 0.037201452917651187 -0.011244568813962633 -0.031652473907088134 0.020836773666428464 -0.03201948991175995 -0.022334451594228651 0.022200879671306371 0.028723643263164556 -0.045270895508242433 0.0039619266723089292 0.011890180315660749 0.010518446235022939 -0.03998010239561612 0.0025950141053782149 0.025943396324742865 -0.033409216156792113 0.019304880131843491 -0.015689635849332955 -0.0010300878838600692 -0.055386951298391607 0.047869762073206312 -0.032809100297379393 0.033717489859784906 -0.018792221489993183 -0.048213030931666012 0 -0.0046400389528093609
leaf_weight=12.474752664566038 10.990502774715422 12.964211404323583 4.9968636035919181 7.2317696064710599 3.9906113743782043 4.9848712533712414 15.708358004689215 12.216735705733297 4.4859159886837032 9.7289198637008649 15.962966933846472 8.4713098406791669 13.212621733546259 18.198725327849388 7.4803964346647289 9.4633297324180585 5.4836782664060584 4.986792489886283 14.21095824241638 22.691423833370209 11.717341721057883 13.961884886026388 5.7320590913295737 4.4894095659256079 3.9881903827190355 10.475683078169832 7.9775571227073661 7.4823092073202115 4.7392695248126984 14.957749679684637
leaf_count=50 44 52 20 29 16 20 63 49 18 39 64 34 53 73 30 38 22 20 57 91 47 56 23 18 16 42 32 30 19 60
internal_value=0.00122758 0.0191092 0.0112811 0.00341074 0.0197622 -0.00147526 -0.00250455 3.67237e-05 -0.00180006 0.000436351 0.0173227 -0.0107405 -0.0190613 0.00230318 -0.00194093 -0.0109382 -0.0242476 -0.00371952 -0.0181441 -0.000915433 -0.00626348 -0.0155606 -0.0222001 0.00255353 0.0106306 0.00286851 0.0108763 -0.0146377 -0.0298049 0.00972517
internal_weight=305.457 40.174 29.1835 24.1866 11.2224 265.283 252.808 192.994 177.286 165.069 20.4489 59.8145 36.6309 23.1836 144.62 28.1596 14.947 134.891 21.6914 113.2 75.5505 36.9023 31.9155 38.6482 26.9308 22.4414 18.4532 26.1835 12.2216 37.6492
internal_count=1225 161 117 97 45 1064 1014 774 711 662 82 240 147 93 580 113 60 541 87 454 303 148 128 155 108 90 74 105 49 151
is_linear=0
shrinkage=0.03


end of trees

feature_importances:
rsi_14=7
funding_vel_4h=5
cvd_f_chg_1h=4
ob_imbal=4
mom_8h=4
oi_accel=3
taker_ratio_chg_4h=3
top_ls=3
oi_chg_2h=2
oi_chg_4h=2
oi_range_1h=2
taker_ratio=2
taker_ratio_chg_1h=2
taker_imbalance_accel=2
mom_4h=2
vol_ratio=2
oi_chg_1h=1
oi_chg_8h=1
cvd_f_ratio_1h=1
taker_buy_dom=1
top_ls_chg_1h=1
glob_ls=1
funding=1
ob_bid_ask_ratio=1
liq_ratio=1
mom_1h=1
price_vs_bb=1

parameters:
[boosting: gbdt]
[objective: binary]
[metric: binary_logloss]
[tree_learner: serial]
[device_type: cpu]
[data_sample_strategy: bagging]
[data: ]
[valid: ]
[num_iterations: 500]
[learning_rate: 0.03]
[num_leaves: 31]
[num_threads: 0]
[seed: 0]
[deterministic: 0]
[force_col_wise: 0]
[force_row_wise: 0]
[histogram_pool_size: -1]
[max_depth: -1]
[min_data_in_leaf: 15]
[min_sum_hessian_in_leaf: 0.001]
[bagging_fraction: 0.7]
[pos_bagging_fraction: 1]
[neg_bagging_fraction: 1]
[bagging_freq: 5]
[bagging_seed: 3]
[bagging_by_query: 0]
[feature_fraction: 0.7]
[feature_fraction_bynode: 1]
[feature_fraction_seed: 2]
[extra_trees: 0]
[extra_seed: 6]
[early_stopping_round: 0]
[early_stopping_min_delta: 0]
[first_metric_only: 0]
[max_delta_step: 0]
[lambda_l1: 0.1]
[lambda_l2: 0.1]
[linear_lambda: 0]
[min_gain_to_split: 0]
[drop_rate: 0.1]
[max_drop: 50]
[skip_drop: 0.5]
[xgboost_dart_mode: 0]
[uniform_drop: 0]
[drop_seed: 4]
[top_rate: 0.2]
[other_rate: 0.1]
[min_data_per_group: 100]
[max_cat_threshold: 32]
[cat_l2: 10]
[cat_smooth: 10]
[max_cat_to_onehot: 4]
[top_k: 20]
[monotone_constraints: ]
[monotone_constraints_method: basic]
[monotone_penalty: 0]
[feature_contri: ]
[forcedsplits_filename: ]
[refit_decay_rate: 0.9]
[cegb_tradeoff: 1]
[cegb_penalty_split: 0]
[cegb_penalty_feature_lazy: ]
[cegb_penalty_feature_coupled: ]
[path_smooth: 0]
[interaction_constraints: ]
[verbosity: -1]
[saved_feature_importance_type: 0]
[use_quantized_grad: 0]
[num_grad_quant_bins: 4]
[quant_train_renew_leaf: 0]
[stochastic_rounding: 1]
[linear_tree: 0]
[max_bin: 255]
[max_bin_by_feature: ]
[min_data_in_bin: 3]
[bin_construct_sample_cnt: 200000]
[data_random_seed: 1]
[is_enable_sparse: 1]
[enable_bundle: 1]
[use_missing: 1]
[zero_as_missing: 0]
[feature_pre_filter: 1]
[pre_partition: 0]
[two_round: 0]
[header: 0]
[label_column: ]
[weight_column: ]
[group_column: ]
[ignore_column: ]
[categorical_feature: ]
[forcedbins_filename: ]
[precise_float_parser: 0]
[parser_config_file: ]
[objective_seed: 5]
[num_class: 1]
[is_unbalance: 0]
[scale_pos_weight: 1]
[sigmoid: 1]
[boost_from_average: 1]
[reg_sqrt: 0]
[alpha: 0.9]
[fair_c: 1]
[poisson_max_delta_step: 0.7]
[tweedie_variance_power: 1.5]
[lambdarank_truncation_level: 30]
[lambdarank_norm: 1]
[label_gain: ]
[lambdarank_position_bias_regularization: 0]
[eval_at: ]
[multi_error_top_k: 1]
[auc_mu_weights: ]
[num_machines: 1]
[local_listen_port: 12400]
[time_out: 120]
[machine_list_filename: ]
[machines: ]
[gpu_platform_id: -1]
[gpu_device_id: -1]
[gpu_use_dp: 0]
[num_gpu: 1]

end of parameters

pandas_categorical:null
