tree
version=v4
num_class=1
num_tree_per_iteration=1
label_index=0
max_feature_idx=44
objective=binary sigmoid:1
feature_names=oi_chg_1h oi_chg_2h oi_chg_4h oi_chg_8h oi_range_1h oi_accel cvd_f_chg_1h cvd_f_chg_4h cvd_f_ratio_1h cvd_f_accel cvd_f_vs_spot taker_ratio taker_ratio_chg_1h taker_ratio_chg_4h taker_buy_dom taker_imbalance_accel top_ls top_ls_chg_1h top_ls_chg_4h top_ls_extreme glob_ls glob_ls_chg_1h glob_ls_chg_4h glob_ls_extreme funding funding_vel_4h funding_extreme ob_imbal ob_imbal_chg_1h ob_imbal_chg_4h ob_bid_ask_ratio liq_ratio liq_total_norm liq_ratio_chg_1h liq_cascade mom_1h mom_2h mom_4h mom_8h rsi_14 vol_ratio price_vs_bb div_oi_price div_cvd_price div_taker_price
feature_infos=[-45.819772287630677:65.918313343705719] [-46.466876593519437:77.042749495594464] [-46.396431266547111:77.263856280241157] [-46.539195562727429:75.586224298666153] [0:69.556952818405634] [-66.798256078226999:59.213546445042724] [-34192629.171000004:140685587.27400002] [-34560703.758599997:141889925.67739999] [0.27045427818380413:0.70559788098697807] [-140370145.93940002:140773834.53690001] none [0.37069999999999997:2.3967000000000001] [-1.196:1.3252999999999999] [-1.3849:1.5988] [0.27045427818380413:0.70559788098697807] [-2.4171:1.8887999999999998] [1.96:4.25] [-1.46:1.54] [-1.52:1.6600000000000001] none [0.89000000000000001:1.8300000000000001] [-0.17999999999999994:0.25] [-0.28999999999999981:0.29999999999999982] [0:1] [-0.029690999999999999:0.010534999999999999] [-0.023831999999999999:0.030778999999999997] [-1:1] [-0.2611:0.34620000000000001] [-0.36449999999999999:0.33389999999999997] [-0.38669999999999999:0.55289999999999995] [0.58593792510003351:2.0590893281683602] [-1:1] [0:446.19170035326778] [-2:2] [0:1] [-40.673758865248224:16.833726415094354] [-41.205412054120536:21.788567916410571] [-41.421568627450981:22.617574257425744] [-41.625959525471046:22.126348228043135] [3.4929495900478571:94.357644697223108] [0.090954849381893382:91.8157272423324] [-4.280354830281202:4.0959001094590528] [-1:1] [-1:1] [-1:1]
tree_sizes=3411 3412 3424 3425 3425 3408 3431 3411 3413 3439 3387 3402 3402

Tree=0
num_leaves=31
num_cat=0
split_feature=5 1 29 15 0 1 2 3 22 9 13 41 2 37 29 29 27 17 29 1 7 12 41 3 2 37 7 5 29 11
split_gain=18.8116 8.34114 14.5188 11.1762 8.20959 10.21 9.21508 11.3562 7.48792 7.3759 7.19776 6.85835 10.0352 6.61663 6.32767 10.4611 6.82078 6.23919 5.81104 6.93018 8.05446 6.71789 6.01636 5.74697 5.61229 5.52874 8.72904 5.65509 5.64567 5.28873
threshold=-1.1028103007451771 -0.34791657215048061 -0.03669999999999999 0.39355000000000012 1.5414473564997702 1.7735768558236777 2.1113784435926601 1.8778112285705475 -1.0000000180025095e-35 -1002202.7432999996 -0.22154999999999994 -0.50396510813667084 -0.057587823070875947 1.7099420508643772 0.0038000000000000009 -0.017049999999999992 0.061200000000000011 -0.054999999999999931 -0.074499999999999983 0.11245214105316538 357698.9664500021 -0.12045000000000004 -0.95925859811571845 3.5113071160130409 -0.30020373743903644 -1.7737468368958229 -1629989.0777999905 -1.571739429817409 0.0096000000000000009 0.9910500000000001
decision_type=2 2 2 2 2 2 2 2 2 2 2 2 2 2 2 2 2 2 2 2 2 2 2 2 2 2 2 2 2 2
left_child=17 2 -2 10 5 6 9 -8 23 -3 -4 24 -13 -9 15 -12 -16 -1 -11 20 21 22 -20 -6 -5 -19 -27 28 -28 -21
right_child=1 4 3 11 8 -7 7 13 -10 18 14 12 -14 -15 16 -17 -18 25 19 29 -22 -23 -24 -25 -26 26 27 -29 -30 -31
leaf_value=-0.034834984047997251 -0.09935414197362781 -0.12818357568810579 -0.081990602760913134 -0.11422191401960402 -0.12206751700509064 -0.13332032677585359 -0.028793695199137874 -0.061187926470599785 -0.057637644223716977 -0.074036068655806225 -0.041367539963172245 -0.054756968497544065 -0.11030780650327703 -0.11582914882047859 -0.077655349689096598 -0.10071687236784452 -0.037402497468221857 -0.093512026538627419 -0.061187926470599785 -0.10282533949483363 -0.078356107764318478 -0.12048558187973132 -0.11023282492563427 -0.075462769404518557 -0.073319927204674257 -0.032142041287166592 -0.092823523011902387 -0.056464216214840435 -0.065223551314465222 -0.083792520775870419
leaf_weight=4.4923833310604087 27.453453689813614 5.7402675896883002 15.473764806985853 10.731804624199865 3.7436527758836764 5.7402675896883002 4.2428064793348295 3.7436527758836746 11.230958327651022 12.229265734553335 4.4923833310604095 8.735189810395239 4.2428064793348303 3.9932296276092529 5.2411138862371471 6.2394212931394595 15.723341658711432 8.4856129586696607 3.7436527758836746 18.718263879418373 7.7368824034929267 23.460224062204361 5.2411138862371427 5.9898444414138794 3.9932296276092556 5.4906907379627219 14.725034251809118 13.227573141455652 11.979688882827757 44.923833310604095
leaf_count=18 110 23 62 43 15 23 17 15 45 49 18 35 17 16 21 25 63 34 15 75 31 94 21 24 16 22 59 53 48 180
internal_value=-0.0840021 -0.0874336 -0.0807662 -0.0738969 -0.091702 -0.0943404 -0.0926085 -0.0677071 -0.0743131 -0.0950924 -0.0650102 -0.0889284 -0.0732223 -0.0890747 -0.056842 -0.0760011 -0.0472533 -0.0686294 -0.0933918 -0.0957063 -0.105481 -0.112034 -0.0894595 -0.0933044 -0.102942 -0.0715839 -0.067406 -0.0724429 -0.0805365 -0.0894608
internal_weight=321.205 262.804 102.327 74.8731 160.478 139.513 133.773 11.9797 20.9645 121.794 47.17 27.703 12.978 7.73688 31.6963 10.7318 20.9645 58.401 116.053 103.824 40.1819 32.445 8.98477 9.7335 14.725 53.9086 45.423 39.9323 26.7047 63.6421
internal_count=1287 1053 410 300 643 559 536 48 84 488 189 111 52 31 127 43 84 234 465 416 161 130 36 39 59 216 182 160 107 255
is_linear=0
shrinkage=1


Tree=1
num_leaves=31
num_cat=0
split_feature=5 1 29 15 0 1 16 22 22 3 38 4 3 1 29 8 8 1 15 28 41 6 16 0 3 18 13 3 39 8
split_gain=17.7138 7.86062 13.6733 10.5185 7.73327 9.65465 7.33835 7.49898 7.04482 6.87297 7.90042 6.76791 8.06245 11.5357 6.59209 7.16064 8.31785 16.7372 7.98291 6.82652 6.45664 6.05378 7.09395 8.74726 5.82782 6.25547 8.17297 5.42963 5.12689 4.98677
threshold=-1.1028103007451771 -0.34791657215048061 -0.03669999999999999 0.39355000000000012 1.5414473564997702 1.7735768558236777 2.4250000000000003 -0.064999999999999933 -1.0000000180025095e-35 -3.2708430549633234 2.4973931275393828 1.254406685827836 -1.7879698703476441 -2.7209040757061316 -0.074499999999999983 0.49775060849067637 0.52502165035022696 0.31528628154444688 0.27729999999999999 -0.020849999999999997 -0.50396510813667084 211816.06704999719 3.0650000000000004 0.49307290785983732 0.050800188836963585 0.024999999999999915 -0.067250000000000018 3.5113071160130409 31.472680077316813 0.52635449453178895
decision_type=2 2 2 2 2 2 2 2 2 2 2 2 2 2 2 2 2 2 2 2 2 2 2 2 2 2 2 2 2 2
left_child=6 2 -2 11 5 14 -1 -8 27 -9 -11 24 13 -13 19 -16 17 18 -17 -3 28 -18 -23 -24 25 -4 -27 -6 -5 -10
right_child=1 4 3 20 8 -7 7 9 29 10 -12 12 -14 -15 15 16 21 -19 -20 -21 -22 22 23 -25 -26 26 -28 -29 -30 -31
leaf_value=0.04262136833377312 -0.016529715203490045 0.026178507878660977 0.047158855726220583 0.0024498631640115999 -0.03865534438791781 -0.049624006397830669 -0.028229866446894691 -0.010518321448047778 -0.0010705764897230375 0.024769702240244152 -0.010086814512368021 0.023042434940891258 0.025278734733040143 -0.041846774676643717 -0.021254398811328151 -0.038398396959231182 -0.032636950630073942 0.03264048856077572 0.011705805255397137 -0.016841479050502286 0.008823802312044075 0.0018498757813916579 0.0021463285814090926 -0.047769918920829442 0.0035745622703106375 -0.01262426256827202 0.044699628715477127 0.0066612631900725685 -0.033578504526782071 0.039342134283749552
leaf_weight=6.7455435395240775 27.432246655225754 8.4892343580722791 12.73637998104096 5.4854454249143627 3.736065477132799 5.7245247811079016 4.2438069581985465 8.9848101139068586 4.2464722692966443 31.459512650966644 6.9899517297744742 3.9956267476081857 7.4906279891729346 5.9925194084644327 47.868170320987701 6.7333607822656649 11.222853928804396 12.228315472602842 4.7369616329669952 5.2419266402721396 12.980542153120039 24.702522933483124 5.4880021661519987 6.9857911318540573 8.2382215857505781 4.7425689995288849 3.9968736171722394 5.9914662837982178 9.2241966128349286 6.9941896200180054
leaf_count=27 110 34 51 22 15 23 17 36 17 126 28 16 30 24 192 27 45 49 19 21 52 99 22 28 33 19 16 24 37 28
internal_value=-0.00162288 -0.00495464 0.00151699 0.00818136 -0.00910006 -0.0116628 0.0132902 0.00932871 0.00777189 0.0128044 0.0183454 0.0167986 0.00178069 -0.0156202 -0.00997907 -0.0122437 -0.00619857 0.00826235 -0.017525 0.00953553 -0.00640474 -0.0133436 -0.00736694 -0.0257276 0.0254964 0.0337111 0.0134618 -0.0106545 -0.0200146 0.0239358
internal_weight=321.129 262.705 102.315 74.883 160.39 139.422 58.4236 51.6781 20.9682 47.4343 38.4495 47.1928 17.4788 9.98815 133.697 119.966 72.0978 23.6986 11.4703 13.7312 27.6902 48.3992 37.1763 12.4738 29.714 21.4758 8.73944 9.72753 14.7096 11.2407
internal_count=1287 1053 410 300 643 559 234 207 84 190 154 189 70 40 536 481 289 95 46 55 111 194 149 50 119 86 35 39 59 45
is_linear=0
shrinkage=0.03


Tree=2
num_leaves=31
num_cat=0
split_feature=1 29 32 1 12 32 37 8 38 17 18 25 24 24 24 2 3 2 34 9 8 8 32 32 41 18 16 28 38 16
split_gain=8.36821 13.3002 10.6529 11.8631 9.89348 10.8507 7.95163 7.26806 6.41457 6.37093 7.67935 6.36566 6.26632 9.71771 6.13789 5.98705 11.8834 5.92584 11.0693 6.52947 7.70853 9.71097 6.25235 7.43662 6.60477 7.93575 6.17381 5.4943 5.44464 5.3821
threshold=-0.33919230415222484 -0.03669999999999999 0.088312594835358679 3.6965799816624627 1.0000000180025095e-35 1.3025876896947552 -0.97546982354504974 0.39309823254696885 -3.0800713611081938 0.010000000000000011 -1.0000000180025095e-35 0.00038699999999999981 0.0064490000000000007 -0.0011454999999999996 -0.0053059999999999991 -1.7167359699421845 -1.4075177044288898 -0.49386999917994107 1.0000000180025095e-35 -1383121.2401999997 0.44931433952113281 0.497273710034839 6.5375504292186273 3.4758147223577542 1.3726280277779284 -0.024999999999999908 2.7450000000000006 0.054699999999999999 -0.7833512025035293 2.7350000000000008
decision_type=2 2 2 2 2 2 2 2 2 2 2 2 2 2 2 2 2 2 2 2 2 2 2 2 2 2 2 2 2 2
left_child=1 11 3 27 7 6 -6 -3 -7 10 29 14 13 15 -1 -9 -17 18 -4 -19 -21 26 23 24 25 -23 -22 -2 -13 -8
right_child=2 4 17 -5 5 8 9 12 -10 -11 -12 28 -14 -15 -16 16 -18 19 -20 20 21 22 -24 -25 -26 -27 -28 -29 -30 -31
leaf_value=0.0027087839491812776 -0.012840769628360317 -0.002552386176945014 -0.029174842026589914 0.033712242705091058 0.034303446688798915 0.013402565107191499 -0.0076120208173278735 -0.01907968740376479 -0.030914538551777757 0.033325722475481545 -0.021521974469295525 0.020822874634404367 -0.0095416545033864941 0.04485268352062706 -0.036280004458575481 0.059159963487449944 -0.0063588339620264641 -0.018069140934433372 0.020224269389598051 0.036870817078724707 -0.036038290619829778 0.047045716279023021 -0.01243123847055088 0.04603646393992257 -0.0084379773396447786 0.0084711099943845444 0.0026695180232269686 -0.037250144288167794 -0.013318905447992548 0.039273852944495376
leaf_weight=4.9839495718479183 75.788730353116989 9.7373335957527143 13.204224526882173 4.4953536391258231 8.9884044677019101 3.7412893474102011 4.2434652447700518 3.9929812699556342 11.713210314512251 4.4962818920612326 11.725294053554537 7.2314111441373852 3.7464173287153235 18.482063621282581 11.963262513279913 4.4969357103109351 5.2447204291820482 9.9767813533544523 5.7348114848136893 7.2327365279197684 7.475025922060011 6.4902591407298997 8.7284923046827299 5.9892338812351218 11.717759445309637 18.963709905743606 6.9786050021648407 9.4686467200517637 9.721022889018057 4.2436700463294983
leaf_count=20 304 39 53 18 36 15 17 16 47 18 47 29 15 74 48 18 21 40 23 29 30 26 35 24 47 76 28 38 39 17
internal_value=-0.00157524 0.00432855 -0.00554496 -0.0130879 0.0101079 0.000695361 0.0102957 0.0201422 -0.019976 0.00133827 -0.00575872 -0.0117362 0.0263602 0.0306446 -0.0246893 0.0111225 0.0238749 0.00103752 -0.0140314 0.00450177 0.00762344 0.00433904 0.0104328 0.015144 0.00997583 0.0185699 -0.017253 -0.0156273 0.00110575 0.0156665
internal_weight=320.996 128.752 192.244 89.7527 94.8521 49.1516 33.6971 45.7005 15.4545 24.7087 20.2124 33.8996 35.9631 32.2167 16.9472 13.7346 9.74166 102.492 18.939 83.5526 73.5758 66.3431 51.8895 43.161 37.1717 25.454 14.4536 85.2574 16.9524 8.48714
internal_count=1287 516 771 360 380 197 135 183 62 99 81 136 144 129 68 55 39 411 76 335 295 266 208 173 149 102 58 342 68 34
is_linear=0
shrinkage=0.03


Tree=3
num_leaves=31
num_cat=0
split_feature=35 1 1 1 29 16 8 33 2 25 28 29 1 28 41 3 15 16 25 21 4 22 1 24 41 3 22 6 6 25
split_gain=9.40158 7.33211 7.08387 11.8467 12.392 9.73364 7.27235 7.79872 8.7621 6.40437 7.29473 6.6492 7.57058 6.20583 10.1991 9.18309 7.48108 7.03036 10.0274 6.05079 5.68706 6.70882 15.1198 7.10182 5.47238 6.89751 6.79964 5.82842 6.92584 5.3829
threshold=-0.094386107726962529 6.8827054446439559 -0.22280911869440032 -1.6156484977886352 -0.051799999999999992 2.5550000000000002 0.53044199660373881 1.9162604306460276 2.475956980166905 0.0016265000000000006 -0.026150000000000007 -0.013449999999999995 0.28912273395512728 0.016549999999999999 -0.91026951695661906 0.84852494383720345 0.8519500000000001 2.4050000000000007 -0.0065889999999999985 0.024999999999999915 1.3151707491055433 0.0099999999999999551 0.028014578283741546 0.0032740000000000004 -1.8679900587869611 1.2261521180068293 0.0099999999999998441 -174158.07479999957 -259008.62275000286 0.0051195000000000008
decision_type=2 2 2 2 2 2 2 2 2 2 2 2 2 2 2 2 2 2 2 2 2 2 2 2 2 2 2 2 2 2
left_child=2 9 3 4 -1 -6 7 8 20 13 11 12 -11 16 -15 -16 17 -2 -19 24 21 22 -4 -24 26 27 -5 28 29 -26
right_child=1 -3 6 19 5 -7 -8 -9 -10 10 -12 -13 -14 14 15 -17 -18 18 -20 -21 -22 -23 23 -25 25 -27 -28 -29 -30 -31
leaf_value=-0.04906732960063083 -0.050724412351098896 0.027432212717877567 -0.042084236875467002 0.012321890573572246 0.037166210762183238 -0.0096359329983463759 0.022183333522483039 0.02728694577528324 0.018305298956960432 0.00036063282905132396 -0.0065708072337890442 -0.018180666016671773 0.043315873797732996 -0.031039866734951814 0.018897983775962787 -0.015484154328658415 0.014879542413435143 0.018437897867091217 -0.02149582520976244 0.044200339276942294 -0.043589502421439198 -0.029389211433121534 0.044809651052397169 -0.0078411674755131736 0.025233998383265951 -0.0066932901626066072 -0.039348579854214784 0.036146276002961157 -0.024265113652339625 -0.01036464864758203
leaf_weight=5.2270365804433849 6.2270359992980948 5.4959649443626395 4.7284877300262478 5.4888149201869947 5.2433282285928753 15.711843594908713 7.4793970435857764 4.4915318489074698 6.2383394986391059 6.7303922772407558 43.859844401478767 3.9859824478626242 8.4887274801731092 8.464201942086218 18.704766005277637 10.958541512489317 5.7365456372499457 6.2367593199014655 49.077748611569405 5.996755599975585 7.2256212383508673 12.205317080020903 5.4882810413837415 3.7365987002849579 20.714103147387505 9.4768743366003019 3.7385148406028748 15.469768390059476 3.7408868521451941 4.4916805773973456
leaf_count=21 25 22 19 22 21 63 30 18 25 27 176 16 34 34 75 44 23 25 197 24 29 49 22 15 83 38 15 62 15 18
internal_value=-0.00152767 -0.00625162 0.00404698 0.00890224 -0.0081863 0.00205315 -0.0048631 -0.00955638 -0.0138666 -0.0073839 0.000132256 0.0155506 0.0246419 -0.0119052 -0.00213699 0.00608602 -0.017385 -0.0204605 -0.016914 0.0154213 -0.0200046 -0.0132345 0.000791432 0.023306 0.0125741 0.016245 -0.00848853 0.0212106 0.0130284 0.0187559
internal_weight=320.86 173.967 146.893 95.2996 26.1822 20.9552 51.5936 44.1142 39.6226 168.471 63.0649 19.2051 15.2191 105.406 38.1275 29.6633 67.2781 61.5415 55.3145 69.1174 33.3843 26.1587 13.9534 9.22488 63.1206 53.8933 9.22733 44.4164 28.9467 25.2058
internal_count=1287 698 589 382 105 84 207 177 159 676 253 77 61 423 153 119 270 247 222 277 134 105 56 37 253 216 37 178 116 101
is_linear=0
shrinkage=0.03


Tree=4
num_leaves=31
num_cat=0
split_feature=5 1 32 1 9 9 16 24 0 38 32 37 6 38 37 6 15 5 5 5 15 7 32 28 24 18 9 9 38 0
split_gain=16.0318 6.77185 12.4635 9.02474 7.55187 7.06578 6.69015 6.66272 6.29164 8.14143 9.78187 9.80741 7.27823 6.18139 8.43422 5.95803 5.57273 5.70356 5.24927 6.28697 6.2199 5.59647 5.12403 5.06219 6.98595 6.07928 4.91783 9.24378 6.49983 10.1307
threshold=-1.1028103007451771 -0.34791657215048061 0.088312594835358679 -1.6156484977886352 -480050.59529999358 -1159378.7522500071 2.4250000000000003 -0.0015544999999999997 -0.23282167250853744 -3.0800713611081938 1.3872148564105298 -0.92772900572877226 16243.849999999746 2.4973931275393828 -1.7737468368958229 147018.1800999977 -0.14924999999999991 -0.4359577378786838 1.5585986095172701 0.15343702022789787 0.17229999999999998 -130275.84134999661 0.16202033257069334 -0.018449999999999991 -0.0040224999999999992 0.054999999999999945 1752406.16705 1038273.0487499965 0.74385359442804566 1.5414473564997702
decision_type=2 2 2 2 2 2 2 2 2 2 2 2 2 2 2 2 2 2 2 2 2 2 2 2 2 2 2 2 2 2
left_child=6 3 4 7 -3 -4 -1 -2 23 -10 11 -11 -13 14 -8 -14 17 -6 19 20 -18 -22 -7 -5 -25 -26 27 28 -24 -30
right_child=1 2 5 8 16 22 13 -9 9 10 -12 12 15 -15 -16 -17 18 -19 -20 -21 21 -23 26 24 25 -27 -28 -29 29 -31
leaf_value=0.040713677205123311 0.0055926652990129049 -0.044090117589922241 -0.039086472957633567 -0.0023640278731157519 -0.02929602342575198 0.026262885515223853 -0.012276655540740882 -0.026687457329674865 0.037116568049762558 0.037244483239588538 -0.038311010416723371 0.0090973599813407025 -0.054687525418927282 -0.013436062153277259 0.020491210734058966 -0.0068622931451932873 -0.029061467484811684 0.0079674862245908799 0.011616423850933304 -0.032726585605436849 -0.022909639129396499 0.022242631547535658 0.0096008780555995737 -0.0076730157126666384 0.034813152544471163 -0.0049755749108257672 0.022837804520784925 -0.03354632228715828 -0.020017819170800002 0.026172399856062109
leaf_weight=6.7461155205965033 8.9680584818124789 8.444030895829199 3.9747368544340125 11.464652881026266 4.7223492413759258 6.7325120121240607 8.7273973077535612 15.18142683804035 3.9943814724683753 5.2387454360723522 7.2069436013698569 10.223289743065836 3.9848022460937482 8.9771451354026777 33.957789644598961 5.9836607426404953 7.9581335783004787 15.684684976935385 4.2413121312856665 24.38568939268589 3.7323273867368707 6.7302055060863468 32.637145295739174 5.9863756000995663 19.977153047919277 3.9922825694084159 6.9843348115682593 7.9693143367767325 20.651593521237377 5.2431041151285163
leaf_count=27 36 34 16 46 19 27 35 61 16 21 29 41 16 36 136 24 32 63 17 98 15 27 131 24 80 16 28 32 83 21
internal_value=-0.00148312 -0.00465741 -0.00850959 0.00134984 -0.0173184 -0.000521815 0.0127039 -0.0146027 0.00633633 -0.00265027 -0.00770734 0.000964255 -0.00843796 0.00891678 0.0137084 -0.0266312 -0.0138624 -0.000610103 -0.0195335 -0.0227097 -0.009182 0.00578692 0.00139797 0.0143435 0.0208241 0.0280683 -0.000871906 -0.00343763 0.000660828 -0.0104852
internal_weight=320.702 262.293 160.091 102.202 75.8987 84.1927 58.4084 24.1495 78.0523 36.6318 32.6374 25.4305 20.1918 51.6623 42.6852 9.96846 67.4547 20.407 47.0477 42.8064 18.4207 10.4625 80.218 41.4205 29.9558 23.9694 73.4855 66.5012 58.5318 25.8947
internal_count=1287 1053 643 410 305 338 234 97 313 147 131 102 81 207 171 40 271 82 189 172 74 42 322 166 120 96 295 267 235 104
is_linear=0
shrinkage=0.03


Tree=5
num_leaves=31
num_cat=0
split_feature=25 20 11 12 0 28 41 25 5 32 5 39 16 31 28 0 28 3 40 12 29 27 40 5 11 18 16 27 37 37
split_gain=9.54509 11.6638 8.59229 8.24009 7.64964 7.75787 7.08806 8.28282 7.32891 7.27817 9.61939 6.76243 6.76188 8.22584 6.60339 6.48883 6.07584 8.72067 5.85053 5.76284 5.7645 5.26304 4.94742 4.94677 5.63312 5.6098 8.00886 5.81995 5.98462 8.77122
threshold=-0.0004669999999999997 0.9850000000000001 1.1752000000000002 0.38705000000000012 1.5414473564997702 -0.026150000000000007 -2.5379753886958043 -0.0059474999999999988 -1.1376393368789814 1.3025876896947552 0.37908720296844228 53.191044939230785 2.7950000000000004 0.99997869433268194 0.083800000000000013 -0.70570978135984219 0.054150000000000011 -1.0000000180025095e-35 0.73080653742772894 0.33680000000000004 -0.013449999999999995 0.13315000000000002 1.7236241665148666 1.5585986095172701 1.1041500000000004 0.044999999999999936 3.0550000000000002 0.018850000000000002 -0.30875206294796448 0.11835080552434764
decision_type=2 2 2 2 2 2 2 2 2 2 2 2 2 2 2 2 2 2 2 2 2 2 2 2 2 2 2 2 2 2
left_child=6 -2 3 14 5 18 -1 8 -8 23 12 21 13 -11 16 -14 -3 -18 -4 -7 -21 -10 -12 24 25 26 27 -9 -29 -30
right_child=1 2 4 -5 -6 19 7 9 11 10 22 -13 15 -15 -16 -17 17 -19 -20 20 -22 -23 -24 -25 -26 -27 -28 28 29 -31
leaf_value=-0.042010011814208381 -0.015440618628858625 0.013904965485678674 0.032349576343229526 -0.025400170857716654 0.027123419819162074 -0.038815754374556324 0.03903471593906796 0.0057209732223548098 0.024199828179360398 0.0020120855633106462 -0.037926137053503679 -0.018014813586578925 -0.02785742849062026 0.05983508225217074 0.042889852433751707 0.020625256952110246 0.015086916782627007 -0.041186341482246466 -0.015952227639511603 -0.030705854963327631 0.011717272088305209 -0.014068230283902137 0.001714845911018582 0.0096187135973068941 -0.029181677851545344 0.0070911113225871633 0.0064435507360654596 -0.052025745364017863 0.010464392151459834 -0.041101842391425253
leaf_weight=4.4828725755214682 21.424076929688454 100.39554832875729 5.2345476895570773 4.9757804423570624 5.494025230407714 9.1927996873855609 5.9953283667564419 4.2324837148189571 11.96974647045136 3.9831362217664772 5.4562420397996885 9.2190129458904249 4.2351394295692462 5.2416274696588516 6.4821654409170142 5.7197342365980113 5.2300662994384766 4.4744220674037916 3.7381443381309509 4.9720539450645456 6.4733086079359028 4.2368061244487754 5.4856356084346771 7.4807108938693991 19.900176241993904 12.457006335258482 9.7168506830930692 8.2095404863357526 5.2300385534763354 6.4583358317613602
leaf_count=18 86 403 21 20 22 37 24 17 48 16 22 37 17 21 26 23 21 18 15 20 26 17 22 30 80 50 39 33 21 26
internal_value=0.000613083 0.0052253 0.0080786 0.0118593 -0.00492418 -0.0110426 -0.00524412 -0.003973 0.00945797 -0.00807244 0.00426688 0.00224067 0.0171217 0.0354789 0.0134957 0 0.0117005 -0.0107083 0.0119417 -0.0211893 -0.00655852 0.0139867 -0.0179452 -0.0131562 -0.0157855 -0.00991309 -0.0162621 -0.0255179 -0.0323081 -0.0178807
internal_weight=317.797 178.087 156.663 121.558 35.1049 29.6109 139.71 135.228 31.4209 103.807 30.1215 25.4256 19.1796 9.22476 116.582 9.95487 110.1 9.70449 8.97269 20.6382 11.4454 16.2066 10.9419 73.6851 66.2044 46.3043 33.8472 24.1304 19.8979 11.6884
internal_count=1276 715 629 488 141 119 561 543 126 417 121 102 77 37 468 40 442 39 36 83 46 65 44 296 266 186 136 97 80 47
is_linear=0
shrinkage=0.03


Tree=6
num_leaves=31
num_cat=0
split_feature=25 35 4 4 2 36 25 37 27 32 28 37 37 18 12 38 28 35 40 12 18 28 2 37 12 38 39 12 33 12
split_gain=8.98178 10.3355 7.51638 9.08367 7.21278 6.79323 8.87002 7.94599 7.60799 7.16773 6.53572 6.49885 9.40378 9.46358 8.66482 10.3515 7.05333 6.99475 6.29346 6.08892 7.8332 5.97757 5.84418 5.80948 7.86306 6.6652 5.80425 5.67883 5.60569 5.5417
threshold=-0.0004669999999999997 -0.38047274451101226 1.4945641727984296 1.2200346682565202 -3.025037192755808 -2.0761746574432189 -0.0073404999999999989 -0.95481751747791821 0.077350000000000016 1.4869735317886892 -0.045899999999999989 0.68170566419409895 -0.13434771738834447 -0.070000000000000048 0.30365000000000009 -1.4945879802243709 -0.0076500000000000049 0.16887817629495097 0.50418097379849891 -0.17865000000000006 0.019999999999999688 0.093400000000000025 1.5336491586070535 0.38918059001475941 0.048499999999999939 0.033675780315289845 51.120285153352107 -0.28879999999999995 0.0047428557901327282 -0.22135000000000002
decision_type=2 2 2 2 2 2 2 2 2 2 2 2 2 2 2 2 2 2 2 2 2 2 2 2 2 2 2 2 2 2
left_child=5 2 3 19 -4 -1 7 -7 -9 10 -8 12 13 -3 29 -16 22 -18 -14 20 -2 28 26 24 25 -20 -13 -6 -12 -15
right_child=1 11 4 -5 27 6 9 8 -10 -11 21 16 18 14 15 -17 17 -19 23 -21 -22 -23 -24 -25 -26 -27 -28 -29 -30 -31
leaf_value=-0.029902682759748909 -0.022136031176900533 0.050374314032870654 -0.00026970822423347582 -0.022096726928514932 0.011256693449979257 -0.017884224749782515 -0.028760173600559304 0.006469476796889125 0.050314607210727134 0.0061112136422298803 0.0023222801919361657 0.036377681464656877 -0.031364120243666617 -0.016132721025604486 0.020976033929797393 -0.037825466230350477 0.02238987264964196 -0.0094265313995641458 0.029128815312411457 0.037742744981210843 0.032126442542524655 -0.037591666991105568 0.041202527076872199 0.010084589423482344 -0.042154865078558028 -0.0217795249924056 -0.010571225901729254 0.056304205015004861 -0.016630322471218893 0.015514226808830779
leaf_weight=9.201435372233389 5.2309140413999593 3.7423247098922721 4.2358497679233578 6.7301936447620383 3.740419253706933 4.7292895764112499 15.400516986846922 8.2266330122947675 6.4888884872198096 29.113075345754623 39.814312011003494 3.7412831038236636 13.189355775713919 5.9728945493698076 3.7370063066482535 8.6933027505874616 8.9699065834283846 19.652318999171257 3.9914924651384371 7.9776856750249872 4.2332322001457214 5.2115382552146903 9.2264605164527875 11.463916122913359 6.7173510789871207 5.2275352030992508 5.9667643457651138 9.4853295534849131 21.413141399621964 26.148790359497074
leaf_count=37 21 15 17 27 15 19 62 33 26 117 160 15 53 24 15 35 36 79 16 32 17 21 37 46 27 21 24 38 86 105
internal_value=0.000594096 0.00506765 0.0181367 0.00709274 0.0331266 -0.00509051 -0.00329508 0.0152991 0.0262148 -0.00659163 -0.011149 0.00104742 -0.00371686 0.00518008 0.0012123 -0.0198818 0.010004 0.000483187 -0.014363 0.0185887 0.00190357 -0.00698459 0.0241602 -0.00598605 -0.0177244 1.60041e-05 0.00740248 0.0439694 -0.00427342 0.0095047
internal_weight=317.673 178.074 41.6336 24.172 17.4616 139.599 130.397 19.4448 14.7155 110.953 81.8395 136.441 88.884 48.2943 44.552 12.4303 47.5567 28.6222 40.5897 17.4418 9.46415 66.439 18.9345 27.4003 15.9364 9.21903 9.70805 13.2257 61.2275 32.1217
internal_count=1276 715 167 97 70 561 524 78 59 446 329 548 357 194 179 50 191 115 163 70 38 267 76 110 64 37 39 53 246 129
is_linear=0
shrinkage=0.03


Tree=7
num_leaves=31
num_cat=0
split_feature=24 4 28 18 8 39 8 33 33 4 13 4 29 9 27 27 32 24 15 3 24 28 39 29 16 33 36 38 15 32
split_gain=8.57232 8.76712 10.2372 8.61689 10.4485 10.3924 7.25871 7.32167 6.98046 6.71614 8.52969 5.77475 5.46235 5.91941 5.16372 6.89282 9.11544 9.2115 9.23322 8.62773 6.82816 6.26109 7.21544 8.82703 7.11365 6.15836 8.21942 6.46034 6.08677 5.60104
threshold=0.0080995000000000025 0.69644780689032137 -0.061049999999999993 0.070000000000000076 0.53412917936821069 68.493775065077443 0.53044199660373881 -0.86760993930791941 -0.073285252464008507 0.55911668363555223 -0.1082 0.71636193628127354 -0.016199999999999989 39733.054450004136 -0.021249999999999995 0.064350000000000004 0.48613071077009201 0.0034650000000000006 0.047699999999999972 -0.67898077310191696 0.0008275 0.0097500000000000017 49.039164937125157 -0.043099999999999992 3.0950000000000002 0.74419426784286846 -0.14638425636947502 -0.74437594964433795 0.45035000000000003 0.039027722417199907
decision_type=2 2 2 2 2 2 2 2 2 2 2 2 2 2 2 2 2 2 2 2 2 2 2 2 2 2 2 2 2 2
left_child=1 2 -1 11 5 8 7 -4 -5 10 -9 -3 13 -2 -13 16 19 20 -19 -16 -18 22 25 -24 -25 26 27 -17 -23 -30
right_child=12 3 6 4 -6 -7 -8 9 -10 -11 -12 14 -14 -15 15 21 17 18 -20 -21 -22 28 23 24 -26 -27 -28 -29 29 -31
leaf_value=-0.043015787177485651 0.019198004739797901 0.035872423376785742 -0.020890210236205384 0.019894450745514589 -0.037829395542815891 0.043949604241147106 -0.02286767905254956 -0.029637769723197354 -0.020889221188222059 0.023020908963970736 0.015765824633588991 0.026906856297551775 0.031135219873382629 -0.023008894214672827 -0.030339965825617005 0.01616664499334149 0.0057049260935475811 -0.048486046419436948 0.014338255966717646 -0.0026307576521756712 0.040458360630239144 0.0054382589104851366 -0.035095581309512972 0.030557057848194985 -0.0082526254276575738 0.047923073742219179 0.034792468666915086 -0.032566795853868458 0.0098832746673731351 -0.032939142972408519
leaf_weight=7.6903340667486182 7.7248667180538195 4.9855608493089667 10.196799919009207 4.9787723124027279 9.9459343850612623 3.7386426478624335 16.385498329997063 6.9530237615108463 14.184460058808328 14.4321341663599 7.7224154621362731 7.978551357984542 12.70610238611698 4.7153861820697784 16.91639818251133 5.978470578789711 16.428490981459621 4.4774641990661603 3.7300186455249786 25.644588768482208 7.4747193902730933 47.522197544574738 4.4693881422281292 8.7157199084758776 7.9674456268548957 7.7327837198972693 10.222444102168081 3.9773485213518196 3.9792894124984723 7.9478489458560944
leaf_count=31 31 20 41 20 40 15 66 28 57 58 31 32 51 19 68 24 66 18 15 103 30 191 18 35 32 31 41 16 16 32
internal_value=0.000577024 -0.000861161 -0.0107334 0.00186162 -0.0123127 -0.000984486 -0.00615261 0.000779902 -0.0100893 0.0085195 -0.00559774 0.00425566 0.0173548 0.00290466 0.00339708 0.00234263 -0.00464451 0.00734934 -0.0197445 -0.0137598 0.0168209 0.0071782 0.0151013 0.0017146 0.0119051 0.0250971 0.0160086 -0.00313427 0.00057447 -0.0184393
internal_weight=317.523 292.377 63.3802 228.997 32.8478 22.9019 55.6899 39.3044 19.1632 29.1076 14.6754 196.149 25.1464 12.4403 191.163 183.185 74.6717 32.1107 8.20748 42.561 23.9032 108.513 49.0636 21.1526 16.6832 27.911 20.1783 9.95582 59.4493 11.9271
internal_count=1276 1175 255 920 132 92 224 158 77 117 59 788 101 50 768 736 300 129 33 171 96 436 197 85 67 112 81 40 239 48
is_linear=0
shrinkage=0.03


Tree=8
num_leaves=31
num_cat=0
split_feature=25 20 8 38 12 41 25 32 15 15 22 25 6 28 13 27 2 38 12 4 22 16 40 4 6 2 29 41 16 25
split_gain=8.26288 10.581 7.41863 7.40627 7.32746 6.61353 7.3794 6.3975 9.90808 6.65296 7.72412 6.37149 7.01431 6.21154 5.99727 6.18763 6.63667 5.91334 5.79405 5.75288 8.19279 6.02045 5.74565 5.68639 5.63841 5.29783 6.28787 7.15979 9.25531 5.70341
threshold=-0.0004669999999999997 0.9850000000000001 0.54036618630646627 2.7316759735280698 0.38705000000000012 -2.5379753886958043 -0.0059474999999999988 1.3025876896947552 0.38575000000000009 0.79005000000000025 -0.059999999999999991 -0.010408999999999998 219678.27955000199 0.083800000000000013 -0.5583999999999999 0.16095000000000004 -0.40040655651285001 -1.2134025340125696 0.27605000000000007 1.0896846284255248 -0.014999999999999901 2.9850000000000008 0.51173436439796538 1.5736889871043604 470783.03049999999 -3.1139560127090289 -0.069999999999999979 -0.84139629471617317 2.2750000000000004 0.0043020000000000011
decision_type=2 2 2 2 2 2 2 2 2 2 2 2 2 2 2 2 2 2 2 2 2 2 2 2 2 2 2 2 2 2
left_child=5 -2 4 22 13 -1 11 9 19 10 -8 -7 17 14 -3 25 -17 -13 -12 -9 -21 -22 24 -24 -4 -16 -27 28 -28 -29
right_child=1 2 3 -5 -6 6 7 8 -10 -11 18 12 -14 -15 15 16 -18 -19 -20 20 21 -23 23 -25 -26 26 27 29 -30 -31
leaf_value=-0.040477960336516343 -0.014846506348572696 -0.015228443417895155 -0.013899316708218829 0.029840463080249756 -0.024130159363342514 -0.01536772059256066 0.024637528820192968 0.041673250040670337 -0.027783200867437671 0.01632253877864908 -0.014167274347327122 0.00073929592140468796 -0.0079123307393274313 0.041110509041423438 -0.016322545393817355 0.014319855404688562 -0.039515738254600703 0.039149160180810341 -0.041846066153038548 -0.022280202026723577 0.037726595553877293 -0.0041945745378475421 -0.02652235310579084 0.0075724235536859192 0.036518572689627916 0.035086703288061842 -0.013860152835282337 0.012834744594893401 0.033971250482514127 -0.0091952111010244909
leaf_weight=4.465053752064704 21.387222290039062 7.2101301252841941 3.714703023433688 4.7309438139200202 4.9515735805034629 7.2145676314830807 3.9803133904933921 4.9819730371236863 6.6848276555538169 6.4723686128854743 55.152707397937775 5.4807909429073396 7.2262455075979224 6.4894283860921851 4.4852837324142447 3.9891975373029709 3.9727413058280936 11.473414212465284 7.8973743319511405 6.2165668159723362 6.9848971217870641 5.2187287956476212 16.84803402423859 5.7302978485822669 3.9890486150979996 13.964624360203741 4.2262842059135393 36.111285239458091 21.424838051199913 14.699515968561171
leaf_count=18 86 29 15 19 20 29 16 20 27 26 222 22 29 26 18 16 16 46 32 25 28 21 68 23 16 56 17 145 86 59
internal_value=0.000560425 0.00485311 0.00757151 -0.00452511 0.0110822 -0.0048947 -0.00366636 -0.00754278 0.00402567 -0.0123179 -0.0151483 0.0090122 0.0164432 0.012623 0.0108807 0.0127527 -0.0123271 0.0269854 -0.0177425 0.0133191 0.00530474 0.0196673 -0.0100733 -0.0177417 0.0119564 0.014899 0.0164971 0.0130214 0.0259508 0.00639703
internal_weight=317.375 177.925 156.538 35.013 121.525 139.45 134.985 103.59 30.087 73.5028 67.0304 31.395 24.1805 116.573 110.084 102.874 7.96194 16.9542 63.0501 23.4022 18.4202 12.2036 30.2821 22.5783 7.70375 94.9118 90.4265 76.4619 25.6511 50.8108
internal_count=1276 715 629 141 488 561 543 417 121 296 270 126 97 468 442 413 32 68 254 94 74 49 122 91 31 381 363 307 103 204
is_linear=0
shrinkage=0.03


Tree=9
num_leaves=31
num_cat=0
split_feature=24 38 36 0 2 2 28 16 18 33 24 6 0 27 40 18 29 41 41 0 40 2 18 0 18 18 22 1 37 3
split_gain=7.771 8.19844 10.4214 6.2433 11.9339 8.26588 10.026 8.3487 9.39412 7.82711 7.41116 6.74099 6.21573 6.09667 7.79285 6.18239 5.82584 5.54271 9.57735 6.95294 5.52246 5.28303 5.17032 5.02958 6.00575 5.69904 5.99439 5.73495 12.4444 8.76604
threshold=0.0080995000000000025 -6.9375639725219642 -3.1880286927911334 -0.40852106487649914 -1.957029627625789 0.65141912180052286 -0.0070499999999999998 2.7650000000000001 0.010000000000000011 0.0047428557901327282 0.0063685000000000009 91659.507899999633 -1.2555039677039523 0.046650000000000004 0.59601930092413602 0.099999999999999881 0.023900000000000001 -0.12995290077519575 0.69089831699862492 -0.092096445432071614 1.3674489768796356 1.940410191597808 -0.024999999999999908 -0.18644648561797481 -0.070000000000000048 0.044999999999999936 0.054999999999999945 0.16811906313225491 -0.1218688250172517 0.31934369547604874
decision_type=2 2 2 2 2 2 2 2 2 2 2 2 2 2 2 2 2 2 2 2 2 2 2 2 2 2 2 2 2 2
left_child=1 -1 -3 4 12 13 9 8 -8 -7 -6 -9 22 14 -5 23 -14 19 -19 -16 -2 -11 -4 -15 -25 26 27 29 -29 -26
right_child=20 2 3 5 10 6 7 11 -10 21 -12 -13 16 15 17 -17 -18 18 -20 -21 -22 -23 -24 24 25 -27 -28 28 -30 -31
leaf_value=0.038952710208257357 0.025207773981183037 -0.04650460856989861 0.025789496908373739 -0.034502125201492512 0.016752055971943628 0.02503400522650508 -0.006941305569505396 0.0040295472510575624 0.037862214695607348 -0.026925028190146832 -0.016263400517063473 -0.030320765911816372 -0.0072392665816827465 0.015893919549199078 -0.047536946811760017 -0.030403582898187599 -0.049522911394657594 0.045529787263721769 -0.01836636169972209 -0.0023767765029954089 -0.0057958170517887209 0.01906385648906932 -0.012708622509712199 0.022893750794354767 -0.0086352825664701097 0.015135842716549008 -0.04268777641420126 0.030803336744957263 -0.01697087140400675 -0.052866210365466904
leaf_weight=4.4841220378875724 18.186852633953098 4.4540096819400778 5.234117329120636 15.855966672301291 54.785319030284882 24.646909803152084 11.429338380694391 7.7218183726072338 6.4781630933284751 5.2174667418003065 6.7157452553510657 14.368736043572424 6.6998224109411222 12.443884432315825 4.7089385986328116 7.1955855935811988 5.4665412604808807 3.9853831827640551 4.2068052887916565 8.9335121959447843 6.9646105021238318 3.739075094461441 7.4613767862319964 6.2183001935482016 21.815088376402858 8.2091938853263837 4.9628150761127463 8.7140504121780413 10.91863678395748 4.9429389685392371
leaf_count=18 73 18 21 64 220 99 46 31 26 21 27 58 27 50 19 29 22 16 17 36 28 15 30 25 88 33 20 35 44 20
internal_value=0.000542732 -0.000827882 -0.00147203 -0.000736706 0.00596981 -0.00369785 0.00422487 -0.00586436 0.00922033 0.0163048 0.0130776 -0.0182143 -0.0114746 -0.00845836 -0.0185147 -0.0039696 -0.0267314 -0.00666373 0.0125306 -0.0184154 0.0165149 -0.00739635 0.00300649 -0.00146403 -0.00481234 -0.00778864 -0.0115339 -0.00805188 0.00413052 -0.0170841
internal_weight=317.165 292.014 287.53 283.076 86.3629 196.713 73.6015 39.9981 17.9075 33.6035 61.5011 22.0906 24.8619 123.111 37.6906 85.4205 12.1664 21.8346 8.19219 13.6425 25.1515 8.95654 12.6955 78.2249 65.781 59.5627 51.3535 46.3907 19.6327 26.758
internal_count=1276 1175 1157 1139 347 792 296 161 72 135 247 89 100 496 152 344 49 88 33 55 101 36 51 315 265 240 207 187 79 108
is_linear=0
shrinkage=0.03


Tree=10
num_leaves=31
num_cat=0
split_feature=18 33 32 25 29 35 38 18 4 9 38 9 9 41 38 32 6 5 38 37 9 17 3 18 35 7 9 7 41 16
split_gain=9.08156 9.26517 5.87143 6.76355 6.72929 6.40798 8.15447 6.43157 8.73942 9.02657 8.08236 7.85703 6.29202 6.21646 7.5208 7.60061 7.42683 9.48207 6.27961 10.1651 7.82236 8.96537 6.61014 6.26411 7.47648 6.39858 5.82391 5.54972 5.30676 4.95403
threshold=0.11000000000000011 -0.001062457523671456 0.088312594835358679 -0.006169 0.027800000000000005 -0.35987424637220483 -0.36136513537119991 0.054999999999999945 0.89207833466238295 710843.58119999722 0.27370585855122093 236542.44895000014 -163524.84819999893 -2.7354043015845413 -3.0253757692151937 1.4029048954107746 -1311353.897399999 -0.9694311135928112 0.74385359442804566 0.78136384604020626 447139.48584999825 1.0000000180025095e-35 -0.30984055863866317 -0.034999999999999913 -0.44934912226524121 161835.96664999615 25232.30345000001 816947.09574999998 0.99522068767073169 3.2850000000000006
decision_type=2 2 2 2 2 2 2 2 2 2 2 2 2 2 2 2 2 2 2 2 2 2 2 2 2 2 2 2 2 2
left_child=2 29 3 4 -1 6 -5 8 9 11 -9 27 -10 -4 15 -15 17 -16 19 20 21 23 -22 -18 -25 -26 -14 -7 -3 -2
right_child=1 28 13 5 -6 7 -8 10 12 -11 -12 -13 26 14 16 -17 18 -19 -20 -21 22 -23 -24 24 25 -27 -28 -29 -30 -31
leaf_value=0 -0.013359514765847774 -0.04547991148166064 -0.030860830459722932 -0.01106474241687843 0.045911122033674645 -0.0057880628825727155 0.029856076751676817 0.030704977662055648 -0.045146738946146771 0.02842406833294293 -0.020196629818837106 -0.030111331539329038 0.015523627752870908 -0.0072872820740740021 0.0071704287836222595 0.038996931686518251 0.026182380088842369 -0.044661362343883779 -0.0010152349920122036 0.041097555013701929 -0.022397920758708549 0.036068530940875532 0.015051477149737084 -0.02512860378587288 0.019202058089132192 -0.018263179872095799 -0.021513575720738441 0.028845048971622218 -0.0056759405705174475 0.030911304203581139
leaf_weight=7.2215928137302381 4.9617556333541888 9.4249214679002744 3.9559711813926688 7.7091899067163494 4.7386060059070587 29.78313972055912 9.715584382414816 7.7197850495576841 8.4462515264749509 6.9534733444452277 4.224466010928154 10.888895094394682 4.4660650640726116 4.2332965284585944 6.4767178595066071 11.45959724485874 10.713043645024291 5.9410620629787427 56.694868758320808 9.4669516086578351 11.645397499203684 12.44610223174095 6.4607679247856131 7.9612808078527371 14.937770888209362 5.4802458584308615 21.581135451793671 4.7322655022144309 4.7253500223159781 3.9756974279880524
leaf_count=29 20 38 16 31 19 120 39 31 34 28 17 44 18 17 26 46 43 24 228 38 47 50 26 32 60 22 87 19 19 16
internal_value=0.000591523 -0.0174756 0.00201604 -0.00280198 0.0185336 -0.00503745 0.0116206 -0.00801458 -0.0108724 -0.00306876 0.0124347 -0.00800955 -0.0225879 0.0057122 0.00663142 0.0263543 0.00450672 -0.0175466 0.00655672 0.0120154 0.00796595 0.0139413 -0.00886091 0.00674585 -0.000552177 0.00896008 -0.0150133 -0.00088338 -0.0325314 0.0061259
internal_weight=319.141 23.0877 296.054 128.18 11.9602 116.22 17.4248 98.7955 86.8512 52.3578 11.9443 45.4043 34.4935 167.873 163.917 15.6929 148.224 12.4178 135.806 79.1116 69.6446 51.5384 18.1062 39.0923 28.3793 20.418 26.0472 34.5154 14.1503 8.93745
internal_count=1284 93 1191 516 48 468 70 398 350 211 48 183 139 675 659 63 596 50 546 318 280 207 73 157 114 82 105 139 57 36
is_linear=0
shrinkage=0.03


Tree=11
num_leaves=31
num_cat=0
split_feature=18 33 13 32 36 16 37 5 39 25 2 18 7 7 38 32 39 37 5 7 24 24 5 33 5 16 13 32 1 13
split_gain=8.56709 8.75823 5.90135 5.53313 8.73923 6.35583 6.92681 5.91298 6.05053 6.79168 8.40958 5.91816 5.44261 8.64113 7.47553 5.42502 5.47203 5.81457 4.79396 6.24937 8.08393 7.64637 5.54551 5.24787 6.91082 5.51408 5.85007 5.21209 5.0677 4.89399
threshold=0.11000000000000011 -0.001062457523671456 -0.21900000000000006 0.091813412463291597 0.66886998248434371 2.8650000000000007 0.64656551262850537 3.3017904970856775 72.170825134968808 -0.006169 1.8639637795546562 0.054999999999999945 -1098072.0337999978 357698.9664500021 -0.26573114333607312 0.15386082609672652 22.472277870884529 -1.531395036316435 -0.22706900629193558 -879022.7104000015 0.0026255000000000007 -0.0039129999999999989 -0.46046437832549797 -1.5997290837056941 0.78872309142185582 2.5450000000000004 -0.39104999999999984 4.2343780522940628 -0.46525841500689719 -0.2165
decision_type=2 2 2 2 2 2 2 2 2 2 2 2 2 2 2 2 2 2 2 2 2 2 2 2 2 2 2 2 2 2
left_child=3 -2 -3 4 7 -6 -7 8 9 -1 11 12 14 -14 -11 -5 17 -17 19 20 21 -18 28 24 -20 27 -27 -25 -21 -30
right_child=1 2 -4 15 5 6 -8 -9 -10 10 -12 -13 13 -15 -16 16 18 -19 23 22 -22 -23 -24 25 -26 26 -28 -29 29 -31
leaf_value=0.025574675650293678 0.0059382553724332552 -0.0023664047187076111 -0.044783833234152269 0.025680972943273692 -0.036621324224706958 0.028323157914956466 -0.025119776284222014 0.031380415624195704 -0.03803079196499845 -0.0042108309617989456 0.029990196317601636 0.015839444207177103 -0.018100476775877467 0.0075983218109800313 0.045082315706684813 -0.0033077002207295976 -0.025266144006746344 0.03895053508634936 -0.0081911940191310359 0.03025098094361145 -0.025157301999789525 0.024016383960863998 0.046559937648286996 -0.0023553251735789031 0.03939220954857707 0.024358699266483652 -0.012842853930350191 0.031829939102467959 -0.023533358061387902 0.010859510418038874
leaf_weight=8.7192961871623975 8.9365936964750308 4.4729607105255118 9.6383406072854978 11.214285984635351 10.680758953094484 3.7339269965887052 4.947283998131752 5.2392681390047064 3.7226597368717185 9.6679847538471204 6.7340908944606772 10.951258227229117 45.322570607066162 15.643751099705694 3.7257251143455425 4.4639181196689606 3.7342353463172904 7.7243652045726758 4.9773698151111585 9.4546527564525586 9.2019773721694929 10.440870866179468 4.7373131513595572 11.436707124114038 5.7330211997032166 3.9739591479301373 50.096915438771255 5.9609031528234473 4.4845836907625189 19.179994136095051
leaf_count=35 36 18 39 45 43 15 20 21 15 39 27 44 183 63 15 18 15 31 20 38 37 42 19 46 23 16 202 24 18 77
internal_value=0.000573476 -0.0169899 -0.0316608 0.0019569 -0.00268975 -0.021221 -0.00173071 0.000569251 -0.000975544 0.000400034 -0.00197733 -0.00456798 -0.00763098 -0.0114555 0.00951119 0.0055701 0.00408586 0.0233285 0.00241445 0.00877183 -0.00331112 0.0107374 0.0163014 -0.00229104 0.0171304 -0.00526335 -0.0100134 0.00930101 0.0117558 0.00414401
internal_weight=318.952 23.0479 14.1113 295.904 129.089 19.362 8.68121 109.727 104.487 100.765 92.0454 85.3113 74.36 60.9663 13.3937 166.815 155.601 12.1883 143.413 61.2336 23.3771 14.1751 37.8565 82.1789 10.7104 71.4685 54.0709 17.3976 33.1192 23.6646
internal_count=1284 93 57 1191 520 78 35 442 421 406 371 344 300 246 54 671 626 49 577 246 94 57 152 331 43 288 218 70 133 95
is_linear=0
shrinkage=0.03


Tree=12
num_leaves=31
num_cat=0
split_feature=18 33 32 36 30 16 37 32 5 39 25 29 2 18 39 8 33 16 18 18 9 8 35 6 30 30 6 9 39 39
split_gain=8.08318 8.28846 5.20904 8.24579 6.26921 6.00528 6.53119 5.8477 5.5668 5.7219 6.39224 9.11886 7.9136 5.57086 5.39278 6.77231 8.6893 6.86209 7.8203 6.66692 6.66533 6.56846 6.63307 6.5293 6.4382 5.14628 4.94411 4.83487 4.90996 4.74949
threshold=0.11000000000000011 -0.001062457523671456 0.091813412463291597 0.66886998248434371 1.5351625961348747 2.8650000000000007 0.64656551262850537 0.15386082609672652 3.3017904970856775 72.170825134968808 -0.006169 0.013900000000000003 1.8639637795546562 0.054999999999999945 56.146591300053593 0.54358471355627114 -0.0054177274576287507 2.4450000000000007 -1.0000000180025095e-35 -0.024999999999999908 342578.5796499998 0.56847787044436127 -0.99073706957339402 203625.74295000246 1.084703926915529 1.1814990471148186 114343.73830000313 -257756.87144999948 27.392329919230516 46.384230091197516
decision_type=2 2 2 2 2 2 2 2 2 2 2 2 2 2 2 2 2 2 2 2 2 2 2 2 2 2 2 2 2 2
left_child=2 -2 3 8 7 26 -7 29 9 10 11 -1 13 -12 19 17 25 -16 24 20 27 22 -21 -22 -19 -17 -5 28 -9 -4
right_child=1 -3 4 5 -6 6 -8 14 -10 -11 12 -13 -14 -15 15 16 -18 18 -20 21 23 -23 -24 -25 -26 -27 -28 -29 -30 -31
leaf_value=-0.0044605922115703517 0.0057604466862611605 -0.030829893591673502 0.005923279045566561 -0.011492573678443951 -0.029171861309428029 0.027478549892606653 -0.024425639001090876 0.040026736354325972 0.030447395503318205 -0.037035085456959944 -0.0074055386447326689 0.055906877374382276 0.029082287219285793 0.015359155959153674 0.012831941791265887 0.052512604281500293 -0.012864509099335559 -0.00035140905300310056 -0.00016639107794918302 -0.018650776403978293 -0.028838487820862697 -0.030188988211773841 0.010080567299437909 0.016582547928995876 -0.04489923150508511 0.0066006447633529391 -0.053760630120916524 0.040840462233876038 0.0042516742414123645 0.047124503866487533
leaf_weight=4.4851390272378904 8.9391154348850268 14.064971968531607 4.9844445437192899 4.7139483839273471 4.461585894227027 3.736269459128378 4.938219279050827 4.9647180736064938 5.2408571988344184 3.7109255045652381 74.303564846515656 4.2342265546321869 6.739028111100196 10.957918539643286 8.7149488478898984 4.9868282228708249 6.4328557401895514 4.2293987125158301 12.935809224843981 8.4262723475694639 4.4656102359294874 4.9443439692258826 45.982972994446754 7.4648977369070053 10.442172259092329 4.2181610018014908 5.9408578276634216 11.939201176166536 11.676917806267737 5.4855224043130875
leaf_count=18 36 57 20 19 18 15 20 20 21 15 300 17 27 44 35 20 26 17 52 34 18 20 185 30 42 17 24 48 47 22
internal_value=0.000558671 -0.0165181 0.00190218 -0.00260771 0.00540842 -0.0206251 -0.00166923 0.00639491 0.000556376 -0.000942697 0.00039275 0.0248159 -0.00191382 -0.00443008 0.00486536 -0.00292603 0.0134442 -0.0100738 -0.0174331 0.00894813 0.0183265 0.00247651 0.0055499 -0.000267654 -0.0323498 0.032093 -0.0356199 0.0261667 0.015279 0.0280352
internal_weight=318.762 23.0041 295.758 129.001 166.757 19.3293 8.67449 162.295 109.672 104.431 100.72 8.71937 92.0005 85.2615 151.825 51.9602 15.6378 36.3223 27.6074 99.8649 40.5113 59.3536 54.4092 11.9305 14.6716 9.20499 10.6548 28.5808 16.6416 10.47
internal_count=1284 93 1191 520 671 78 35 653 442 421 406 35 371 344 611 209 63 146 111 402 163 239 219 48 59 37 43 115 67 42
is_linear=0
shrinkage=0.03


end of trees

feature_importances:
top_ls_chg_4h=22
liq_total_norm=19
oi_chg_2h=18
top_ls=18
ob_imbal_chg_4h=17
mom_8h=17
oi_accel=16
mom_4h=16
oi_chg_4h=15
funding_vel_4h=15
ob_imbal_chg_1h=15
cvd_f_accel=14
oi_chg_8h=13
funding=13
price_vs_bb=13
cvd_f_ratio_1h=12
oi_chg_1h=11
cvd_f_chg_1h=11
taker_ratio_chg_1h=11
liq_ratio_chg_1h=11
rsi_14=11
oi_range_1h=10
taker_imbalance_accel=10
cvd_f_chg_4h=8
glob_ls_chg_4h=8
ob_imbal=8
taker_ratio_chg_4h=7
mom_1h=6
vol_ratio=6
mom_2h=5
taker_ratio=3
top_ls_chg_1h=3
ob_bid_ask_ratio=3
glob_ls=2
glob_ls_chg_1h=1
liq_ratio=1
liq_cascade=1

parameters:
[boosting: gbdt]
[objective: binary]
[metric: binary_logloss]
[tree_learner: serial]
[device_type: cpu]
[data_sample_strategy: bagging]
[data: ]
[valid: ]
[num_iterations: 500]
[learning_rate: 0.03]
[num_leaves: 31]
[num_threads: 0]
[seed: 0]
[deterministic: 0]
[force_col_wise: 0]
[force_row_wise: 0]
[histogram_pool_size: -1]
[max_depth: -1]
[min_data_in_leaf: 15]
[min_sum_hessian_in_leaf: 0.001]
[bagging_fraction: 0.7]
[pos_bagging_fraction: 1]
[neg_bagging_fraction: 1]
[bagging_freq: 5]
[bagging_seed: 3]
[bagging_by_query: 0]
[feature_fraction: 0.7]
[feature_fraction_bynode: 1]
[feature_fraction_seed: 2]
[extra_trees: 0]
[extra_seed: 6]
[early_stopping_round: 0]
[early_stopping_min_delta: 0]
[first_metric_only: 0]
[max_delta_step: 0]
[lambda_l1: 0.1]
[lambda_l2: 0.1]
[linear_lambda: 0]
[min_gain_to_split: 0]
[drop_rate: 0.1]
[max_drop: 50]
[skip_drop: 0.5]
[xgboost_dart_mode: 0]
[uniform_drop: 0]
[drop_seed: 4]
[top_rate: 0.2]
[other_rate: 0.1]
[min_data_per_group: 100]
[max_cat_threshold: 32]
[cat_l2: 10]
[cat_smooth: 10]
[max_cat_to_onehot: 4]
[top_k: 20]
[monotone_constraints: ]
[monotone_constraints_method: basic]
[monotone_penalty: 0]
[feature_contri: ]
[forcedsplits_filename: ]
[refit_decay_rate: 0.9]
[cegb_tradeoff: 1]
[cegb_penalty_split: 0]
[cegb_penalty_feature_lazy: ]
[cegb_penalty_feature_coupled: ]
[path_smooth: 0]
[interaction_constraints: ]
[verbosity: -1]
[saved_feature_importance_type: 0]
[use_quantized_grad: 0]
[num_grad_quant_bins: 4]
[quant_train_renew_leaf: 0]
[stochastic_rounding: 1]
[linear_tree: 0]
[max_bin: 255]
[max_bin_by_feature: ]
[min_data_in_bin: 3]
[bin_construct_sample_cnt: 200000]
[data_random_seed: 1]
[is_enable_sparse: 1]
[enable_bundle: 1]
[use_missing: 1]
[zero_as_missing: 0]
[feature_pre_filter: 1]
[pre_partition: 0]
[two_round: 0]
[header: 0]
[label_column: ]
[weight_column: ]
[group_column: ]
[ignore_column: ]
[categorical_feature: ]
[forcedbins_filename: ]
[precise_float_parser: 0]
[parser_config_file: ]
[objective_seed: 5]
[num_class: 1]
[is_unbalance: 0]
[scale_pos_weight: 1]
[sigmoid: 1]
[boost_from_average: 1]
[reg_sqrt: 0]
[alpha: 0.9]
[fair_c: 1]
[poisson_max_delta_step: 0.7]
[tweedie_variance_power: 1.5]
[lambdarank_truncation_level: 30]
[lambdarank_norm: 1]
[label_gain: ]
[lambdarank_position_bias_regularization: 0]
[eval_at: ]
[multi_error_top_k: 1]
[auc_mu_weights: ]
[num_machines: 1]
[local_listen_port: 12400]
[time_out: 120]
[machine_list_filename: ]
[machines: ]
[gpu_platform_id: -1]
[gpu_device_id: -1]
[gpu_use_dp: 0]
[num_gpu: 1]

end of parameters

pandas_categorical:null
