tree
version=v4
num_class=1
num_tree_per_iteration=1
label_index=0
max_feature_idx=44
objective=binary sigmoid:1
feature_names=oi_chg_1h oi_chg_2h oi_chg_4h oi_chg_8h oi_range_1h oi_accel cvd_f_chg_1h cvd_f_chg_4h cvd_f_ratio_1h cvd_f_accel cvd_f_vs_spot taker_ratio taker_ratio_chg_1h taker_ratio_chg_4h taker_buy_dom taker_imbalance_accel top_ls top_ls_chg_1h top_ls_chg_4h top_ls_extreme glob_ls glob_ls_chg_1h glob_ls_chg_4h glob_ls_extreme funding funding_vel_4h funding_extreme ob_imbal ob_imbal_chg_1h ob_imbal_chg_4h ob_bid_ask_ratio liq_ratio liq_total_norm liq_ratio_chg_1h liq_cascade mom_1h mom_2h mom_4h mom_8h rsi_14 vol_ratio price_vs_bb div_oi_price div_cvd_price div_taker_price
feature_infos=[-5.3914003846463938:6.9306722191539549] [-10.361553394566103:10.224668492354327] [-9.7107564011910341:10.667772955047038] [-10.766876682376624:11.329497879892081] [0:12.620086713451805] [-10.257050498309518:7.5512010692541205] [-3747379.3876999989:51918348.351899996] [-6709341.6184:51989077.246399999] [0.28136947156783926:0.70553255668524872] [-52007029.155299999:51888995.976899996] none [0.39150000000000001:2.3959999999999999] [-1.7363:1.4241000000000001] [-1.1758999999999999:1.6023999999999998] [0.28136947156783926:0.70553255668524872] [-2.8165999999999998:2.0918999999999999] [0.70999999999999996:1.6599999999999999] [-0.15000000000000013:0.1100000000000001] [-0.16000000000000014:0.14000000000000012] [0:1] [0.70999999999999996:2.04] [-0.20999999999999996:0.51000000000000001] [-0.26000000000000001:0.52000000000000002] [0:1] [-0.045602999999999998:0.0084069999999999995] [-0.032856000000000003:0.031786000000000002] [-1:0] [-0.2026:0.4667] [-0.38819999999999999:0.35699999999999998] [-0.51019999999999999:0.52769999999999995] [0.66301358055296655:2.7503927127923888] [-1:1] [0:2479.8575167477775] [-2:2] [0:1] [-4.7887323943661908:6.286549707602318] [-7.3605520414031123:8.6455331412103718] [-7.3239436619718212:8.8965915655690342] [-8.7966220971147031:8.6956521739130377] [4.5104468506938531:91.411354726295798] [0.076517861647408841:19.992426540201393] [-4.0344315785115743:3.5460353560066058] none [-1:1] [-1:1]
tree_sizes=3388 3438 3438 3399 3398 3444 3438 3424 3421 3422 3429 3414

Tree=0
num_leaves=31
num_cat=0
split_feature=33 33 40 14 7 5 0 21 27 33 32 36 7 28 5 39 13 18 9 39 35 28 27 27 33 27 28 1 33 14
split_gain=11.8101 10.7137 7.90725 7.61215 13.8322 15.9813 8.59846 8.51872 7.61182 7.57437 7.47684 6.78228 6.74411 6.72691 6.66554 6.32057 8.66653 6.73752 6.2137 10.029 9.35445 7.10777 11.1311 8.94818 8.49295 8.34358 9.4655 7.02786 13.9448 7.47398
threshold=1.7892959462771476 1.247085711775 1.6312696049951223 0.51202962428530441 258884.32015000007 0.92934967104928445 0.15445779016779462 -0.049999999999999926 0.11535000000000002 0.88434679480772316 1.3137464455688173 0.70669685562917428 -638445.87854999979 0.068050000000000013 1.0189533076209347 55.891093215121224 0.24355000000000013 -0.024999999999999908 -294556.7447999976 71.053621899519754 0.22979704634665812 -0.093899999999999997 0.071700000000000014 0.085250000000000006 0.054356546824972735 0.24980000000000005 0.039149999999999997 -0.064935828404577553 -0.75030341985616333 0.50154572561895694
decision_type=2 2 2 2 2 2 2 2 2 2 2 2 2 2 2 2 2 2 2 2 2 2 2 2 2 2 2 2 2 2
left_child=1 3 -2 7 5 9 -6 8 -1 15 -3 13 -7 -8 -13 17 -17 -5 20 21 -9 -20 24 -24 -23 27 -27 29 -29 -25
right_child=2 10 -4 4 6 12 11 18 -10 -11 -12 14 -14 -15 -16 16 -18 -19 19 -21 -22 22 23 25 -26 26 -28 28 -30 -31
leaf_value=-0.16457884454843566 -0.085793321245412488 -0.11433682826229435 -0.12558492228692569 -0.13376264505094507 -0.12166031022433781 -0.11515486868959803 -0.073193201309733336 -0.10900009095602985 -0.1096989172564245 -0.13717908458806508 -0.16502596096483813 -0.12051717961266456 -0.15742791320346661 -0.11742833378659982 -0.082285822323642691 -0.14348115558762758 -0.10514947061626102 -0.10337436749578631 -0.086663507977952914 -0.076208383744082453 -0.13930364494351735 -0.13659120774081457 -0.074479435937341465 -0.11868453659408071 -0.10215825153031009 -0.11890104820176876 -0.066532089571678971 -0.12344407187618933 -0.088125739868946382 -0.087045276049662682
leaf_weight=4.2372395247220975 26.669684067368511 5.2342370599508268 5.2342370599508277 7.4774815142154685 15.453461796045302 4.7357382923364666 14.705713644623758 47.357382923364639 4.7357382923364639 13.459466725587843 5.4834864437580109 12.462469190359117 13.957965493202208 3.7387407571077338 5.9819852113723746 11.963970422744753 9.2222272008657438 48.354380458593369 16.450459331274033 11.216222271323202 11.216222271323202 18.195205017924312 8.7237284332513791 57.078108891844749 9.7207259684801084 4.4864889085292807 9.2222272008657438 14.705713644623755 30.906923592090607 7.4774815142154685
leaf_count=17 107 21 21 30 62 19 59 190 19 54 22 50 56 15 24 48 37 194 66 45 45 73 35 229 39 18 37 59 124 30
internal_value=-0.110015 -0.111336 -0.0924446 -0.110564 -0.115666 -0.121751 -0.103032 -0.107352 -0.135866 -0.116474 -0.14082 -0.0951366 -0.146964 -0.0823149 -0.108199 -0.112785 -0.126712 -0.107534 -0.106293 -0.103631 -0.114792 -0.105404 -0.107356 -0.103714 -0.12451 -0.105823 -0.0838308 -0.108608 -0.0995833 -0.114944
internal_weight=459.865 427.961 31.9039 417.243 161.514 109.171 52.3424 255.73 8.97298 90.4775 10.7177 36.8889 18.6937 18.4445 18.4445 77.0181 21.1862 55.8319 246.757 188.183 58.5736 176.967 160.517 132.601 27.9159 123.877 13.7087 110.168 45.6126 64.5556
internal_count=1845 1717 128 1674 648 438 210 1026 36 363 43 148 75 74 74 309 85 224 990 755 235 710 644 532 112 497 55 442 183 259
is_linear=0
shrinkage=1


Tree=1
num_leaves=31
num_cat=0
split_feature=27 13 16 21 8 7 5 16 4 16 41 25 36 41 22 1 29 32 15 8 18 29 27 4 7 15 15 0 25 1
split_gain=8.79387 7.6922 8.45981 7.55867 7.46202 9.73933 10.5344 8.98674 8.78398 9.68598 8.35754 8.33533 7.90557 10.228 7.62857 8.59814 8.18997 7.35882 8.94713 8.70818 7.00817 6.88979 9.56676 7.39122 6.61253 6.60394 8.05856 6.48438 6.35993 6.9467
threshold=0.21985000000000002 0.24355000000000013 1.1850000000000003 -0.044999999999999922 0.51202962428530441 258884.32015000007 0.92934967104928445 1.1150000000000004 0.63546081146657063 0.95500000000000007 0.20082314873660281 -0.0029169999999999995 -0.18906023838029526 0.50565622757246065 0.049999999999999996 0.82510107796844878 -0.0040999999999999986 0.26011728297600645 0.21150000000000005 0.56559141403808821 -0.024999999999999908 0.045150000000000003 0.046050000000000008 0.71307278599481727 -143029.36605000027 0.30515000000000014 0.19375000000000006 -0.08293495984242337 0.0052605000000000004 0.52148023275342414
decision_type=2 2 2 2 2 2 2 2 2 2 2 2 2 2 2 2 2 2 2 2 2 2 2 2 2 2 2 2 2 2
left_child=3 20 -3 -1 7 6 17 10 -7 -10 14 -11 13 -12 15 25 -16 21 -19 24 -2 22 -6 -23 -20 26 -5 -14 29 -13
right_child=1 2 -4 4 5 8 -8 -9 9 11 12 28 27 -15 16 -17 -18 18 19 -21 -22 23 -24 -25 -26 -27 -28 -29 -30 -31
leaf_value=-0.023709922432076737 -0.013380329645021994 -0.039107781865842531 0.0079249476087303108 0.0067093547910490568 0.029473360045673247 -0.020581092606662854 -0.034409643520841464 -0.0039833627025463308 0.044214304063137262 0.032224959896370919 0.028602546907301671 -0.043252542584419046 0.041664107128420808 -0.029217667426761608 0.0022830799884359129 -0.038649944342973877 -0.054871105503809164 -0.034251941668318034 0.0057229998161752674 0.033778819163784925 0.018356146062100866 0.0030817507680037126 -0.012721513014367362 0.053274121405017513 -0.042430551821188461 0.029659487399097836 -0.038849217893800143 0.015052912585600228 0.026619616041284249 -0.00068685861700884413
leaf_weight=13.939066603779791 6.9795379787683478 5.4814932346343985 8.7240652292966825 38.134103044867516 5.4842517822980872 9.2214834392070753 15.663202822208403 113.40604884922504 6.7325955331325522 6.9812623411416999 4.487240254878996 4.9831005334854224 11.469212099909781 6.7284523993730545 4.4884921610355377 3.735503062605857 4.2367848008871061 16.43651477992535 5.231449916958808 4.2360732704401007 49.61677248775959 8.9697778373956663 34.879116833209991 3.7382926493883124 4.732724890112876 9.971195846796034 3.7373118102550498 31.917272970080376 4.2377298027276984 11.219784677028654
leaf_count=56 28 22 35 153 22 37 63 455 27 28 18 20 46 27 18 15 17 66 21 17 199 36 140 15 19 40 15 128 17 45
internal_value=-0.000308653 0.00940077 -0.0101604 -0.00208555 -0.00126777 -0.00666849 -0.0118512 0.00203931 0.00513576 0.0122065 0.00780716 0.00410691 0.0164284 -0.00577116 0.000425845 0.00457835 -0.025437 -0.00755835 -0.0192435 -0.00154374 0.0143727 -0.000732878 -0.0068556 0.0183816 -0.0170449 0.00781932 0.00248859 0.0222362 -0.00546057 -0.0141467
internal_weight=459.8 70.8019 14.2056 388.998 375.059 142.747 99.3714 232.312 43.376 34.1545 118.906 27.4219 54.6022 11.2157 64.3034 55.5781 8.72528 83.7082 30.6368 14.2002 56.5963 53.0714 40.3634 12.7081 9.96417 51.8426 41.8714 43.3865 20.4406 16.2029
internal_count=1845 284 57 1561 1505 573 399 932 174 137 477 110 219 45 258 223 35 336 123 57 227 213 162 51 40 208 168 174 82 65
is_linear=0
shrinkage=0.03


Tree=2
num_leaves=31
num_cat=0
split_feature=33 33 40 8 6 18 27 22 1 44 1 4 35 41 1 17 17 36 28 8 27 16 11 20 41 16 13 27 28 27
split_gain=10.9654 9.97573 7.34513 6.71473 8.99228 8.77789 7.64194 9.38291 8.51544 10.4297 8.50669 7.86235 7.89151 7.83457 7.78668 7.48558 7.44215 7.22595 7.80106 7.11489 7.0991 6.88188 6.84296 7.4547 7.29537 6.60558 8.33153 6.59052 8.87752 8.83533
threshold=1.7892959462771476 1.247085711775 1.6489185708503407 0.51202962428530441 89987.021750001717 0.039999999999999931 0.24980000000000005 -0.064999999999999933 -0.29229785311447037 1.0000000180025095e-35 0.33066693002142827 0.44637240910478942 0.081732747609808434 -0.60327236433271925 0.5769341024666087 -0.019999999999999959 -1.0000000180025095e-35 0.40885462437242343 0.039149999999999997 0.4597003755397378 0.11030000000000002 0.83500000000000008 1.1000500000000002 0.84500000000000008 0.52551001754068316 1.1850000000000003 0.060750000000000033 0.19055000000000002 -0.065849999999999978 0.26325000000000004
decision_type=2 2 2 2 2 2 2 2 2 2 2 2 2 2 2 2 2 2 2 2 2 2 2 2 2 2 2 2 2 2
left_child=1 3 -2 6 16 15 7 13 -9 11 -11 12 -10 20 -12 -6 -5 18 -8 -16 -1 -13 -18 -24 -25 -23 -27 28 -17 -29
right_child=2 -3 -4 4 5 -7 17 8 9 10 14 21 -14 -15 19 27 22 -19 -20 -21 -22 25 23 24 -26 26 -28 29 -30 -31
leaf_value=-0.029012509666068113 0.022664252137852448 -0.030065090099827291 -0.017253932318086959 0.013109547849195833 -0.030548866354379194 0.028808444621630916 -0.0042929076660896109 -0.0051055269273222598 0.0071417868367417738 -0.037884053258338851 0.028570192036478641 -0.011980933816059152 -0.031948736417356738 -0.043236379192655258 -0.031871408055192743 0.014051801892725809 -0.035801462035937821 -0.018311168291146682 0.036209172006045724 0.0081430485365047624 0.015626303781659256 0.025608859978176159 0.019371726455890605 -0.0059202388512080272 -0.053904610318939394 -0.0033717822817738293 0.045324674233827439 0.023973530439062384 -0.010604411997154185 -0.017382436850897989
leaf_weight=5.7214785218238848 27.20116721093655 10.687267139554022 4.7291056215763083 5.9746402353048316 8.4552899003028852 7.9734951555728903 5.7358864992857042 82.980177760124207 17.204795181751255 6.7262726873159435 6.2321887314319637 6.7306751608848563 6.2320814132690421 7.4648090898990622 7.4735361337661734 16.440071880817413 17.915922075510025 3.9885503947734824 15.2275093793869 8.2256878763437253 6.9771067947149277 47.641359567642212 5.4755743145942715 8.963914826512335 4.2257141768932334 17.445081189274791 3.7390383481979361 16.950848758220676 62.740095406770706 6.2259586304426184
leaf_count=23 109 43 19 24 34 32 23 333 69 27 25 27 25 30 30 66 72 16 61 33 28 191 22 36 17 70 15 68 252 25
internal_value=-0.000299803 -0.00157357 0.016623 -0.000829291 -0.00562503 -0.00135362 0.00218547 0.000463704 0.00235109 0.007222 -0.00863344 0.0118464 -0.00321686 -0.0190186 0.000332664 -0.00357499 -0.0174464 0.0179258 0.025017 -0.0107969 -0.00432131 0.0165566 -0.0225409 -0.00952976 -0.0218092 0.0194042 0.00525486 -0.00128987 -0.00543597 0.0127083
internal_weight=459.705 427.775 31.9303 417.088 161.342 118.786 255.746 230.794 210.631 127.651 28.6577 98.993 23.4369 20.1634 21.9314 110.812 42.5558 24.9519 20.9634 15.6992 12.6986 75.5562 36.5811 18.6652 13.1896 68.8255 21.1841 102.357 79.1802 23.1768
internal_count=1845 1717 128 1674 648 477 1026 926 845 512 115 397 94 81 88 445 171 100 84 63 51 303 147 75 53 276 85 411 318 93
is_linear=0
shrinkage=0.03


Tree=3
num_leaves=31
num_cat=0
split_feature=33 33 32 40 8 6 32 30 27 30 8 1 28 28 35 25 20 21 27 16 41 40 17 16 20 16 35 24 8 33
split_gain=10.3127 9.41536 7.01096 6.9327 6.31963 8.48289 12.8956 8.28576 9.75786 7.5917 8.56783 10.6806 10.3777 9.17668 7.96826 8.61904 7.91556 7.42799 6.97544 6.28814 6.21381 8.31102 6.20373 6.09598 11.5827 6.72744 6.49718 6.10683 6.37334 5.84262
threshold=1.7892959462771476 1.247085711775 1.3137464455688173 1.6312696049951223 0.51202962428530441 89987.021750001717 0.055270344120291928 1.4720739517875503 0.26325000000000004 1.4546817347504597 0.53033977443013769 -0.57229943533355632 -0.05099999999999999 -0.02204999999999999 0.31666447312069806 0.0024755000000000003 1.155 -0.049999999999999926 0.11535000000000002 1.2450000000000003 0.65603959095407893 0.4126429554195305 0.0099999999999999551 1.1150000000000004 0.96500000000000008 1.4550000000000003 0.36839198155393943 0.0049885000000000007 0.50742968892328666 -1.0349625339282535
decision_type=2 2 2 2 2 2 2 2 2 2 2 2 2 2 2 2 2 2 2 2 2 2 2 2 2 2 2 2 2 2
left_child=1 4 -3 -2 17 6 20 9 19 10 -7 -12 -13 -14 16 22 -15 18 -1 -9 21 -6 -16 24 26 29 -19 28 -26 -25
right_child=3 2 -4 -5 5 7 -8 8 -10 -11 11 12 13 14 15 -17 -18 23 -20 -21 -22 -23 -24 25 27 -27 -28 -29 -30 -31
leaf_value=-0.052225035412148395 0.022327388592580818 -0.0036106404180894138 -0.052801253443188402 -0.014941558426407197 -0.026143628867471503 0.020137123693469459 -0.039097850138636793 0.01166494566859654 -0.014388374571548096 -0.042322051913842848 -0.040010507943585356 0.01568702006998271 -0.035461525123261929 0.024312070422449393 -0.036473536592781984 0.017203914890324971 -0.02170816930472275 0.02957274626339923 0 0.048064025583242867 -0.024924302482005212 0.018136125583391168 0.0066884119484409647 -0.031649481322023526 -0.0018343256245369566 0.019502954295149696 -0.0039646798308135885 0.037836135818675475 0.034575287038262702 -0.0019541433093715564
leaf_weight=4.2006072402000409 26.723903045058254 5.2219721823930723 5.4391949027776718 5.222364053130149 5.2204758375883165 11.694594725966452 15.138010680675505 12.47579468786717 7.9631496071815482 4.7298012375831595 7.9534940719604483 18.445630118250847 10.446146637201307 12.197206303477289 12.674590423703199 5.2262905538082114 4.4797157794237128 26.700567379593849 4.7306267917156219 6.7363816648721686 8.9413805305957776 13.195261687040327 3.7347661405801764 6.2278515696525565 75.012876346707344 12.463849723339079 6.2337198704481116 3.9948234707117072 4.4901538789272299 111.66507638990879
leaf_count=17 107 21 22 21 21 47 61 50 32 19 32 74 42 49 51 21 18 107 19 27 36 53 15 25 301 50 25 16 18 448
internal_value=-0.000292913 -0.00152906 -0.0292433 0.0161137 -0.000806423 -0.00546077 -0.0169525 -0.00131262 0.0131718 -0.00565299 -0.00357519 -0.00732656 -0.00336021 -0.0106446 -0.00372533 -0.0157646 0.0117157 0.00211779 -0.0245695 0.0247657 -0.00449144 0.00534831 -0.0264872 0.00310531 0.00809486 -0.00133106 0.0231413 0.0021036 0.000225173 -0.00357376
internal_weight=459.58 427.634 10.6612 31.9463 416.973 161.253 42.4951 118.758 27.1753 91.5822 86.8524 75.1578 67.2043 48.7587 38.3126 21.6356 16.6769 255.72 8.93123 19.2122 27.3571 18.4157 16.4094 246.789 116.432 130.357 32.9343 83.4979 79.503 117.893
internal_count=1845 1717 43 128 1674 648 171 477 109 368 349 302 270 196 154 87 67 1026 36 77 110 74 66 990 467 523 132 335 319 473
is_linear=0
shrinkage=0.03


Tree=4
num_leaves=31
num_cat=0
split_feature=27 36 20 16 29 1 5 36 36 4 13 16 41 16 0 9 7 8 13 13 27 16 41 32 4 5 13 41 20 13
split_gain=7.6502 7.36892 7.34324 7.49873 5.86472 7.27933 6.79346 12.9005 11.3672 11.1181 9.04559 8.50118 8.35015 8.14431 8.12232 6.93766 6.91575 6.84224 8.45357 6.27636 8.88869 6.39999 6.01972 6.23618 6.62497 5.95386 5.84835 5.83397 7.29771 9.97173
threshold=0.21985000000000002 0.40600953454790206 0.96500000000000008 1.175 0.13360000000000002 -0.22061080809593345 1.0736073253386438 1.6118234776741571 0.81911300963924971 0.67435484096728404 0.14970000000000008 1.2050000000000003 1.8461798043870064 1.1850000000000003 0.42480525189003698 27225.428500000042 87908.569550000146 0.54456492715118687 -0.22925000000000009 0.099350000000000119 0.11030000000000002 0.83500000000000008 -0.27117987535453153 0.03450370430614929 0.9129437727538382 0.19775944274462168 -0.34704999999999991 -1.4170764199249704 0.8650000000000001 -0.27230000000000004
decision_type=2 2 2 2 2 2 2 2 2 2 2 2 2 2 2 2 2 2 2 2 2 2 2 2 2 2 2 2 2 2
left_child=4 -2 -3 -4 5 27 8 -8 9 14 11 15 -12 19 16 -10 17 18 -7 21 -21 -11 -15 -24 -25 -6 -23 28 -1 -30
right_child=1 2 3 -5 25 6 7 -9 10 13 12 -13 -14 22 -16 -17 -18 -19 -20 20 -22 26 23 24 -26 -27 -28 -29 29 -31
leaf_value=0.024693301583619823 0.014364233445741802 0.028653619275202259 -0.048337143050098078 -0.0017940786263399651 0.03646378600090612 0.022812552153437232 -0.028784806517185905 0.030829580420227723 -0.0047126520053103853 -0.0011531764966602178 -0.012483128651251823 -0.054693025502700825 0.029789551781133787 -0.02657817198586317 -0.032775115244230865 -0.047464900657459883 -0.010180339693163707 0.029581756867963965 -0.004361607900726633 -0.010459991970414676 0.027576105317093098 -0.00045408637333877469 0.036340685192018357 -0.033079909351847375 0.016776715132764363 -0.0033107328324846041 0.039002395876576633 -0.013050742861820241 -0.028280366203643065 0.0043588487537926596
leaf_weight=8.7265031486749631 53.134386479854584 3.7418169975280788 4.7248162478208533 9.2239983528852445 6.9777847379446012 13.72002327442169 15.645833253860475 3.9902417659759513 17.413988977670677 5.4717141687870017 9.694985434412958 5.7179902642965308 7.2181311696767798 6.2189754694700268 6.7113016545772544 4.226442575454711 32.133143320679665 9.9699270278215391 40.081060364842415 11.702076762914659 10.21116057038307 3.7387648373842266 4.7365827709436408 4.2239911854267103 5.227565661072731 6.2241170555353165 24.6898213326931 84.356698215007782 11.945735052227972 27.612223938107491
leaf_count=35 213 15 19 37 28 55 63 16 70 22 39 23 29 25 27 17 129 40 161 47 41 15 19 17 21 25 99 339 48 111
internal_value=-0.000285999 0.00876711 -0.00786166 -0.0180048 -0.0019456 -0.00264557 0.000431384 -0.0164237 0.00193497 0.00531621 -0.0116373 -0.0222917 0.00545061 0.0139903 -0.00110483 -0.0133802 0.00111201 0.00685604 0.00254199 0.0199162 0.00717259 0.0280202 -0.00208904 0.00854601 -0.00530366 0.0176024 0.0337247 -0.00829533 0 -0.00546837
internal_weight=459.412 70.825 17.6906 13.9488 388.587 375.385 242.744 19.6361 223.108 178.836 44.2715 27.3584 16.9131 76.2207 102.615 21.6404 95.9042 63.771 53.8011 55.8135 21.9132 33.9003 20.4071 14.1881 9.45156 13.2019 28.4286 132.641 48.2845 39.558
internal_count=1845 284 71 56 1561 1508 975 79 896 718 178 110 68 306 412 87 385 256 216 224 88 136 82 57 38 53 114 533 194 159
is_linear=0
shrinkage=0.03


Tree=5
num_leaves=31
num_cat=0
split_feature=36 38 32 24 27 35 28 22 3 36 29 11 36 40 31 1 12 35 1 38 3 3 3 36 16 36 24 35 18 22
split_gain=13.8056 12.8157 11.7166 9.68457 9.65875 8.83245 7.62356 8.47648 10.6399 9.35307 8.69836 9.1835 7.67525 8.12136 7.75277 7.22274 7.14713 9.04093 7.66762 7.75807 6.51018 6.33288 8.89958 6.37285 7.69938 6.14315 6.31403 5.97784 9.23794 6.10537
threshold=0.40600953454790206 0.99812119741725669 2.6768670825788812 -0.011043499999999999 0.2980000000000001 -1.0000000180025095e-35 -0.10964999999999998 0.034999999999999927 0.64293470281887599 0.16427173986371948 0.02810000000000001 0.83160000000000012 0.13477113427526891 1.0013291019204695 0.99729861157723909 -0.68895381610452044 0.44214999999999999 -0.064291524347703785 -0.7646064815578778 0.62044375153379472 0.070527425608446506 0.16259351707623718 -0.16725714297646796 -0.38066505532466927 1.1850000000000003 0.45076469139733183 0.0046475000000000015 -0.1380752021321818 0.014999999999999904 -0.019999999999999848
decision_type=2 2 2 2 2 2 2 2 2 2 2 2 2 2 2 2 2 2 2 2 2 2 2 2 2 2 2 2 2 2
left_child=1 4 25 -4 6 -6 -1 9 10 12 11 -9 13 16 -15 -16 17 21 -19 -20 -5 22 23 -8 -25 -2 -27 -3 29 -29
right_child=2 27 3 20 5 -7 7 8 -10 -11 -12 -13 -14 14 15 -17 -18 18 19 -21 -22 -23 -24 24 -26 26 -28 28 -30 -31
leaf_value=0.017832576023330885 -0.041419551339571072 0.030599395710005882 -0.037710215173739521 0.047038437034379404 0.054284226293711192 -0.00020403393550834473 0.011878446357961672 0.032170931352316155 0.028095236156644256 0.016445865911279441 -0.039814165002898444 -0.018348278439554801 -0.030997646369041534 -0.01812784690216767 -0.011527194071480206 0.013189486699189372 -0.019335630335122551 -0.017167458716304859 0.033537201837250986 -0.0088649843181590783 0.007091192010527719 -0.017270590639974475 0.04104886292869999 0.002484083892876411 -0.039737891062163098 -0.014038418000289972 0.011145120244112948 -0.030395725450554689 0.035334882164822105 0.0073348134388161734
leaf_weight=20.690471678972244 6.4615957438945761 19.944320514798164 3.7206929922103873 4.2344911098480251 5.7452980130910873 4.738127261400221 21.681043282151215 3.9850289374589982 4.4855954051017752 30.887810617685318 12.699198231101034 15.16886457800865 7.4476111084222785 33.818455770611763 20.667479023337364 21.676632195711136 9.1870788782834989 3.9752993434667614 23.420441716909412 4.4807481765747061 26.6302749812603 12.952272683382033 5.7304531186819139 10.464951887726786 5.964938059449195 74.640983879566193 9.9707822799682599 4.7267147749662426 8.9710116237401945 19.150952368974686
leaf_count=83 26 80 15 17 23 19 87 16 18 124 51 61 30 136 83 87 37 16 94 18 107 52 23 42 24 300 40 19 36 77
internal_value=0.000854402 0.00406027 -0.00760524 0.00718912 0.00148854 0.0296048 0.000372644 -0.00107449 -0.0144488 0.00120575 -0.0206029 -0.00756928 -0.00137939 -7.75036e-05 -0.00743532 0.00105626 0.00562023 0.00825856 0.0210229 0.0266132 0.0128028 0.00101724 0.00651538 0.00115049 -0.012811 -0.0132581 -0.0110257 0.0176083 0.00956074 -0.000104654
internal_weight=458.32 332.661 125.659 34.5855 279.868 10.4834 269.384 248.694 36.3387 212.355 31.8531 19.1539 181.467 174.02 76.1626 42.3441 97.8572 88.6701 31.8765 27.9012 30.8648 56.7937 43.8414 38.1109 16.4299 91.0734 84.6118 52.793 32.8487 23.8777
internal_count=1841 1336 505 139 1124 42 1082 999 146 853 128 77 729 699 306 170 393 356 128 112 124 228 176 153 66 366 340 212 132 96
is_linear=0
shrinkage=0.03


Tree=6
num_leaves=31
num_cat=0
split_feature=36 37 32 13 24 2 27 2 22 13 24 3 44 37 16 11 39 27 12 27 4 41 24 39 36 24 25 13 29 21
split_gain=12.9962 15.3201 11.0388 13.0813 9.58113 9.8267 9.49205 6.96363 7.73101 6.33093 8.08233 7.82855 7.33262 7.24589 6.82979 7.22242 12.0355 6.52077 6.447 7.42946 6.09491 6.90195 6.40233 6.38929 5.81491 5.95013 6.2692 5.98328 5.6955 7.01066
threshold=0.40600953454790206 0.24301340559977905 2.6768670825788812 -0.17410000000000012 -0.00052399999999999983 0.11240722915979441 0.25165000000000004 0.13578329911961842 -1.0000000180025095e-35 -0.011850000000000025 -0.0039939999999999993 1.4423514429542041 -1.0000000180025095e-35 -1.9069154810453235 1.1850000000000003 1.2012000000000003 28.06572599057807 0.2980000000000001 0.41775000000000001 0.068200000000000024 0.45145324329247677 -0.36115312326377585 0.0048990000000000014 63.520074992074896 0.45076469139733183 0.0046475000000000015 -0.0029769999999999992 0.15944999999999995 0.068400000000000002 0.0099999999999999551
decision_type=2 2 2 2 2 2 2 2 2 2 2 2 2 2 2 2 2 2 2 2 2 2 2 2 2 2 2 2 2 2
left_child=1 9 24 -4 7 -6 20 -3 -9 11 14 12 -1 -12 15 16 -11 28 19 -15 -7 -22 -23 -24 -2 26 27 -26 29 -14
right_child=2 4 3 -5 5 6 -8 8 -10 10 13 -13 17 18 -16 -17 -18 -19 -20 -21 21 22 23 -25 25 -27 -28 -29 -30 -31
leaf_value=0.037986968715371473 -0.040320434468393465 0.060407130041523829 -0.024535860313513898 0.017723330472925306 -0.039081365446241793 -0.017492113205672233 0.051712261167236019 0.004556330346257651 0.032538482782513305 0.020014343272230017 0.03879332118130651 0.035161821080303045 0.0077282525954108826 -0.024670972501061393 -0.045461681922244625 0.017659488795716952 -0.033314534217433224 0.037209471560113817 -0.018504564498209912 0.006743065904365346 0.043055356699612871 -0.0041544902603723021 -0.00054148667296683025 0.052156730486056971 0.016028171829233991 0.010809339454857972 -0.018648343597046022 -0.018114658694001199 -0.013393255683817657 -0.011992524381365556
leaf_weight=4.9808741807937613 6.4416237324476233 4.4887213706970206 8.6952382177114469 25.894663423299789 3.9738535583019248 8.4669769257307035 4.2469170540571204 15.939157292246817 20.917183816432953 4.9830248653888765 3.9856918752193442 6.9865597635507575 70.234041109681129 7.7088183909654608 6.4503615498542777 5.972171261906623 14.658803045749663 4.2466653138399115 16.890288457274437 50.290501967072487 4.9873874038457826 19.910996973514564 3.7396503686904898 4.2454711943864822 10.690442860126497 9.9751362651586515 55.928367465734482 7.9563681483268729 23.413758888840675 20.909829050302505
leaf_count=20 26 18 35 104 16 34 17 64 84 20 16 28 282 31 26 24 59 17 68 202 20 80 15 17 43 40 225 32 94 84
internal_value=0.000828884 0.00393911 -0.00738186 0.00697359 0.0144296 0.00543962 0.00946235 0.0250968 0.0205634 0 -0.00527985 0.00445928 0.00267519 -7.29975e-05 -0.0179549 -0.0107614 -0.0196005 0.00113881 -0.00223048 0.00248084 0.00493639 0.0108378 0.00483749 0.0274042 -0.0128736 -0.0107019 -0.01363 0.0012809 -0.000203453 0.00316293
internal_weight=458.21 332.628 125.582 34.5899 90.9163 49.5713 45.5974 41.3451 36.8563 241.711 110.94 130.772 123.785 78.8753 32.0644 25.614 19.6418 118.804 74.8896 57.9993 41.3505 32.8835 27.8961 7.98512 90.9919 84.5503 74.5752 18.6468 114.558 91.1439
internal_count=1841 1336 505 139 365 199 183 166 148 971 446 525 497 317 129 103 79 477 301 233 166 132 112 32 366 340 300 75 460 366
is_linear=0
shrinkage=0.03


Tree=7
num_leaves=31
num_cat=0
split_feature=35 13 15 27 31 3 9 1 28 33 33 4 27 37 35 33 28 28 28 3 33 15 4 4 1 3 3 27 15 25
split_gain=7.93718 9.22667 7.67563 6.46972 9.62969 8.036 8.34594 7.26134 6.73575 6.21548 9.53478 6.02145 4.98422 8.58645 8.09567 4.98038 4.84113 8.38273 8.01602 7.44222 7.20122 7.95331 7.47651 6.38089 6.12505 7.84398 5.68231 5.52894 5.3993 7.02547
threshold=0.52822719524263662 -0.21544999999999995 -0.36444999999999989 0.2980000000000001 0.95865059627834004 0.80974259062787113 739305.21105000109 0.92512558443943471 -0.14644999999999997 -0.039259020122388404 0.010406231280802982 1.3646100763244131 0.16635000000000003 0.67562632756692509 0.61438689755324305 0.4689737592847682 -0.02204999999999999 -0.054800000000000001 -0.058149999999999986 0.52184421319624319 0.0058444646951969501 0.28919999999999996 0.45145324329247677 0.69516339279940287 -0.8319414296748483 -0.86142399345211496 -1.381731188376095 0.21150000000000005 -0.75304999999999989 -0.00080799999999999937
decision_type=2 2 2 2 2 2 2 2 2 2 2 2 2 2 2 2 2 2 2 2 2 2 2 2 2 2 2 2 2 2
left_child=3 -2 -3 5 -5 6 8 -7 15 -9 -11 12 14 -14 -4 -1 17 18 -10 20 26 22 -22 -21 25 -24 -18 -23 -28 -30
right_child=1 2 11 4 -6 7 -8 9 16 10 -12 -13 13 -15 -16 -17 19 -19 -20 23 21 27 24 -25 -26 -27 28 -29 29 -31
leaf_value=0.038965220759956384 -0.037171553145686403 0.019391838859602644 0 -0.0033183982553374493 0.048757592535089218 0.012938059973398527 -0.02876223148598327 -0.039997107137844726 -0.0016099484408835817 0.039057662215508153 -0.018138580598840444 0.0049375546676392905 -0.028190142732796571 0.021998998817535774 -0.037087858260011652 -0.00042908428441248167 -0.012124200006864339 -0.01664942389373707 0.04374567702365216 -0.034633694481473576 -0.029737339764948394 0.039195945254392822 0.014582220065007982 0.004616488987102825 0.018087664000388717 -0.040189547389313816 -0.024098623417570818 -0.0013774660343552644 -0.0049520281819960188 0.014148171405616375
leaf_weight=6.7378752380609495 8.6766721010208112 10.194932654500006 7.9500720202922848 5.9854221940040571 6.4909852147102356 80.202249377965927 9.1696092188358289 4.2219444364309302 39.075706794857979 3.9836891293525678 7.2031542956829071 18.396425515413284 5.4706684052944166 6.7232320308685303 15.120117858052252 4.7393648624420166 28.366064727306366 40.026486128568649 3.7437079995870581 8.6951170414686185 4.7244587391614905 12.953405916690828 4.9763881266117096 6.2226416170597068 24.156899064779282 4.2269065082073194 5.7172223776578894 3.7415611594915381 30.118389159440987 40.0618453770876
leaf_count=27 35 41 32 24 26 322 37 17 157 16 29 74 22 27 61 19 114 161 15 35 19 52 20 25 97 17 23 15 121 161
internal_value=0.000805482 -0.00828254 -0.00425822 0.0025247 0.0237084 0.00180205 -0.000773394 0.00930008 0.000182412 -0.00940336 0.00212907 -0.008835 -0.0160983 -0.000319969 -0.0242712 0.0225756 -0.000815107 -0.00678765 0.00237829 0.00201425 0.0039337 0.0127326 0.00503901 -0.0181398 0.0101278 -0.0104126 -0.00066825 0.0299702 0.00358416 0.0059131
internal_weight=458.073 72.5321 63.8554 385.541 12.4764 373.065 277.454 95.611 268.284 15.4088 11.1868 53.6605 35.2641 12.1939 23.0702 11.4772 256.807 82.8459 42.8194 173.961 159.043 54.7796 38.0847 14.9178 33.3602 9.20329 104.264 16.695 75.8975 70.1802
internal_count=1841 292 257 1549 50 1499 1115 384 1078 62 45 216 142 49 93 46 1032 333 172 699 639 220 153 60 134 37 419 67 305 282
is_linear=0
shrinkage=0.03


Tree=8
num_leaves=31
num_cat=0
split_feature=36 37 13 24 2 27 2 20 28 13 27 2 12 39 28 40 1 13 24 29 4 41 24 39 2 16 3 4 2 31
split_gain=11.9604 14.114 9.64227 8.9057 9.16249 8.82604 6.62704 6.97278 6.52553 7.87464 8.77039 7.2733 12.673 7.49416 6.52823 6.44274 6.30925 6.24406 5.96457 7.88727 5.77167 6.42797 5.98965 5.92525 5.75301 7.41558 5.65309 5.89822 5.52065 5.37075
threshold=0.40600953454790206 0.24301340559977905 -0.44674999999999987 -0.00052399999999999983 0.11240722915979441 0.25165000000000004 0.28401866492214772 1.0650000000000002 -0.10964999999999998 -0.011850000000000025 0.15370000000000003 -0.38478894045669837 0.16280000000000003 48.028915792638834 0.028600000000000004 0.4838078334612323 0.06009329563901878 0.69364999999999999 0.0046475000000000015 0.048850000000000011 0.45145324329247677 -0.36115312326377585 0.0048990000000000014 63.520074992074896 1.0702631674399223 1.0950000000000004 -2.9358606631334045 1.0677556455473749 0.32668817753152007 0.70959793609643751
decision_type=2 2 2 2 2 2 2 2 2 2 2 2 2 2 2 2 2 2 2 2 2 2 2 2 2 2 2 2 2 2
left_child=1 8 -2 6 -5 20 -3 15 -1 16 26 12 13 -12 -13 -8 28 18 -4 -20 -6 -22 29 -24 25 -17 -11 -28 -10 -23
right_child=2 3 17 4 5 -7 7 -9 9 10 11 14 -14 -15 -16 24 -18 -19 19 -21 21 22 23 -25 -26 -27 27 -29 -30 -31
leaf_value=0.016937201233769461 -0.044116600415908466 0.048760171585220155 -0.0095350120670755021 -0.037924147716970606 -0.017164692808562768 0.049792617644826426 -0.026565468256357434 0.035447654141780055 0.0021397745520022665 0.01527051303826475 0.026475274907900696 0.036725500548624758 -0.02998540713453178 -0.018795431407125876 -0.0012413343313196065 0.031667384946627325 0.019238007537586265 0.031129278314535019 0.020061610393812823 -0.024156501781123739 0.041480780086695382 -0.012916231267617626 -0.00044547597293815997 0.050276826820620908 0.045134398560324647 -0.014742683144079706 -0.013269442496463143 -0.040407022038511868 -0.033461034643368186 0.023278032620231912
leaf_weight=18.713020071387291 5.9522118568420401 7.9873149842023841 96.575869113206863 3.9574432820081702 8.4596543163061124 4.243940368294715 3.9860689938068417 12.715493842959402 96.091478824615479 4.9680431634187689 9.9580589681863803 8.4791288971900922 11.671733826398848 4.73078329861164 7.4719764143228522 5.2374047636985797 19.686038121581078 3.9874764531850806 14.187536746263506 4.7258328944444647 4.9944129735231355 15.16809371113778 3.7387618124485007 4.2457436472177505 4.2403556108474723 7.2184800058603287 47.16142600774765 8.6639275848865491 3.9833610802888861 4.7349058389663687
leaf_count=75 24 32 389 16 34 17 16 51 386 20 40 34 47 19 30 21 79 16 57 19 20 61 15 17 17 29 190 35 16 19
internal_value=0.000780118 0.0037637 -0.00710205 0.0138313 0.00515558 0.00903598 0.0241074 0.017994 -1.73804e-05 -0.00146139 -0.00754497 0.00288096 -0.0067076 0.0116637 0.0188569 0.00700012 0.00375301 -0.00519758 -0.00650363 0.00878623 0.00466964 0.010413 0.00461352 0.0264432 0.0153026 0.00462951 -0.0148434 -0.0175995 0.000660791 -0.00408234
internal_weight=457.936 332.507 125.429 90.9281 49.543 45.5855 41.3851 33.3978 241.579 222.866 103.105 42.3117 26.3606 14.6888 15.9511 20.6823 119.761 119.477 115.489 18.9134 41.3416 32.8819 27.8875 7.98451 16.6962 12.4559 60.7934 55.8254 100.075 19.903
internal_count=1841 1336 505 365 199 183 166 134 971 896 415 170 106 59 64 83 481 481 465 76 166 132 112 32 67 50 245 225 402 80
is_linear=0
shrinkage=0.03


Tree=9
num_leaves=31
num_cat=0
split_feature=36 37 32 13 40 31 28 13 27 44 28 39 0 3 2 12 39 21 28 35 12 36 3 36 0 16 40 16 3 2
split_gain=11.2654 13.3035 10.3369 11.9847 7.81299 8.57355 6.13966 7.41692 8.26497 7.15627 7.22075 8.88178 7.56887 11.0874 6.84406 11.9508 7.05401 6.57477 6.14167 6.11567 5.78477 5.50346 5.33418 5.32099 4.80161 4.99032 4.7637 5.8767 4.76018 8.41496
threshold=0.40600953454790206 0.24301340559977905 2.6768670825788812 -0.17410000000000012 0.36504287552326659 0.031121046109103167 -0.10964999999999998 -0.011850000000000025 0.15370000000000003 -1.0000000180025095e-35 0.046449999999999998 66.550262301290289 -0.31982300863856999 -0.68456525545405589 -0.38478894045669837 0.16280000000000003 48.028915792638834 0.029999999999999864 0.028600000000000004 0.11520771732432823 -0.62354999999999983 0.45076469139733183 -2.9358606631334045 -0.51936047735404711 -1.0000000180025095e-35 1.135 1.1386685352541985 1.0950000000000004 3.8827375347179398 1.7505080674060649
decision_type=2 2 2 2 2 2 2 2 2 2 2 2 2 2 2 2 2 2 2 2 2 2 2 2 2 2 2 2 2 2
left_child=1 6 21 -4 19 23 -1 9 22 -8 11 17 13 -12 15 16 -10 20 -16 -3 -11 -2 -9 -6 -7 -26 27 -25 29 -23
right_child=2 4 3 -5 5 24 7 8 14 10 12 -13 -14 -15 18 -17 -18 -19 -20 -21 -22 28 -24 26 25 -27 -28 -29 -30 -31
leaf_value=0.016423835730411725 -0.038993633408175549 -0.03057994475396433 -0.023231326043085167 0.017273336353178358 -0.024329347742426566 0.04045096081496341 0.037629100204530086 0.014807030598641182 0.025660145161090137 -0.038400789012055167 0.017839834777012089 0.039204083828824163 0.030170943839952242 -0.034027549439889997 0.03560210781952218 -0.029160922512947985 -0.01825815359975054 -0.037111050895665014 -0.0012046449116541397 0.01388226262165492 -0.00048293804722089817 -0.0079086786458243304 -0.017101957542802415 0.033515518053811907 0.031287550846410953 -0.0095230840600895109 -0.0030115245416796645 0.0081386083263776214 0.022356186279406061 -0.037143981031825229
leaf_weight=18.721981510519981 6.4062392711639395 5.9498718529939634 8.6590251773595792 25.898551255464554 3.7358977496623984 16.697904720902446 5.237208664417266 4.9728976488113394 9.9691547304391879 3.7288532257080069 10.964749589562418 4.2387852668762198 14.453675389289854 5.4778665155172375 8.4872943758964521 11.644911602139471 4.7268954664468756 5.2141980677843085 7.4716133475303641 4.9703889936208725 70.459656566381454 70.490555584430695 55.742167860269547 13.46453060209751 6.2375096976757032 4.4774610996246338 13.193287327885626 22.157996028661728 3.7300763279199591 10.160716846585272
leaf_count=75 26 24 35 104 15 67 21 20 40 15 44 17 58 22 34 47 19 21 30 20 283 284 225 54 25 18 53 89 15 41
internal_value=0.00075789 0.00365379 -0.00689449 0.00699985 0.0134306 0.016694 -1.70039e-05 -0.00141881 -0.00732714 0.00363963 0.00202783 -0.00252234 0.0144111 0.000277597 0.00279147 -0.00651439 0.0113034 -0.00483408 0.018283 -0.0101283 -0.00247827 -0.0122181 -0.0144191 0.00948523 0.0303198 0.0140263 0.0121788 0.0178815 -0.0101061 -0.0116704
internal_weight=457.742 332.397 125.345 34.5576 90.8848 79.9646 241.512 222.79 103.015 119.775 114.538 83.6415 30.8963 16.4426 42.2999 26.341 14.6961 79.4027 15.9589 10.9203 74.1885 90.7876 60.7151 52.5517 27.4129 10.715 48.8158 35.6225 84.3813 80.6513
internal_count=1841 1336 505 139 365 321 971 896 415 481 460 336 124 66 170 106 59 319 64 44 298 366 245 211 110 43 196 143 340 325
is_linear=0
shrinkage=0.03


Tree=10
num_leaves=31
num_cat=0
split_feature=27 24 20 25 0 8 3 6 31 6 28 38 18 5 0 41 38 38 36 40 3 9 37 36 7 9 24 37 15 24
split_gain=9.62909 8.36484 7.60697 7.73519 8.02257 7.48439 7.46508 9.00275 7.44817 7.33746 6.9404 11.389 6.92835 6.73617 6.10868 8.73659 9.41726 8.6453 8.57 8.05977 9.88184 7.32619 8.83212 7.17017 6.86389 6.58884 8.09857 6.75967 6.42473 6.14598
threshold=0.30685000000000007 0.0051495000000000004 1.1150000000000004 -0.006556499999999999 -0.035543679760891005 0.5352092400828582 1.7445665818614067 -33450.122100000262 0.91485877331630117 143211.36330000035 0.02775 -0.17351650413921502 -0.049999999999999926 -0.08784099734984728 0.23915990806936407 0.16566669994489627 0.077250007161067127 1.0586012855301921 0.47904382470118639 1.3681401433515428 0.83967705088794375 -172268.64119999946 0.19113933245704653 0.19639936637899649 -159313.16210000028 -142982.51630000069 0.0040580000000000008 -0.35727268828359965 -0.80799999999999983 -0.0021159999999999994
decision_type=2 2 2 2 2 2 2 2 2 2 2 2 2 2 2 2 2 2 2 2 2 2 2 2 2 2 2 2 2 2
left_child=1 2 12 4 -4 9 10 -8 -2 -5 -3 -12 -1 -7 17 16 18 21 23 -17 -21 22 28 24 -16 -23 29 -28 -14 -27
right_child=8 6 3 5 -6 13 7 -9 -10 -11 11 -13 14 -15 15 19 -18 -19 -20 20 -22 25 -24 -25 -26 26 27 -29 -30 -31
leaf_value=0.032531342740005915 -0.0010279101146295209 0.029838452815218991 -0.039881400225845208 -0.0020289423689929462 -0.00097056130197195395 -0.040269424721627846 0.020266579894951793 -0.034944184976091065 0.044947392061349518 0.039003535804964011 -0.039788784274789664 0.021731464864692046 -0.019380040011110274 -0.0088887513365869687 0.01583446890328025 -0.023503098734136557 0.034793796481072538 0.020310509050997582 -0.030193183679970204 0.037462798784564363 -0.016259849656975585 -0.034468632339974901 0.034219792898672455 0.044341719716622298 -0.027740154478019967 0.0040361199496872831 -0.0022326830321120769 0.044767352083411323 0.011585541916596035 -0.012640086241323342
leaf_weight=6.2277188897132865 5.2367265075445157 20.410160169005394 11.895094245672228 105.1253027766943 8.1920537799596769 8.1736493706703168 4.7423449158668518 5.7143299579620344 7.4669452607631683 3.9722340852022162 3.9801116585731506 7.9424142986536008 8.2046689838170987 26.042165964841843 7.7098226845264497 30.495269358158112 7.455202490091323 24.66714546084404 7.4245701879262915 4.9753126800060254 7.6844962537288666 5.7188896983861914 11.211479395627974 3.7360798716545096 5.4571359604597118 37.056900173425667 4.9775161147117615 5.7378737628459913 21.683719083666805 42.261040046811111
leaf_count=25 21 82 48 423 33 33 19 23 30 16 16 32 33 105 31 123 30 99 30 20 31 23 45 15 22 149 20 23 87 170
internal_value=0.00024366 -0.000481399 -0.00181818 -0.00682347 -0.0242446 -0.00434556 0.0121098 -0.00966585 0.0259011 -0.000473129 0.0192529 0.000784424 0.00154096 -0.0165681 0.000698654 -0.00635989 0.00549796 0.00399398 -0.00346263 -0.0151548 0.00474621 0.00101839 0.0116143 0.00821071 -0.00207217 -0.00350578 -0.00146969 0.0228387 0.00294885 -0.00481601
internal_weight=461.578 448.875 406.085 163.401 20.0871 143.313 42.7894 10.4567 12.7037 109.098 32.3327 11.9225 242.685 34.2158 236.457 74.9379 31.7828 161.519 24.3276 43.1551 12.6598 136.852 41.0999 16.903 13.167 95.7522 90.0333 10.7154 29.8884 79.3179
internal_count=1857 1806 1634 658 81 577 172 42 51 439 130 48 976 138 951 302 128 649 98 174 51 550 165 68 53 385 362 43 120 319
is_linear=0
shrinkage=0.03


Tree=11
num_leaves=31
num_cat=0
split_feature=30 31 24 3 8 20 43 25 11 7 16 13 38 41 38 30 37 7 18 16 33 35 35 5 35 12 13 30 31 12
split_gain=8.88828 10.8761 7.62491 6.85578 8.77823 6.59651 7.64344 7.07493 7.41016 8.46471 6.00268 8.75769 6.70378 9.04037 7.22998 5.66193 6.78153 7.28843 7.72724 5.58842 4.75015 4.6621 4.95386 4.70114 4.63805 4.34427 6.11617 4.17227 5.11478 6.69174
threshold=1.8469490572267382 0.91485877331630117 0.0051495000000000004 1.7445665818614067 0.48734108318418551 0.82500000000000007 1.0000000180025095e-35 -0.0091844999999999982 1.1887500000000002 -458673.04160000006 0.95500000000000007 0.34310000000000007 0.45028148929123774 1.6406153096620633 -0.14964511769507413 1.5694443767564452 0.75636723692171792 -202932.23634999988 0.0099999999999999551 1.0450000000000002 0.0058444646951969501 -0.13531898842189524 0.37425233571554145 0.19775944274462168 0.58696014739286773 0.59940000000000004 0.49620000000000009 1.0669588548286399 0.34614548945905033 0.16600000000000001
decision_type=2 2 2 2 2 2 2 2 2 2 2 2 2 2 2 2 2 2 2 2 2 2 2 2 2 2 2 2 2 2
left_child=2 -2 5 15 -5 6 25 19 -9 -10 11 -11 14 24 21 16 17 -4 -19 20 -7 -12 23 -23 -14 26 27 -1 29 -29
right_child=1 -3 3 4 -6 7 -8 8 9 10 12 -13 13 -15 -16 -17 -18 18 -20 -21 -22 22 -24 -25 -26 -27 -28 28 -30 -31
leaf_value=-0.011633506434863357 -0.0042839475236608584 0.045310927438506926 0.037622175624861004 0.022066191335690332 -0.034157135894810682 -0.017794136083702266 -0.019504236824197222 5.6410564197492027e-05 -0.04380824294860438 -0.01318252493944605 -0.039284360037410364 0.032382241782668658 0.029038238179212691 -0.024758835978893102 -0.046413340466445144 -0.0074992282180299102 0.057898052744352425 -0.016446323927231544 0.031077941922697208 -0.036612945886975508 0.021480222098405052 -0.015277022469468755 -0.027941649171385807 0.028052075485192379 -0.009724490879543109 0.04007209436752291 -0.028923733403669629 0.030154151098229776 0.0029466305064134719 -0.0053845632012979698
leaf_weight=6.7051403373479834 7.2276090532541266 8.447739362716673 8.973254546523096 4.2407954037189466 5.7041677981615067 9.6600454598665255 8.9405273199081403 238.83857472240925 6.4124718606472006 7.6958342343568784 4.2054369300603893 7.2180522531270981 8.2113018929958361 7.9223717004060736 8.1545693427324313 5.9782345145940772 4.484205722808837 7.6832253932952899 4.9792923629283905 9.8946118652820569 3.7261175215244284 3.7313682585954648 4.696211725473403 5.2207768857479095 3.9671054482460013 3.9699784219264975 3.6963676363229743 20.927960544824604 23.9139344394207 5.9562513977289191
leaf_count=27 29 34 36 17 23 39 36 961 26 31 17 29 33 32 33 24 18 31 20 40 15 15 19 21 16 16 15 84 96 24
internal_value=0.000236407 0.0223713 -0.000540181 0.0115931 -0.00990237 -0.00181389 0.0062528 -0.00363838 -0.00241205 -0.0111862 -0.00764309 0.00873899 -0.0130142 0 -0.0230403 0.0183563 0.0243944 0.017078 0.0021037 -0.0195638 -0.00656122 -0.0119988 -0.00314853 0.00969129 0.0161906 0.0098568 0.00778565 0.0102436 0.0132074 0.0221785
internal_weight=461.384 15.6753 445.708 42.0432 9.94496 403.665 74.1102 329.555 306.274 67.4355 61.023 14.9139 46.1091 20.1008 26.0084 32.0982 26.12 21.6358 12.6625 23.2808 13.3862 17.8538 13.6484 8.95215 12.1784 65.1696 61.1997 57.5033 50.7981 26.8842
internal_count=1857 63 1794 169 40 1625 298 1327 1233 272 246 60 186 81 105 129 105 87 51 94 54 72 55 36 49 262 246 231 204 108
is_linear=0
shrinkage=0.03


end of trees

feature_importances:
ob_imbal=25
taker_ratio_chg_4h=19
top_ls=19
mom_2h=19
ob_imbal_chg_1h=18
oi_chg_8h=16
liq_ratio_chg_1h=15
funding=14
oi_chg_2h=13
mom_1h=13
price_vs_bb=12
oi_range_1h=11
cvd_f_ratio_1h=10
oi_chg_4h=9
vol_ratio=9
cvd_f_chg_4h=8
glob_ls=8
liq_total_norm=8
mom_4h=8
rsi_14=8
oi_chg_1h=7
oi_accel=7
taker_ratio_chg_1h=7
taker_imbalance_accel=7
funding_vel_4h=7
liq_ratio=7
mom_8h=7
top_ls_chg_4h=6
ob_imbal_chg_4h=6
cvd_f_accel=5
glob_ls_chg_1h=5
glob_ls_chg_4h=5
ob_bid_ask_ratio=5
cvd_f_chg_1h=4
taker_ratio=4
top_ls_chg_1h=3
div_taker_price=3
taker_buy_dom=2
div_cvd_price=1

parameters:
[boosting: gbdt]
[objective: binary]
[metric: binary_logloss]
[tree_learner: serial]
[device_type: cpu]
[data_sample_strategy: bagging]
[data: ]
[valid: ]
[num_iterations: 500]
[learning_rate: 0.03]
[num_leaves: 31]
[num_threads: 0]
[seed: 0]
[deterministic: 0]
[force_col_wise: 0]
[force_row_wise: 0]
[histogram_pool_size: -1]
[max_depth: -1]
[min_data_in_leaf: 15]
[min_sum_hessian_in_leaf: 0.001]
[bagging_fraction: 0.7]
[pos_bagging_fraction: 1]
[neg_bagging_fraction: 1]
[bagging_freq: 5]
[bagging_seed: 3]
[bagging_by_query: 0]
[feature_fraction: 0.7]
[feature_fraction_bynode: 1]
[feature_fraction_seed: 2]
[extra_trees: 0]
[extra_seed: 6]
[early_stopping_round: 0]
[early_stopping_min_delta: 0]
[first_metric_only: 0]
[max_delta_step: 0]
[lambda_l1: 0.1]
[lambda_l2: 0.1]
[linear_lambda: 0]
[min_gain_to_split: 0]
[drop_rate: 0.1]
[max_drop: 50]
[skip_drop: 0.5]
[xgboost_dart_mode: 0]
[uniform_drop: 0]
[drop_seed: 4]
[top_rate: 0.2]
[other_rate: 0.1]
[min_data_per_group: 100]
[max_cat_threshold: 32]
[cat_l2: 10]
[cat_smooth: 10]
[max_cat_to_onehot: 4]
[top_k: 20]
[monotone_constraints: ]
[monotone_constraints_method: basic]
[monotone_penalty: 0]
[feature_contri: ]
[forcedsplits_filename: ]
[refit_decay_rate: 0.9]
[cegb_tradeoff: 1]
[cegb_penalty_split: 0]
[cegb_penalty_feature_lazy: ]
[cegb_penalty_feature_coupled: ]
[path_smooth: 0]
[interaction_constraints: ]
[verbosity: -1]
[saved_feature_importance_type: 0]
[use_quantized_grad: 0]
[num_grad_quant_bins: 4]
[quant_train_renew_leaf: 0]
[stochastic_rounding: 1]
[linear_tree: 0]
[max_bin: 255]
[max_bin_by_feature: ]
[min_data_in_bin: 3]
[bin_construct_sample_cnt: 200000]
[data_random_seed: 1]
[is_enable_sparse: 1]
[enable_bundle: 1]
[use_missing: 1]
[zero_as_missing: 0]
[feature_pre_filter: 1]
[pre_partition: 0]
[two_round: 0]
[header: 0]
[label_column: ]
[weight_column: ]
[group_column: ]
[ignore_column: ]
[categorical_feature: ]
[forcedbins_filename: ]
[precise_float_parser: 0]
[parser_config_file: ]
[objective_seed: 5]
[num_class: 1]
[is_unbalance: 0]
[scale_pos_weight: 1]
[sigmoid: 1]
[boost_from_average: 1]
[reg_sqrt: 0]
[alpha: 0.9]
[fair_c: 1]
[poisson_max_delta_step: 0.7]
[tweedie_variance_power: 1.5]
[lambdarank_truncation_level: 30]
[lambdarank_norm: 1]
[label_gain: ]
[lambdarank_position_bias_regularization: 0]
[eval_at: ]
[multi_error_top_k: 1]
[auc_mu_weights: ]
[num_machines: 1]
[local_listen_port: 12400]
[time_out: 120]
[machine_list_filename: ]
[machines: ]
[gpu_platform_id: -1]
[gpu_device_id: -1]
[gpu_use_dp: 0]
[num_gpu: 1]

end of parameters

pandas_categorical:null
